<Network id="994538" birthGen="2024" fitness="0.9990723784598079">
  <Nodes>
    <Node type="bias" id="0" fnId="0" />
    <Node type="in" id="1" fnId="0" />
    <Node type="in" id="2" fnId="0" />
    <Node type="out" id="3" fnId="0" />
    <Node type="out" id="4" fnId="0" />
    <Node type="out" id="5" fnId="0" />
    <Node type="out" id="6" fnId="0" />
    <Node type="out" id="7" fnId="0" />
    <Node type="out" id="8" fnId="0" />
    <Node type="out" id="9" fnId="0" />
    <Node type="out" id="10" fnId="0" />
    <Node type="out" id="11" fnId="0" />
    <Node type="out" id="12" fnId="0" />
    <Node type="out" id="13" fnId="0" />
    <Node type="out" id="14" fnId="0" />
    <Node type="out" id="15" fnId="0" />
    <Node type="out" id="16" fnId="0" />
    <Node type="out" id="17" fnId="0" />
    <Node type="out" id="18" fnId="0" />
    <Node type="out" id="19" fnId="0" />
    <Node type="out" id="20" fnId="0" />
    <Node type="out" id="21" fnId="0" />
    <Node type="out" id="22" fnId="0" />
    <Node type="out" id="23" fnId="0" />
    <Node type="out" id="24" fnId="0" />
    <Node type="out" id="25" fnId="0" />
    <Node type="out" id="26" fnId="0" />
    <Node type="out" id="27" fnId="0" />
    <Node type="out" id="28" fnId="0" />
    <Node type="out" id="29" fnId="0" />
    <Node type="out" id="30" fnId="0" />
    <Node type="hid" id="31" fnId="2" />
    <Node type="hid" id="113" fnId="1" />
    <Node type="hid" id="170" fnId="0" />
    <Node type="hid" id="785" fnId="3" />
    <Node type="hid" id="1748" fnId="1" />
    <Node type="hid" id="1870" fnId="0" />
    <Node type="hid" id="1887" fnId="1" />
    <Node type="hid" id="2397" fnId="0" />
    <Node type="hid" id="2492" fnId="2" />
    <Node type="hid" id="2558" fnId="3" />
    <Node type="hid" id="2750" fnId="1" />
    <Node type="hid" id="2799" fnId="2" />
    <Node type="hid" id="2976" fnId="3" />
    <Node type="hid" id="3006" fnId="0" />
    <Node type="hid" id="3148" fnId="1" />
    <Node type="hid" id="3173" fnId="1" />
    <Node type="hid" id="3263" fnId="3" />
    <Node type="hid" id="3466" fnId="0" />
    <Node type="hid" id="3618" fnId="1" />
    <Node type="hid" id="3647" fnId="2" />
    <Node type="hid" id="3713" fnId="3" />
    <Node type="hid" id="3751" fnId="3" />
    <Node type="hid" id="3778" fnId="0" />
    <Node type="hid" id="3832" fnId="2" />
    <Node type="hid" id="3854" fnId="1" />
    <Node type="hid" id="3994" fnId="2" />
    <Node type="hid" id="4485" fnId="2" />
    <Node type="hid" id="4496" fnId="0" />
    <Node type="hid" id="4747" fnId="3" />
    <Node type="hid" id="4992" fnId="3" />
    <Node type="hid" id="5077" fnId="1" />
    <Node type="hid" id="5158" fnId="1" />
    <Node type="hid" id="5472" fnId="3" />
    <Node type="hid" id="5522" fnId="2" />
    <Node type="hid" id="5785" fnId="0" />
    <Node type="hid" id="5960" fnId="1" />
    <Node type="hid" id="6020" fnId="0" />
    <Node type="hid" id="6063" fnId="1" />
    <Node type="hid" id="6232" fnId="0" />
    <Node type="hid" id="6299" fnId="1" />
  </Nodes>
  <Connections>
    <Con id="1" src="0" tgt="21" wght="1.3072269042022526" />
    <Con id="2" src="0" tgt="24" wght="-1.5502626875351908" />
    <Con id="4" src="1" tgt="31" wght="1.8479160962341357" />
    <Con id="5" src="2" tgt="31" wght="1.8538153296726436" />
    <Con id="6" src="31" tgt="21" wght="1.3406889110025853" />
    <Con id="7" src="31" tgt="24" wght="2.3043658370152116" />
    <Con id="8" src="31" tgt="27" wght="2.7893426096008302" />
    <Con id="9" src="1" tgt="3" wght="-1.5867398696781847" />
    <Con id="11" src="1" tgt="5" wght="3" />
    <Con id="12" src="1" tgt="6" wght="-1.7650191204716565" />
    <Con id="13" src="1" tgt="7" wght="0.75178645035179548" />
    <Con id="14" src="1" tgt="8" wght="-1.0165468549595453" />
    <Con id="15" src="1" tgt="9" wght="2.2742448292785498" />
    <Con id="16" src="1" tgt="10" wght="-0.264263548945767" />
    <Con id="17" src="1" tgt="11" wght="0.6783722071480609" />
    <Con id="18" src="1" tgt="12" wght="2.2181478471274958" />
    <Con id="19" src="1" tgt="13" wght="3" />
    <Con id="20" src="1" tgt="14" wght="-1.2241783579811454" />
    <Con id="21" src="1" tgt="15" wght="1.4246886561829459" />
    <Con id="22" src="1" tgt="16" wght="-0.65842983728871607" />
    <Con id="23" src="1" tgt="17" wght="-0.11116737557584039" />
    <Con id="24" src="1" tgt="18" wght="3" />
    <Con id="25" src="1" tgt="19" wght="3" />
    <Con id="26" src="1" tgt="20" wght="3" />
    <Con id="27" src="1" tgt="21" wght="2.908330373199572" />
    <Con id="28" src="1" tgt="22" wght="0.80303035281298651" />
    <Con id="29" src="1" tgt="23" wght="3" />
    <Con id="30" src="1" tgt="24" wght="-0.12550048587249615" />
    <Con id="31" src="1" tgt="25" wght="0.6781436162163752" />
    <Con id="33" src="1" tgt="27" wght="-0.63833186659800711" />
    <Con id="34" src="1" tgt="28" wght="-3" />
    <Con id="35" src="1" tgt="29" wght="-1.1429118844769379" />
    <Con id="36" src="1" tgt="30" wght="0.76867915533919373" />
    <Con id="37" src="2" tgt="3" wght="-0.69138382282108068" />
    <Con id="38" src="2" tgt="4" wght="-2.6873426676159151" />
    <Con id="39" src="2" tgt="5" wght="-2.0083699431372324" />
    <Con id="40" src="2" tgt="6" wght="-2.8959331885102677" />
    <Con id="42" src="2" tgt="8" wght="1.920046447112401" />
    <Con id="43" src="2" tgt="9" wght="-0.97488108960331532" />
    <Con id="44" src="2" tgt="10" wght="1.4783752640543317" />
    <Con id="45" src="2" tgt="11" wght="-1.9321989326604891" />
    <Con id="46" src="2" tgt="12" wght="2.6162400469764373" />
    <Con id="47" src="2" tgt="13" wght="1.7773214409293929" />
    <Con id="48" src="2" tgt="14" wght="1.5771346916728368" />
    <Con id="49" src="2" tgt="15" wght="0.16442952969687774" />
    <Con id="50" src="2" tgt="16" wght="-1.3783747822344175" />
    <Con id="51" src="2" tgt="17" wght="-0.0842007702000697" />
    <Con id="52" src="2" tgt="18" wght="3" />
    <Con id="53" src="2" tgt="19" wght="-2.0502375078684483" />
    <Con id="54" src="2" tgt="20" wght="1.9299800217853744" />
    <Con id="55" src="2" tgt="21" wght="-0.021063504542489248" />
    <Con id="56" src="2" tgt="22" wght="-2.1213570249305262" />
    <Con id="57" src="2" tgt="23" wght="-1.271012343983615" />
    <Con id="58" src="2" tgt="24" wght="0.14188783010467887" />
    <Con id="59" src="2" tgt="25" wght="1.1946987428741209" />
    <Con id="60" src="2" tgt="26" wght="1.4998183011727213" />
    <Con id="61" src="2" tgt="27" wght="0.24698244644738618" />
    <Con id="62" src="2" tgt="28" wght="-2.0189725620368311" />
    <Con id="63" src="2" tgt="29" wght="-1.1250947406115051" />
    <Con id="64" src="2" tgt="30" wght="2.692634428005932" />
    <Con id="65" src="0" tgt="3" wght="1.8635575301013887" />
    <Con id="66" src="0" tgt="4" wght="2.9853071461077993" />
    <Con id="67" src="0" tgt="5" wght="2.1956097754205066" />
    <Con id="69" src="0" tgt="7" wght="0.40504194127315124" />
    <Con id="70" src="0" tgt="8" wght="-1.6959415701073273" />
    <Con id="71" src="0" tgt="9" wght="1.7784482145143112" />
    <Con id="72" src="0" tgt="10" wght="1.2753717767875896" />
    <Con id="73" src="0" tgt="11" wght="-1.774046417292275" />
    <Con id="74" src="0" tgt="12" wght="3" />
    <Con id="75" src="0" tgt="13" wght="-2.2913362480125414" />
    <Con id="76" src="0" tgt="14" wght="-0.79542508392241451" />
    <Con id="77" src="0" tgt="15" wght="0.37470526144444039" />
    <Con id="78" src="0" tgt="16" wght="0.81301041193486068" />
    <Con id="79" src="0" tgt="17" wght="0.18804846836973038" />
    <Con id="80" src="0" tgt="18" wght="-3" />
    <Con id="81" src="0" tgt="19" wght="-1.6768932638765182" />
    <Con id="82" src="0" tgt="20" wght="2.9765831618099678" />
    <Con id="83" src="0" tgt="22" wght="-2.0404691772548116" />
    <Con id="84" src="0" tgt="23" wght="1.9992156030017496" />
    <Con id="85" src="0" tgt="25" wght="-2.3880325648370615" />
    <Con id="86" src="0" tgt="26" wght="2.7008429041905617" />
    <Con id="87" src="0" tgt="28" wght="2.3440415774019869" />
    <Con id="88" src="0" tgt="29" wght="1.5004862393181897" />
    <Con id="89" src="0" tgt="30" wght="-2.4039219112617674" />
    <Con id="94" src="31" tgt="28" wght="3" />
    <Con id="114" src="0" tgt="113" wght="1.347248516175902" />
    <Con id="115" src="113" tgt="6" wght="1.4326137364155926" />
    <Con id="131" src="113" tgt="19" wght="-0.88511846736570909" />
    <Con id="171" src="1" tgt="170" wght="0.024181389791066925" />
    <Con id="172" src="170" tgt="4" wght="1.7586137091513459" />
    <Con id="194" src="1" tgt="26" wght="0.042555346057872534" />
    <Con id="237" src="31" tgt="12" wght="2.399388252953242" />
    <Con id="277" src="170" tgt="25" wght="-0.783450841353602" />
    <Con id="284" src="170" tgt="3" wght="-0.595617017308698" />
    <Con id="356" src="113" tgt="4" wght="-1.0410531302914023" />
    <Con id="447" src="170" tgt="24" wght="2.0016647878000597" />
    <Con id="711" src="170" tgt="30" wght="0.73194072289843237" />
    <Con id="714" src="170" tgt="21" wght="2.177547221276035" />
    <Con id="786" src="0" tgt="785" wght="-1.0029139465517976" />
    <Con id="787" src="785" tgt="27" wght="1.936059132567026" />
    <Con id="1118" src="785" tgt="9" wght="0.597397549605058" />
    <Con id="1144" src="785" tgt="3" wght="-1.0771528292702952" />
    <Con id="1195" src="170" tgt="785" wght="1.9861623674184452" />
    <Con id="1406" src="170" tgt="14" wght="-1.1325287841218876" />
    <Con id="1749" src="2" tgt="1748" wght="-2.9988677007258531" />
    <Con id="1750" src="1748" tgt="7" wght="1.5357162111322082" />
    <Con id="1852" src="1748" tgt="23" wght="-1.7885908630833167" />
    <Con id="1854" src="1748" tgt="785" wght="0.39065529417016981" />
    <Con id="1871" src="1" tgt="1870" wght="2.2048387905331213" />
    <Con id="1872" src="1870" tgt="13" wght="1.2865586270560872" />
    <Con id="1888" src="0" tgt="1887" wght="0.015364848481062086" />
    <Con id="1889" src="1887" tgt="16" wght="2.4729660980841" />
    <Con id="1904" src="2" tgt="785" wght="0.96440424096831245" />
    <Con id="1920" src="1887" tgt="9" wght="2.0573742362882736" />
    <Con id="1927" src="1870" tgt="3" wght="1.0025530099677291" />
    <Con id="1964" src="1887" tgt="1748" wght="-1.113392292661862" />
    <Con id="2018" src="1870" tgt="10" wght="2.3850157723522343" />
    <Con id="2029" src="1870" tgt="16" wght="-0.068521727785509912" />
    <Con id="2172" src="113" tgt="1870" wght="-3" />
    <Con id="2235" src="113" tgt="12" wght="-3" />
    <Con id="2244" src="113" tgt="7" wght="-2.1165422550402582" />
    <Con id="2320" src="1887" tgt="14" wght="1.3051627112389426" />
    <Con id="2350" src="1748" tgt="24" wght="0.32921232794668825" />
    <Con id="2378" src="1887" tgt="5" wght="-2.3749300701734444" />
    <Con id="2398" src="1" tgt="2397" wght="2.9725824706397117" />
    <Con id="2399" src="2397" tgt="15" wght="1.3899366799971695" />
    <Con id="2471" src="31" tgt="20" wght="0.20709386858827161" />
    <Con id="2474" src="785" tgt="23" wght="-2.6358081926887564" />
    <Con id="2493" src="113" tgt="2492" wght="3" />
    <Con id="2494" src="2492" tgt="6" wght="2.5540283523165752" />
    <Con id="2517" src="1887" tgt="29" wght="-3" />
    <Con id="2518" src="1748" tgt="4" wght="-0.086055763456872714" />
    <Con id="2520" src="1748" tgt="6" wght="2.5494258916005492" />
    <Con id="2536" src="170" tgt="5" wght="-2.2725561938397294" />
    <Con id="2543" src="170" tgt="20" wght="1.3206629229510443" />
    <Con id="2559" src="1" tgt="2558" wght="2.4792509639075528" />
    <Con id="2560" src="2558" tgt="28" wght="3" />
    <Con id="2751" src="1" tgt="2750" wght="0.81386438079523526" />
    <Con id="2752" src="2750" tgt="13" wght="0.20929688327717638" />
    <Con id="2800" src="1" tgt="2799" wght="-2.1050950744225703" />
    <Con id="2801" src="2799" tgt="6" wght="-2.9883249439918234" />
    <Con id="2842" src="2492" tgt="14" wght="2.795493104727254" />
    <Con id="2857" src="2750" tgt="28" wght="0.980317538940868" />
    <Con id="2861" src="1748" tgt="1870" wght="-0.51834233054403667" />
    <Con id="2874" src="1870" tgt="23" wght="1.2512272420487378" />
    <Con id="2875" src="2750" tgt="2558" wght="2.0865690037850015" />
    <Con id="2878" src="1887" tgt="2397" wght="-0.74781541137613994" />
    <Con id="2890" src="785" tgt="30" wght="-1.0486459052190185" />
    <Con id="2891" src="2750" tgt="23" wght="-0.35633352157245368" />
    <Con id="2900" src="1887" tgt="1870" wght="-1.6417631319296666" />
    <Con id="2901" src="1748" tgt="26" wght="-2.99538461006073" />
    <Con id="2904" src="2558" tgt="2492" wght="-0.21118339560469113" />
    <Con id="2906" src="1748" tgt="20" wght="-1.6318148818570362" />
    <Con id="2907" src="170" tgt="17" wght="1.9332908531129178" />
    <Con id="2911" src="785" tgt="2492" wght="-1.4332396462736468" />
    <Con id="2915" src="1887" tgt="13" wght="2.9997389284909497" />
    <Con id="2922" src="1748" tgt="2558" wght="-0.72970679460453514" />
    <Con id="2927" src="2" tgt="2492" wght="-1.9191884653716809" />
    <Con id="2929" src="2750" tgt="16" wght="-0.68043651607185762" />
    <Con id="2932" src="31" tgt="7" wght="1.998743557633258" />
    <Con id="2933" src="1748" tgt="10" wght="-3" />
    <Con id="2934" src="1870" tgt="5" wght="-2.0178362515134403" />
    <Con id="2937" src="2397" tgt="21" wght="2.6004564976160403" />
    <Con id="2950" src="1870" tgt="26" wght="-2.8511026553108327" />
    <Con id="2967" src="1748" tgt="2492" wght="-1.0092360880225897" />
    <Con id="2969" src="170" tgt="19" wght="2.3716402154833149" />
    <Con id="2971" src="2799" tgt="7" wght="0.10278787974605388" />
    <Con id="2973" src="1870" tgt="11" wght="-0.091029138260644377" />
    <Con id="2977" src="2" tgt="2976" wght="-0.27679481293266345" />
    <Con id="2978" src="2976" tgt="26" wght="2.22770439344699" />
    <Con id="2981" src="1870" tgt="4" wght="-2.9790607612290989" />
    <Con id="3007" src="113" tgt="3006" wght="-1.991349459716556" />
    <Con id="3008" src="3006" tgt="6" wght="3" />
    <Con id="3022" src="1870" tgt="24" wght="0.33877280401065946" />
    <Con id="3027" src="2" tgt="7" wght="-2.3572075209222851" />
    <Con id="3029" src="2492" tgt="22" wght="0.31604001993654524" />
    <Con id="3050" src="785" tgt="12" wght="1.027362934386685" />
    <Con id="3051" src="1887" tgt="8" wght="-1.7729854144583463" />
    <Con id="3061" src="1870" tgt="9" wght="1.1684803209631698" />
    <Con id="3062" src="1887" tgt="11" wght="-0.82848024824531741" />
    <Con id="3063" src="1748" tgt="14" wght="-2.716803987476724" />
    <Con id="3065" src="2799" tgt="20" wght="-0.95238491473719478" />
    <Con id="3068" src="2558" tgt="29" wght="3" />
    <Con id="3069" src="2397" tgt="3" wght="0.60131519692003177" />
    <Con id="3073" src="170" tgt="2799" wght="-0.015514134845267757" />
    <Con id="3094" src="2397" tgt="2799" wght="-2.2444684832642161" />
    <Con id="3120" src="113" tgt="18" wght="-0.84726569089437942" />
    <Con id="3121" src="2750" tgt="6" wght="-0.6006595417480638" />
    <Con id="3141" src="2799" tgt="12" wght="-3" />
    <Con id="3149" src="1887" tgt="3148" wght="-0.96496575956776853" />
    <Con id="3150" src="3148" tgt="14" wght="1.2797020998323558" />
    <Con id="3166" src="31" tgt="29" wght="0.78678606411794549" />
    <Con id="3171" src="1748" tgt="5" wght="0.029471640646200115" />
    <Con id="3174" src="2" tgt="3173" wght="0.604638499566801" />
    <Con id="3175" src="3173" tgt="26" wght="1.5667362060533887" />
    <Con id="3176" src="785" tgt="14" wght="-1.7304644642638114" />
    <Con id="3188" src="2558" tgt="23" wght="1.2257775465860257" />
    <Con id="3198" src="2558" tgt="22" wght="1.71440847900508" />
    <Con id="3204" src="2558" tgt="12" wght="1.3762444842812209" />
    <Con id="3205" src="2799" tgt="24" wght="-0.16217389506313712" />
    <Con id="3207" src="31" tgt="26" wght="2.7385517436907572" />
    <Con id="3216" src="1870" tgt="28" wght="0.794508941649221" />
    <Con id="3217" src="2976" tgt="22" wght="-1.4480969037346798" />
    <Con id="3219" src="2492" tgt="11" wght="-1.6480898860543971" />
    <Con id="3221" src="2492" tgt="27" wght="-2.9590519615671935" />
    <Con id="3253" src="2558" tgt="14" wght="3" />
    <Con id="3259" src="2750" tgt="1870" wght="-1.6469461202237594" />
    <Con id="3264" src="1" tgt="3263" wght="0.98141169400755457" />
    <Con id="3265" src="3263" tgt="16" wght="-2.0453608422732019" />
    <Con id="3275" src="2397" tgt="29" wght="0.96018559811845083" />
    <Con id="3298" src="1" tgt="2976" wght="-2.797708220192666" />
    <Con id="3311" src="2397" tgt="6" wght="-1.0919857204338579" />
    <Con id="3327" src="170" tgt="16" wght="1.7084472455203799" />
    <Con id="3418" src="1870" tgt="29" wght="-0.63464471758151852" />
    <Con id="3420" src="2750" tgt="26" wght="1.69874575533722" />
    <Con id="3462" src="2750" tgt="15" wght="-2.8819872059470644" />
    <Con id="3468" src="3466" tgt="12" wght="1.47362404689634" />
    <Con id="3563" src="785" tgt="6" wght="-0.27293506519844435" />
    <Con id="3619" src="1" tgt="3618" wght="-0.56719996224747915" />
    <Con id="3620" src="3618" tgt="20" wght="1.1882812277983521" />
    <Con id="3648" src="2" tgt="3647" wght="-0.96119573940573066" />
    <Con id="3649" src="3647" tgt="1748" wght="-0.18230103588693339" />
    <Con id="3664" src="2750" tgt="3006" wght="-3" />
    <Con id="3665" src="3006" tgt="1748" wght="-0.53280462950652785" />
    <Con id="3675" src="31" tgt="1870" wght="0.35553806926384662" />
    <Con id="3688" src="2558" tgt="11" wght="-0.20714895159934765" />
    <Con id="3708" src="3006" tgt="2976" wght="-0.67833329816164745" />
    <Con id="3714" src="170" tgt="3713" wght="-3" />
    <Con id="3715" src="3713" tgt="30" wght="2.84812571165528" />
    <Con id="3752" src="113" tgt="3751" wght="-1.3077872377000404" />
    <Con id="3753" src="3751" tgt="4" wght="2.192297553782367" />
    <Con id="3761" src="3006" tgt="9" wght="-2.2240145982580026" />
    <Con id="3774" src="3713" tgt="3" wght="0.96134861118705894" />
    <Con id="3779" src="0" tgt="3778" wght="-2.9711520380414704" />
    <Con id="3780" src="3778" tgt="22" wght="3" />
    <Con id="3833" src="2" tgt="3832" wght="-2.1729803864078665" />
    <Con id="3834" src="3832" tgt="29" wght="1.949909047544008" />
    <Con id="3853" src="3713" tgt="16" wght="-1.4313718200293815" />
    <Con id="3855" src="2397" tgt="3854" wght="-1.9089926336891949" />
    <Con id="3856" src="3854" tgt="2799" wght="3" />
    <Con id="3886" src="2750" tgt="7" wght="-2.9685637388702584" />
    <Con id="3941" src="2976" tgt="25" wght="0.31064355270408028" />
    <Con id="3963" src="3466" tgt="3006" wght="-0.88504685889219947" />
    <Con id="3965" src="3148" tgt="3751" wght="0.59320873626237025" />
    <Con id="3984" src="113" tgt="3618" wght="-2.9534951191662517" />
    <Con id="3995" src="1" tgt="3994" wght="-1.4119768529990724" />
    <Con id="3996" src="3994" tgt="3466" wght="3" />
    <Con id="4233" src="31" tgt="3778" wght="-2.531864807009697" />
    <Con id="4240" src="785" tgt="3832" wght="-1.9151335875503719" />
    <Con id="4277" src="3994" tgt="6" wght="1.5973648326471448" />
    <Con id="4340" src="3751" tgt="23" wght="0.54677678294242948" />
    <Con id="4358" src="1" tgt="3173" wght="1.9497654112055898" />
    <Con id="4384" src="3713" tgt="21" wght="-1.8966079470701516" />
    <Con id="4453" src="170" tgt="3751" wght="-2.1702380175702274" />
    <Con id="4486" src="2" tgt="4485" wght="-2.1293274640089468" />
    <Con id="4487" src="4485" tgt="4" wght="3" />
    <Con id="4497" src="1" tgt="4496" wght="2.9796821849730626" />
    <Con id="4498" src="4496" tgt="15" wght="2.9128536036348023" />
    <Con id="4643" src="2558" tgt="3778" wght="-0.41811402525478675" />
    <Con id="4658" src="4496" tgt="3" wght="-0.86664819115475011" />
    <Con id="4661" src="1870" tgt="3832" wght="-0.048908017274770794" />
    <Con id="4694" src="170" tgt="3006" wght="-2.6589917168546156" />
    <Con id="4748" src="2" tgt="4747" wght="2.0534493003642216" />
    <Con id="4749" src="4747" tgt="17" wght="3" />
    <Con id="4800" src="3263" tgt="2492" wght="-0.61222572785467033" />
    <Con id="4993" src="1887" tgt="4992" wght="-0.12735398630962561" />
    <Con id="4994" src="4992" tgt="9" wght="1.7611329951323569" />
    <Con id="5078" src="2" tgt="5077" wght="0.12290856240623016" />
    <Con id="5079" src="5077" tgt="10" wght="0.0078252906659674881" />
    <Con id="5159" src="1748" tgt="5158" wght="-0.33683701148066131" />
    <Con id="5160" src="5158" tgt="2492" wght="1.7701391441110224" />
    <Con id="5473" src="31" tgt="5472" wght="-3" />
    <Con id="5474" src="5472" tgt="14" wght="1.9527000337762663" />
    <Con id="5523" src="2" tgt="5522" wght="-2.8396241031909328" />
    <Con id="5524" src="5522" tgt="4" wght="1.4437300723469446" />
    <Con id="5692" src="5522" tgt="3263" wght="1.4712230085367064" />
    <Con id="5786" src="113" tgt="5785" wght="0.85596812119418342" />
    <Con id="5787" src="5785" tgt="12" wght="2.6603911987575439" />
    <Con id="5798" src="3647" tgt="6" wght="-1.6721897962404815" />
    <Con id="5961" src="2" tgt="5960" wght="0.628013367969136" />
    <Con id="5962" src="5960" tgt="5077" wght="2.9989923070423958" />
    <Con id="6021" src="170" tgt="6020" wght="0.68507827472937355" />
    <Con id="6022" src="6020" tgt="3" wght="2.9658162751246615" />
    <Con id="6045" src="5077" tgt="29" wght="-2.6130563146434724" />
    <Con id="6064" src="2492" tgt="6063" wght="-1.2939173600607716" />
    <Con id="6107" src="5522" tgt="17" wght="0.97466015350073576" />
    <Con id="6175" src="5077" tgt="20" wght="-2.0115039115771651" />
    <Con id="6233" src="0" tgt="6232" wght="3" />
    <Con id="6234" src="6232" tgt="4" wght="3" />
    <Con id="6253" src="5960" tgt="5785" wght="0.29620745459936659" />
    <Con id="6300" src="1" tgt="6299" wght="-0.915668392546696" />
    <Con id="6301" src="6299" tgt="14" wght="2.9954819762067242" />
  </Connections>
</Network>