<Network id="107149" birthGen="210" fitness="0.99999916304814984">
  <Nodes>
    <Node type="bias" id="0" fnId="0" />
    <Node type="in" id="1" fnId="0" />
    <Node type="in" id="2" fnId="0" />
    <Node type="in" id="3" fnId="0" />
    <Node type="in" id="4" fnId="0" />
    <Node type="in" id="5" fnId="0" />
    <Node type="in" id="6" fnId="0" />
    <Node type="out" id="7" fnId="0" />
    <Node type="out" id="8" fnId="0" />
    <Node type="out" id="9" fnId="0" />
    <Node type="hid" id="10" fnId="2" />
    <Node type="hid" id="11" fnId="2" />
    <Node type="hid" id="38" fnId="0" />
    <Node type="hid" id="53" fnId="2" />
    <Node type="hid" id="132" fnId="1" />
    <Node type="hid" id="272" fnId="1" />
    <Node type="hid" id="689" fnId="1" />
    <Node type="hid" id="1022" fnId="1" />
    <Node type="hid" id="1029" fnId="1" />
    <Node type="hid" id="1081" fnId="0" />
    <Node type="hid" id="1117" fnId="3" />
    <Node type="hid" id="1136" fnId="3" />
    <Node type="hid" id="1292" fnId="0" />
    <Node type="hid" id="1546" fnId="3" />
    <Node type="hid" id="1610" fnId="0" />
    <Node type="hid" id="1743" fnId="0" />
    <Node type="hid" id="1988" fnId="1" />
    <Node type="hid" id="2079" fnId="3" />
    <Node type="hid" id="3083" fnId="1" />
    <Node type="hid" id="4184" fnId="3" />
    <Node type="hid" id="4937" fnId="3" />
    <Node type="hid" id="5003" fnId="3" />
    <Node type="hid" id="5049" fnId="2" />
  </Nodes>
  <Connections>
    <Con id="2" src="1" tgt="10" wght="1" />
    <Con id="3" src="2" tgt="11" wght="0.79782633471132147" />
    <Con id="4" src="4" tgt="10" wght="-1" />
    <Con id="5" src="5" tgt="11" wght="-0.64984785731141881" />
    <Con id="7" src="11" tgt="9" wght="1" />
    <Con id="8" src="1" tgt="7" wght="0.031988647970675563" />
    <Con id="10" src="2" tgt="7" wght="0.23333071204580197" />
    <Con id="11" src="2" tgt="8" wght="1" />
    <Con id="12" src="3" tgt="7" wght="-0.92813646030745856" />
    <Con id="13" src="3" tgt="8" wght="-0.10978892069011842" />
    <Con id="14" src="4" tgt="7" wght="-0.31984537708104682" />
    <Con id="15" src="4" tgt="8" wght="-0.067288964794049916" />
    <Con id="16" src="5" tgt="7" wght="-0.61821156160290081" />
    <Con id="18" src="6" tgt="7" wght="0.20492788086527317" />
    <Con id="20" src="0" tgt="7" wght="-0.9511661844859558" />
    <Con id="21" src="0" tgt="8" wght="0.028872368298783105" />
    <Con id="22" src="0" tgt="10" wght="-0.11110181104349383" />
    <Con id="23" src="0" tgt="11" wght="0.066991276402018324" />
    <Con id="26" src="2" tgt="9" wght="0.76645674879760362" />
    <Con id="27" src="11" tgt="8" wght="1" />
    <Con id="28" src="11" tgt="7" wght="-0.31249553920011863" />
    <Con id="31" src="10" tgt="7" wght="-0.3189068320679927" />
    <Con id="37" src="10" tgt="11" wght="1" />
    <Con id="39" src="4" tgt="38" wght="0.33748774678841487" />
    <Con id="47" src="5" tgt="9" wght="-0.70158658292961729" />
    <Con id="54" src="2" tgt="53" wght="-0.67182447683144519" />
    <Con id="55" src="53" tgt="8" wght="0.77497645656013592" />
    <Con id="108" src="11" tgt="53" wght="0.95802300774976867" />
    <Con id="109" src="53" tgt="38" wght="-0.23628094046188713" />
    <Con id="133" src="6" tgt="132" wght="0.1594226601460963" />
    <Con id="134" src="132" tgt="10" wght="0.97384013975513606" />
    <Con id="233" src="132" tgt="9" wght="-0.55431187416593253" />
    <Con id="273" src="5" tgt="272" wght="0.40669595904065026" />
    <Con id="274" src="272" tgt="8" wght="0.55406839388326812" />
    <Con id="285" src="3" tgt="53" wght="0.94232073669143146" />
    <Con id="424" src="272" tgt="53" wght="0.31639877363664087" />
    <Con id="690" src="0" tgt="689" wght="-1" />
    <Con id="691" src="689" tgt="9" wght="1" />
    <Con id="700" src="11" tgt="689" wght="-0.56005180236036056" />
    <Con id="767" src="272" tgt="689" wght="1" />
    <Con id="880" src="38" tgt="689" wght="0.84277985854347459" />
    <Con id="1023" src="132" tgt="1022" wght="-0.9922421696006879" />
    <Con id="1024" src="1022" tgt="272" wght="0.9992180183999011" />
    <Con id="1030" src="5" tgt="1029" wght="-0.39520583834672413" />
    <Con id="1031" src="1029" tgt="10" wght="0.91170795058546306" />
    <Con id="1073" src="1022" tgt="689" wght="-0.5216470067512069" />
    <Con id="1082" src="10" tgt="1081" wght="-0.13180460524090271" />
    <Con id="1083" src="1081" tgt="7" wght="-0.57642369218709977" />
    <Con id="1107" src="2" tgt="689" wght="1" />
    <Con id="1108" src="1022" tgt="38" wght="-0.76221390876355255" />
    <Con id="1118" src="6" tgt="1117" wght="0.12557443953578737" />
    <Con id="1119" src="1117" tgt="132" wght="-0.7232361536222357" />
    <Con id="1122" src="1022" tgt="7" wght="-0.98047779160337267" />
    <Con id="1138" src="1136" tgt="9" wght="0.076442828507929939" />
    <Con id="1142" src="6" tgt="689" wght="0.97215524702915379" />
    <Con id="1147" src="1117" tgt="1029" wght="-1" />
    <Con id="1211" src="1081" tgt="9" wght="-0.959819118379251" />
    <Con id="1249" src="1022" tgt="10" wght="0.37386991921812296" />
    <Con id="1278" src="689" tgt="1136" wght="0.76725175225638242" />
    <Con id="1293" src="11" tgt="1292" wght="0.59398660368689182" />
    <Con id="1294" src="1292" tgt="1136" wght="1" />
    <Con id="1309" src="1022" tgt="8" wght="-0.96772656121918044" />
    <Con id="1426" src="2" tgt="1136" wght="0.96270380867645144" />
    <Con id="1440" src="1022" tgt="53" wght="-0.74051802600753047" />
    <Con id="1441" src="272" tgt="1136" wght="0.41932661240376912" />
    <Con id="1547" src="38" tgt="1546" wght="0.974612694244545" />
    <Con id="1548" src="1546" tgt="7" wght="0.54597343565884815" />
    <Con id="1611" src="1022" tgt="1610" wght="-0.83675511990655749" />
    <Con id="1612" src="1610" tgt="689" wght="0.080197827259799612" />
    <Con id="1652" src="10" tgt="1546" wght="-0.15253045685349609" />
    <Con id="1715" src="1" tgt="1136" wght="-0.03473585568096961" />
    <Con id="1736" src="1546" tgt="1292" wght="-0.080369884595487981" />
    <Con id="1744" src="10" tgt="1743" wght="0.49723082861217682" />
    <Con id="1745" src="1743" tgt="9" wght="0.92722436380306184" />
    <Con id="1750" src="1081" tgt="38" wght="0.78871698010450841" />
    <Con id="1802" src="1029" tgt="1743" wght="-0.0091267563170256936" />
    <Con id="1838" src="1610" tgt="1136" wght="-0.9921460168288152" />
    <Con id="1888" src="1117" tgt="1136" wght="-0.025854571857346621" />
    <Con id="1922" src="0" tgt="1136" wght="0.73242360107930748" />
    <Con id="1966" src="1743" tgt="38" wght="-1" />
    <Con id="1987" src="1117" tgt="1546" wght="-0.93444659632794291" />
    <Con id="1989" src="6" tgt="1988" wght="0.25978791525996425" />
    <Con id="1990" src="1988" tgt="8" wght="0.9795610270418702" />
    <Con id="2069" src="1988" tgt="1610" wght="-0.54118899251915253" />
    <Con id="2080" src="1" tgt="2079" wght="0.010257804977016227" />
    <Con id="2081" src="2079" tgt="8" wght="0.64212774771268921" />
    <Con id="2092" src="1117" tgt="1610" wght="-0.624925433329367" />
    <Con id="2182" src="1743" tgt="7" wght="1" />
    <Con id="2210" src="1546" tgt="1136" wght="-0.83132959942632623" />
    <Con id="2964" src="1081" tgt="2079" wght="-1" />
    <Con id="3063" src="1136" tgt="2079" wght="-0.96550562327633238" />
    <Con id="3080" src="10" tgt="1610" wght="0.52601280830209318" />
    <Con id="3084" src="4" tgt="3083" wght="-0.42157535598943" />
    <Con id="3085" src="3083" tgt="38" wght="0.9734802152990859" />
    <Con id="3626" src="1081" tgt="3083" wght="-0.29924082286788461" />
    <Con id="4185" src="2" tgt="4184" wght="-0.026055980663357972" />
    <Con id="4186" src="4184" tgt="7" wght="0.70242715673521161" />
    <Con id="4533" src="4184" tgt="1610" wght="-0.46013310640274285" />
    <Con id="4772" src="2" tgt="3083" wght="-1" />
    <Con id="4773" src="4184" tgt="10" wght="0.67871108896785082" />
    <Con id="4810" src="1" tgt="689" wght="-0.31663170596584678" />
    <Con id="4816" src="1029" tgt="9" wght="-0.013852754607796669" />
    <Con id="4822" src="1022" tgt="1136" wght="-0.3081407081335783" />
    <Con id="4935" src="1988" tgt="1022" wght="-0.23403164464980364" />
    <Con id="4938" src="689" tgt="4937" wght="-0.67996998257555841" />
    <Con id="4939" src="4937" tgt="8" wght="1" />
    <Con id="4954" src="272" tgt="3083" wght="-0.44047672817103883" />
    <Con id="5004" src="1117" tgt="5003" wght="-0.44589859121631453" />
    <Con id="5005" src="5003" tgt="1136" wght="1" />
    <Con id="5050" src="1081" tgt="5049" wght="0.24386345657685235" />
    <Con id="5051" src="5049" tgt="1136" wght="1" />
    <Con id="5071" src="1546" tgt="4937" wght="-0.45191408647224307" />
    <Con id="5080" src="10" tgt="689" wght="-0.41914746724069118" />
  </Connections>
</Network>