<Network id="2997044" birthGen="6109" fitness="0.999206476980434">
  <Nodes>
    <Node type="bias" id="0" fnId="0" />
    <Node type="in" id="1" fnId="0" />
    <Node type="in" id="2" fnId="0" />
    <Node type="out" id="3" fnId="0" />
    <Node type="out" id="4" fnId="0" />
    <Node type="out" id="5" fnId="0" />
    <Node type="out" id="6" fnId="0" />
    <Node type="out" id="7" fnId="0" />
    <Node type="out" id="8" fnId="0" />
    <Node type="out" id="9" fnId="0" />
    <Node type="out" id="10" fnId="0" />
    <Node type="out" id="11" fnId="0" />
    <Node type="out" id="12" fnId="0" />
    <Node type="out" id="13" fnId="0" />
    <Node type="out" id="14" fnId="0" />
    <Node type="out" id="15" fnId="0" />
    <Node type="out" id="16" fnId="0" />
    <Node type="out" id="17" fnId="0" />
    <Node type="out" id="18" fnId="0" />
    <Node type="out" id="19" fnId="0" />
    <Node type="out" id="20" fnId="0" />
    <Node type="out" id="21" fnId="0" />
    <Node type="out" id="22" fnId="0" />
    <Node type="out" id="23" fnId="0" />
    <Node type="out" id="24" fnId="0" />
    <Node type="out" id="25" fnId="0" />
    <Node type="out" id="26" fnId="0" />
    <Node type="out" id="27" fnId="0" />
    <Node type="out" id="28" fnId="0" />
    <Node type="out" id="29" fnId="0" />
    <Node type="out" id="30" fnId="0" />
    <Node type="hid" id="31" fnId="2" />
    <Node type="hid" id="108" fnId="1" />
    <Node type="hid" id="199" fnId="1" />
    <Node type="hid" id="293" fnId="3" />
    <Node type="hid" id="313" fnId="3" />
    <Node type="hid" id="440" fnId="2" />
    <Node type="hid" id="452" fnId="2" />
    <Node type="hid" id="866" fnId="1" />
    <Node type="hid" id="966" fnId="0" />
    <Node type="hid" id="1443" fnId="1" />
    <Node type="hid" id="1960" fnId="2" />
    <Node type="hid" id="2086" fnId="3" />
    <Node type="hid" id="2186" fnId="2" />
    <Node type="hid" id="2734" fnId="3" />
    <Node type="hid" id="2754" fnId="3" />
    <Node type="hid" id="2822" fnId="1" />
    <Node type="hid" id="3051" fnId="2" />
    <Node type="hid" id="3055" fnId="0" />
    <Node type="hid" id="3103" fnId="0" />
    <Node type="hid" id="3933" fnId="1" />
    <Node type="hid" id="3981" fnId="1" />
    <Node type="hid" id="4337" fnId="0" />
    <Node type="hid" id="4371" fnId="3" />
    <Node type="hid" id="4469" fnId="2" />
    <Node type="hid" id="5061" fnId="3" />
    <Node type="hid" id="5070" fnId="2" />
    <Node type="hid" id="6671" fnId="0" />
    <Node type="hid" id="7165" fnId="0" />
    <Node type="hid" id="7204" fnId="0" />
    <Node type="hid" id="7210" fnId="0" />
    <Node type="hid" id="7493" fnId="3" />
    <Node type="hid" id="7659" fnId="0" />
    <Node type="hid" id="8318" fnId="2" />
    <Node type="hid" id="8345" fnId="1" />
    <Node type="hid" id="9741" fnId="2" />
    <Node type="hid" id="10439" fnId="0" />
    <Node type="hid" id="10926" fnId="1" />
    <Node type="hid" id="11820" fnId="2" />
    <Node type="hid" id="11964" fnId="1" />
    <Node type="hid" id="12756" fnId="1" />
    <Node type="hid" id="12925" fnId="3" />
    <Node type="hid" id="13835" fnId="1" />
    <Node type="hid" id="14742" fnId="1" />
    <Node type="hid" id="15524" fnId="1" />
  </Nodes>
  <Connections>
    <Con id="1" src="0" tgt="21" wght="2.9864059438726507" />
    <Con id="2" src="0" tgt="24" wght="0.0828338555522571" />
    <Con id="3" src="0" tgt="27" wght="1.1208831226962412" />
    <Con id="4" src="1" tgt="31" wght="1.7088098342493967" />
    <Con id="5" src="2" tgt="31" wght="-1.6734078432476136" />
    <Con id="6" src="31" tgt="21" wght="2.2307460437431095" />
    <Con id="7" src="31" tgt="24" wght="-1.3786125704749064" />
    <Con id="8" src="31" tgt="27" wght="-2.1829244734637494" />
    <Con id="9" src="1" tgt="3" wght="0.62220504781247665" />
    <Con id="10" src="1" tgt="4" wght="-1.1378011517410114" />
    <Con id="11" src="1" tgt="5" wght="2.4098222911223481" />
    <Con id="12" src="1" tgt="6" wght="1.3424523108916" />
    <Con id="13" src="1" tgt="7" wght="0.66703869964964846" />
    <Con id="14" src="1" tgt="8" wght="-0.043423353594783741" />
    <Con id="15" src="1" tgt="9" wght="1.5304679514142592" />
    <Con id="16" src="1" tgt="10" wght="-0.49299364228946813" />
    <Con id="17" src="1" tgt="11" wght="-0.72407105903483537" />
    <Con id="18" src="1" tgt="12" wght="-1.5829532336190719" />
    <Con id="19" src="1" tgt="13" wght="-3" />
    <Con id="20" src="1" tgt="14" wght="-0.00515819987687656" />
    <Con id="21" src="1" tgt="15" wght="-0.61302621974157079" />
    <Con id="23" src="1" tgt="17" wght="-3" />
    <Con id="24" src="1" tgt="18" wght="0.22115460792362518" />
    <Con id="25" src="1" tgt="19" wght="2.15571134964239" />
    <Con id="26" src="1" tgt="20" wght="2.9553886472626063" />
    <Con id="28" src="1" tgt="22" wght="-1.3418432337243449" />
    <Con id="29" src="1" tgt="23" wght="2.539343279081435" />
    <Con id="30" src="1" tgt="24" wght="0.51925815216090143" />
    <Con id="31" src="1" tgt="25" wght="-1.5754112357526169" />
    <Con id="32" src="1" tgt="26" wght="-3" />
    <Con id="33" src="1" tgt="27" wght="2.0647479753974718" />
    <Con id="34" src="1" tgt="28" wght="-0.633688098521231" />
    <Con id="35" src="1" tgt="29" wght="2.2956557152997159" />
    <Con id="36" src="1" tgt="30" wght="2.2925239829486719" />
    <Con id="37" src="2" tgt="3" wght="-0.11673296358206464" />
    <Con id="38" src="2" tgt="4" wght="-2.9894031165802941" />
    <Con id="39" src="2" tgt="5" wght="2.4693132709845385" />
    <Con id="40" src="2" tgt="6" wght="2.1454422370616273" />
    <Con id="41" src="2" tgt="7" wght="-2.3912137152428108" />
    <Con id="42" src="2" tgt="8" wght="0.043626930035635406" />
    <Con id="43" src="2" tgt="9" wght="-2.6061003050751728" />
    <Con id="44" src="2" tgt="10" wght="-3" />
    <Con id="46" src="2" tgt="12" wght="3" />
    <Con id="47" src="2" tgt="13" wght="-1.7839953666665991" />
    <Con id="48" src="2" tgt="14" wght="-1.8739648925127628" />
    <Con id="49" src="2" tgt="15" wght="-0.20967795894272667" />
    <Con id="50" src="2" tgt="16" wght="0.016026805354330736" />
    <Con id="51" src="2" tgt="17" wght="-1.2961781347534369" />
    <Con id="52" src="2" tgt="18" wght="2.5155851619517118" />
    <Con id="53" src="2" tgt="19" wght="3" />
    <Con id="54" src="2" tgt="20" wght="-2.6140715110687225" />
    <Con id="55" src="2" tgt="21" wght="0.950278699346741" />
    <Con id="56" src="2" tgt="22" wght="0.32638115919689631" />
    <Con id="57" src="2" tgt="23" wght="0.92975616328992372" />
    <Con id="58" src="2" tgt="24" wght="-1.0385514930744322" />
    <Con id="59" src="2" tgt="25" wght="2.0043706716805181" />
    <Con id="60" src="2" tgt="26" wght="-2.8298516534226961" />
    <Con id="61" src="2" tgt="27" wght="-2.925379462959167" />
    <Con id="62" src="2" tgt="28" wght="-2.5181249366426459" />
    <Con id="63" src="2" tgt="29" wght="3" />
    <Con id="64" src="2" tgt="30" wght="-2.2699759515292848" />
    <Con id="65" src="0" tgt="3" wght="-1.1645536380819976" />
    <Con id="66" src="0" tgt="4" wght="-0.40307592310605855" />
    <Con id="67" src="0" tgt="5" wght="0.16719464228771569" />
    <Con id="68" src="0" tgt="6" wght="3" />
    <Con id="69" src="0" tgt="7" wght="0.84664430569180971" />
    <Con id="71" src="0" tgt="9" wght="2.1736633550766271" />
    <Con id="72" src="0" tgt="10" wght="-2.2854755126679" />
    <Con id="73" src="0" tgt="11" wght="-2.9822642503470251" />
    <Con id="74" src="0" tgt="12" wght="0.66134374242819749" />
    <Con id="75" src="0" tgt="13" wght="-2.8150373816703156" />
    <Con id="76" src="0" tgt="14" wght="-2.9801285158500477" />
    <Con id="77" src="0" tgt="15" wght="0.42056802713047314" />
    <Con id="78" src="0" tgt="16" wght="0.0955130665128776" />
    <Con id="79" src="0" tgt="17" wght="-0.20568222709876272" />
    <Con id="80" src="0" tgt="18" wght="-0.68377724820910923" />
    <Con id="81" src="0" tgt="19" wght="-3" />
    <Con id="82" src="0" tgt="20" wght="-2.9675246514950251" />
    <Con id="83" src="0" tgt="22" wght="-1.9902205477041155" />
    <Con id="84" src="0" tgt="23" wght="-2.3272030540112842" />
    <Con id="85" src="0" tgt="25" wght="-2.4857812681949034" />
    <Con id="86" src="0" tgt="26" wght="2.4988231540846342" />
    <Con id="87" src="0" tgt="28" wght="2.3531903864904424" />
    <Con id="88" src="0" tgt="29" wght="-3" />
    <Con id="89" src="0" tgt="30" wght="-1.583566508833584" />
    <Con id="92" src="31" tgt="13" wght="-1.8311676765578064" />
    <Con id="109" src="31" tgt="108" wght="-1.2339945364275498" />
    <Con id="110" src="108" tgt="27" wght="0.92882151624124021" />
    <Con id="112" src="31" tgt="8" wght="0.722682229426904" />
    <Con id="121" src="31" tgt="23" wght="-2.4786283352455509" />
    <Con id="123" src="31" tgt="19" wght="2.132777625381078" />
    <Con id="124" src="0" tgt="31" wght="-0.90333041637800393" />
    <Con id="125" src="31" tgt="9" wght="-0.95089868576669245" />
    <Con id="135" src="31" tgt="10" wght="-0.24891718345688205" />
    <Con id="136" src="31" tgt="6" wght="-0.82377321084126143" />
    <Con id="140" src="31" tgt="4" wght="-2.4245045896360704" />
    <Con id="142" src="108" tgt="13" wght="0.31766405515372753" />
    <Con id="144" src="31" tgt="15" wght="2.5568446091297332" />
    <Con id="148" src="108" tgt="4" wght="-1.445172843133401" />
    <Con id="156" src="108" tgt="28" wght="2.5953410920714344" />
    <Con id="161" src="108" tgt="6" wght="-0.72212380409780519" />
    <Con id="163" src="108" tgt="15" wght="0.650219908523319" />
    <Con id="200" src="1" tgt="199" wght="-3" />
    <Con id="201" src="199" tgt="5" wght="1.0161043134770948" />
    <Con id="213" src="199" tgt="22" wght="-2.455405669408981" />
    <Con id="215" src="108" tgt="25" wght="2.0127740089704456" />
    <Con id="217" src="2" tgt="199" wght="-0.30922201791371939" />
    <Con id="245" src="108" tgt="7" wght="0.85954805822667446" />
    <Con id="261" src="199" tgt="30" wght="-1.1341077752788316" />
    <Con id="278" src="199" tgt="27" wght="-1.6208731760183854" />
    <Con id="279" src="199" tgt="14" wght="0.065926420502364635" />
    <Con id="294" src="2" tgt="293" wght="-0.023076311716661062" />
    <Con id="295" src="293" tgt="21" wght="-2.1742978720118811" />
    <Con id="309" src="293" tgt="17" wght="1.3255709096885571" />
    <Con id="310" src="293" tgt="12" wght="-2.219314500031778" />
    <Con id="311" src="199" tgt="21" wght="-3" />
    <Con id="314" src="2" tgt="313" wght="-0.15484750360428351" />
    <Con id="315" src="313" tgt="26" wght="0.15231004010992197" />
    <Con id="319" src="293" tgt="6" wght="2.9794296098964161" />
    <Con id="320" src="293" tgt="4" wght="-0.47581175478997229" />
    <Con id="333" src="293" tgt="13" wght="1.3353477384340475" />
    <Con id="350" src="313" tgt="14" wght="1.1306003283937034" />
    <Con id="379" src="313" tgt="24" wght="-1.7952309872984273" />
    <Con id="395" src="293" tgt="14" wght="0.16627109779553426" />
    <Con id="396" src="293" tgt="31" wght="-0.55096074879639623" />
    <Con id="403" src="0" tgt="199" wght="0.29037224076291984" />
    <Con id="415" src="293" tgt="29" wght="-1.7797641866795164" />
    <Con id="431" src="293" tgt="23" wght="0.68046852480422837" />
    <Con id="441" src="2" tgt="440" wght="1.4806754143056102" />
    <Con id="442" src="440" tgt="23" wght="0.36506037613946118" />
    <Con id="453" src="0" tgt="452" wght="-1.0022647856242688" />
    <Con id="454" src="452" tgt="3" wght="2.3317303155753071" />
    <Con id="468" src="293" tgt="19" wght="-2.5520551575284038" />
    <Con id="492" src="313" tgt="30" wght="2.9603086955067774" />
    <Con id="494" src="313" tgt="12" wght="1.5645822011090158" />
    <Con id="508" src="199" tgt="29" wght="-0.73446161181985736" />
    <Con id="595" src="440" tgt="18" wght="0.61075100663113757" />
    <Con id="655" src="440" tgt="22" wght="-0.38738020702029397" />
    <Con id="715" src="440" tgt="452" wght="3" />
    <Con id="768" src="0" tgt="440" wght="2.3526142064096023" />
    <Con id="858" src="440" tgt="293" wght="-1.4951109163912704" />
    <Con id="867" src="2" tgt="866" wght="0.16512714770431702" />
    <Con id="868" src="866" tgt="11" wght="2.9685390895831212" />
    <Con id="967" src="1" tgt="966" wght="1.6717507093203812" />
    <Con id="968" src="966" tgt="29" wght="2.9951221770876817" />
    <Con id="976" src="440" tgt="14" wght="3" />
    <Con id="1039" src="866" tgt="21" wght="-0.32604894367977977" />
    <Con id="1053" src="0" tgt="866" wght="0.62541134225852413" />
    <Con id="1075" src="2" tgt="11" wght="0.47711903648151088" />
    <Con id="1116" src="966" tgt="14" wght="-0.28176247734590376" />
    <Con id="1373" src="966" tgt="30" wght="2.158530985662539" />
    <Con id="1397" src="2" tgt="452" wght="0.21780098387456448" />
    <Con id="1444" src="1" tgt="1443" wght="-0.55511576695304754" />
    <Con id="1445" src="1443" tgt="22" wght="-0.507674358692532" />
    <Con id="1495" src="1443" tgt="11" wght="-1.0165355349700784" />
    <Con id="1517" src="966" tgt="16" wght="-0.58115894013530445" />
    <Con id="1907" src="966" tgt="1443" wght="-0.69149366926414413" />
    <Con id="1961" src="2" tgt="1960" wght="1.7002655682750774" />
    <Con id="1962" src="1960" tgt="29" wght="-0.4907574951653762" />
    <Con id="2054" src="1443" tgt="199" wght="-0.86128699841124334" />
    <Con id="2087" src="0" tgt="2086" wght="2.9685735399076245" />
    <Con id="2088" src="2086" tgt="29" wght="-1.9945083191340036" />
    <Con id="2187" src="1" tgt="2186" wght="-2.6082188385017866" />
    <Con id="2188" src="2186" tgt="9" wght="2.9957059782847892" />
    <Con id="2218" src="1960" tgt="25" wght="-1.1197333559360889" />
    <Con id="2525" src="1960" tgt="10" wght="-0.9541642586221506" />
    <Con id="2735" src="293" tgt="2734" wght="1.7461145337986903" />
    <Con id="2736" src="2734" tgt="21" wght="0.47319807346832732" />
    <Con id="2747" src="2086" tgt="866" wght="0.8315751407377282" />
    <Con id="2755" src="313" tgt="2754" wght="2.1894145233904432" />
    <Con id="2756" src="2754" tgt="30" wght="1.9056551579351158" />
    <Con id="2824" src="2822" tgt="29" wght="2.8664842678035738" />
    <Con id="3052" src="199" tgt="3051" wght="1.9230578779740504" />
    <Con id="3053" src="3051" tgt="14" wght="-2.9928900221727979" />
    <Con id="3056" src="31" tgt="3055" wght="-0.78920577574063644" />
    <Con id="3057" src="3055" tgt="15" wght="2.2768958401812642" />
    <Con id="3104" src="31" tgt="3103" wght="-2.9730237124794656" />
    <Con id="3105" src="3103" tgt="19" wght="2.9983301669040654" />
    <Con id="3272" src="2086" tgt="199" wght="-0.19386903652728352" />
    <Con id="3934" src="1" tgt="3933" wght="-0.88942676873838233" />
    <Con id="3935" src="3933" tgt="16" wght="1.1162285203787579" />
    <Con id="3937" src="866" tgt="10" wght="-1.5147133274100109" />
    <Con id="3942" src="31" tgt="30" wght="1.8993367486371844" />
    <Con id="3949" src="3051" tgt="9" wght="2.9302794325293373" />
    <Con id="3954" src="2754" tgt="452" wght="-0.638754117153831" />
    <Con id="3968" src="966" tgt="1960" wght="2.2685006760430664" />
    <Con id="3982" src="2" tgt="3981" wght="-0.0180309955183975" />
    <Con id="3983" src="3981" tgt="16" wght="1.6886626709977775" />
    <Con id="3987" src="3055" tgt="25" wght="-2.4983888525805189" />
    <Con id="3994" src="3055" tgt="28" wght="-0.65215296163348735" />
    <Con id="4030" src="866" tgt="3" wght="1.8384847627858714" />
    <Con id="4034" src="866" tgt="18" wght="-2.9792158806942717" />
    <Con id="4036" src="3933" tgt="18" wght="-1.8462688370055491" />
    <Con id="4055" src="313" tgt="199" wght="-1.4031149636962026" />
    <Con id="4086" src="452" tgt="2734" wght="-2.4991815398554289" />
    <Con id="4095" src="1" tgt="3055" wght="-0.43804670586812361" />
    <Con id="4146" src="3933" tgt="3" wght="-3" />
    <Con id="4160" src="866" tgt="14" wght="-2.0963886607569462" />
    <Con id="4165" src="293" tgt="3103" wght="-1.528029872616778" />
    <Con id="4184" src="452" tgt="25" wght="-3" />
    <Con id="4187" src="313" tgt="2086" wght="2.6295016307977845" />
    <Con id="4219" src="3933" tgt="6" wght="-1.66618314829813" />
    <Con id="4251" src="866" tgt="19" wght="2.9464513443514275" />
    <Con id="4262" src="3981" tgt="15" wght="1.0533927067414375" />
    <Con id="4338" src="2" tgt="4337" wght="-1.1525585556521212" />
    <Con id="4339" src="4337" tgt="20" wght="1.1780768068683032" />
    <Con id="4350" src="3933" tgt="3055" wght="-1.0589313706975909" />
    <Con id="4354" src="452" tgt="5" wght="-2.5116644703618105" />
    <Con id="4359" src="1443" tgt="7" wght="-2.7576434072120257" />
    <Con id="4366" src="3981" tgt="19" wght="-1.6796768027350828" />
    <Con id="4370" src="293" tgt="3" wght="-3" />
    <Con id="4372" src="108" tgt="4371" wght="-0.42029218035888161" />
    <Con id="4426" src="2086" tgt="3103" wght="2.5902669641846496" />
    <Con id="4428" src="2822" tgt="28" wght="-1.8360954534357974" />
    <Con id="4446" src="293" tgt="866" wght="-2.0624611221230875" />
    <Con id="4447" src="2186" tgt="5" wght="2.7145762290300484" />
    <Con id="4459" src="1443" tgt="440" wght="1.4185980239023239" />
    <Con id="4470" src="108" tgt="4469" wght="3" />
    <Con id="4471" src="4469" tgt="13" wght="-0.63373741656588822" />
    <Con id="4480" src="966" tgt="3933" wght="-1.8992424791759639" />
    <Con id="4485" src="31" tgt="11" wght="2.576804278884083" />
    <Con id="4495" src="2086" tgt="3" wght="-3" />
    <Con id="4509" src="1960" tgt="21" wght="0.1183707724538916" />
    <Con id="4514" src="1443" tgt="28" wght="-3" />
    <Con id="4520" src="2754" tgt="4" wght="0.99376664031296968" />
    <Con id="4521" src="3933" tgt="17" wght="-3" />
    <Con id="4524" src="108" tgt="14" wght="1.9973692942245975" />
    <Con id="4657" src="440" tgt="199" wght="-3" />
    <Con id="4665" src="4371" tgt="14" wght="0.92756347964375585" />
    <Con id="4668" src="3103" tgt="5" wght="-2.3988288628652272" />
    <Con id="4681" src="440" tgt="12" wght="1.600567789129653" />
    <Con id="4693" src="4337" tgt="22" wght="-0.23294069851069321" />
    <Con id="4756" src="31" tgt="3" wght="-0.92963470926548664" />
    <Con id="4772" src="2" tgt="2734" wght="-1.9691004944587325" />
    <Con id="4818" src="440" tgt="26" wght="0.045033837334651806" />
    <Con id="4883" src="966" tgt="2186" wght="2.4885454824923103" />
    <Con id="4897" src="3981" tgt="2734" wght="2.605141522795225" />
    <Con id="4923" src="293" tgt="5" wght="2.4361487447945205" />
    <Con id="4945" src="2086" tgt="2754" wght="-1.3705161392890997" />
    <Con id="5013" src="3055" tgt="866" wght="0.29629380990463233" />
    <Con id="5032" src="966" tgt="5" wght="0.52877990129432617" />
    <Con id="5038" src="452" tgt="22" wght="0.30792274886670595" />
    <Con id="5062" src="199" tgt="5061" wght="0.11231021897478773" />
    <Con id="5063" src="5061" tgt="30" wght="-0.591729189420785" />
    <Con id="5065" src="3103" tgt="4371" wght="-1.4790339647727626" />
    <Con id="5071" src="0" tgt="5070" wght="1.0252492476817878" />
    <Con id="5072" src="5070" tgt="3" wght="-2.9893557203262304" />
    <Con id="5094" src="2186" tgt="29" wght="-0.099952420948083265" />
    <Con id="5095" src="4371" tgt="9" wght="-1.8459991599918786" />
    <Con id="5111" src="4469" tgt="28" wght="-2.2679601082878009" />
    <Con id="5115" src="4469" tgt="2822" wght="-1.267781906761229" />
    <Con id="5143" src="4337" tgt="6" wght="-1.1387086996035627" />
    <Con id="5162" src="452" tgt="29" wght="-1.9340705770080979" />
    <Con id="5170" src="2186" tgt="4371" wght="-0.14869827590882778" />
    <Con id="5347" src="2086" tgt="4469" wght="-2.3997900394146985" />
    <Con id="5349" src="3981" tgt="1443" wght="1.1248230529197341" />
    <Con id="5353" src="2754" tgt="22" wght="2.0201674043686175" />
    <Con id="5447" src="866" tgt="6" wght="3" />
    <Con id="5486" src="293" tgt="10" wght="1.4079482632769189" />
    <Con id="5542" src="966" tgt="9" wght="-0.84256721897152487" />
    <Con id="5595" src="2734" tgt="4469" wght="-0.30208363777028185" />
    <Con id="5780" src="3055" tgt="10" wght="1.7256199582575009" />
    <Con id="5800" src="4337" tgt="3051" wght="-0.60560826324346773" />
    <Con id="5835" src="1443" tgt="20" wght="1.9743660412782187" />
    <Con id="5836" src="313" tgt="5070" wght="-1.0911657193071669" />
    <Con id="5959" src="3933" tgt="28" wght="0.580082628856266" />
    <Con id="6068" src="5070" tgt="16" wght="-2.9433349452022086" />
    <Con id="6454" src="5061" tgt="5070" wght="2.9704506792686134" />
    <Con id="6627" src="4337" tgt="29" wght="-0.672995563851345" />
    <Con id="6672" src="293" tgt="6671" wght="-2.2095370604682834" />
    <Con id="6673" src="6671" tgt="2734" wght="1.5325385555805609" />
    <Con id="6879" src="5070" tgt="27" wght="-1.5820700477988292" />
    <Con id="6986" src="6671" tgt="26" wght="2.2004672721281104" />
    <Con id="7069" src="3933" tgt="4371" wght="-0.45862047342788986" />
    <Con id="7113" src="440" tgt="4469" wght="0.59141988754128261" />
    <Con id="7166" src="6671" tgt="7165" wght="0.35311042912477447" />
    <Con id="7167" src="7165" tgt="2734" wght="0.02803475313129776" />
    <Con id="7205" src="440" tgt="7204" wght="2.9637896019111003" />
    <Con id="7206" src="7204" tgt="12" wght="-0.28250920960520665" />
    <Con id="7211" src="866" tgt="7210" wght="-3" />
    <Con id="7212" src="7210" tgt="6" wght="0.50245745663700481" />
    <Con id="7225" src="966" tgt="7210" wght="0.051667996329191439" />
    <Con id="7463" src="1960" tgt="7165" wght="1.3180749761483708" />
    <Con id="7486" src="5070" tgt="108" wght="1.6387453787515875" />
    <Con id="7490" src="7165" tgt="5" wght="-0.45576859363783245" />
    <Con id="7494" src="108" tgt="7493" wght="2.5016557006051481" />
    <Con id="7495" src="7493" tgt="4469" wght="1.8685811294141079" />
    <Con id="7629" src="4469" tgt="7210" wght="1.0854897315245873" />
    <Con id="7660" src="1960" tgt="7659" wght="3" />
    <Con id="7661" src="7659" tgt="21" wght="2.4796570788633856" />
    <Con id="7705" src="7659" tgt="26" wght="-2.6079177373277327" />
    <Con id="7973" src="313" tgt="7210" wght="1.9017392071984267" />
    <Con id="8296" src="7659" tgt="22" wght="2.7425496593910754" />
    <Con id="8319" src="4337" tgt="8318" wght="2.3123291761446532" />
    <Con id="8320" src="8318" tgt="452" wght="1.518438148031088" />
    <Con id="8346" src="313" tgt="8345" wght="-0.796575672773514" />
    <Con id="8347" src="8345" tgt="17" wght="2.3386606251327295" />
    <Con id="8355" src="7493" tgt="2754" wght="0.019242319431390584" />
    <Con id="8515" src="3055" tgt="7165" wght="-2.8249257398327696" />
    <Con id="8571" src="7204" tgt="5" wght="-1.6409849943593144" />
    <Con id="8598" src="7659" tgt="3051" wght="1.9316788517716677" />
    <Con id="8854" src="8345" tgt="29" wght="2.5742128799482371" />
    <Con id="9355" src="1" tgt="7165" wght="0.57322115381293748" />
    <Con id="9430" src="7493" tgt="7210" wght="0.86539340638170847" />
    <Con id="9719" src="3981" tgt="7493" wght="0.031179050914943218" />
    <Con id="9728" src="31" tgt="7493" wght="-3" />
    <Con id="9742" src="108" tgt="9741" wght="-0.48775596532974408" />
    <Con id="9743" src="9741" tgt="19" wght="1.634862864524957" />
    <Con id="10220" src="7210" tgt="7659" wght="2.8424985922416068" />
    <Con id="10440" src="0" tgt="10439" wght="0.55570748448446794" />
    <Con id="10441" src="10439" tgt="2822" wght="1.475577474637638" />
    <Con id="10927" src="0" tgt="10926" wght="0.61866941001088671" />
    <Con id="10928" src="10926" tgt="3103" wght="2.5003433468330272" />
    <Con id="10943" src="9741" tgt="10439" wght="-0.00014275219291448593" />
    <Con id="11821" src="1960" tgt="11820" wght="-0.61376719732935681" />
    <Con id="11822" src="11820" tgt="23" wght="0.50659928837285007" />
    <Con id="11905" src="966" tgt="8345" wght="1.0813730718792212" />
    <Con id="11965" src="2754" tgt="11964" wght="-3" />
    <Con id="11966" src="11964" tgt="3103" wght="1.9423367030906491" />
    <Con id="12757" src="4371" tgt="12756" wght="2.9912926469856309" />
    <Con id="12758" src="12756" tgt="28" wght="2.0339598969973052" />
    <Con id="12765" src="9741" tgt="10926" wght="-1.6529361745342612" />
    <Con id="12833" src="10926" tgt="11964" wght="0.94731839071927626" />
    <Con id="12926" src="313" tgt="12925" wght="0.2675878829389986" />
    <Con id="12927" src="12925" tgt="29" wght="-2.1914115313590905" />
    <Con id="13724" src="12756" tgt="3051" wght="3" />
    <Con id="13836" src="2186" tgt="13835" wght="-2.2653731876536813" />
    <Con id="13837" src="13835" tgt="4469" wght="0.69196470318877035" />
    <Con id="14531" src="12925" tgt="7493" wght="0.033399671054849769" />
    <Con id="14673" src="11820" tgt="2822" wght="-2.6365769273548945" />
    <Con id="14743" src="440" tgt="14742" wght="-0.98976595095461428" />
    <Con id="14744" src="14742" tgt="3" wght="2.620282134172184" />
    <Con id="15525" src="3933" tgt="15524" wght="-2.1513885006690208" />
    <Con id="15526" src="15524" tgt="7210" wght="2.9874012525537941" />
  </Connections>
</Network>