<Network id="4464094" birthGen="9102" fitness="0.99998057429496923">
  <Nodes>
    <Node type="bias" id="0" fnId="0" />
    <Node type="in" id="1" fnId="0" />
    <Node type="in" id="2" fnId="0" />
    <Node type="in" id="3" fnId="0" />
    <Node type="in" id="4" fnId="0" />
    <Node type="in" id="5" fnId="0" />
    <Node type="in" id="6" fnId="0" />
    <Node type="out" id="7" fnId="0" />
    <Node type="out" id="8" fnId="0" />
    <Node type="out" id="9" fnId="0" />
    <Node type="hid" id="10" fnId="2" />
    <Node type="hid" id="11" fnId="2" />
    <Node type="hid" id="38" fnId="2" />
    <Node type="hid" id="44" fnId="3" />
    <Node type="hid" id="66" fnId="0" />
    <Node type="hid" id="145" fnId="3" />
    <Node type="hid" id="184" fnId="1" />
    <Node type="hid" id="212" fnId="2" />
    <Node type="hid" id="249" fnId="0" />
    <Node type="hid" id="364" fnId="0" />
    <Node type="hid" id="410" fnId="0" />
    <Node type="hid" id="704" fnId="1" />
    <Node type="hid" id="1190" fnId="1" />
    <Node type="hid" id="1920" fnId="1" />
    <Node type="hid" id="1990" fnId="3" />
    <Node type="hid" id="2554" fnId="1" />
    <Node type="hid" id="2731" fnId="3" />
    <Node type="hid" id="2987" fnId="3" />
    <Node type="hid" id="3002" fnId="0" />
    <Node type="hid" id="3507" fnId="1" />
    <Node type="hid" id="3994" fnId="1" />
    <Node type="hid" id="4116" fnId="1" />
    <Node type="hid" id="4375" fnId="3" />
    <Node type="hid" id="4428" fnId="0" />
    <Node type="hid" id="4508" fnId="0" />
    <Node type="hid" id="4528" fnId="2" />
    <Node type="hid" id="4854" fnId="2" />
    <Node type="hid" id="5087" fnId="3" />
    <Node type="hid" id="5187" fnId="1" />
    <Node type="hid" id="5260" fnId="3" />
    <Node type="hid" id="5375" fnId="1" />
    <Node type="hid" id="5498" fnId="1" />
    <Node type="hid" id="5642" fnId="0" />
    <Node type="hid" id="6674" fnId="2" />
    <Node type="hid" id="6743" fnId="1" />
    <Node type="hid" id="6917" fnId="0" />
    <Node type="hid" id="8213" fnId="2" />
    <Node type="hid" id="8392" fnId="0" />
    <Node type="hid" id="8461" fnId="0" />
    <Node type="hid" id="8688" fnId="3" />
    <Node type="hid" id="17625" fnId="1" />
    <Node type="hid" id="18754" fnId="0" />
    <Node type="hid" id="19078" fnId="3" />
    <Node type="hid" id="19415" fnId="1" />
    <Node type="hid" id="19820" fnId="0" />
    <Node type="hid" id="20092" fnId="3" />
    <Node type="hid" id="21293" fnId="1" />
    <Node type="hid" id="21548" fnId="3" />
    <Node type="hid" id="21628" fnId="1" />
    <Node type="hid" id="22488" fnId="0" />
    <Node type="hid" id="23560" fnId="2" />
    <Node type="hid" id="24830" fnId="2" />
  </Nodes>
  <Connections>
    <Con id="1" src="0" tgt="9" wght="-0.93280109375000708" />
    <Con id="2" src="1" tgt="10" wght="1" />
    <Con id="3" src="2" tgt="11" wght="0.85510859040860676" />
    <Con id="5" src="5" tgt="11" wght="-0.09795553373787648" />
    <Con id="6" src="10" tgt="9" wght="0.99265627791457534" />
    <Con id="8" src="1" tgt="7" wght="0.19561714682597456" />
    <Con id="9" src="1" tgt="8" wght="-0.042903531301475333" />
    <Con id="10" src="2" tgt="7" wght="0.32935750918438089" />
    <Con id="11" src="2" tgt="8" wght="-0.25341702014773726" />
    <Con id="13" src="3" tgt="8" wght="-0.1380526659908709" />
    <Con id="14" src="4" tgt="7" wght="0.17831124556772224" />
    <Con id="15" src="4" tgt="8" wght="0.19233252168048168" />
    <Con id="16" src="5" tgt="7" wght="-0.5125256365476325" />
    <Con id="17" src="5" tgt="8" wght="0.004047113384684416" />
    <Con id="19" src="6" tgt="8" wght="-0.49115709692855042" />
    <Con id="20" src="0" tgt="7" wght="0.91828589476153311" />
    <Con id="21" src="0" tgt="8" wght="-0.56021869004511371" />
    <Con id="22" src="0" tgt="10" wght="-0.17879001656772126" />
    <Con id="23" src="0" tgt="11" wght="0.22057327320522011" />
    <Con id="27" src="1" tgt="9" wght="-0.0684469026657236" />
    <Con id="28" src="10" tgt="8" wght="-0.67563032751211061" />
    <Con id="31" src="11" tgt="10" wght="0.5615828709541606" />
    <Con id="35" src="11" tgt="8" wght="-0.28793117597734136" />
    <Con id="40" src="38" tgt="9" wght="0.13120923283899796" />
    <Con id="45" src="3" tgt="44" wght="1" />
    <Con id="53" src="6" tgt="10" wght="-1" />
    <Con id="68" src="66" tgt="38" wght="-0.37467765299729278" />
    <Con id="80" src="38" tgt="10" wght="0.17452880328686496" />
    <Con id="96" src="2" tgt="44" wght="0.66527192977340233" />
    <Con id="146" src="3" tgt="145" wght="-1" />
    <Con id="147" src="145" tgt="8" wght="0.75343060058639655" />
    <Con id="185" src="2" tgt="184" wght="0.7157658394609735" />
    <Con id="186" src="184" tgt="11" wght="0.72199501445587644" />
    <Con id="213" src="0" tgt="212" wght="0.58793304589998963" />
    <Con id="214" src="212" tgt="9" wght="0.50825458520560118" />
    <Con id="222" src="2" tgt="145" wght="-0.25694119693667417" />
    <Con id="250" src="145" tgt="249" wght="0.097009678630661955" />
    <Con id="251" src="249" tgt="8" wght="-0.052824293998521621" />
    <Con id="295" src="212" tgt="7" wght="0.23312322890372403" />
    <Con id="296" src="3" tgt="212" wght="-1" />
    <Con id="311" src="212" tgt="145" wght="-0.1856982012921953" />
    <Con id="365" src="2" tgt="364" wght="0.651367297598106" />
    <Con id="366" src="364" tgt="11" wght="0.95864306396548371" />
    <Con id="412" src="410" tgt="8" wght="0.51317216609684513" />
    <Con id="464" src="5" tgt="364" wght="0.42806961281847522" />
    <Con id="518" src="11" tgt="212" wght="-0.13121980308172568" />
    <Con id="521" src="66" tgt="364" wght="-1" />
    <Con id="534" src="2" tgt="66" wght="0.97996351678937077" />
    <Con id="652" src="1" tgt="410" wght="0.99830909892638364" />
    <Con id="687" src="212" tgt="44" wght="-1" />
    <Con id="705" src="0" tgt="704" wght="-0.49248776726052318" />
    <Con id="706" src="704" tgt="66" wght="0.876887150976905" />
    <Con id="722" src="212" tgt="410" wght="-0.98865565050219839" />
    <Con id="1191" src="11" tgt="1190" wght="0.41610348561174937" />
    <Con id="1192" src="1190" tgt="9" wght="1" />
    <Con id="1552" src="3" tgt="410" wght="-1" />
    <Con id="1887" src="1190" tgt="8" wght="0.97931325596765961" />
    <Con id="1921" src="6" tgt="1920" wght="-0.089109487955889952" />
    <Con id="1991" src="10" tgt="1990" wght="-0.3361754731474354" />
    <Con id="1992" src="1990" tgt="249" wght="1" />
    <Con id="2040" src="1920" tgt="10" wght="-0.19623104055587851" />
    <Con id="2544" src="1990" tgt="212" wght="-0.04421267852457636" />
    <Con id="2555" src="11" tgt="2554" wght="0.85568462019411262" />
    <Con id="2556" src="2554" tgt="212" wght="0.38812474188499563" />
    <Con id="2560" src="1190" tgt="38" wght="0.67999862183257143" />
    <Con id="2567" src="1920" tgt="9" wght="-1" />
    <Con id="2579" src="6" tgt="704" wght="-0.53028023843410488" />
    <Con id="2590" src="1990" tgt="410" wght="-0.28977385711130438" />
    <Con id="2591" src="44" tgt="8" wght="0.99979373956122553" />
    <Con id="2618" src="1920" tgt="212" wght="-0.5877147146292192" />
    <Con id="2645" src="2" tgt="410" wght="1" />
    <Con id="2646" src="1" tgt="704" wght="0.067387039676464436" />
    <Con id="2647" src="38" tgt="249" wght="0.28051247103439403" />
    <Con id="2657" src="4" tgt="704" wght="0.44716931178948705" />
    <Con id="2696" src="0" tgt="249" wght="-0.96999920807159679" />
    <Con id="2702" src="4" tgt="38" wght="0.086213043573619252" />
    <Con id="2732" src="1" tgt="2731" wght="0.0077344272857659225" />
    <Con id="2733" src="2731" tgt="7" wght="-1" />
    <Con id="2734" src="184" tgt="249" wght="0.33174060517922044" />
    <Con id="2763" src="11" tgt="1990" wght="-0.85947642578409367" />
    <Con id="2796" src="184" tgt="704" wght="-0.94895754686887013" />
    <Con id="2882" src="184" tgt="212" wght="-1" />
    <Con id="2896" src="212" tgt="249" wght="-0.027882824651896954" />
    <Con id="2914" src="6" tgt="2554" wght="-0.71168036958448389" />
    <Con id="2915" src="0" tgt="1990" wght="-1" />
    <Con id="2988" src="3" tgt="2987" wght="0.674397115407114" />
    <Con id="2989" src="2987" tgt="44" wght="1" />
    <Con id="3004" src="3002" tgt="410" wght="1" />
    <Con id="3068" src="2731" tgt="2554" wght="-0.97458215605370191" />
    <Con id="3508" src="11" tgt="3507" wght="0.20466034471579775" />
    <Con id="3509" src="3507" tgt="2554" wght="0.974819866995372" />
    <Con id="3995" src="3" tgt="3994" wght="-0.90081090994979984" />
    <Con id="3996" src="3994" tgt="10" wght="1" />
    <Con id="4020" src="2" tgt="3002" wght="-1" />
    <Con id="4117" src="2554" tgt="4116" wght="1" />
    <Con id="4118" src="4116" tgt="212" wght="1" />
    <Con id="4265" src="184" tgt="4116" wght="0.98827382174864642" />
    <Con id="4376" src="184" tgt="4375" wght="0.034825568194585418" />
    <Con id="4377" src="4375" tgt="249" wght="0.95091991657937935" />
    <Con id="4429" src="11" tgt="4428" wght="0.66293101349976025" />
    <Con id="4430" src="4428" tgt="2554" wght="1" />
    <Con id="4509" src="5" tgt="4508" wght="0.0049516688413505094" />
    <Con id="4510" src="4508" tgt="8" wght="-0.884851221460849" />
    <Con id="4529" src="145" tgt="4528" wght="-0.64985802843949447" />
    <Con id="4530" src="4528" tgt="249" wght="-0.23907004809007049" />
    <Con id="4577" src="2731" tgt="4528" wght="-0.035721002373434028" />
    <Con id="4610" src="2731" tgt="4508" wght="1" />
    <Con id="4616" src="4508" tgt="4375" wght="1" />
    <Con id="4708" src="4428" tgt="249" wght="-0.59292889285818651" />
    <Con id="4740" src="4508" tgt="1190" wght="0.93888387548636443" />
    <Con id="4847" src="3994" tgt="38" wght="-0.08883964541374334" />
    <Con id="4855" src="3" tgt="4854" wght="-0.57118798270400883" />
    <Con id="4856" src="4854" tgt="212" wght="0.99849668005014069" />
    <Con id="4857" src="3994" tgt="364" wght="0.87136813421017689" />
    <Con id="4893" src="10" tgt="4528" wght="0.043444235343486071" />
    <Con id="4894" src="4428" tgt="145" wght="-0.4679327154097695" />
    <Con id="4895" src="2731" tgt="4375" wght="0.69851967858831021" />
    <Con id="4898" src="3002" tgt="249" wght="0.082090712905643612" />
    <Con id="4933" src="4508" tgt="11" wght="-0.89025353582345523" />
    <Con id="4948" src="2731" tgt="410" wght="0.97654639554586775" />
    <Con id="4958" src="1190" tgt="4116" wght="0.74089375045150518" />
    <Con id="4983" src="1990" tgt="4116" wght="-0.47060490197737603" />
    <Con id="4988" src="184" tgt="145" wght="-0.95580584593557238" />
    <Con id="4997" src="66" tgt="4528" wght="-1" />
    <Con id="5029" src="2554" tgt="410" wght="0.054737279833355412" />
    <Con id="5115" src="184" tgt="4528" wght="0.53935011013177125" />
    <Con id="5152" src="66" tgt="2987" wght="0.22857820801382592" />
    <Con id="5180" src="1920" tgt="3507" wght="-1" />
    <Con id="5188" src="1" tgt="5187" wght="0.99461507780836023" />
    <Con id="5189" src="5187" tgt="249" wght="0.85799597190954147" />
    <Con id="5208" src="11" tgt="7" wght="1" />
    <Con id="5209" src="4508" tgt="3507" wght="0.98274855773427228" />
    <Con id="5214" src="3507" tgt="38" wght="-0.27210035218333434" />
    <Con id="5236" src="3" tgt="4116" wght="-0.66777004638312565" />
    <Con id="5245" src="4" tgt="4116" wght="0.11429620487615466" />
    <Con id="5246" src="11" tgt="410" wght="0.973741802605661" />
    <Con id="5261" src="3" tgt="5260" wght="0.31968801561743021" />
    <Con id="5262" src="5260" tgt="3002" wght="-1" />
    <Con id="5275" src="4508" tgt="4116" wght="1" />
    <Con id="5376" src="2554" tgt="5375" wght="0.02187730996894963" />
    <Con id="5377" src="5375" tgt="38" wght="0.3007027607971493" />
    <Con id="5449" src="3994" tgt="1990" wght="-0.22852200688794255" />
    <Con id="5499" src="4" tgt="5498" wght="-1" />
    <Con id="5500" src="5498" tgt="10" wght="1" />
    <Con id="5559" src="6" tgt="5087" wght="0.80942133869447364" />
    <Con id="5574" src="66" tgt="4854" wght="0.61519834445789456" />
    <Con id="5610" src="2554" tgt="3002" wght="-0.73095756307968807" />
    <Con id="5618" src="4375" tgt="704" wght="-0.83564140908924078" />
    <Con id="5622" src="2731" tgt="704" wght="0.032542092420592916" />
    <Con id="5643" src="184" tgt="5642" wght="-0.55180121099855683" />
    <Con id="5644" src="5642" tgt="410" wght="1" />
    <Con id="5699" src="5375" tgt="5187" wght="-1" />
    <Con id="5776" src="3994" tgt="249" wght="0.41082939418676545" />
    <Con id="5777" src="10" tgt="3002" wght="-0.72072606875511247" />
    <Con id="5987" src="4375" tgt="4854" wght="-1" />
    <Con id="6014" src="1" tgt="2554" wght="0.27609082218259573" />
    <Con id="6032" src="5087" tgt="5260" wght="-0.87904211328004722" />
    <Con id="6173" src="3994" tgt="145" wght="0.8589270076817006" />
    <Con id="6178" src="4" tgt="5087" wght="0.97399169716324674" />
    <Con id="6198" src="4428" tgt="212" wght="0.98181137030195564" />
    <Con id="6300" src="1190" tgt="10" wght="-0.2103442385088051" />
    <Con id="6377" src="184" tgt="2987" wght="-0.12356018961670982" />
    <Con id="6393" src="5498" tgt="249" wght="-0.34330982742581029" />
    <Con id="6548" src="4508" tgt="410" wght="-1" />
    <Con id="6587" src="3002" tgt="5187" wght="0.34828234354777121" />
    <Con id="6675" src="44" tgt="6674" wght="-0.802276229961625" />
    <Con id="6676" src="6674" tgt="249" wght="-1" />
    <Con id="6708" src="704" tgt="4116" wght="0.079292876360044437" />
    <Con id="6744" src="44" tgt="6743" wght="-0.96730396384983675" />
    <Con id="6745" src="6743" tgt="410" wght="0.7315460335349927" />
    <Con id="6887" src="2731" tgt="5260" wght="0.86034619566552883" />
    <Con id="6918" src="1920" tgt="6917" wght="0.13664233726251976" />
    <Con id="6919" src="6917" tgt="7" wght="0.53150019407373528" />
    <Con id="6934" src="4428" tgt="6674" wght="0.61621606386617" />
    <Con id="7055" src="5642" tgt="4528" wght="-0.0924522773040813" />
    <Con id="7103" src="5642" tgt="249" wght="-0.80205041714600689" />
    <Con id="7168" src="5642" tgt="4428" wght="0.8107592584469937" />
    <Con id="7507" src="6917" tgt="212" wght="-0.81698020576157881" />
    <Con id="7512" src="6917" tgt="364" wght="0.95424491390086086" />
    <Con id="8215" src="8213" tgt="212" wght="0.93796045111575788" />
    <Con id="8280" src="3" tgt="6674" wght="1" />
    <Con id="8354" src="6917" tgt="11" wght="-0.72201240295544267" />
    <Con id="8393" src="364" tgt="8392" wght="0.987364259527112" />
    <Con id="8394" src="8392" tgt="249" wght="-0.2589607313565056" />
    <Con id="8462" src="38" tgt="8461" wght="0.569762363036417" />
    <Con id="8689" src="184" tgt="8688" wght="-0.50893545613472213" />
    <Con id="8690" src="8688" tgt="8" wght="-1" />
    <Con id="8790" src="6917" tgt="5260" wght="0.36931686522439122" />
    <Con id="8919" src="4375" tgt="8688" wght="-0.14182064998079766" />
    <Con id="8948" src="6917" tgt="5187" wght="0.58118010118359531" />
    <Con id="9143" src="1190" tgt="8392" wght="-0.54250366672089667" />
    <Con id="9394" src="8213" tgt="8461" wght="1" />
    <Con id="10354" src="6743" tgt="8461" wght="-0.87732338310989277" />
    <Con id="10360" src="5375" tgt="4116" wght="-0.80916608507630527" />
    <Con id="10651" src="1190" tgt="8213" wght="0.9770443555526076" />
    <Con id="10690" src="704" tgt="8392" wght="-0.935119769340204" />
    <Con id="11153" src="8688" tgt="2987" wght="0.2363443895292465" />
    <Con id="11221" src="2" tgt="8461" wght="-0.45420960705573532" />
    <Con id="11370" src="4375" tgt="8392" wght="-0.89177211203119755" />
    <Con id="17626" src="3" tgt="17625" wght="1" />
    <Con id="17627" src="17625" tgt="3002" wght="0.96037499492660461" />
    <Con id="18755" src="8461" tgt="18754" wght="-0.62923756439736556" />
    <Con id="18756" src="18754" tgt="5087" wght="1" />
    <Con id="18918" src="18754" tgt="8392" wght="-0.51272439242302781" />
    <Con id="19079" src="3507" tgt="19078" wght="0.668498792302212" />
    <Con id="19416" src="2731" tgt="19415" wght="-0.45643510390073061" />
    <Con id="19467" src="18754" tgt="249" wght="-1" />
    <Con id="19821" src="8688" tgt="19820" wght="-0.6478065892305509" />
    <Con id="19822" src="19820" tgt="5087" wght="-0.93221042546021349" />
    <Con id="20043" src="1190" tgt="18754" wght="0.00011358975701680762" />
    <Con id="20093" src="19415" tgt="20092" wght="-0.87271891713741057" />
    <Con id="20094" src="20092" tgt="184" wght="1" />
    <Con id="20291" src="19415" tgt="3507" wght="-0.98536512155926448" />
    <Con id="21292" src="704" tgt="18754" wght="0.92196561713665837" />
    <Con id="21294" src="3" tgt="21293" wght="-0.11620672720512396" />
    <Con id="21295" src="21293" tgt="7" wght="1" />
    <Con id="21398" src="20092" tgt="44" wght="0.90311272861436009" />
    <Con id="21549" src="19078" tgt="21548" wght="-0.16986419924021962" />
    <Con id="21550" src="21548" tgt="5087" wght="0.96048283822653024" />
    <Con id="21629" src="1190" tgt="21628" wght="-0.68366508829361139" />
    <Con id="21630" src="21628" tgt="212" wght="-0.028179489010348086" />
    <Con id="22289" src="17625" tgt="4528" wght="-0.67524589560850379" />
    <Con id="22414" src="5087" tgt="21293" wght="-0.30999866512990265" />
    <Con id="22489" src="4375" tgt="22488" wght="-0.14039135186344884" />
    <Con id="22490" src="22488" tgt="145" wght="1" />
    <Con id="23155" src="19415" tgt="22488" wght="-0.99831279305205711" />
    <Con id="23561" src="0" tgt="23560" wght="1" />
    <Con id="23562" src="23560" tgt="4528" wght="0.28967440594086036" />
    <Con id="23657" src="6" tgt="21628" wght="0.26077224501743079" />
    <Con id="23796" src="22488" tgt="5642" wght="-0.44634141451167775" />
    <Con id="24510" src="23560" tgt="3507" wght="0.98490961905889118" />
    <Con id="24831" src="5087" tgt="24830" wght="-0.62144536431294151" />
    <Con id="24832" src="24830" tgt="249" wght="-0.93117982556073919" />
    <Con id="24895" src="704" tgt="24830" wght="0.41403992334380746" />
  </Connections>
</Network>