<Network id="80794" birthGen="161" fitness="0.99984900376447239">
  <Nodes>
    <Node type="bias" id="0" fnId="0" />
    <Node type="in" id="1" fnId="0" />
    <Node type="in" id="2" fnId="0" />
    <Node type="out" id="3" fnId="0" />
    <Node type="out" id="4" fnId="0" />
    <Node type="out" id="5" fnId="0" />
    <Node type="out" id="6" fnId="0" />
    <Node type="out" id="7" fnId="0" />
    <Node type="out" id="8" fnId="0" />
    <Node type="out" id="9" fnId="0" />
    <Node type="out" id="10" fnId="0" />
    <Node type="out" id="11" fnId="0" />
    <Node type="out" id="12" fnId="0" />
    <Node type="out" id="13" fnId="0" />
    <Node type="out" id="14" fnId="0" />
    <Node type="out" id="15" fnId="0" />
    <Node type="out" id="16" fnId="0" />
    <Node type="out" id="17" fnId="0" />
    <Node type="out" id="18" fnId="0" />
    <Node type="out" id="19" fnId="0" />
    <Node type="out" id="20" fnId="0" />
    <Node type="out" id="21" fnId="0" />
    <Node type="out" id="22" fnId="0" />
    <Node type="out" id="23" fnId="0" />
    <Node type="out" id="24" fnId="0" />
    <Node type="out" id="25" fnId="0" />
    <Node type="out" id="26" fnId="0" />
    <Node type="out" id="27" fnId="0" />
    <Node type="out" id="28" fnId="0" />
    <Node type="out" id="29" fnId="0" />
    <Node type="out" id="30" fnId="0" />
    <Node type="hid" id="31" fnId="2" />
    <Node type="hid" id="113" fnId="1" />
    <Node type="hid" id="170" fnId="0" />
    <Node type="hid" id="785" fnId="3" />
    <Node type="hid" id="1748" fnId="1" />
    <Node type="hid" id="1870" fnId="0" />
    <Node type="hid" id="1887" fnId="1" />
    <Node type="hid" id="2286" fnId="3" />
    <Node type="hid" id="2311" fnId="2" />
  </Nodes>
  <Connections>
    <Con id="1" src="0" tgt="21" wght="1.7047526258715908" />
    <Con id="2" src="0" tgt="24" wght="-2.6762630326765908" />
    <Con id="4" src="1" tgt="31" wght="1.8502494586861276" />
    <Con id="5" src="2" tgt="31" wght="1.77890593532095" />
    <Con id="6" src="31" tgt="21" wght="2.9908607593881649" />
    <Con id="7" src="31" tgt="24" wght="3" />
    <Con id="8" src="31" tgt="27" wght="2.6609069198606257" />
    <Con id="9" src="1" tgt="3" wght="-1.8637443137913414" />
    <Con id="11" src="1" tgt="5" wght="2.991576023127466" />
    <Con id="12" src="1" tgt="6" wght="-0.14762097923085094" />
    <Con id="13" src="1" tgt="7" wght="-2.5521515403350525" />
    <Con id="14" src="1" tgt="8" wght="1.420808020678338" />
    <Con id="15" src="1" tgt="9" wght="3" />
    <Con id="16" src="1" tgt="10" wght="0.23893042373802045" />
    <Con id="17" src="1" tgt="11" wght="1.8558082957752049" />
    <Con id="18" src="1" tgt="12" wght="2.9215379577022764" />
    <Con id="19" src="1" tgt="13" wght="2.0028931851204694" />
    <Con id="20" src="1" tgt="14" wght="1.7328533395591326" />
    <Con id="21" src="1" tgt="15" wght="-3" />
    <Con id="22" src="1" tgt="16" wght="1.3259055032394826" />
    <Con id="23" src="1" tgt="17" wght="0.37339133353431853" />
    <Con id="24" src="1" tgt="18" wght="3" />
    <Con id="25" src="1" tgt="19" wght="2.251945677746642" />
    <Con id="26" src="1" tgt="20" wght="1.3349204442656664" />
    <Con id="27" src="1" tgt="21" wght="2.5907732362928724" />
    <Con id="28" src="1" tgt="22" wght="2.8124691067408243" />
    <Con id="29" src="1" tgt="23" wght="3" />
    <Con id="30" src="1" tgt="24" wght="-0.27954551895690632" />
    <Con id="31" src="1" tgt="25" wght="0.54933879331399627" />
    <Con id="33" src="1" tgt="27" wght="-0.43169321090412893" />
    <Con id="34" src="1" tgt="28" wght="1.4107372309269464" />
    <Con id="35" src="1" tgt="29" wght="0.064025787323923472" />
    <Con id="36" src="1" tgt="30" wght="0.53841720245836455" />
    <Con id="37" src="2" tgt="3" wght="0.36812638760419125" />
    <Con id="38" src="2" tgt="4" wght="0.23853069460349358" />
    <Con id="39" src="2" tgt="5" wght="-2.5427295979729752" />
    <Con id="40" src="2" tgt="6" wght="-1.130036754119947" />
    <Con id="42" src="2" tgt="8" wght="3" />
    <Con id="43" src="2" tgt="9" wght="-1.6163019356537911" />
    <Con id="44" src="2" tgt="10" wght="1.9949726966949055" />
    <Con id="46" src="2" tgt="12" wght="1.8063063040729706" />
    <Con id="47" src="2" tgt="13" wght="-1.447667300917121" />
    <Con id="48" src="2" tgt="14" wght="-0.29548795536902639" />
    <Con id="49" src="2" tgt="15" wght="0.012943925128073248" />
    <Con id="50" src="2" tgt="16" wght="-0.93479470082121741" />
    <Con id="51" src="2" tgt="17" wght="0.062146949347935992" />
    <Con id="52" src="2" tgt="18" wght="0.79536338472333645" />
    <Con id="53" src="2" tgt="19" wght="-2.2549065307053224" />
    <Con id="54" src="2" tgt="20" wght="1.0713912092168834" />
    <Con id="55" src="2" tgt="21" wght="-2.023714031383701" />
    <Con id="56" src="2" tgt="22" wght="0.082635512491641527" />
    <Con id="57" src="2" tgt="23" wght="-0.95054634846746922" />
    <Con id="58" src="2" tgt="24" wght="-0.18120338302105665" />
    <Con id="59" src="2" tgt="25" wght="3" />
    <Con id="60" src="2" tgt="26" wght="-0.21774590004899527" />
    <Con id="61" src="2" tgt="27" wght="-0.5422157249301206" />
    <Con id="62" src="2" tgt="28" wght="0.062663402858820189" />
    <Con id="63" src="2" tgt="29" wght="-1.4807553487416321" />
    <Con id="64" src="2" tgt="30" wght="0.054042714078545294" />
    <Con id="65" src="0" tgt="3" wght="-0.95486582159666045" />
    <Con id="66" src="0" tgt="4" wght="2.9226851128534994" />
    <Con id="67" src="0" tgt="5" wght="0.79467889247462153" />
    <Con id="69" src="0" tgt="7" wght="-2.9266900827648685" />
    <Con id="70" src="0" tgt="8" wght="-2.1006789051836621" />
    <Con id="71" src="0" tgt="9" wght="-1.9925288898794786" />
    <Con id="72" src="0" tgt="10" wght="2.9765275530765138" />
    <Con id="73" src="0" tgt="11" wght="-2.0429105568423815" />
    <Con id="74" src="0" tgt="12" wght="-1.1590135399440491" />
    <Con id="75" src="0" tgt="13" wght="1.84009776293122" />
    <Con id="76" src="0" tgt="14" wght="-0.43719149753116704" />
    <Con id="77" src="0" tgt="15" wght="0.37724309939984058" />
    <Con id="78" src="0" tgt="16" wght="0.83440370548874043" />
    <Con id="79" src="0" tgt="17" wght="2.3582661054740659" />
    <Con id="80" src="0" tgt="18" wght="-2.0131743731746283" />
    <Con id="81" src="0" tgt="19" wght="-1.4483485939078524" />
    <Con id="82" src="0" tgt="20" wght="1.8663124954627355" />
    <Con id="83" src="0" tgt="22" wght="-2.9591044033857514" />
    <Con id="84" src="0" tgt="23" wght="-3" />
    <Con id="85" src="0" tgt="25" wght="0.029160265251339832" />
    <Con id="86" src="0" tgt="26" wght="-0.38615657250976776" />
    <Con id="87" src="0" tgt="28" wght="3" />
    <Con id="88" src="0" tgt="29" wght="1.5182937104254961" />
    <Con id="89" src="0" tgt="30" wght="-0.771058870840198" />
    <Con id="94" src="31" tgt="28" wght="-0.016618654883134035" />
    <Con id="114" src="0" tgt="113" wght="0.81841754473416972" />
    <Con id="115" src="113" tgt="6" wght="2.3795617274671916" />
    <Con id="131" src="113" tgt="19" wght="1.3642990261510406" />
    <Con id="171" src="1" tgt="170" wght="0.019710494980739755" />
    <Con id="172" src="170" tgt="4" wght="-0.63922004143270739" />
    <Con id="194" src="1" tgt="26" wght="1.75740389758721" />
    <Con id="237" src="31" tgt="12" wght="-1.0975041387860514" />
    <Con id="277" src="170" tgt="25" wght="2.7382125806001483" />
    <Con id="284" src="170" tgt="3" wght="0.61843222568564671" />
    <Con id="356" src="113" tgt="4" wght="-2.9140103673852829" />
    <Con id="447" src="170" tgt="24" wght="-2.0955711983056062" />
    <Con id="711" src="170" tgt="30" wght="1.9662938404141945" />
    <Con id="714" src="170" tgt="21" wght="3" />
    <Con id="786" src="0" tgt="785" wght="-1.0535656192706824" />
    <Con id="787" src="785" tgt="27" wght="2.2108735246583819" />
    <Con id="1118" src="785" tgt="9" wght="2.9999841941570278" />
    <Con id="1144" src="785" tgt="3" wght="2.1346393257969667" />
    <Con id="1195" src="170" tgt="785" wght="-0.85608562845564573" />
    <Con id="1406" src="170" tgt="14" wght="0.60617347504447094" />
    <Con id="1749" src="2" tgt="1748" wght="1.7889711759053171" />
    <Con id="1750" src="1748" tgt="7" wght="3" />
    <Con id="1852" src="1748" tgt="23" wght="-1.8949943576377526" />
    <Con id="1854" src="1748" tgt="785" wght="-0.050533945160882714" />
    <Con id="1871" src="1" tgt="1870" wght="-1.1175867003349047" />
    <Con id="1872" src="1870" tgt="13" wght="3" />
    <Con id="1888" src="0" tgt="1887" wght="0.069230218965122839" />
    <Con id="1889" src="1887" tgt="16" wght="3" />
    <Con id="1904" src="2" tgt="785" wght="0.22503091868523165" />
    <Con id="1920" src="1887" tgt="9" wght="1.0329823954962194" />
    <Con id="1927" src="1870" tgt="3" wght="-0.86819956916025331" />
    <Con id="1964" src="1887" tgt="1748" wght="0.74126936270671329" />
    <Con id="2018" src="1870" tgt="10" wght="2.3674381899401058" />
    <Con id="2029" src="1870" tgt="16" wght="0.014615707715984319" />
    <Con id="2172" src="113" tgt="1870" wght="-2.3614363512064029" />
    <Con id="2177" src="785" tgt="26" wght="1.6928448672406375" />
    <Con id="2287" src="2" tgt="2286" wght="-0.7574012560421779" />
    <Con id="2288" src="2286" tgt="11" wght="-2.3371518942764817" />
    <Con id="2312" src="0" tgt="2311" wght="1.7047526258715908" />
    <Con id="2313" src="2311" tgt="21" wght="2.9715477764086979" />
  </Connections>
</Network>