<Network id="18262" birthGen="33" fitness="0.99989679853610325">
  <Nodes>
    <Node type="bias" id="0" fnId="0" />
    <Node type="in" id="1" fnId="0" />
    <Node type="in" id="2" fnId="0" />
    <Node type="out" id="3" fnId="0" />
    <Node type="out" id="4" fnId="0" />
    <Node type="out" id="5" fnId="0" />
    <Node type="out" id="6" fnId="0" />
    <Node type="out" id="7" fnId="0" />
    <Node type="out" id="8" fnId="0" />
    <Node type="out" id="9" fnId="0" />
    <Node type="out" id="10" fnId="0" />
    <Node type="out" id="11" fnId="0" />
    <Node type="out" id="12" fnId="0" />
    <Node type="out" id="13" fnId="0" />
    <Node type="out" id="14" fnId="0" />
    <Node type="out" id="15" fnId="0" />
    <Node type="out" id="16" fnId="0" />
    <Node type="out" id="17" fnId="0" />
    <Node type="out" id="18" fnId="0" />
    <Node type="out" id="19" fnId="0" />
    <Node type="out" id="20" fnId="0" />
    <Node type="out" id="21" fnId="0" />
    <Node type="out" id="22" fnId="0" />
    <Node type="out" id="23" fnId="0" />
    <Node type="out" id="24" fnId="0" />
    <Node type="out" id="25" fnId="0" />
    <Node type="out" id="26" fnId="0" />
    <Node type="out" id="27" fnId="0" />
    <Node type="out" id="28" fnId="0" />
    <Node type="out" id="29" fnId="0" />
    <Node type="out" id="30" fnId="0" />
    <Node type="hid" id="31" fnId="2" />
    <Node type="hid" id="113" fnId="1" />
    <Node type="hid" id="170" fnId="0" />
    <Node type="hid" id="785" fnId="3" />
    <Node type="hid" id="1748" fnId="1" />
    <Node type="hid" id="1870" fnId="0" />
    <Node type="hid" id="1887" fnId="1" />
  </Nodes>
  <Connections>
    <Con id="1" src="0" tgt="21" wght="1.7047526258715908" />
    <Con id="2" src="0" tgt="24" wght="-2.6762630326765908" />
    <Con id="4" src="1" tgt="31" wght="1.8502494586861276" />
    <Con id="5" src="2" tgt="31" wght="1.7977701833838482" />
    <Con id="6" src="31" tgt="21" wght="1.4437545692666667" />
    <Con id="7" src="31" tgt="24" wght="3" />
    <Con id="8" src="31" tgt="27" wght="2.6718732669667102" />
    <Con id="9" src="1" tgt="3" wght="-1.9313859331952223" />
    <Con id="11" src="1" tgt="5" wght="2.9917297598086714" />
    <Con id="12" src="1" tgt="6" wght="-3" />
    <Con id="13" src="1" tgt="7" wght="-2.5521515403350525" />
    <Con id="14" src="1" tgt="8" wght="2.1561633709969543" />
    <Con id="15" src="1" tgt="9" wght="0.51337869667313818" />
    <Con id="16" src="1" tgt="10" wght="0.23893042373802045" />
    <Con id="17" src="1" tgt="11" wght="-0.23764899792149663" />
    <Con id="18" src="1" tgt="12" wght="-0.741483055986464" />
    <Con id="19" src="1" tgt="13" wght="2.0119257996801179" />
    <Con id="20" src="1" tgt="14" wght="1.7328533395591326" />
    <Con id="21" src="1" tgt="15" wght="-3" />
    <Con id="22" src="1" tgt="16" wght="1.3259055032394826" />
    <Con id="23" src="1" tgt="17" wght="0.82160996696223576" />
    <Con id="24" src="1" tgt="18" wght="3" />
    <Con id="25" src="1" tgt="19" wght="2.251945677746642" />
    <Con id="26" src="1" tgt="20" wght="2.8620942821420252" />
    <Con id="27" src="1" tgt="21" wght="2.6016536383905224" />
    <Con id="28" src="1" tgt="22" wght="-2.9624338048609964" />
    <Con id="29" src="1" tgt="23" wght="1.0326387372245409" />
    <Con id="30" src="1" tgt="24" wght="-0.27954551895690632" />
    <Con id="31" src="1" tgt="25" wght="0.49468348797273914" />
    <Con id="33" src="1" tgt="27" wght="-0.28011080036271663" />
    <Con id="34" src="1" tgt="28" wght="1.431300356358149" />
    <Con id="35" src="1" tgt="29" wght="-0.50107826773063779" />
    <Con id="36" src="1" tgt="30" wght="0.53841720245836455" />
    <Con id="37" src="2" tgt="3" wght="0.36812638760419125" />
    <Con id="38" src="2" tgt="4" wght="0.53101397484503721" />
    <Con id="39" src="2" tgt="5" wght="-2.5553564974311924" />
    <Con id="40" src="2" tgt="6" wght="-1.05603803814373" />
    <Con id="42" src="2" tgt="8" wght="2.9397624414183996" />
    <Con id="43" src="2" tgt="9" wght="-0.3506492453182794" />
    <Con id="44" src="2" tgt="10" wght="-0.24971580086275935" />
    <Con id="45" src="2" tgt="11" wght="-1.6338273107991403" />
    <Con id="46" src="2" tgt="12" wght="-2.3931621156424852" />
    <Con id="47" src="2" tgt="13" wght="0.079482652949132426" />
    <Con id="48" src="2" tgt="14" wght="-0.29407263099087133" />
    <Con id="49" src="2" tgt="15" wght="0.012943925128073248" />
    <Con id="50" src="2" tgt="16" wght="-1.1988794915378094" />
    <Con id="51" src="2" tgt="17" wght="-2.4007538222340985" />
    <Con id="52" src="2" tgt="18" wght="0.024579925285266133" />
    <Con id="53" src="2" tgt="19" wght="3" />
    <Con id="54" src="2" tgt="20" wght="1.036277186410796" />
    <Con id="55" src="2" tgt="21" wght="-2.0340262984037061" />
    <Con id="56" src="2" tgt="22" wght="-0.0024687585187459478" />
    <Con id="57" src="2" tgt="23" wght="-0.95054634846746922" />
    <Con id="58" src="2" tgt="24" wght="-0.18120338302105665" />
    <Con id="59" src="2" tgt="25" wght="1.3463242927465238" />
    <Con id="60" src="2" tgt="26" wght="-0.23190870076253067" />
    <Con id="61" src="2" tgt="27" wght="0.13745114783700235" />
    <Con id="62" src="2" tgt="28" wght="0.13464899111373613" />
    <Con id="63" src="2" tgt="29" wght="-0.59241758465326988" />
    <Con id="64" src="2" tgt="30" wght="0.0059633393367260618" />
    <Con id="65" src="0" tgt="3" wght="-2.3299823787919651" />
    <Con id="66" src="0" tgt="4" wght="2.9087336137187325" />
    <Con id="67" src="0" tgt="5" wght="0.79467889247462153" />
    <Con id="69" src="0" tgt="7" wght="-2.9266900827648685" />
    <Con id="70" src="0" tgt="8" wght="-2.154408518249582" />
    <Con id="71" src="0" tgt="9" wght="-2.1312541523613704" />
    <Con id="72" src="0" tgt="10" wght="2.9765275530765138" />
    <Con id="73" src="0" tgt="11" wght="-2.0512816397491695" />
    <Con id="74" src="0" tgt="12" wght="0.75884762043834808" />
    <Con id="75" src="0" tgt="13" wght="-2.9312540470708561" />
    <Con id="76" src="0" tgt="14" wght="0.23068106118806597" />
    <Con id="77" src="0" tgt="15" wght="0.38527898617447176" />
    <Con id="78" src="0" tgt="16" wght="0.86185716162893644" />
    <Con id="79" src="0" tgt="17" wght="2.6781363704949137" />
    <Con id="80" src="0" tgt="18" wght="-1.1600717279591393" />
    <Con id="81" src="0" tgt="19" wght="-0.75169060658665277" />
    <Con id="82" src="0" tgt="20" wght="1.6139654533945005" />
    <Con id="83" src="0" tgt="22" wght="-2.9591044033857514" />
    <Con id="84" src="0" tgt="23" wght="-3" />
    <Con id="85" src="0" tgt="25" wght="0.0096498948151665584" />
    <Con id="86" src="0" tgt="26" wght="-2.3665632738413778" />
    <Con id="87" src="0" tgt="28" wght="2.670839280467793" />
    <Con id="88" src="0" tgt="29" wght="2.3196055142469403" />
    <Con id="89" src="0" tgt="30" wght="-1.7129642167821237" />
    <Con id="94" src="31" tgt="28" wght="1.6917813477405799" />
    <Con id="114" src="0" tgt="113" wght="-1.5793747181900397" />
    <Con id="115" src="113" tgt="6" wght="2.3894856182537487" />
    <Con id="131" src="113" tgt="19" wght="-0.027676345710508365" />
    <Con id="171" src="1" tgt="170" wght="0.019710494980739755" />
    <Con id="172" src="170" tgt="4" wght="1.3850249536574091" />
    <Con id="194" src="1" tgt="26" wght="2.0638037114404142" />
    <Con id="237" src="31" tgt="12" wght="1.1251988047733903" />
    <Con id="277" src="170" tgt="25" wght="-0.7845638532307766" />
    <Con id="284" src="170" tgt="3" wght="2.4397986114818058" />
    <Con id="356" src="113" tgt="4" wght="-2.8961887070909142" />
    <Con id="447" src="170" tgt="24" wght="-2.6826029545715091" />
    <Con id="711" src="170" tgt="30" wght="1.0982388221493737" />
    <Con id="714" src="170" tgt="21" wght="1.2708263518690965" />
    <Con id="786" src="0" tgt="785" wght="-0.68105577724054456" />
    <Con id="787" src="785" tgt="27" wght="2.2044358984861714" />
    <Con id="1118" src="785" tgt="9" wght="1.4374968616076487" />
    <Con id="1144" src="785" tgt="3" wght="2.3069671089884647" />
    <Con id="1195" src="170" tgt="785" wght="-0.85608562845564573" />
    <Con id="1406" src="170" tgt="14" wght="1.2035238523967564" />
    <Con id="1749" src="2" tgt="1748" wght="-2.9950374068121577" />
    <Con id="1750" src="1748" tgt="7" wght="0.76974462066749583" />
    <Con id="1852" src="1748" tgt="23" wght="-1.9029614479810069" />
    <Con id="1854" src="1748" tgt="785" wght="-0.0832646219059825" />
    <Con id="1871" src="1" tgt="1870" wght="-2.6280649385549917" />
    <Con id="1872" src="1870" tgt="13" wght="2.4443585882309939" />
    <Con id="1888" src="0" tgt="1887" wght="0.0302826250592269" />
    <Con id="1889" src="1887" tgt="16" wght="2.9779076997566549" />
    <Con id="1904" src="2" tgt="785" wght="-0.40662238234654069" />
    <Con id="1920" src="1887" tgt="9" wght="1.0329823954962194" />
    <Con id="1927" src="1870" tgt="3" wght="-0.86135203015119965" />
    <Con id="1964" src="1887" tgt="1748" wght="-1.8049470072996634" />
    <Con id="2018" src="1870" tgt="10" wght="2.3346614926122129" />
    <Con id="2029" src="1870" tgt="16" wght="0.35678957295260966" />
    <Con id="2172" src="113" tgt="1870" wght="-2.354829290502245" />
    <Con id="2221" src="1870" tgt="9" wght="-0.92553860787302256" />
    <Con id="2233" src="1870" tgt="20" wght="-0.060507712952439174" />
  </Connections>
</Network>