<Network id="53458" birthGen="109" fitness="0.99982243729687481">
  <Nodes>
    <Node type="bias" id="0" fnId="0" />
    <Node type="in" id="1" fnId="0" />
    <Node type="in" id="2" fnId="0" />
    <Node type="out" id="3" fnId="0" />
    <Node type="out" id="4" fnId="0" />
    <Node type="out" id="5" fnId="0" />
    <Node type="out" id="6" fnId="0" />
    <Node type="out" id="7" fnId="0" />
    <Node type="out" id="8" fnId="0" />
    <Node type="out" id="9" fnId="0" />
    <Node type="out" id="10" fnId="0" />
    <Node type="out" id="11" fnId="0" />
    <Node type="out" id="12" fnId="0" />
    <Node type="out" id="13" fnId="0" />
    <Node type="out" id="14" fnId="0" />
    <Node type="out" id="15" fnId="0" />
    <Node type="out" id="16" fnId="0" />
    <Node type="out" id="17" fnId="0" />
    <Node type="out" id="18" fnId="0" />
    <Node type="out" id="19" fnId="0" />
    <Node type="out" id="20" fnId="0" />
    <Node type="out" id="21" fnId="0" />
    <Node type="out" id="22" fnId="0" />
    <Node type="out" id="23" fnId="0" />
    <Node type="out" id="24" fnId="0" />
    <Node type="out" id="25" fnId="0" />
    <Node type="out" id="26" fnId="0" />
    <Node type="out" id="27" fnId="0" />
    <Node type="out" id="28" fnId="0" />
    <Node type="out" id="29" fnId="0" />
    <Node type="out" id="30" fnId="0" />
    <Node type="hid" id="31" fnId="2" />
    <Node type="hid" id="193" fnId="2" />
  </Nodes>
  <Connections>
    <Con id="1" src="0" tgt="21" wght="-1" />
    <Con id="2" src="0" tgt="24" wght="-1.4481007818734168" />
    <Con id="3" src="0" tgt="27" wght="-1" />
    <Con id="4" src="1" tgt="31" wght="3" />
    <Con id="5" src="2" tgt="31" wght="-3" />
    <Con id="6" src="31" tgt="21" wght="0.99912024795982279" />
    <Con id="7" src="31" tgt="24" wght="2.1524353972636163" />
    <Con id="8" src="31" tgt="27" wght="2.63238249115581" />
    <Con id="9" src="1" tgt="3" wght="0" />
    <Con id="10" src="1" tgt="4" wght="0" />
    <Con id="11" src="1" tgt="5" wght="-0.0043477932255512781" />
    <Con id="12" src="1" tgt="6" wght="0" />
    <Con id="13" src="1" tgt="7" wght="-3" />
    <Con id="14" src="1" tgt="8" wght="0.97075342504657869" />
    <Con id="15" src="1" tgt="9" wght="0" />
    <Con id="16" src="1" tgt="10" wght="0.027611253183094996" />
    <Con id="17" src="1" tgt="11" wght="1.0502405094484881" />
    <Con id="18" src="1" tgt="12" wght="0.024557650712918433" />
    <Con id="19" src="1" tgt="13" wght="0" />
    <Con id="20" src="1" tgt="14" wght="-0.93367093848064542" />
    <Con id="21" src="1" tgt="15" wght="-1.4831899032034401" />
    <Con id="22" src="1" tgt="16" wght="3" />
    <Con id="23" src="1" tgt="17" wght="0.011716065907171896" />
    <Con id="24" src="1" tgt="18" wght="-0.59113368747319173" />
    <Con id="25" src="1" tgt="19" wght="-2.0745999773525909" />
    <Con id="26" src="1" tgt="20" wght="-0.790798048720166" />
    <Con id="27" src="1" tgt="21" wght="3" />
    <Con id="28" src="1" tgt="22" wght="-0.15162260444004283" />
    <Con id="29" src="1" tgt="23" wght="-0.30933271402185258" />
    <Con id="30" src="1" tgt="24" wght="0" />
    <Con id="31" src="1" tgt="25" wght="0" />
    <Con id="32" src="1" tgt="26" wght="1.3213507280210761" />
    <Con id="33" src="1" tgt="27" wght="0" />
    <Con id="34" src="1" tgt="28" wght="0" />
    <Con id="35" src="1" tgt="29" wght="0" />
    <Con id="36" src="1" tgt="30" wght="0" />
    <Con id="37" src="2" tgt="3" wght="-2.4460895209900668" />
    <Con id="38" src="2" tgt="4" wght="0.52022013673558831" />
    <Con id="39" src="2" tgt="5" wght="-0.018634831735147121" />
    <Con id="40" src="2" tgt="6" wght="-0.87890221323120332" />
    <Con id="41" src="2" tgt="7" wght="-1.680525470059365" />
    <Con id="42" src="2" tgt="8" wght="-0.00725619022983923" />
    <Con id="43" src="2" tgt="9" wght="0" />
    <Con id="44" src="2" tgt="10" wght="0.015734613645321319" />
    <Con id="45" src="2" tgt="11" wght="-0.642279387984406" />
    <Con id="46" src="2" tgt="12" wght="0" />
    <Con id="47" src="2" tgt="13" wght="0.0344848607927111" />
    <Con id="48" src="2" tgt="14" wght="-0.50392042673032833" />
    <Con id="49" src="2" tgt="15" wght="0" />
    <Con id="50" src="2" tgt="16" wght="0.015426432264622279" />
    <Con id="51" src="2" tgt="17" wght="0" />
    <Con id="52" src="2" tgt="18" wght="0" />
    <Con id="53" src="2" tgt="19" wght="0" />
    <Con id="54" src="2" tgt="20" wght="-2.985970180668613" />
    <Con id="55" src="2" tgt="21" wght="-0.015328400574543901" />
    <Con id="56" src="2" tgt="22" wght="0.83818197515845494" />
    <Con id="57" src="2" tgt="23" wght="0.011880535113377442" />
    <Con id="58" src="2" tgt="24" wght="0.44557895574550976" />
    <Con id="59" src="2" tgt="25" wght="0.97458682206321123" />
    <Con id="60" src="2" tgt="26" wght="0" />
    <Con id="61" src="2" tgt="27" wght="0.57502179464284" />
    <Con id="62" src="2" tgt="28" wght="-2.4490539785474539" />
    <Con id="63" src="2" tgt="29" wght="-0.336977671510936" />
    <Con id="64" src="2" tgt="30" wght="-0.32743191719055176" />
    <Con id="65" src="0" tgt="3" wght="0.0057960558088832655" />
    <Con id="66" src="0" tgt="4" wght="-1.3580335005204465" />
    <Con id="67" src="0" tgt="5" wght="0.014275114102537932" />
    <Con id="68" src="0" tgt="6" wght="1.2481545601040125" />
    <Con id="69" src="0" tgt="7" wght="0" />
    <Con id="70" src="0" tgt="8" wght="1.423950951969349" />
    <Con id="71" src="0" tgt="9" wght="0" />
    <Con id="72" src="0" tgt="10" wght="-0.977276529383672" />
    <Con id="73" src="0" tgt="11" wght="2.0015219825206576" />
    <Con id="74" src="0" tgt="12" wght="-1.4566202567194662" />
    <Con id="75" src="0" tgt="13" wght="0" />
    <Con id="76" src="0" tgt="14" wght="-2.3470035050577454" />
    <Con id="77" src="0" tgt="15" wght="-0.5088971214993312" />
    <Con id="78" src="0" tgt="16" wght="0" />
    <Con id="79" src="0" tgt="17" wght="-0.0095284041240603" />
    <Con id="80" src="0" tgt="18" wght="0" />
    <Con id="81" src="0" tgt="19" wght="-1" />
    <Con id="82" src="0" tgt="20" wght="-0.093422359522573384" />
    <Con id="83" src="0" tgt="22" wght="-1" />
    <Con id="84" src="0" tgt="23" wght="-1.8949763072197605" />
    <Con id="85" src="0" tgt="25" wght="-1" />
    <Con id="86" src="0" tgt="26" wght="-1.648842419571005" />
    <Con id="87" src="0" tgt="28" wght="-1.0247046589116793" />
    <Con id="88" src="0" tgt="29" wght="2.3537273467518389" />
    <Con id="89" src="0" tgt="30" wght="-0.99355024361126887" />
    <Con id="194" src="2" tgt="193" wght="0" />
    <Con id="195" src="193" tgt="9" wght="3" />
  </Connections>
</Network>