<Network id="35747" birthGen="72" fitness="0.99963286173437638">
  <Nodes>
    <Node type="bias" id="0" fnId="0" />
    <Node type="in" id="1" fnId="0" />
    <Node type="in" id="2" fnId="0" />
    <Node type="out" id="3" fnId="0" />
    <Node type="out" id="4" fnId="0" />
    <Node type="out" id="5" fnId="0" />
    <Node type="out" id="6" fnId="0" />
    <Node type="out" id="7" fnId="0" />
    <Node type="out" id="8" fnId="0" />
    <Node type="out" id="9" fnId="0" />
    <Node type="out" id="10" fnId="0" />
    <Node type="out" id="11" fnId="0" />
    <Node type="out" id="12" fnId="0" />
    <Node type="out" id="13" fnId="0" />
    <Node type="out" id="14" fnId="0" />
    <Node type="out" id="15" fnId="0" />
    <Node type="out" id="16" fnId="0" />
    <Node type="out" id="17" fnId="0" />
    <Node type="out" id="18" fnId="0" />
    <Node type="out" id="19" fnId="0" />
    <Node type="out" id="20" fnId="0" />
    <Node type="out" id="21" fnId="0" />
    <Node type="out" id="22" fnId="0" />
    <Node type="out" id="23" fnId="0" />
    <Node type="out" id="24" fnId="0" />
    <Node type="out" id="25" fnId="0" />
    <Node type="out" id="26" fnId="0" />
    <Node type="out" id="27" fnId="0" />
    <Node type="out" id="28" fnId="0" />
    <Node type="out" id="29" fnId="0" />
    <Node type="out" id="30" fnId="0" />
    <Node type="hid" id="31" fnId="2" />
    <Node type="hid" id="115" fnId="2" />
  </Nodes>
  <Connections>
    <Con id="1" src="0" tgt="21" wght="-0.95608904556257679" />
    <Con id="2" src="0" tgt="24" wght="-1.179208503832488" />
    <Con id="3" src="0" tgt="27" wght="-0.815564297424128" />
    <Con id="4" src="1" tgt="31" wght="1" />
    <Con id="5" src="2" tgt="31" wght="-1" />
    <Con id="6" src="31" tgt="21" wght="1.003580983389804" />
    <Con id="7" src="31" tgt="24" wght="1.6310482649132609" />
    <Con id="8" src="31" tgt="27" wght="1" />
    <Con id="9" src="1" tgt="3" wght="-1.161819496969962" />
    <Con id="10" src="1" tgt="4" wght="0.013321193125468157" />
    <Con id="11" src="1" tgt="5" wght="2.1140797653037917" />
    <Con id="12" src="1" tgt="6" wght="0" />
    <Con id="13" src="1" tgt="7" wght="0" />
    <Con id="14" src="1" tgt="8" wght="-0.00738349277331107" />
    <Con id="15" src="1" tgt="9" wght="-0.0049287791224738768" />
    <Con id="16" src="1" tgt="10" wght="-1.9243050231496128" />
    <Con id="17" src="1" tgt="11" wght="0" />
    <Con id="18" src="1" tgt="12" wght="0.18508037280932208" />
    <Con id="19" src="1" tgt="13" wght="0.009982290963436221" />
    <Con id="20" src="1" tgt="14" wght="0" />
    <Con id="21" src="1" tgt="15" wght="0" />
    <Con id="22" src="1" tgt="16" wght="0" />
    <Con id="23" src="1" tgt="17" wght="0" />
    <Con id="24" src="1" tgt="18" wght="-1.9442529673688114" />
    <Con id="25" src="1" tgt="19" wght="-0.030030652823417676" />
    <Con id="26" src="1" tgt="20" wght="-1.7894762196221963" />
    <Con id="27" src="1" tgt="21" wght="-1.9679287323377444" />
    <Con id="29" src="1" tgt="23" wght="0" />
    <Con id="30" src="1" tgt="24" wght="0" />
    <Con id="31" src="1" tgt="25" wght="-1.3005948951467872" />
    <Con id="32" src="1" tgt="26" wght="-0.70973398280597488" />
    <Con id="33" src="1" tgt="27" wght="0" />
    <Con id="34" src="1" tgt="28" wght="0" />
    <Con id="35" src="1" tgt="29" wght="0" />
    <Con id="36" src="1" tgt="30" wght="0.62343667413723" />
    <Con id="37" src="2" tgt="3" wght="0.72608565352857113" />
    <Con id="38" src="2" tgt="4" wght="0" />
    <Con id="39" src="2" tgt="5" wght="0" />
    <Con id="40" src="2" tgt="6" wght="-1.1082920444789963" />
    <Con id="41" src="2" tgt="7" wght="0" />
    <Con id="42" src="2" tgt="8" wght="-1.2667006335672835" />
    <Con id="43" src="2" tgt="9" wght="0.97567104175686836" />
    <Con id="44" src="2" tgt="10" wght="2.9114894703961909" />
    <Con id="45" src="2" tgt="11" wght="0.021676316117289311" />
    <Con id="46" src="2" tgt="12" wght="-0.013231289230864553" />
    <Con id="47" src="2" tgt="13" wght="-2.7581162116935487" />
    <Con id="48" src="2" tgt="14" wght="-1.8596277786936764" />
    <Con id="49" src="2" tgt="15" wght="0" />
    <Con id="50" src="2" tgt="16" wght="0" />
    <Con id="51" src="2" tgt="17" wght="0" />
    <Con id="52" src="2" tgt="18" wght="1.4285783898085356" />
    <Con id="53" src="2" tgt="19" wght="-2.4351593771513063" />
    <Con id="54" src="2" tgt="20" wght="0" />
    <Con id="55" src="2" tgt="21" wght="0" />
    <Con id="56" src="2" tgt="22" wght="0" />
    <Con id="57" src="2" tgt="23" wght="0.015133761278134662" />
    <Con id="58" src="2" tgt="24" wght="0" />
    <Con id="59" src="2" tgt="25" wght="0" />
    <Con id="60" src="2" tgt="26" wght="-1.0310739276667649" />
    <Con id="61" src="2" tgt="27" wght="-0.0061619085208039284" />
    <Con id="62" src="2" tgt="28" wght="1.7143981656990945" />
    <Con id="63" src="2" tgt="29" wght="-0.0284512097371602" />
    <Con id="64" src="2" tgt="30" wght="0" />
    <Con id="65" src="0" tgt="3" wght="0" />
    <Con id="66" src="0" tgt="4" wght="-0.26257239548201028" />
    <Con id="67" src="0" tgt="5" wght="0" />
    <Con id="68" src="0" tgt="6" wght="0" />
    <Con id="69" src="0" tgt="7" wght="-0.037714619681133946" />
    <Con id="70" src="0" tgt="8" wght="2.5401853073662046" />
    <Con id="71" src="0" tgt="9" wght="1.632520342245698" />
    <Con id="72" src="0" tgt="10" wght="-2.3655326455296515" />
    <Con id="73" src="0" tgt="11" wght="0.7840795287997645" />
    <Con id="74" src="0" tgt="12" wght="0" />
    <Con id="75" src="0" tgt="13" wght="0" />
    <Con id="76" src="0" tgt="14" wght="0" />
    <Con id="77" src="0" tgt="15" wght="-0.46917584169761456" />
    <Con id="78" src="0" tgt="16" wght="-0.01869443155169034" />
    <Con id="79" src="0" tgt="17" wght="0.013792359660343452" />
    <Con id="80" src="0" tgt="18" wght="0.33920726916783606" />
    <Con id="81" src="0" tgt="19" wght="-1" />
    <Con id="82" src="0" tgt="20" wght="2.0205184263177216" />
    <Con id="83" src="0" tgt="22" wght="-2.2307241303407737" />
    <Con id="84" src="0" tgt="23" wght="2.690255549736321" />
    <Con id="85" src="0" tgt="25" wght="-1" />
    <Con id="86" src="0" tgt="26" wght="-0.97633120829701292" />
    <Con id="87" src="0" tgt="28" wght="0.51131059424841219" />
    <Con id="88" src="0" tgt="29" wght="-1.4826581073859781" />
    <Con id="89" src="0" tgt="30" wght="-3" />
    <Con id="95" src="31" tgt="26" wght="-2.458303727209568" />
    <Con id="116" src="1" tgt="115" wght="1.1657965148021798" />
    <Con id="117" src="115" tgt="22" wght="1.1718673915326869" />
  </Connections>
</Network>