<Network id="299297" birthGen="609" fitness="0.99903234728252854">
  <Nodes>
    <Node type="bias" id="0" fnId="0" />
    <Node type="in" id="1" fnId="0" />
    <Node type="in" id="2" fnId="0" />
    <Node type="in" id="3" fnId="0" />
    <Node type="in" id="4" fnId="0" />
    <Node type="in" id="5" fnId="0" />
    <Node type="in" id="6" fnId="0" />
    <Node type="out" id="7" fnId="0" />
    <Node type="out" id="8" fnId="0" />
    <Node type="out" id="9" fnId="0" />
    <Node type="hid" id="10" fnId="2" />
    <Node type="hid" id="11" fnId="2" />
    <Node type="hid" id="44" fnId="3" />
    <Node type="hid" id="54" fnId="0" />
    <Node type="hid" id="57" fnId="2" />
    <Node type="hid" id="87" fnId="2" />
    <Node type="hid" id="109" fnId="0" />
    <Node type="hid" id="137" fnId="0" />
    <Node type="hid" id="457" fnId="0" />
    <Node type="hid" id="539" fnId="3" />
    <Node type="hid" id="544" fnId="3" />
    <Node type="hid" id="579" fnId="3" />
    <Node type="hid" id="671" fnId="1" />
    <Node type="hid" id="688" fnId="0" />
    <Node type="hid" id="692" fnId="3" />
    <Node type="hid" id="1684" fnId="1" />
  </Nodes>
  <Connections>
    <Con id="1" src="0" tgt="9" wght="-0.28188001396008439" />
    <Con id="2" src="1" tgt="10" wght="1" />
    <Con id="3" src="2" tgt="11" wght="-1" />
    <Con id="4" src="4" tgt="10" wght="-0.98262868098827449" />
    <Con id="5" src="5" tgt="11" wght="-0.9659334625639221" />
    <Con id="6" src="10" tgt="9" wght="0.98025191395914468" />
    <Con id="7" src="11" tgt="9" wght="0.91579782690524658" />
    <Con id="8" src="1" tgt="7" wght="-0.7489259078906505" />
    <Con id="9" src="1" tgt="8" wght="0.86287643912735523" />
    <Con id="10" src="2" tgt="7" wght="-0.0096910387238053584" />
    <Con id="11" src="2" tgt="8" wght="1" />
    <Con id="12" src="3" tgt="7" wght="-0.012662321416705128" />
    <Con id="13" src="3" tgt="8" wght="-0.44813716984356805" />
    <Con id="14" src="4" tgt="7" wght="0.70528970146962455" />
    <Con id="15" src="4" tgt="8" wght="0.39702295466340476" />
    <Con id="16" src="5" tgt="7" wght="0.036650082523385821" />
    <Con id="17" src="5" tgt="8" wght="-0.10200249620244575" />
    <Con id="18" src="6" tgt="7" wght="-0.0061629870239912317" />
    <Con id="19" src="6" tgt="8" wght="-0.0027954594043297781" />
    <Con id="20" src="0" tgt="7" wght="0.4887336094962238" />
    <Con id="21" src="0" tgt="8" wght="-0.69690187467932285" />
    <Con id="22" src="0" tgt="10" wght="-1" />
    <Con id="23" src="0" tgt="11" wght="0.513814957254624" />
    <Con id="24" src="5" tgt="9" wght="0.00304150627925992" />
    <Con id="26" src="11" tgt="8" wght="-0.8466724563199447" />
    <Con id="27" src="5" tgt="10" wght="0.064204922794323549" />
    <Con id="29" src="2" tgt="9" wght="0.78059466974809766" />
    <Con id="30" src="11" tgt="7" wght="-0.95908995963340116" />
    <Con id="32" src="10" tgt="7" wght="0.7386715930233525" />
    <Con id="33" src="6" tgt="9" wght="0.44270943287584114" />
    <Con id="41" src="11" tgt="10" wght="0.66880036750046856" />
    <Con id="45" src="0" tgt="44" wght="-1" />
    <Con id="46" src="44" tgt="9" wght="-0.41249864373025952" />
    <Con id="55" src="3" tgt="54" wght="-0.24602052967668214" />
    <Con id="56" src="54" tgt="8" wght="0.36281147217588755" />
    <Con id="58" src="0" tgt="57" wght="-0.59135224309777223" />
    <Con id="59" src="57" tgt="9" wght="-0.99605617128746227" />
    <Con id="76" src="57" tgt="8" wght="-0.44944608229496874" />
    <Con id="78" src="6" tgt="11" wght="0.80379893980321637" />
    <Con id="85" src="6" tgt="44" wght="-0.069247916249301475" />
    <Con id="86" src="1" tgt="11" wght="0.77828661278418143" />
    <Con id="88" src="0" tgt="87" wght="-0.95233797235855544" />
    <Con id="89" src="87" tgt="7" wght="-0.38369430395922061" />
    <Con id="90" src="4" tgt="11" wght="0.29258517096967018" />
    <Con id="94" src="57" tgt="10" wght="0.777231152701046" />
    <Con id="110" src="1" tgt="109" wght="0.92498400341719389" />
    <Con id="111" src="109" tgt="8" wght="0.4635940000176566" />
    <Con id="138" src="2" tgt="137" wght="-0.94292228514801835" />
    <Con id="139" src="137" tgt="10" wght="0.97258406308556722" />
    <Con id="176" src="87" tgt="11" wght="0.98303617579241109" />
    <Con id="190" src="137" tgt="87" wght="0.11277076255886276" />
    <Con id="238" src="44" tgt="87" wght="-0.9920097767989281" />
    <Con id="242" src="137" tgt="11" wght="0.28200201893019172" />
    <Con id="243" src="109" tgt="54" wght="-0.48646100280348115" />
    <Con id="254" src="137" tgt="109" wght="-1" />
    <Con id="282" src="137" tgt="54" wght="-0.32891861545765594" />
    <Con id="324" src="4" tgt="109" wght="-1" />
    <Con id="345" src="6" tgt="109" wght="-0.10260306087951225" />
    <Con id="458" src="0" tgt="457" wght="0.11467264177934924" />
    <Con id="459" src="457" tgt="9" wght="1" />
    <Con id="508" src="457" tgt="10" wght="0.07065677822795613" />
    <Con id="540" src="3" tgt="539" wght="0.030136453563538244" />
    <Con id="541" src="539" tgt="7" wght="0.91761162126664786" />
    <Con id="545" src="0" tgt="544" wght="0.86824195449429831" />
    <Con id="546" src="544" tgt="7" wght="0.73793955353301277" />
    <Con id="580" src="6" tgt="579" wght="0.3510740013004266" />
    <Con id="581" src="579" tgt="7" wght="1" />
    <Con id="588" src="539" tgt="9" wght="-0.083413142819624822" />
    <Con id="600" src="539" tgt="579" wght="0.82231685786178588" />
    <Con id="603" src="544" tgt="579" wght="-0.030355857989520368" />
    <Con id="605" src="579" tgt="8" wght="-0.28010353632903978" />
    <Con id="672" src="3" tgt="671" wght="0.28878386614020235" />
    <Con id="673" src="671" tgt="7" wght="1" />
    <Con id="689" src="5" tgt="688" wght="0.025555170641836517" />
    <Con id="690" src="688" tgt="7" wght="1" />
    <Con id="693" src="539" tgt="692" wght="-0.019848546515649927" />
    <Con id="694" src="692" tgt="7" wght="1" />
    <Con id="703" src="692" tgt="10" wght="0.41534827719414436" />
    <Con id="757" src="10" tgt="671" wght="-0.13452739897588403" />
    <Con id="818" src="6" tgt="87" wght="0.25573168775684951" />
    <Con id="968" src="2" tgt="688" wght="0.144032115526767" />
    <Con id="1026" src="692" tgt="54" wght="-0.70309561759792016" />
    <Con id="1685" src="5" tgt="1684" wght="0.0043813741435163" />
    <Con id="1686" src="1684" tgt="54" wght="1" />
  </Connections>
</Network>