<Network id="568658" birthGen="1160" fitness="0.99992620463573645">
  <Nodes>
    <Node type="bias" id="0" fnId="0" />
    <Node type="in" id="1" fnId="0" />
    <Node type="in" id="2" fnId="0" />
    <Node type="in" id="3" fnId="0" />
    <Node type="in" id="4" fnId="0" />
    <Node type="in" id="5" fnId="0" />
    <Node type="in" id="6" fnId="0" />
    <Node type="out" id="7" fnId="0" />
    <Node type="out" id="8" fnId="0" />
    <Node type="out" id="9" fnId="0" />
    <Node type="hid" id="10" fnId="2" />
    <Node type="hid" id="11" fnId="2" />
    <Node type="hid" id="29" fnId="0" />
    <Node type="hid" id="37" fnId="3" />
    <Node type="hid" id="40" fnId="0" />
    <Node type="hid" id="44" fnId="2" />
    <Node type="hid" id="151" fnId="3" />
    <Node type="hid" id="803" fnId="1" />
    <Node type="hid" id="1099" fnId="1" />
    <Node type="hid" id="1352" fnId="0" />
    <Node type="hid" id="1741" fnId="3" />
    <Node type="hid" id="1891" fnId="0" />
    <Node type="hid" id="1955" fnId="0" />
    <Node type="hid" id="2117" fnId="3" />
  </Nodes>
  <Connections>
    <Con id="1" src="0" tgt="9" wght="-0.99645492921511924" />
    <Con id="2" src="1" tgt="10" wght="0.99660702928551537" />
    <Con id="3" src="2" tgt="11" wght="0.97029392217757837" />
    <Con id="4" src="4" tgt="10" wght="-0.97457628539871055" />
    <Con id="6" src="10" tgt="9" wght="-0.32959483482807356" />
    <Con id="8" src="1" tgt="7" wght="0.41681090474101734" />
    <Con id="10" src="2" tgt="7" wght="0.30459269414459705" />
    <Con id="11" src="2" tgt="8" wght="0.97642900441246594" />
    <Con id="14" src="4" tgt="7" wght="-0.292313314497424" />
    <Con id="16" src="5" tgt="7" wght="-1" />
    <Con id="19" src="6" tgt="8" wght="0.56222184805012743" />
    <Con id="20" src="0" tgt="7" wght="0.25596022881111447" />
    <Con id="21" src="0" tgt="8" wght="0.99009947686678412" />
    <Con id="22" src="0" tgt="10" wght="-0.4473350739717315" />
    <Con id="23" src="0" tgt="11" wght="-0.31865203271330711" />
    <Con id="24" src="3" tgt="10" wght="0.94797863353174538" />
    <Con id="30" src="5" tgt="29" wght="0.92806158508542891" />
    <Con id="31" src="29" tgt="8" wght="0.83219713768735726" />
    <Con id="35" src="11" tgt="10" wght="-0.21112910402187812" />
    <Con id="38" src="3" tgt="37" wght="0.023534396088696903" />
    <Con id="39" src="37" tgt="8" wght="1" />
    <Con id="41" src="10" tgt="40" wght="0.44603347228157714" />
    <Con id="42" src="40" tgt="9" wght="0.31249114651466159" />
    <Con id="45" src="11" tgt="44" wght="-0.98038406606857709" />
    <Con id="46" src="44" tgt="9" wght="0.99565779712821789" />
    <Con id="117" src="3" tgt="29" wght="0.55616620064543554" />
    <Con id="119" src="4" tgt="29" wght="0.55777722881570513" />
    <Con id="153" src="151" tgt="8" wght="0.04149905420490542" />
    <Con id="593" src="44" tgt="151" wght="-0.21447066047053254" />
    <Con id="804" src="5" tgt="803" wght="0.37738996762153409" />
    <Con id="805" src="803" tgt="11" wght="0.97330253593692739" />
    <Con id="1100" src="1" tgt="1099" wght="0.84100014638500131" />
    <Con id="1101" src="1099" tgt="151" wght="1" />
    <Con id="1353" src="3" tgt="1352" wght="0.981706611054032" />
    <Con id="1354" src="1352" tgt="8" wght="1" />
    <Con id="1389" src="1099" tgt="7" wght="-0.59280399708991138" />
    <Con id="1742" src="37" tgt="1741" wght="-0.20185868409345814" />
    <Con id="1743" src="1741" tgt="11" wght="-0.98110271857725884" />
    <Con id="1892" src="40" tgt="1891" wght="-1" />
    <Con id="1893" src="1891" tgt="29" wght="0.68946670846533209" />
    <Con id="1956" src="11" tgt="1955" wght="0.99638942536446062" />
    <Con id="1957" src="1955" tgt="9" wght="1" />
    <Con id="2047" src="1352" tgt="1891" wght="0.88796973732908135" />
    <Con id="2118" src="3" tgt="2117" wght="-0.98829347713883875" />
    <Con id="2119" src="2117" tgt="7" wght="0.2543791980026654" />
    <Con id="2169" src="37" tgt="1891" wght="-0.56556623217296276" />
  </Connections>
</Network>