<Network id="3667607" birthGen="7485" fitness="0.9993955478050256">
  <Nodes>
    <Node type="bias" id="0" fnId="0" />
    <Node type="in" id="1" fnId="0" />
    <Node type="in" id="2" fnId="0" />
    <Node type="in" id="3" fnId="0" />
    <Node type="in" id="4" fnId="0" />
    <Node type="in" id="5" fnId="0" />
    <Node type="in" id="6" fnId="0" />
    <Node type="out" id="7" fnId="0" />
    <Node type="out" id="8" fnId="0" />
    <Node type="out" id="9" fnId="0" />
    <Node type="hid" id="10" fnId="2" />
    <Node type="hid" id="11" fnId="2" />
    <Node type="hid" id="27" fnId="1" />
    <Node type="hid" id="33" fnId="0" />
    <Node type="hid" id="71" fnId="3" />
    <Node type="hid" id="844" fnId="1" />
    <Node type="hid" id="895" fnId="0" />
    <Node type="hid" id="898" fnId="3" />
    <Node type="hid" id="1040" fnId="0" />
    <Node type="hid" id="1099" fnId="0" />
    <Node type="hid" id="1160" fnId="1" />
    <Node type="hid" id="1557" fnId="1" />
    <Node type="hid" id="1640" fnId="3" />
    <Node type="hid" id="1643" fnId="3" />
    <Node type="hid" id="1658" fnId="0" />
    <Node type="hid" id="1817" fnId="0" />
    <Node type="hid" id="1991" fnId="1" />
    <Node type="hid" id="2220" fnId="2" />
    <Node type="hid" id="2268" fnId="0" />
    <Node type="hid" id="2360" fnId="3" />
    <Node type="hid" id="2414" fnId="3" />
    <Node type="hid" id="2522" fnId="3" />
    <Node type="hid" id="2539" fnId="3" />
    <Node type="hid" id="2604" fnId="1" />
    <Node type="hid" id="2632" fnId="3" />
    <Node type="hid" id="2636" fnId="2" />
    <Node type="hid" id="2779" fnId="3" />
    <Node type="hid" id="2907" fnId="1" />
    <Node type="hid" id="2935" fnId="2" />
    <Node type="hid" id="3049" fnId="1" />
    <Node type="hid" id="3052" fnId="1" />
    <Node type="hid" id="3244" fnId="1" />
    <Node type="hid" id="3263" fnId="0" />
    <Node type="hid" id="3543" fnId="0" />
    <Node type="hid" id="3618" fnId="1" />
    <Node type="hid" id="3742" fnId="1" />
    <Node type="hid" id="3807" fnId="0" />
    <Node type="hid" id="3854" fnId="3" />
    <Node type="hid" id="3860" fnId="3" />
    <Node type="hid" id="3901" fnId="2" />
    <Node type="hid" id="3960" fnId="3" />
    <Node type="hid" id="4033" fnId="1" />
    <Node type="hid" id="4125" fnId="1" />
    <Node type="hid" id="4211" fnId="1" />
    <Node type="hid" id="4315" fnId="1" />
    <Node type="hid" id="4322" fnId="1" />
    <Node type="hid" id="5095" fnId="0" />
    <Node type="hid" id="6487" fnId="0" />
    <Node type="hid" id="6821" fnId="1" />
    <Node type="hid" id="7149" fnId="1" />
    <Node type="hid" id="7658" fnId="1" />
    <Node type="hid" id="7881" fnId="3" />
    <Node type="hid" id="9506" fnId="1" />
    <Node type="hid" id="9649" fnId="1" />
    <Node type="hid" id="10229" fnId="3" />
    <Node type="hid" id="10276" fnId="1" />
    <Node type="hid" id="10415" fnId="0" />
    <Node type="hid" id="11671" fnId="3" />
    <Node type="hid" id="11949" fnId="1" />
  </Nodes>
  <Connections>
    <Con id="1" src="0" tgt="9" wght="1" />
    <Con id="2" src="1" tgt="10" wght="0.752839252077954" />
    <Con id="3" src="2" tgt="11" wght="0.98707428979188194" />
    <Con id="4" src="4" tgt="10" wght="-0.55231349791824036" />
    <Con id="6" src="10" tgt="9" wght="-0.43111953041390727" />
    <Con id="7" src="11" tgt="9" wght="0.57519729807682063" />
    <Con id="8" src="1" tgt="7" wght="-0.53677696670423314" />
    <Con id="10" src="2" tgt="7" wght="-0.10740441013972116" />
    <Con id="11" src="2" tgt="8" wght="-0.95139597873460757" />
    <Con id="12" src="3" tgt="7" wght="-0.91228874128108883" />
    <Con id="13" src="3" tgt="8" wght="0.095718247668011236" />
    <Con id="14" src="4" tgt="7" wght="0.12654595237197666" />
    <Con id="15" src="4" tgt="8" wght="0.43222263080688111" />
    <Con id="16" src="5" tgt="7" wght="1" />
    <Con id="17" src="5" tgt="8" wght="-0.46867705405619453" />
    <Con id="18" src="6" tgt="7" wght="0.14788861580128018" />
    <Con id="19" src="6" tgt="8" wght="-0.82461603442814135" />
    <Con id="20" src="0" tgt="7" wght="-0.96425653792402977" />
    <Con id="21" src="0" tgt="8" wght="0.010041374655577079" />
    <Con id="22" src="0" tgt="10" wght="0.98502554673597065" />
    <Con id="23" src="0" tgt="11" wght="0.062252371197346626" />
    <Con id="26" src="10" tgt="8" wght="-0.45507651739836558" />
    <Con id="28" src="6" tgt="27" wght="-0.94669822654602753" />
    <Con id="29" src="27" tgt="7" wght="0.48633400158601781" />
    <Con id="30" src="11" tgt="10" wght="-0.70541106758646455" />
    <Con id="31" src="11" tgt="7" wght="1" />
    <Con id="35" src="33" tgt="10" wght="0.86700753061060309" />
    <Con id="38" src="11" tgt="8" wght="0.47208618191131185" />
    <Con id="47" src="1" tgt="11" wght="0.16943889909694859" />
    <Con id="72" src="5" tgt="71" wght="-0.37954282184574251" />
    <Con id="73" src="71" tgt="7" wght="-0.83691397998690764" />
    <Con id="79" src="27" tgt="8" wght="1" />
    <Con id="101" src="5" tgt="27" wght="0.12368864953644643" />
    <Con id="134" src="11" tgt="27" wght="0.97538065463417156" />
    <Con id="176" src="4" tgt="27" wght="-0.975300757265498" />
    <Con id="198" src="2" tgt="27" wght="1" />
    <Con id="236" src="10" tgt="27" wght="0.97278936888047562" />
    <Con id="267" src="1" tgt="27" wght="-0.62495256911789709" />
    <Con id="315" src="0" tgt="27" wght="0.024434483776997463" />
    <Con id="472" src="5" tgt="11" wght="0.01461127292470182" />
    <Con id="620" src="4" tgt="71" wght="-0.62908011947734976" />
    <Con id="845" src="11" tgt="844" wght="-0.95897618332339873" />
    <Con id="846" src="844" tgt="33" wght="-0.91643542370742359" />
    <Con id="884" src="844" tgt="7" wght="-0.99332557732075966" />
    <Con id="896" src="5" tgt="895" wght="-1" />
    <Con id="897" src="895" tgt="11" wght="0.9715751897399223" />
    <Con id="899" src="6" tgt="898" wght="0.0969914996534589" />
    <Con id="900" src="898" tgt="7" wght="1" />
    <Con id="916" src="895" tgt="898" wght="0.49761467959037181" />
    <Con id="920" src="71" tgt="895" wght="0.99817621430751657" />
    <Con id="932" src="895" tgt="27" wght="-0.44490877982520183" />
    <Con id="1017" src="844" tgt="8" wght="-0.99923265660384808" />
    <Con id="1041" src="2" tgt="1040" wght="-0.9737131201545256" />
    <Con id="1042" src="1040" tgt="8" wght="-1" />
    <Con id="1043" src="844" tgt="9" wght="-0.047474838251276769" />
    <Con id="1051" src="4" tgt="895" wght="0.96493562322950122" />
    <Con id="1078" src="844" tgt="1040" wght="0.6001409577514133" />
    <Con id="1082" src="0" tgt="895" wght="-0.0998467945179097" />
    <Con id="1100" src="4" tgt="1099" wght="-1" />
    <Con id="1101" src="1099" tgt="33" wght="0.0900435862129408" />
    <Con id="1102" src="1099" tgt="9" wght="0.44758767529270493" />
    <Con id="1113" src="844" tgt="898" wght="-1" />
    <Con id="1123" src="27" tgt="898" wght="0.045685051428252722" />
    <Con id="1139" src="2" tgt="895" wght="-0.10474622063338757" />
    <Con id="1212" src="1040" tgt="33" wght="0.6008173975723079" />
    <Con id="1236" src="844" tgt="1099" wght="-0.079597757207937658" />
    <Con id="1250" src="1099" tgt="7" wght="-0.57381037076648689" />
    <Con id="1311" src="4" tgt="1040" wght="-0.5283533382063923" />
    <Con id="1357" src="11" tgt="1040" wght="0.14692844756137929" />
    <Con id="1404" src="71" tgt="1040" wght="-0.9543045197554012" />
    <Con id="1448" src="3" tgt="1040" wght="0.25331786349391544" />
    <Con id="1481" src="5" tgt="1160" wght="-1" />
    <Con id="1517" src="895" tgt="1160" wght="0.9610056046403187" />
    <Con id="1558" src="844" tgt="1557" wght="0.99838453891613976" />
    <Con id="1559" src="1557" tgt="33" wght="0.84958430429189979" />
    <Con id="1641" src="2" tgt="1640" wght="0.99360948764269952" />
    <Con id="1642" src="1640" tgt="27" wght="0.62357570856950018" />
    <Con id="1644" src="10" tgt="1643" wght="0.27679806041130922" />
    <Con id="1645" src="1643" tgt="8" wght="-0.17974269833046547" />
    <Con id="1649" src="1099" tgt="1640" wght="-0.99505648725814166" />
    <Con id="1659" src="27" tgt="1658" wght="0.557172744696804" />
    <Con id="1660" src="1658" tgt="7" wght="0.96679193797716911" />
    <Con id="1702" src="11" tgt="1640" wght="0.92202751508106173" />
    <Con id="1710" src="1557" tgt="1640" wght="-1" />
    <Con id="1711" src="844" tgt="1658" wght="0.25653067356466658" />
    <Con id="1784" src="1557" tgt="8" wght="0.66279755765197668" />
    <Con id="1818" src="11" tgt="1817" wght="0.21329180037759107" />
    <Con id="1819" src="1817" tgt="7" wght="1" />
    <Con id="1940" src="844" tgt="1817" wght="-0.85695543000474572" />
    <Con id="1992" src="1" tgt="1991" wght="0.80582952997950486" />
    <Con id="1993" src="1991" tgt="7" wght="-0.39443205460613623" />
    <Con id="2020" src="33" tgt="1643" wght="-0.11593480033659162" />
    <Con id="2028" src="1557" tgt="898" wght="0.4249656692365481" />
    <Con id="2133" src="1817" tgt="9" wght="-0.75217049854374085" />
    <Con id="2221" src="0" tgt="2220" wght="-0.48032117598340385" />
    <Con id="2222" src="2220" tgt="27" wght="1" />
    <Con id="2258" src="5" tgt="1640" wght="0.815037559210921" />
    <Con id="2264" src="1991" tgt="1040" wght="-0.678583940915295" />
    <Con id="2269" src="4" tgt="2268" wght="-0.99157140807225974" />
    <Con id="2270" src="2268" tgt="27" wght="0.35233934751050111" />
    <Con id="2294" src="1557" tgt="2220" wght="-0.33733226157708912" />
    <Con id="2296" src="10" tgt="2268" wght="-0.425662138624097" />
    <Con id="2318" src="2220" tgt="1640" wght="-0.033914364201181192" />
    <Con id="2326" src="4" tgt="2220" wght="1" />
    <Con id="2331" src="1557" tgt="2268" wght="0.15277177807142886" />
    <Con id="2354" src="10" tgt="2220" wght="-0.654144320586428" />
    <Con id="2361" src="1099" tgt="2360" wght="0.99547229351243516" />
    <Con id="2362" src="2360" tgt="1640" wght="-0.018738232330187645" />
    <Con id="2416" src="2414" tgt="27" wght="-0.333941965977015" />
    <Con id="2421" src="6" tgt="1640" wght="0.18127807493692419" />
    <Con id="2428" src="33" tgt="2220" wght="0.98998051978683921" />
    <Con id="2460" src="11" tgt="2360" wght="0.65392490011230131" />
    <Con id="2472" src="2414" tgt="1640" wght="-0.93386755519361531" />
    <Con id="2474" src="844" tgt="2220" wght="1" />
    <Con id="2499" src="3" tgt="1160" wght="-0.73577563092924625" />
    <Con id="2501" src="33" tgt="2360" wght="-0.47501451182645715" />
    <Con id="2523" src="0" tgt="2522" wght="-0.0098011468768962485" />
    <Con id="2524" src="2522" tgt="11" wght="0.52443442520288952" />
    <Con id="2540" src="1" tgt="2539" wght="0.30969124230844103" />
    <Con id="2541" src="2539" tgt="8" wght="-1" />
    <Con id="2563" src="2220" tgt="9" wght="0.99084734441145994" />
    <Con id="2605" src="27" tgt="2604" wght="0.69975226034244864" />
    <Con id="2606" src="2604" tgt="898" wght="0.96964043131087463" />
    <Con id="2633" src="898" tgt="2632" wght="0.34887525262094854" />
    <Con id="2634" src="2632" tgt="7" wght="0.886244057212582" />
    <Con id="2637" src="11" tgt="2636" wght="-1" />
    <Con id="2650" src="1040" tgt="1817" wght="0.026531311793647466" />
    <Con id="2725" src="5" tgt="1991" wght="-1" />
    <Con id="2780" src="10" tgt="2779" wght="-0.68473043919758236" />
    <Con id="2781" src="2779" tgt="8" wght="0.40730933310706319" />
    <Con id="2786" src="10" tgt="2414" wght="-0.33199267466982457" />
    <Con id="2824" src="10" tgt="2636" wght="0.33688995259621579" />
    <Con id="2841" src="2522" tgt="2604" wght="0.08619779428711373" />
    <Con id="2908" src="1" tgt="2907" wght="0.80099066149650078" />
    <Con id="2909" src="2907" tgt="8" wght="-0.93596932999509075" />
    <Con id="2916" src="2522" tgt="8" wght="-0.605824779203605" />
    <Con id="2920" src="2522" tgt="9" wght="1" />
    <Con id="2922" src="71" tgt="1640" wght="-0.095881832191859542" />
    <Con id="2936" src="0" tgt="2935" wght="0.708916568557606" />
    <Con id="2937" src="2935" tgt="8" wght="1" />
    <Con id="2941" src="895" tgt="2935" wght="-0.95774474551000266" />
    <Con id="2999" src="2907" tgt="1040" wght="0.22354706782405948" />
    <Con id="3020" src="895" tgt="2636" wght="-0.72498810856318585" />
    <Con id="3050" src="2" tgt="3049" wght="0.099268430378615" />
    <Con id="3053" src="1" tgt="3052" wght="-0.29736362464650412" />
    <Con id="3054" src="3052" tgt="2414" wght="-0.73037719221896036" />
    <Con id="3072" src="3052" tgt="8" wght="-0.6695035234082396" />
    <Con id="3245" src="1557" tgt="3244" wght="0.070935778710400521" />
    <Con id="3246" src="3244" tgt="8" wght="0.37047417161106971" />
    <Con id="3264" src="3049" tgt="3263" wght="0.93872872364142657" />
    <Con id="3378" src="2268" tgt="2360" wght="0.72480333045746292" />
    <Con id="3404" src="2268" tgt="3244" wght="0.460747960948485" />
    <Con id="3414" src="11" tgt="2935" wght="0.71759686412631751" />
    <Con id="3477" src="1991" tgt="3244" wght="0.40972764182377913" />
    <Con id="3544" src="3" tgt="3543" wght="0.99139661623838782" />
    <Con id="3545" src="3543" tgt="8" wght="0.28631761268240324" />
    <Con id="3565" src="2779" tgt="2636" wght="0.30507821246368377" />
    <Con id="3619" src="844" tgt="3618" wght="-0.28007797953770985" />
    <Con id="3620" src="3618" tgt="9" wght="0.96469472473679119" />
    <Con id="3633" src="4" tgt="3049" wght="-1" />
    <Con id="3680" src="2220" tgt="2636" wght="0.91589729813858867" />
    <Con id="3696" src="2779" tgt="898" wght="-1" />
    <Con id="3743" src="3049" tgt="3742" wght="-0.9809200503840525" />
    <Con id="3744" src="3742" tgt="8" wght="1" />
    <Con id="3808" src="2220" tgt="3807" wght="0.64793705658118739" />
    <Con id="3809" src="3807" tgt="9" wght="-0.91466109614981084" />
    <Con id="3855" src="844" tgt="3854" wght="-0.97975487760921942" />
    <Con id="3856" src="3854" tgt="8" wght="-0.64314347185091914" />
    <Con id="3861" src="2268" tgt="3860" wght="0.99961002734315174" />
    <Con id="3862" src="3860" tgt="27" wght="0.92547996475579464" />
    <Con id="3882" src="11" tgt="3807" wght="0.077225283432164116" />
    <Con id="3902" src="33" tgt="3901" wght="0.67910044918276291" />
    <Con id="3903" src="3901" tgt="2360" wght="-0.8420416218315071" />
    <Con id="3911" src="3263" tgt="3742" wght="-1" />
    <Con id="3921" src="3052" tgt="1557" wght="-0.36509683163690687" />
    <Con id="3935" src="895" tgt="3742" wght="0.3116859582288003" />
    <Con id="3944" src="3854" tgt="27" wght="0.129550272518743" />
    <Con id="3949" src="1817" tgt="2935" wght="-0.881422086223227" />
    <Con id="3961" src="2360" tgt="3960" wght="-0.96235113626501734" />
    <Con id="3962" src="3960" tgt="1640" wght="-0.97824843803627981" />
    <Con id="4034" src="3960" tgt="4033" wght="0.93479113514364254" />
    <Con id="4035" src="4033" tgt="1640" wght="0.035116735172737154" />
    <Con id="4062" src="3854" tgt="33" wght="-1" />
    <Con id="4126" src="0" tgt="4125" wght="-1" />
    <Con id="4127" src="4125" tgt="7" wght="0.98207600169677933" />
    <Con id="4137" src="3860" tgt="4033" wght="1" />
    <Con id="4138" src="2522" tgt="2636" wght="0.57459172990501417" />
    <Con id="4177" src="3807" tgt="1640" wght="-1" />
    <Con id="4212" src="844" tgt="4211" wght="1" />
    <Con id="4213" src="4211" tgt="2220" wght="-0.15182408925789059" />
    <Con id="4278" src="1" tgt="3244" wght="0.48765164268855204" />
    <Con id="4312" src="10" tgt="3049" wght="0.35386211433026649" />
    <Con id="4313" src="3052" tgt="1991" wght="-0.014198596266967387" />
    <Con id="4316" src="11" tgt="4315" wght="1" />
    <Con id="4317" src="4315" tgt="7" wght="0.12707914557558273" />
    <Con id="4324" src="4322" tgt="8" wght="1" />
    <Con id="4377" src="3854" tgt="7" wght="0.45109107163484913" />
    <Con id="4409" src="1557" tgt="4211" wght="-0.26426931363195116" />
    <Con id="4562" src="3049" tgt="2935" wght="0.967791303141049" />
    <Con id="4602" src="898" tgt="3618" wght="0.99453800453815155" />
    <Con id="4713" src="10" tgt="3742" wght="1" />
    <Con id="4779" src="5" tgt="4033" wght="0.14974277760299348" />
    <Con id="4922" src="2604" tgt="3049" wght="-0.44048756770949066" />
    <Con id="5024" src="2779" tgt="4211" wght="0.95480502003764489" />
    <Con id="5096" src="895" tgt="5095" wght="0.9790364576369559" />
    <Con id="5097" src="5095" tgt="1640" wght="0.86139230609972206" />
    <Con id="5185" src="0" tgt="4211" wght="0.18791170641418065" />
    <Con id="5296" src="3543" tgt="1640" wght="0.29563335655821588" />
    <Con id="5437" src="1640" tgt="3244" wght="-0.75075982061584745" />
    <Con id="5462" src="1640" tgt="1817" wght="-0.13169077393631706" />
    <Con id="5478" src="3901" tgt="2268" wght="-1" />
    <Con id="5562" src="3" tgt="4211" wght="0.14682994894330298" />
    <Con id="5661" src="895" tgt="4322" wght="0.18420579459222308" />
    <Con id="5724" src="2779" tgt="3543" wght="0.38824837923312255" />
    <Con id="5978" src="3960" tgt="2935" wght="-1" />
    <Con id="6488" src="3052" tgt="6487" wght="-0.99602432726340884" />
    <Con id="6489" src="6487" tgt="2414" wght="-0.522307460779413" />
    <Con id="6545" src="3807" tgt="3618" wght="-0.30095398845151067" />
    <Con id="6765" src="2539" tgt="4322" wght="0.267891183175104" />
    <Con id="6822" src="1160" tgt="6821" wght="0.078053727402073683" />
    <Con id="6823" src="6821" tgt="10" wght="1" />
    <Con id="6847" src="2268" tgt="4322" wght="0.97756980690014594" />
    <Con id="6980" src="6487" tgt="33" wght="-0.37123510177999047" />
    <Con id="7047" src="4315" tgt="2935" wght="-0.24888063572584609" />
    <Con id="7057" src="3263" tgt="4315" wght="-0.77673761593177915" />
    <Con id="7150" src="0" tgt="7149" wght="0.035310080536320107" />
    <Con id="7151" src="7149" tgt="898" wght="0.097692503413237236" />
    <Con id="7311" src="1991" tgt="4211" wght="0.12056460710821169" />
    <Con id="7453" src="6821" tgt="3860" wght="0.97902509972854856" />
    <Con id="7515" src="3960" tgt="5095" wght="-0.43087736584385183" />
    <Con id="7566" src="7149" tgt="2779" wght="-0.11643664668244641" />
    <Con id="7659" src="4" tgt="7658" wght="0.86663132983010371" />
    <Con id="7660" src="7658" tgt="33" wght="1" />
    <Con id="7669" src="2907" tgt="3244" wght="-0.57877834749126889" />
    <Con id="7882" src="0" tgt="7881" wght="0.056085547094638463" />
    <Con id="7883" src="7881" tgt="2907" wght="0.75232565184201528" />
    <Con id="8029" src="2636" tgt="4125" wght="-0.70861155586317182" />
    <Con id="8066" src="7149" tgt="3052" wght="-0.30450169177567554" />
    <Con id="8121" src="6487" tgt="3618" wght="0.14545540306445687" />
    <Con id="8641" src="7881" tgt="3052" wght="-0.60405800600470128" />
    <Con id="8755" src="3543" tgt="2220" wght="0.26850606119306381" />
    <Con id="8763" src="844" tgt="4033" wght="0.66660197736739024" />
    <Con id="9050" src="7149" tgt="1160" wght="-0.99466989794746041" />
    <Con id="9482" src="1643" tgt="3901" wght="-0.15192798119021547" />
    <Con id="9502" src="7658" tgt="3244" wght="1" />
    <Con id="9507" src="1643" tgt="9506" wght="-1" />
    <Con id="9508" src="9506" tgt="9" wght="0.96829085900408329" />
    <Con id="9650" src="3263" tgt="9649" wght="0.63129269001545762" />
    <Con id="9651" src="9649" tgt="8" wght="-0.42287272599179737" />
    <Con id="10230" src="1" tgt="10229" wght="0.08093881313943202" />
    <Con id="10231" src="10229" tgt="4322" wght="1" />
    <Con id="10277" src="4" tgt="10276" wght="0.033658758737146854" />
    <Con id="10278" src="10276" tgt="1160" wght="1" />
    <Con id="10416" src="1" tgt="10415" wght="-0.61644514814357942" />
    <Con id="10417" src="10415" tgt="1160" wght="1" />
    <Con id="10956" src="7658" tgt="3960" wght="0.012958791232586229" />
    <Con id="11672" src="3860" tgt="11671" wght="0.12316381197762674" />
    <Con id="11673" src="11671" tgt="4033" wght="1" />
    <Con id="11950" src="2636" tgt="11949" wght="-0.03966336278244853" />
    <Con id="11951" src="11949" tgt="2414" wght="0.96784058788077276" />
  </Connections>
</Network>