<Network id="673537" birthGen="1374" fitness="0.999949687942725">
  <Nodes>
    <Node type="bias" id="0" fnId="0" />
    <Node type="in" id="1" fnId="0" />
    <Node type="in" id="2" fnId="0" />
    <Node type="in" id="3" fnId="0" />
    <Node type="in" id="4" fnId="0" />
    <Node type="in" id="5" fnId="0" />
    <Node type="in" id="6" fnId="0" />
    <Node type="out" id="7" fnId="0" />
    <Node type="out" id="8" fnId="0" />
    <Node type="out" id="9" fnId="0" />
    <Node type="hid" id="10" fnId="2" />
    <Node type="hid" id="11" fnId="2" />
    <Node type="hid" id="38" fnId="2" />
    <Node type="hid" id="44" fnId="3" />
    <Node type="hid" id="66" fnId="0" />
    <Node type="hid" id="145" fnId="3" />
    <Node type="hid" id="184" fnId="1" />
    <Node type="hid" id="212" fnId="2" />
    <Node type="hid" id="249" fnId="0" />
    <Node type="hid" id="364" fnId="0" />
    <Node type="hid" id="410" fnId="0" />
    <Node type="hid" id="704" fnId="1" />
    <Node type="hid" id="1190" fnId="1" />
    <Node type="hid" id="1920" fnId="1" />
    <Node type="hid" id="1990" fnId="3" />
  </Nodes>
  <Connections>
    <Con id="1" src="0" tgt="9" wght="-0.87722812319989629" />
    <Con id="2" src="1" tgt="10" wght="0.97136583424312062" />
    <Con id="3" src="2" tgt="11" wght="-0.912320231095593" />
    <Con id="5" src="5" tgt="11" wght="-0.18880130052547842" />
    <Con id="6" src="10" tgt="9" wght="1" />
    <Con id="8" src="1" tgt="7" wght="0.013107316893371704" />
    <Con id="9" src="1" tgt="8" wght="-0.86730092685999094" />
    <Con id="10" src="2" tgt="7" wght="0.30581104244086871" />
    <Con id="11" src="2" tgt="8" wght="0.906759440105769" />
    <Con id="12" src="3" tgt="7" wght="-0.015316519617955283" />
    <Con id="13" src="3" tgt="8" wght="-1" />
    <Con id="14" src="4" tgt="7" wght="0.0010227374784797143" />
    <Con id="15" src="4" tgt="8" wght="0.019968825929513909" />
    <Con id="16" src="5" tgt="7" wght="-0.49560218995903793" />
    <Con id="17" src="5" tgt="8" wght="-0.019697412563448313" />
    <Con id="19" src="6" tgt="8" wght="-0.54687404794751637" />
    <Con id="20" src="0" tgt="7" wght="1" />
    <Con id="21" src="0" tgt="8" wght="-0.67049691222447871" />
    <Con id="22" src="0" tgt="10" wght="-0.20095118302696907" />
    <Con id="23" src="0" tgt="11" wght="0.26900467351911816" />
    <Con id="27" src="1" tgt="9" wght="-0.17258429788187185" />
    <Con id="28" src="10" tgt="8" wght="-1" />
    <Con id="31" src="11" tgt="10" wght="0.6789706441049741" />
    <Con id="33" src="3" tgt="10" wght="-0.86660458642419746" />
    <Con id="35" src="11" tgt="8" wght="-0.24138108579742837" />
    <Con id="40" src="38" tgt="9" wght="0.9482068216623516" />
    <Con id="45" src="3" tgt="44" wght="-1" />
    <Con id="53" src="6" tgt="10" wght="-0.97798347115408235" />
    <Con id="68" src="66" tgt="38" wght="0.501649107207768" />
    <Con id="80" src="38" tgt="10" wght="0.19049408147525904" />
    <Con id="96" src="2" tgt="44" wght="-0.92853998158656381" />
    <Con id="98" src="4" tgt="10" wght="-0.91979017429959575" />
    <Con id="146" src="3" tgt="145" wght="0.54492430487897181" />
    <Con id="147" src="145" tgt="8" wght="-0.30308866200603368" />
    <Con id="185" src="2" tgt="184" wght="1" />
    <Con id="186" src="184" tgt="11" wght="1" />
    <Con id="213" src="0" tgt="212" wght="1" />
    <Con id="214" src="212" tgt="9" wght="1" />
    <Con id="222" src="2" tgt="145" wght="-1" />
    <Con id="250" src="145" tgt="249" wght="-0.1616308749653399" />
    <Con id="251" src="249" tgt="8" wght="1" />
    <Con id="281" src="184" tgt="8" wght="-1" />
    <Con id="291" src="1" tgt="212" wght="-0.30304150888696313" />
    <Con id="295" src="212" tgt="7" wght="-0.99186022581344691" />
    <Con id="296" src="3" tgt="212" wght="1" />
    <Con id="311" src="212" tgt="145" wght="-0.92343589904098688" />
    <Con id="365" src="2" tgt="364" wght="0.88459247693925758" />
    <Con id="366" src="364" tgt="11" wght="0.97534407165019987" />
    <Con id="411" src="44" tgt="410" wght="-0.96926229538559061" />
    <Con id="412" src="410" tgt="8" wght="1" />
    <Con id="464" src="5" tgt="364" wght="0.50196788593125252" />
    <Con id="518" src="11" tgt="212" wght="0.97974323110247319" />
    <Con id="521" src="66" tgt="364" wght="-0.3144125450258024" />
    <Con id="531" src="44" tgt="249" wght="0.04255807441633809" />
    <Con id="534" src="2" tgt="66" wght="0.37981247744014573" />
    <Con id="652" src="1" tgt="410" wght="0.62645796967362977" />
    <Con id="687" src="212" tgt="44" wght="-0.72583297544050385" />
    <Con id="705" src="0" tgt="704" wght="-1" />
    <Con id="706" src="704" tgt="66" wght="0.99684351278528693" />
    <Con id="722" src="212" tgt="410" wght="0.077401998901346025" />
    <Con id="1191" src="11" tgt="1190" wght="0.421198329023809" />
    <Con id="1192" src="1190" tgt="9" wght="0.98829129348077038" />
    <Con id="1552" src="3" tgt="410" wght="0.57791918240900819" />
    <Con id="1887" src="1190" tgt="8" wght="0.436438514290181" />
    <Con id="1921" src="6" tgt="1920" wght="-0.034356200687486058" />
    <Con id="1922" src="1920" tgt="7" wght="-0.0785518527266349" />
    <Con id="1991" src="10" tgt="1990" wght="-0.082031146489806278" />
    <Con id="1992" src="1990" tgt="249" wght="1" />
    <Con id="2040" src="1920" tgt="10" wght="-0.41381712181793823" />
    <Con id="2544" src="1990" tgt="212" wght="-0.57162878962060948" />
  </Connections>
</Network>