<Network id="4167379" birthGen="8506" fitness="0.99910278722990542">
  <Nodes>
    <Node type="bias" id="0" fnId="0" />
    <Node type="in" id="1" fnId="0" />
    <Node type="in" id="2" fnId="0" />
    <Node type="in" id="3" fnId="0" />
    <Node type="in" id="4" fnId="0" />
    <Node type="in" id="5" fnId="0" />
    <Node type="in" id="6" fnId="0" />
    <Node type="out" id="7" fnId="0" />
    <Node type="out" id="8" fnId="0" />
    <Node type="out" id="9" fnId="0" />
    <Node type="hid" id="10" fnId="2" />
    <Node type="hid" id="11" fnId="2" />
    <Node type="hid" id="47" fnId="3" />
    <Node type="hid" id="265" fnId="0" />
    <Node type="hid" id="279" fnId="1" />
    <Node type="hid" id="395" fnId="3" />
    <Node type="hid" id="461" fnId="1" />
    <Node type="hid" id="540" fnId="0" />
    <Node type="hid" id="644" fnId="3" />
    <Node type="hid" id="841" fnId="1" />
    <Node type="hid" id="992" fnId="1" />
    <Node type="hid" id="1057" fnId="3" />
    <Node type="hid" id="1100" fnId="1" />
    <Node type="hid" id="1186" fnId="2" />
    <Node type="hid" id="1206" fnId="3" />
    <Node type="hid" id="1268" fnId="3" />
    <Node type="hid" id="1290" fnId="3" />
    <Node type="hid" id="1458" fnId="3" />
    <Node type="hid" id="1704" fnId="3" />
    <Node type="hid" id="1732" fnId="3" />
    <Node type="hid" id="1785" fnId="0" />
    <Node type="hid" id="1838" fnId="0" />
    <Node type="hid" id="1857" fnId="1" />
    <Node type="hid" id="1925" fnId="0" />
    <Node type="hid" id="1939" fnId="3" />
    <Node type="hid" id="1967" fnId="1" />
    <Node type="hid" id="2029" fnId="3" />
    <Node type="hid" id="2635" fnId="0" />
    <Node type="hid" id="2647" fnId="3" />
    <Node type="hid" id="2654" fnId="0" />
    <Node type="hid" id="2663" fnId="3" />
    <Node type="hid" id="2673" fnId="0" />
    <Node type="hid" id="3133" fnId="1" />
    <Node type="hid" id="3469" fnId="1" />
    <Node type="hid" id="4010" fnId="2" />
    <Node type="hid" id="4828" fnId="0" />
    <Node type="hid" id="5385" fnId="1" />
    <Node type="hid" id="5577" fnId="0" />
    <Node type="hid" id="5585" fnId="1" />
    <Node type="hid" id="5835" fnId="0" />
    <Node type="hid" id="6270" fnId="3" />
    <Node type="hid" id="6475" fnId="1" />
    <Node type="hid" id="6568" fnId="3" />
    <Node type="hid" id="7035" fnId="3" />
    <Node type="hid" id="7380" fnId="1" />
    <Node type="hid" id="7712" fnId="0" />
    <Node type="hid" id="7745" fnId="1" />
    <Node type="hid" id="7748" fnId="0" />
    <Node type="hid" id="7851" fnId="0" />
    <Node type="hid" id="7952" fnId="3" />
    <Node type="hid" id="8030" fnId="0" />
    <Node type="hid" id="8259" fnId="0" />
    <Node type="hid" id="8855" fnId="3" />
    <Node type="hid" id="8887" fnId="1" />
    <Node type="hid" id="8902" fnId="1" />
    <Node type="hid" id="8948" fnId="1" />
    <Node type="hid" id="9144" fnId="1" />
    <Node type="hid" id="9330" fnId="1" />
    <Node type="hid" id="9375" fnId="3" />
    <Node type="hid" id="9518" fnId="1" />
    <Node type="hid" id="9577" fnId="1" />
    <Node type="hid" id="9631" fnId="1" />
    <Node type="hid" id="9635" fnId="3" />
    <Node type="hid" id="9752" fnId="1" />
    <Node type="hid" id="9899" fnId="0" />
    <Node type="hid" id="10180" fnId="1" />
    <Node type="hid" id="10216" fnId="2" />
    <Node type="hid" id="10381" fnId="0" />
    <Node type="hid" id="10415" fnId="0" />
    <Node type="hid" id="10490" fnId="0" />
    <Node type="hid" id="10575" fnId="1" />
    <Node type="hid" id="10662" fnId="1" />
    <Node type="hid" id="10666" fnId="1" />
    <Node type="hid" id="11832" fnId="1" />
    <Node type="hid" id="11875" fnId="0" />
    <Node type="hid" id="12659" fnId="0" />
  </Nodes>
  <Connections>
    <Con id="1" src="0" tgt="9" wght="0.19128606144182211" />
    <Con id="2" src="1" tgt="10" wght="0.46216217076812133" />
    <Con id="3" src="2" tgt="11" wght="-0.72065596445014535" />
    <Con id="4" src="4" tgt="10" wght="-0.93894994700673162" />
    <Con id="5" src="5" tgt="11" wght="-0.82979789902966117" />
    <Con id="6" src="10" tgt="9" wght="-1" />
    <Con id="7" src="11" tgt="9" wght="-0.95344025576615765" />
    <Con id="8" src="1" tgt="7" wght="-0.252525908240717" />
    <Con id="9" src="1" tgt="8" wght="1" />
    <Con id="10" src="2" tgt="7" wght="0.849986318692097" />
    <Con id="11" src="2" tgt="8" wght="1" />
    <Con id="12" src="3" tgt="7" wght="0.0038988136037326065" />
    <Con id="13" src="3" tgt="8" wght="1" />
    <Con id="14" src="4" tgt="7" wght="0.02426225013741844" />
    <Con id="16" src="5" tgt="7" wght="0.019980683876566555" />
    <Con id="17" src="5" tgt="8" wght="-0.49738395487090109" />
    <Con id="18" src="6" tgt="7" wght="-0.9631178627535133" />
    <Con id="19" src="6" tgt="8" wght="0.091104935107744547" />
    <Con id="20" src="0" tgt="7" wght="0.61402498865128718" />
    <Con id="22" src="0" tgt="10" wght="0.90426175063474357" />
    <Con id="23" src="0" tgt="11" wght="-0.93744445374305407" />
    <Con id="24" src="10" tgt="11" wght="-0.17980362652921464" />
    <Con id="25" src="2" tgt="9" wght="0.90100658733003769" />
    <Con id="26" src="10" tgt="7" wght="0.031158494536393265" />
    <Con id="28" src="4" tgt="9" wght="-0.28728974945978653" />
    <Con id="29" src="5" tgt="9" wght="-0.66102273958999" />
    <Con id="30" src="6" tgt="9" wght="-0.52081867720202968" />
    <Con id="31" src="5" tgt="10" wght="-0.39956921294386605" />
    <Con id="32" src="1" tgt="9" wght="-0.99487305521471825" />
    <Con id="33" src="11" tgt="7" wght="-0.45828253325273094" />
    <Con id="38" src="11" tgt="8" wght="-0.23286917114793895" />
    <Con id="43" src="3" tgt="11" wght="-0.54374670197569674" />
    <Con id="46" src="1" tgt="11" wght="-0.75842000972525037" />
    <Con id="48" src="0" tgt="47" wght="-0.673365238805169" />
    <Con id="49" src="47" tgt="8" wght="0.97796197162680609" />
    <Con id="62" src="10" tgt="8" wght="1" />
    <Con id="79" src="4" tgt="11" wght="-0.78221971013044589" />
    <Con id="101" src="6" tgt="11" wght="0.92160693486727663" />
    <Con id="144" src="10" tgt="47" wght="0.36783139926208347" />
    <Con id="185" src="11" tgt="47" wght="0.30384845770814434" />
    <Con id="208" src="47" tgt="7" wght="0.0640534979816186" />
    <Con id="266" src="0" tgt="265" wght="0.86057613883770057" />
    <Con id="267" src="265" tgt="9" wght="1" />
    <Con id="280" src="0" tgt="279" wght="-0.7284322664562114" />
    <Con id="281" src="279" tgt="47" wght="0.10021181955582337" />
    <Con id="287" src="2" tgt="47" wght="-0.16577517363306452" />
    <Con id="294" src="47" tgt="265" wght="0.97395931602355124" />
    <Con id="303" src="4" tgt="47" wght="0.162149353888056" />
    <Con id="304" src="1" tgt="47" wght="0.36101433841310154" />
    <Con id="328" src="3" tgt="47" wght="-0.9586085046666043" />
    <Con id="330" src="5" tgt="265" wght="0.81231666392367174" />
    <Con id="372" src="10" tgt="279" wght="-0.15508509451453759" />
    <Con id="396" src="6" tgt="395" wght="0.032814906390977339" />
    <Con id="397" src="395" tgt="8" wght="-0.32192098030072225" />
    <Con id="412" src="10" tgt="395" wght="1" />
    <Con id="462" src="6" tgt="461" wght="0.0075545831318774535" />
    <Con id="463" src="461" tgt="8" wght="0.55277064025711908" />
    <Con id="542" src="540" tgt="47" wght="0.54041549515066711" />
    <Con id="571" src="1" tgt="395" wght="-0.52012990635226652" />
    <Con id="612" src="279" tgt="395" wght="-0.1730497955232097" />
    <Con id="624" src="2" tgt="461" wght="0.38158840676144834" />
    <Con id="638" src="461" tgt="7" wght="0.662942064255889" />
    <Con id="645" src="2" tgt="644" wght="-0.56899388312321131" />
    <Con id="646" src="644" tgt="8" wght="0.11505822384695856" />
    <Con id="680" src="540" tgt="395" wght="-0.99837800925563014" />
    <Con id="695" src="1" tgt="279" wght="1" />
    <Con id="732" src="461" tgt="10" wght="-0.49995374699913503" />
    <Con id="733" src="4" tgt="279" wght="-0.54639618966264991" />
    <Con id="806" src="11" tgt="644" wght="-0.15739002780400235" />
    <Con id="809" src="5" tgt="644" wght="-0.95784015386511479" />
    <Con id="811" src="644" tgt="47" wght="0.033850006912757469" />
    <Con id="842" src="4" tgt="841" wght="0.22620487952605944" />
    <Con id="843" src="841" tgt="8" wght="0.733167190980845" />
    <Con id="848" src="3" tgt="644" wght="0.64739574301412772" />
    <Con id="850" src="841" tgt="644" wght="-0.089082624739240127" />
    <Con id="857" src="841" tgt="10" wght="-1" />
    <Con id="866" src="1" tgt="644" wght="-1" />
    <Con id="883" src="841" tgt="11" wght="-1" />
    <Con id="921" src="841" tgt="47" wght="-0.14279062774657678" />
    <Con id="940" src="841" tgt="9" wght="0.95010209142140534" />
    <Con id="965" src="841" tgt="7" wght="-0.21497834562214377" />
    <Con id="970" src="1" tgt="461" wght="-0.83164375405062552" />
    <Con id="993" src="3" tgt="992" wght="0.99763877011211122" />
    <Con id="1001" src="1" tgt="540" wght="0.98801417680643866" />
    <Con id="1034" src="540" tgt="279" wght="-0.11575300189411934" />
    <Con id="1035" src="10" tgt="992" wght="-0.96457218038232451" />
    <Con id="1041" src="11" tgt="992" wght="0.69372174372704454" />
    <Con id="1042" src="3" tgt="540" wght="-0.039980982831664333" />
    <Con id="1058" src="3" tgt="1057" wght="0.120826767296372" />
    <Con id="1059" src="1057" tgt="8" wght="0.3366229129923522" />
    <Con id="1083" src="11" tgt="1057" wght="-0.095198709797290532" />
    <Con id="1101" src="2" tgt="1100" wght="-1" />
    <Con id="1102" src="1100" tgt="47" wght="0.93046096603839612" />
    <Con id="1103" src="841" tgt="1057" wght="-0.1943692795279377" />
    <Con id="1144" src="1057" tgt="47" wght="-0.84507112330569989" />
    <Con id="1145" src="644" tgt="1100" wght="0.66352937201624562" />
    <Con id="1146" src="1" tgt="1057" wght="0.56651875095443593" />
    <Con id="1175" src="992" tgt="644" wght="-0.40497628806561736" />
    <Con id="1188" src="1186" tgt="47" wght="-0.87307040350486231" />
    <Con id="1205" src="1186" tgt="10" wght="0.40060018861409297" />
    <Con id="1207" src="47" tgt="1206" wght="-0.51446446910724075" />
    <Con id="1208" src="1206" tgt="7" wght="0.032641083374369786" />
    <Con id="1217" src="841" tgt="1100" wght="-0.671984601037884" />
    <Con id="1248" src="992" tgt="1057" wght="0.79565272971017664" />
    <Con id="1269" src="3" tgt="1268" wght="0.34520553355063943" />
    <Con id="1270" src="1268" tgt="1057" wght="-0.964435950956892" />
    <Con id="1279" src="11" tgt="1206" wght="-1" />
    <Con id="1291" src="2" tgt="1290" wght="-1" />
    <Con id="1292" src="1290" tgt="644" wght="0.47107325325443522" />
    <Con id="1311" src="1186" tgt="7" wght="1" />
    <Con id="1318" src="992" tgt="1100" wght="0.96646153921096356" />
    <Con id="1329" src="4" tgt="992" wght="-0.025913213379347103" />
    <Con id="1338" src="1" tgt="1100" wght="-0.98335821089975706" />
    <Con id="1342" src="1057" tgt="1100" wght="-0.542588421200976" />
    <Con id="1373" src="0" tgt="1186" wght="1" />
    <Con id="1382" src="2" tgt="1186" wght="-0.98680596910518881" />
    <Con id="1415" src="1290" tgt="1057" wght="-0.098027894662667162" />
    <Con id="1425" src="10" tgt="1206" wght="-0.46862236124520268" />
    <Con id="1445" src="3" tgt="1100" wght="-0.20441129104905287" />
    <Con id="1459" src="3" tgt="1458" wght="0.20346380231469172" />
    <Con id="1460" src="1458" tgt="644" wght="0.69823661719484453" />
    <Con id="1524" src="1290" tgt="1186" wght="-1" />
    <Con id="1537" src="5" tgt="1206" wght="-0.094245574073167762" />
    <Con id="1565" src="5" tgt="1100" wght="0.027625064336353519" />
    <Con id="1612" src="1268" tgt="1186" wght="0.15214603362953594" />
    <Con id="1676" src="1290" tgt="47" wght="-0.865659945288906" />
    <Con id="1705" src="5" tgt="1704" wght="-0.30840036289598732" />
    <Con id="1706" src="1704" tgt="644" wght="0.12284837600799248" />
    <Con id="1722" src="1268" tgt="47" wght="-0.28314966902929983" />
    <Con id="1733" src="2" tgt="1732" wght="-0.92488493762607038" />
    <Con id="1734" src="1732" tgt="1100" wght="-0.988698119545319" />
    <Con id="1735" src="3" tgt="1206" wght="-0.074606494655048039" />
    <Con id="1739" src="461" tgt="992" wght="0.40139014716032928" />
    <Con id="1765" src="1458" tgt="992" wght="0.98989106779294844" />
    <Con id="1786" src="1268" tgt="1785" wght="0.70101881671618149" />
    <Con id="1787" src="1785" tgt="644" wght="-0.91090438496090531" />
    <Con id="1811" src="1732" tgt="1057" wght="-0.52224604226648808" />
    <Con id="1832" src="1" tgt="1704" wght="0.75683293707820531" />
    <Con id="1839" src="11" tgt="1838" wght="0.97457131101599" />
    <Con id="1840" src="1838" tgt="8" wght="-0.45038905126458534" />
    <Con id="1858" src="11" tgt="1857" wght="1" />
    <Con id="1859" src="1857" tgt="47" wght="0.77076636611313076" />
    <Con id="1864" src="1290" tgt="1704" wght="0.99440476424264268" />
    <Con id="1868" src="4" tgt="1206" wght="-0.1896871119956639" />
    <Con id="1907" src="1857" tgt="1704" wght="0.086056789198395253" />
    <Con id="1927" src="1925" tgt="8" wght="-0.09046251302659146" />
    <Con id="1940" src="841" tgt="1939" wght="1" />
    <Con id="1941" src="1939" tgt="8" wght="0.32780854664630443" />
    <Con id="1968" src="47" tgt="1967" wght="0.98572380977273977" />
    <Con id="1977" src="1732" tgt="1186" wght="0.97413012208713667" />
    <Con id="1992" src="1857" tgt="1458" wght="-0.35310473886247296" />
    <Con id="2004" src="644" tgt="1939" wght="0.66096884989995663" />
    <Con id="2030" src="1967" tgt="2029" wght="-0.50266956584894418" />
    <Con id="2031" src="2029" tgt="1206" wght="-0.913434349413543" />
    <Con id="2032" src="1704" tgt="1057" wght="-0.28504504032130829" />
    <Con id="2033" src="1967" tgt="7" wght="0.11450861807911003" />
    <Con id="2073" src="10" tgt="1857" wght="1" />
    <Con id="2074" src="3" tgt="1290" wght="-0.57137173496791727" />
    <Con id="2075" src="3" tgt="1732" wght="0.90071482899021371" />
    <Con id="2083" src="1925" tgt="395" wght="-0.727500142955088" />
    <Con id="2100" src="1939" tgt="1100" wght="-0.96526562192073762" />
    <Con id="2104" src="3" tgt="1939" wght="-0.018964150987063277" />
    <Con id="2108" src="3" tgt="1967" wght="0.0063096084338895055" />
    <Con id="2128" src="1268" tgt="10" wght="-1" />
    <Con id="2133" src="2" tgt="1838" wght="-0.016652839113245638" />
    <Con id="2195" src="1785" tgt="10" wght="0.083179221321650523" />
    <Con id="2239" src="1" tgt="1732" wght="0.50247600185906416" />
    <Con id="2243" src="3" tgt="1704" wght="0.72095233593970609" />
    <Con id="2245" src="1057" tgt="1838" wght="1" />
    <Con id="2277" src="1057" tgt="1967" wght="0.4150518229282617" />
    <Con id="2306" src="1939" tgt="47" wght="-0.47880210442098986" />
    <Con id="2314" src="1785" tgt="2029" wght="1" />
    <Con id="2346" src="1458" tgt="1704" wght="-0.9914181440985611" />
    <Con id="2347" src="1785" tgt="1838" wght="-0.6166061606761698" />
    <Con id="2377" src="1732" tgt="1290" wght="0.53537723075395349" />
    <Con id="2466" src="1732" tgt="1785" wght="0.97862563664840851" />
    <Con id="2484" src="1732" tgt="1857" wght="0.085140785542546379" />
    <Con id="2511" src="1" tgt="1838" wght="0.11758108623325825" />
    <Con id="2538" src="1290" tgt="1838" wght="-1" />
    <Con id="2566" src="992" tgt="1838" wght="0.47927713868382305" />
    <Con id="2573" src="1186" tgt="2029" wght="0.93637711328630291" />
    <Con id="2623" src="1925" tgt="540" wght="0.94232187104535925" />
    <Con id="2631" src="4" tgt="1967" wght="0.99852973639790488" />
    <Con id="2636" src="2" tgt="2635" wght="0.082895222975554628" />
    <Con id="2637" src="2635" tgt="11" wght="0.40160898162139647" />
    <Con id="2648" src="3" tgt="2647" wght="-0.16354790115099477" />
    <Con id="2649" src="2647" tgt="644" wght="1" />
    <Con id="2655" src="11" tgt="2654" wght="-0.878308666869998" />
    <Con id="2656" src="2654" tgt="540" wght="-0.19482927997775187" />
    <Con id="2664" src="11" tgt="2663" wght="-0.94181227933486378" />
    <Con id="2665" src="2663" tgt="1057" wght="0.99682140821839738" />
    <Con id="2674" src="461" tgt="2673" wght="-0.58773056504543542" />
    <Con id="2675" src="2673" tgt="47" wght="0.98740427589882562" />
    <Con id="2717" src="4" tgt="1704" wght="-0.29487948600902597" />
    <Con id="2720" src="3" tgt="1838" wght="-0.26894741341454109" />
    <Con id="2800" src="1458" tgt="1838" wght="0.99679369139471852" />
    <Con id="2828" src="2663" tgt="1704" wght="0.028001597616821527" />
    <Con id="2866" src="1458" tgt="1967" wght="0.04023505787955229" />
    <Con id="2905" src="2673" tgt="279" wght="-0.062283662416793326" />
    <Con id="2937" src="2663" tgt="1100" wght="0.90039671212434769" />
    <Con id="2968" src="841" tgt="1838" wght="0.46639404409888813" />
    <Con id="2969" src="2663" tgt="1458" wght="-0.16013330930903838" />
    <Con id="3002" src="1732" tgt="1838" wght="-0.55871276069560294" />
    <Con id="3034" src="1458" tgt="8" wght="0.47292117146971668" />
    <Con id="3134" src="6" tgt="3133" wght="-0.024318018567611007" />
    <Con id="3135" src="3133" tgt="1925" wght="0.36945278250032354" />
    <Con id="3164" src="2654" tgt="7" wght="-0.2781450819982817" />
    <Con id="3249" src="1" tgt="2647" wght="0.99481114000696136" />
    <Con id="3314" src="2635" tgt="9" wght="-0.76539449226043588" />
    <Con id="3353" src="2654" tgt="9" wght="1" />
    <Con id="3470" src="1290" tgt="3469" wght="0.2288932241499424" />
    <Con id="3471" src="3469" tgt="644" wght="0.21342078028553274" />
    <Con id="3547" src="11" tgt="3469" wght="0.4953412789735912" />
    <Con id="3747" src="3469" tgt="1838" wght="0.70175983391823238" />
    <Con id="3773" src="3133" tgt="1186" wght="1" />
    <Con id="3923" src="3133" tgt="1967" wght="-0.98386023688704483" />
    <Con id="3989" src="3133" tgt="2029" wght="0.53547187431151355" />
    <Con id="4011" src="279" tgt="4010" wght="-0.99813757454421537" />
    <Con id="4012" src="4010" tgt="265" wght="0.98450012702064693" />
    <Con id="4063" src="1268" tgt="540" wght="0.6056775333573482" />
    <Con id="4208" src="540" tgt="4010" wght="-0.19249578548180835" />
    <Con id="4502" src="1732" tgt="395" wght="0.23336807419635314" />
    <Con id="4618" src="461" tgt="1838" wght="0.5204290819502394" />
    <Con id="4765" src="1704" tgt="265" wght="0.50297044692671955" />
    <Con id="4829" src="992" tgt="4828" wght="-0.95147887916488749" />
    <Con id="4837" src="461" tgt="1967" wght="-0.96642814094851359" />
    <Con id="4914" src="4010" tgt="2029" wght="0.59054048422958327" />
    <Con id="5023" src="1785" tgt="4828" wght="-0.075097357731186309" />
    <Con id="5213" src="992" tgt="8" wght="0.95855240248193252" />
    <Con id="5386" src="1186" tgt="5385" wght="0.9901327386447385" />
    <Con id="5387" src="5385" tgt="1100" wght="-0.842580999785018" />
    <Con id="5490" src="2647" tgt="3469" wght="0.5661371690877931" />
    <Con id="5578" src="11" tgt="5577" wght="-0.96769797976179706" />
    <Con id="5579" src="5577" tgt="1838" wght="0.145554578467039" />
    <Con id="5586" src="1186" tgt="5585" wght="-0.020419550661068143" />
    <Con id="5587" src="5585" tgt="5385" wght="9.7138287476199181E-05" />
    <Con id="5755" src="1" tgt="4828" wght="0.70406864642582068" />
    <Con id="5763" src="1" tgt="5385" wght="0.3949432230278051" />
    <Con id="5830" src="10" tgt="5585" wght="0.55212479860298092" />
    <Con id="5836" src="5" tgt="5835" wght="0.10563177497904226" />
    <Con id="5837" src="5835" tgt="644" wght="0.43256165063981011" />
    <Con id="5926" src="4" tgt="5585" wght="-0.98850010041566838" />
    <Con id="5952" src="1" tgt="5577" wght="0.0543445534887467" />
    <Con id="5985" src="5835" tgt="1206" wght="0.65545297396041768" />
    <Con id="6271" src="2" tgt="6270" wght="0.22934036870533331" />
    <Con id="6272" src="6270" tgt="1057" wght="-0.069033478146652436" />
    <Con id="6275" src="992" tgt="5385" wght="0.25643521541440623" />
    <Con id="6327" src="6270" tgt="5585" wght="0.99185362321351289" />
    <Con id="6384" src="1732" tgt="5585" wght="0.92664302967464773" />
    <Con id="6461" src="1290" tgt="5835" wght="0.28026413420375623" />
    <Con id="6476" src="4828" tgt="6475" wght="-0.47664843135474622" />
    <Con id="6477" src="6475" tgt="8" wght="1" />
    <Con id="6569" src="1206" tgt="6568" wght="-0.16500018544596329" />
    <Con id="6570" src="6568" tgt="7" wght="1" />
    <Con id="6587" src="5577" tgt="6270" wght="1" />
    <Con id="6606" src="5577" tgt="6568" wght="0.11251539900283325" />
    <Con id="6738" src="1458" tgt="6475" wght="0.025029317380711236" />
    <Con id="7036" src="5" tgt="7035" wght="-0.99179674543524843" />
    <Con id="7037" src="7035" tgt="1100" wght="0.22449979358458835" />
    <Con id="7127" src="1857" tgt="395" wght="-0.16118301522827674" />
    <Con id="7257" src="1458" tgt="6270" wght="-1" />
    <Con id="7381" src="5835" tgt="7380" wght="-0.31721531833078237" />
    <Con id="7382" src="7380" tgt="644" wght="-1" />
    <Con id="7601" src="2" tgt="6475" wght="0.0227338570050895" />
    <Con id="7634" src="992" tgt="6475" wght="0.13692146679604911" />
    <Con id="7646" src="6475" tgt="7380" wght="0.14676119013003441" />
    <Con id="7689" src="4828" tgt="7380" wght="0.15601621873061319" />
    <Con id="7694" src="1290" tgt="6475" wght="-0.75177688172108259" />
    <Con id="7713" src="47" tgt="7712" wght="0.97614682180883139" />
    <Con id="7714" src="7712" tgt="1206" wght="-0.02070679617876851" />
    <Con id="7736" src="7035" tgt="5585" wght="-1" />
    <Con id="7746" src="11" tgt="7745" wght="0.1608945541302195" />
    <Con id="7747" src="7745" tgt="5577" wght="0.72341905362217318" />
    <Con id="7749" src="1" tgt="7748" wght="1" />
    <Con id="7750" src="7748" tgt="47" wght="-0.99878894084229031" />
    <Con id="7796" src="2635" tgt="10" wght="0.45612768798274067" />
    <Con id="7852" src="4" tgt="7851" wght="0.69155978196162793" />
    <Con id="7853" src="7851" tgt="11" wght="0.92982646580869888" />
    <Con id="7875" src="6" tgt="7035" wght="0.13294409076321967" />
    <Con id="7953" src="1" tgt="7952" wght="0.74094160432624856" />
    <Con id="7954" src="7952" tgt="4828" wght="0.95250887760555192" />
    <Con id="7988" src="5577" tgt="6475" wght="0.27009851502547877" />
    <Con id="7989" src="7748" tgt="1704" wght="0.50807621842250228" />
    <Con id="8004" src="1732" tgt="7748" wght="-0.79337713093706785" />
    <Con id="8018" src="7748" tgt="5585" wght="-0.64134795267923661" />
    <Con id="8031" src="5" tgt="8030" wght="0.98957198827643855" />
    <Con id="8032" src="8030" tgt="11" wght="1" />
    <Con id="8117" src="7748" tgt="644" wght="-0.82590748478139908" />
    <Con id="8208" src="1732" tgt="7712" wght="0.38995585710761405" />
    <Con id="8260" src="1057" tgt="8259" wght="0.74188897091091976" />
    <Con id="8261" src="8259" tgt="1100" wght="-0.15893123692268543" />
    <Con id="8276" src="1" tgt="7035" wght="-1" />
    <Con id="8281" src="7745" tgt="6568" wght="0.2188952261782669" />
    <Con id="8302" src="10" tgt="7712" wght="0.98127031175485546" />
    <Con id="8427" src="7748" tgt="7952" wght="-0.19261846877634525" />
    <Con id="8447" src="7745" tgt="7748" wght="0.99288474410504379" />
    <Con id="8504" src="7745" tgt="7035" wght="0.86743328628748961" />
    <Con id="8589" src="2635" tgt="992" wght="-0.13415620894445904" />
    <Con id="8793" src="7952" tgt="992" wght="1" />
    <Con id="8826" src="1268" tgt="7952" wght="0.82641281307555925" />
    <Con id="8845" src="7952" tgt="1704" wght="0.76734307998703888" />
    <Con id="8856" src="1057" tgt="8855" wght="0.842888952028795" />
    <Con id="8857" src="8855" tgt="1838" wght="1" />
    <Con id="8888" src="5" tgt="8887" wght="-0.38752565545735645" />
    <Con id="8889" src="8887" tgt="7" wght="0.45646375158311447" />
    <Con id="8903" src="1785" tgt="8902" wght="-0.33520034640815283" />
    <Con id="8904" src="8902" tgt="1838" wght="-0.993825333776594" />
    <Con id="8917" src="8259" tgt="7035" wght="-0.942333079292027" />
    <Con id="8922" src="841" tgt="7712" wght="1" />
    <Con id="8932" src="1268" tgt="7712" wght="0.26581298304007428" />
    <Con id="8949" src="3" tgt="8948" wght="-0.28342441496927046" />
    <Con id="8950" src="8948" tgt="1838" wght="0.25104072643443942" />
    <Con id="9021" src="10" tgt="7851" wght="-0.0030596087693047121" />
    <Con id="9145" src="11" tgt="9144" wght="-0.94722637135375043" />
    <Con id="9146" src="9144" tgt="644" wght="-0.75514692813158035" />
    <Con id="9188" src="11" tgt="7952" wght="-0.20436129598680139" />
    <Con id="9331" src="841" tgt="9330" wght="-0.084204123488473226" />
    <Con id="9332" src="9330" tgt="1057" wght="0.94652629161343" />
    <Con id="9376" src="1" tgt="9375" wght="-0.69047162756626157" />
    <Con id="9377" src="9375" tgt="47" wght="0.550582484118813" />
    <Con id="9396" src="9330" tgt="1967" wght="-0.96114403572025919" />
    <Con id="9397" src="9144" tgt="5835" wght="0.5883791659257156" />
    <Con id="9462" src="1785" tgt="7380" wght="0.95710790412243252" />
    <Con id="9519" src="2" tgt="9518" wght="-0.89790363134677853" />
    <Con id="9520" src="9518" tgt="644" wght="0.98780465690687425" />
    <Con id="9559" src="8259" tgt="7380" wght="-0.71023090721103266" />
    <Con id="9576" src="11" tgt="8902" wght="-0.33198604031489259" />
    <Con id="9578" src="1" tgt="9577" wght="0.37995767522973861" />
    <Con id="9579" src="9577" tgt="7" wght="1" />
    <Con id="9580" src="9375" tgt="1704" wght="-0.38877908799952887" />
    <Con id="9632" src="4" tgt="9631" wght="0.10632122327075733" />
    <Con id="9633" src="9631" tgt="47" wght="1" />
    <Con id="9636" src="1268" tgt="9635" wght="1" />
    <Con id="9637" src="9635" tgt="10" wght="0.38669164264323341" />
    <Con id="9753" src="2" tgt="9752" wght="0.8940593963367498" />
    <Con id="9754" src="9752" tgt="7" wght="0.984409739513394" />
    <Con id="9766" src="7380" tgt="7035" wght="-1" />
    <Con id="9829" src="9330" tgt="9375" wght="-0.16811454200007225" />
    <Con id="9900" src="2" tgt="9899" wght="0.9123325659896957" />
    <Con id="9901" src="9899" tgt="11" wght="-0.80824453238592109" />
    <Con id="9941" src="2647" tgt="395" wght="-1" />
    <Con id="10037" src="2663" tgt="2029" wght="0.62571658114876982" />
    <Con id="10137" src="461" tgt="1785" wght="-0.53082589143680337" />
    <Con id="10157" src="9330" tgt="1732" wght="-0.0806100444583214" />
    <Con id="10181" src="11" tgt="10180" wght="0.35214952879679051" />
    <Con id="10182" src="10180" tgt="644" wght="-0.750709248793916" />
    <Con id="10217" src="644" tgt="10216" wght="0.58787062869534634" />
    <Con id="10218" src="10216" tgt="1100" wght="1" />
    <Con id="10257" src="9144" tgt="8259" wght="-0.31865974223327465" />
    <Con id="10287" src="10" tgt="8855" wght="-0.14043476949574926" />
    <Con id="10318" src="9144" tgt="5585" wght="-1" />
    <Con id="10348" src="9375" tgt="1268" wght="0.37980208991607611" />
    <Con id="10382" src="4828" tgt="10381" wght="0.58292986613187059" />
    <Con id="10383" src="10381" tgt="7380" wght="0.65411705420982791" />
    <Con id="10416" src="1458" tgt="10415" wght="-1" />
    <Con id="10417" src="10415" tgt="1704" wght="1" />
    <Con id="10491" src="1925" tgt="10490" wght="0.27336984847918272" />
    <Con id="10492" src="10490" tgt="1838" wght="0.99475924444557628" />
    <Con id="10535" src="10490" tgt="1268" wght="-0.25473421184052569" />
    <Con id="10576" src="1268" tgt="10575" wght="0.83484024679651714" />
    <Con id="10577" src="10575" tgt="8" wght="1" />
    <Con id="10663" src="2" tgt="10662" wght="0.32283439151092808" />
    <Con id="10664" src="10662" tgt="461" wght="0.98663972748092688" />
    <Con id="10667" src="4" tgt="10666" wght="0.62937967090859048" />
    <Con id="10668" src="10666" tgt="10" wght="1" />
    <Con id="10709" src="9375" tgt="2663" wght="0.96550346970420464" />
    <Con id="10752" src="10575" tgt="7712" wght="0.98080665140946321" />
    <Con id="10790" src="8902" tgt="7712" wght="0.81360782628196571" />
    <Con id="10832" src="1290" tgt="10381" wght="0.14869408061628531" />
    <Con id="10862" src="1268" tgt="8855" wght="-0.495230840136483" />
    <Con id="11833" src="4" tgt="11832" wght="0.040045728779412523" />
    <Con id="11834" src="11832" tgt="8" wght="-0.046736159653903875" />
    <Con id="11876" src="3" tgt="11875" wght="0.80181916634367811" />
    <Con id="11877" src="11875" tgt="1186" wght="1" />
    <Con id="11906" src="9577" tgt="9631" wght="-0.035926333937385493" />
    <Con id="12568" src="2673" tgt="11875" wght="0.21107753040269017" />
    <Con id="12660" src="8887" tgt="12659" wght="0.010653611808833384" />
    <Con id="12661" src="12659" tgt="10" wght="1" />
    <Con id="12716" src="9635" tgt="8030" wght="-0.023053586052786811" />
    <Con id="12841" src="7748" tgt="11832" wght="-0.063284935918159924" />
    <Con id="13288" src="3133" tgt="8902" wght="0.12356748897582293" />
  </Connections>
</Network>