<Network id="164305" birthGen="335" fitness="0.99940179362779025">
  <Nodes>
    <Node type="bias" id="0" fnId="0" />
    <Node type="in" id="1" fnId="0" />
    <Node type="in" id="2" fnId="0" />
    <Node type="in" id="3" fnId="0" />
    <Node type="in" id="4" fnId="0" />
    <Node type="in" id="5" fnId="0" />
    <Node type="in" id="6" fnId="0" />
    <Node type="out" id="7" fnId="0" />
    <Node type="out" id="8" fnId="0" />
    <Node type="out" id="9" fnId="0" />
    <Node type="hid" id="10" fnId="2" />
    <Node type="hid" id="11" fnId="2" />
    <Node type="hid" id="61" fnId="0" />
    <Node type="hid" id="391" fnId="3" />
  </Nodes>
  <Connections>
    <Con id="1" src="0" tgt="9" wght="-1" />
    <Con id="2" src="1" tgt="10" wght="1" />
    <Con id="3" src="2" tgt="11" wght="-0.244848653380488" />
    <Con id="4" src="4" tgt="10" wght="-1" />
    <Con id="5" src="5" tgt="11" wght="-1" />
    <Con id="6" src="10" tgt="9" wght="1" />
    <Con id="7" src="11" tgt="9" wght="0.97318232387428183" />
    <Con id="8" src="1" tgt="7" wght="0.90111723537555644" />
    <Con id="9" src="1" tgt="8" wght="-1" />
    <Con id="10" src="2" tgt="7" wght="-0.11630402067865565" />
    <Con id="11" src="2" tgt="8" wght="0.7776278716577546" />
    <Con id="12" src="3" tgt="7" wght="0.6577735589935515" />
    <Con id="13" src="3" tgt="8" wght="0.80777828320889888" />
    <Con id="15" src="4" tgt="8" wght="0.056994902863019323" />
    <Con id="16" src="5" tgt="7" wght="0.017123419531695338" />
    <Con id="17" src="5" tgt="8" wght="0.025361393686901115" />
    <Con id="18" src="6" tgt="7" wght="-0.11734219593927264" />
    <Con id="19" src="6" tgt="8" wght="0.16542223566407932" />
    <Con id="20" src="0" tgt="7" wght="0.475756711720125" />
    <Con id="21" src="0" tgt="8" wght="0" />
    <Con id="22" src="0" tgt="10" wght="0" />
    <Con id="23" src="0" tgt="11" wght="1" />
    <Con id="29" src="11" tgt="10" wght="0.5951968868841705" />
    <Con id="31" src="11" tgt="7" wght="-0.319453498714554" />
    <Con id="62" src="4" tgt="61" wght="1" />
    <Con id="63" src="61" tgt="7" wght="-0.13061321202619108" />
    <Con id="131" src="61" tgt="11" wght="1" />
    <Con id="392" src="4" tgt="391" wght="0.24542375741737493" />
    <Con id="393" src="391" tgt="11" wght="0.99889669005516757" />
  </Connections>
</Network>