<Network id="188482" birthGen="380" fitness="0.99979567826414018">
  <Nodes>
    <Node type="bias" id="0" fnId="0" />
    <Node type="in" id="1" fnId="0" />
    <Node type="in" id="2" fnId="0" />
    <Node type="out" id="3" fnId="0" />
    <Node type="out" id="4" fnId="0" />
    <Node type="out" id="5" fnId="0" />
    <Node type="out" id="6" fnId="0" />
    <Node type="out" id="7" fnId="0" />
    <Node type="out" id="8" fnId="0" />
    <Node type="out" id="9" fnId="0" />
    <Node type="out" id="10" fnId="0" />
    <Node type="out" id="11" fnId="0" />
    <Node type="out" id="12" fnId="0" />
    <Node type="out" id="13" fnId="0" />
    <Node type="out" id="14" fnId="0" />
    <Node type="out" id="15" fnId="0" />
    <Node type="out" id="16" fnId="0" />
    <Node type="out" id="17" fnId="0" />
    <Node type="out" id="18" fnId="0" />
    <Node type="out" id="19" fnId="0" />
    <Node type="out" id="20" fnId="0" />
    <Node type="out" id="21" fnId="0" />
    <Node type="out" id="22" fnId="0" />
    <Node type="out" id="23" fnId="0" />
    <Node type="out" id="24" fnId="0" />
    <Node type="out" id="25" fnId="0" />
    <Node type="out" id="26" fnId="0" />
    <Node type="out" id="27" fnId="0" />
    <Node type="out" id="28" fnId="0" />
    <Node type="out" id="29" fnId="0" />
    <Node type="out" id="30" fnId="0" />
    <Node type="hid" id="31" fnId="2" />
    <Node type="hid" id="113" fnId="1" />
    <Node type="hid" id="170" fnId="0" />
    <Node type="hid" id="785" fnId="3" />
    <Node type="hid" id="1748" fnId="1" />
    <Node type="hid" id="1870" fnId="0" />
    <Node type="hid" id="1887" fnId="1" />
    <Node type="hid" id="2397" fnId="0" />
    <Node type="hid" id="2492" fnId="2" />
    <Node type="hid" id="2558" fnId="3" />
    <Node type="hid" id="2750" fnId="1" />
    <Node type="hid" id="2799" fnId="2" />
  </Nodes>
  <Connections>
    <Con id="1" src="0" tgt="21" wght="1.5721191659766587" />
    <Con id="2" src="0" tgt="24" wght="-2.6762630326765908" />
    <Con id="4" src="1" tgt="31" wght="1.8502494586861276" />
    <Con id="5" src="2" tgt="31" wght="1.7977701833838482" />
    <Con id="6" src="31" tgt="21" wght="2.8373759489195458" />
    <Con id="7" src="31" tgt="24" wght="3" />
    <Con id="8" src="31" tgt="27" wght="2.6718732669667102" />
    <Con id="9" src="1" tgt="3" wght="-3" />
    <Con id="11" src="1" tgt="5" wght="2.9816923203403394" />
    <Con id="12" src="1" tgt="6" wght="-1.578949414343799" />
    <Con id="13" src="1" tgt="7" wght="-2.5521515403350525" />
    <Con id="14" src="1" tgt="8" wght="-0.91734900961346688" />
    <Con id="15" src="1" tgt="9" wght="0.38476581414271266" />
    <Con id="16" src="1" tgt="10" wght="0.23288120523882896" />
    <Con id="17" src="1" tgt="11" wght="0.66922969925755948" />
    <Con id="18" src="1" tgt="12" wght="2.2688823482131393" />
    <Con id="19" src="1" tgt="13" wght="2.0119257996801179" />
    <Con id="20" src="1" tgt="14" wght="1.163264752730657" />
    <Con id="21" src="1" tgt="15" wght="2.8815796954617263" />
    <Con id="22" src="1" tgt="16" wght="1.4511410972351386" />
    <Con id="23" src="1" tgt="17" wght="3" />
    <Con id="24" src="1" tgt="18" wght="2.3896161580699635" />
    <Con id="25" src="1" tgt="19" wght="2.2673236526635239" />
    <Con id="26" src="1" tgt="20" wght="2.8620942821420252" />
    <Con id="27" src="1" tgt="21" wght="1.5309094398984555" />
    <Con id="28" src="1" tgt="22" wght="2.8124691067408243" />
    <Con id="29" src="1" tgt="23" wght="1.6003295676866285" />
    <Con id="30" src="1" tgt="24" wght="-0.22090274577127764" />
    <Con id="31" src="1" tgt="25" wght="0.50245798982727019" />
    <Con id="33" src="1" tgt="27" wght="-0.26838737475522317" />
    <Con id="34" src="1" tgt="28" wght="2.5311699917241133" />
    <Con id="35" src="1" tgt="29" wght="-1.0695093998669509" />
    <Con id="36" src="1" tgt="30" wght="0.69621453938241173" />
    <Con id="37" src="2" tgt="3" wght="0.36812638760419125" />
    <Con id="38" src="2" tgt="4" wght="-2.0673520428247865" />
    <Con id="39" src="2" tgt="5" wght="-1.9006170073973725" />
    <Con id="40" src="2" tgt="6" wght="-3" />
    <Con id="42" src="2" tgt="8" wght="1.8502839858643894" />
    <Con id="43" src="2" tgt="9" wght="-0.96130954453111794" />
    <Con id="44" src="2" tgt="10" wght="2.5368001889437437" />
    <Con id="45" src="2" tgt="11" wght="-1.9011772759830237" />
    <Con id="46" src="2" tgt="12" wght="-2.4547116640439932" />
    <Con id="47" src="2" tgt="13" wght="0.089939119518286051" />
    <Con id="48" src="2" tgt="14" wght="-0.336058758207953" />
    <Con id="49" src="2" tgt="15" wght="0.10876765485612483" />
    <Con id="50" src="2" tgt="16" wght="-1.1988794915378094" />
    <Con id="51" src="2" tgt="17" wght="-0.95680989797875382" />
    <Con id="52" src="2" tgt="18" wght="0.038488459667040134" />
    <Con id="53" src="2" tgt="19" wght="3" />
    <Con id="54" src="2" tgt="20" wght="2.217440244851439" />
    <Con id="55" src="2" tgt="21" wght="-0.14666824852130062" />
    <Con id="56" src="2" tgt="22" wght="-0.58491527307635371" />
    <Con id="57" src="2" tgt="23" wght="-0.87983778471827734" />
    <Con id="58" src="2" tgt="24" wght="-0.18074728619246785" />
    <Con id="59" src="2" tgt="25" wght="1.3463242927465238" />
    <Con id="60" src="2" tgt="26" wght="-0.20875995242700579" />
    <Con id="61" src="2" tgt="27" wght="0.14889992930888654" />
    <Con id="62" src="2" tgt="28" wght="-0.22872568352895933" />
    <Con id="63" src="2" tgt="29" wght="-1.5185048241012766" />
    <Con id="64" src="2" tgt="30" wght="1.0071367379811071" />
    <Con id="65" src="0" tgt="3" wght="-2.2867460171799552" />
    <Con id="66" src="0" tgt="4" wght="3" />
    <Con id="67" src="0" tgt="5" wght="1.788735887795966" />
    <Con id="69" src="0" tgt="7" wght="-1.8473242256878861" />
    <Con id="70" src="0" tgt="8" wght="-1.9843525340672692" />
    <Con id="71" src="0" tgt="9" wght="-2.5290868484372626" />
    <Con id="72" src="0" tgt="10" wght="2.2687401001957452" />
    <Con id="73" src="0" tgt="11" wght="-1.7604335484950602" />
    <Con id="74" src="0" tgt="12" wght="2.9477069694037623" />
    <Con id="75" src="0" tgt="13" wght="-2.9939377136114755" />
    <Con id="76" src="0" tgt="14" wght="1.7210687753243996" />
    <Con id="77" src="0" tgt="15" wght="0.35620711290821438" />
    <Con id="78" src="0" tgt="16" wght="0.872949058891527" />
    <Con id="79" src="0" tgt="17" wght="0.19878731251377266" />
    <Con id="80" src="0" tgt="18" wght="-1.1600717279591393" />
    <Con id="81" src="0" tgt="19" wght="-1.4483485939078524" />
    <Con id="82" src="0" tgt="20" wght="1.051973620486643" />
    <Con id="83" src="0" tgt="22" wght="-2.9591044033857514" />
    <Con id="84" src="0" tgt="23" wght="-3" />
    <Con id="85" src="0" tgt="25" wght="-0.84278159777389983" />
    <Con id="86" src="0" tgt="26" wght="-2.3672357675602518" />
    <Con id="87" src="0" tgt="28" wght="2.68083162669845" />
    <Con id="88" src="0" tgt="29" wght="2.3733287484267525" />
    <Con id="89" src="0" tgt="30" wght="-1.8369567195551062" />
    <Con id="94" src="31" tgt="28" wght="0.85870002400892809" />
    <Con id="114" src="0" tgt="113" wght="2.52573475394476" />
    <Con id="115" src="113" tgt="6" wght="2.7170099144484725" />
    <Con id="131" src="113" tgt="19" wght="-0.065796795821117221" />
    <Con id="171" src="1" tgt="170" wght="0.019710494980739755" />
    <Con id="172" src="170" tgt="4" wght="1.3870333952122411" />
    <Con id="194" src="1" tgt="26" wght="-1.5657833916652728" />
    <Con id="237" src="31" tgt="12" wght="1.1251988047733903" />
    <Con id="277" src="170" tgt="25" wght="-1.8526800812285955" />
    <Con id="284" src="170" tgt="3" wght="2.29980697396824" />
    <Con id="356" src="113" tgt="4" wght="-2.8698214577874905" />
    <Con id="447" src="170" tgt="24" wght="-0.67116828709443888" />
    <Con id="711" src="170" tgt="30" wght="0.82115134760887165" />
    <Con id="714" src="170" tgt="21" wght="1.1944305351158722" />
    <Con id="786" src="0" tgt="785" wght="-1.0484264307077837" />
    <Con id="787" src="785" tgt="27" wght="3" />
    <Con id="1118" src="785" tgt="9" wght="1.3888200877462049" />
    <Con id="1144" src="785" tgt="3" wght="2.1748663385454172" />
    <Con id="1195" src="170" tgt="785" wght="-0.40984656721458462" />
    <Con id="1406" src="170" tgt="14" wght="1.1955284419622549" />
    <Con id="1749" src="2" tgt="1748" wght="-3" />
    <Con id="1750" src="1748" tgt="7" wght="2.6327384778279916" />
    <Con id="1852" src="1748" tgt="23" wght="-1.9024224847011571" />
    <Con id="1854" src="1748" tgt="785" wght="0.39065529417016981" />
    <Con id="1871" src="1" tgt="1870" wght="-1.1053941319696605" />
    <Con id="1872" src="1870" tgt="13" wght="2.9772042849950631" />
    <Con id="1888" src="0" tgt="1887" wght="0.015364848481062086" />
    <Con id="1889" src="1887" tgt="16" wght="3" />
    <Con id="1904" src="2" tgt="785" wght="0.93235236486936168" />
    <Con id="1920" src="1887" tgt="9" wght="0.96259564478143733" />
    <Con id="1927" src="1870" tgt="3" wght="-1.0069305506563357" />
    <Con id="1964" src="1887" tgt="1748" wght="-1.7093617597469482" />
    <Con id="2018" src="1870" tgt="10" wght="2.597048313966392" />
    <Con id="2029" src="1870" tgt="16" wght="0.0091424518005715251" />
    <Con id="2172" src="113" tgt="1870" wght="-2.3563500357399878" />
    <Con id="2235" src="113" tgt="12" wght="0.78034120565280318" />
    <Con id="2244" src="113" tgt="7" wght="0.016278923023492098" />
    <Con id="2320" src="1887" tgt="14" wght="-0.24382464587688446" />
    <Con id="2350" src="1748" tgt="24" wght="0.07151699093779626" />
    <Con id="2378" src="1887" tgt="5" wght="-1.7140820749393955" />
    <Con id="2398" src="1" tgt="2397" wght="-3" />
    <Con id="2399" src="2397" tgt="15" wght="3" />
    <Con id="2471" src="31" tgt="20" wght="1.4300895667764784" />
    <Con id="2474" src="785" tgt="23" wght="-0.90435076039284468" />
    <Con id="2493" src="113" tgt="2492" wght="2.9934779224486254" />
    <Con id="2494" src="2492" tgt="6" wght="1.748952392679521" />
    <Con id="2517" src="1887" tgt="29" wght="-0.40949056684577434" />
    <Con id="2518" src="1748" tgt="4" wght="1.8255267217755318" />
    <Con id="2520" src="1748" tgt="6" wght="-1.7942186136009193" />
    <Con id="2536" src="170" tgt="5" wght="-1.8327409896884834" />
    <Con id="2543" src="170" tgt="20" wght="-0.504610669563575" />
    <Con id="2559" src="1" tgt="2558" wght="1.431300356358149" />
    <Con id="2560" src="2558" tgt="28" wght="3" />
    <Con id="2751" src="1" tgt="2750" wght="2.0119257996801179" />
    <Con id="2752" src="2750" tgt="13" wght="2.9656035345664016" />
    <Con id="2800" src="1" tgt="2799" wght="-2.9800555502925752" />
    <Con id="2801" src="2799" tgt="6" wght="3" />
    <Con id="2842" src="2492" tgt="14" wght="0.42679679067805409" />
    <Con id="2857" src="2750" tgt="28" wght="1.4787892322055996" />
    <Con id="2861" src="1748" tgt="1870" wght="-0.9726686286740005" />
  </Connections>
</Network>