<Network id="68041" birthGen="135" fitness="0.99986400865201963">
  <Nodes>
    <Node type="bias" id="0" fnId="0" />
    <Node type="in" id="1" fnId="0" />
    <Node type="in" id="2" fnId="0" />
    <Node type="in" id="3" fnId="0" />
    <Node type="in" id="4" fnId="0" />
    <Node type="in" id="5" fnId="0" />
    <Node type="in" id="6" fnId="0" />
    <Node type="out" id="7" fnId="0" />
    <Node type="out" id="8" fnId="0" />
    <Node type="out" id="9" fnId="0" />
    <Node type="hid" id="10" fnId="2" />
    <Node type="hid" id="11" fnId="2" />
    <Node type="hid" id="32" fnId="2" />
    <Node type="hid" id="152" fnId="3" />
    <Node type="hid" id="220" fnId="1" />
    <Node type="hid" id="283" fnId="1" />
    <Node type="hid" id="325" fnId="0" />
    <Node type="hid" id="366" fnId="0" />
    <Node type="hid" id="411" fnId="2" />
    <Node type="hid" id="558" fnId="1" />
    <Node type="hid" id="573" fnId="0" />
    <Node type="hid" id="645" fnId="1" />
    <Node type="hid" id="665" fnId="2" />
    <Node type="hid" id="1130" fnId="3" />
    <Node type="hid" id="1171" fnId="0" />
    <Node type="hid" id="1563" fnId="1" />
    <Node type="hid" id="1778" fnId="3" />
    <Node type="hid" id="2071" fnId="3" />
  </Nodes>
  <Connections>
    <Con id="1" src="0" tgt="9" wght="0.07761167384703388" />
    <Con id="2" src="1" tgt="10" wght="1" />
    <Con id="3" src="2" tgt="11" wght="0.27462105613655219" />
    <Con id="4" src="4" tgt="10" wght="-0.97832211971583372" />
    <Con id="5" src="5" tgt="11" wght="-0.99388314185418714" />
    <Con id="6" src="10" tgt="9" wght="0.84551477739528047" />
    <Con id="8" src="1" tgt="7" wght="-0.089697642079546488" />
    <Con id="10" src="2" tgt="7" wght="0.044433423482268891" />
    <Con id="12" src="3" tgt="7" wght="0.37004302881100049" />
    <Con id="13" src="3" tgt="8" wght="0.94480101902143443" />
    <Con id="14" src="4" tgt="7" wght="0.27977285552889408" />
    <Con id="15" src="4" tgt="8" wght="-0.20426244607477406" />
    <Con id="16" src="5" tgt="7" wght="1" />
    <Con id="17" src="5" tgt="8" wght="-0.14043864294521863" />
    <Con id="18" src="6" tgt="7" wght="0.42220907677796821" />
    <Con id="19" src="6" tgt="8" wght="-0.32275220400743787" />
    <Con id="20" src="0" tgt="7" wght="-1" />
    <Con id="21" src="0" tgt="8" wght="-0.16268652503432191" />
    <Con id="22" src="0" tgt="10" wght="0.016757343503963407" />
    <Con id="24" src="5" tgt="9" wght="1" />
    <Con id="26" src="10" tgt="11" wght="1" />
    <Con id="28" src="2" tgt="9" wght="-0.539340806262647" />
    <Con id="31" src="11" tgt="7" wght="1" />
    <Con id="33" src="0" tgt="32" wght="1" />
    <Con id="34" src="32" tgt="11" wght="-0.67312172553982152" />
    <Con id="50" src="4" tgt="11" wght="0.30666408506833337" />
    <Con id="57" src="1" tgt="11" wght="0.94744793932634175" />
    <Con id="107" src="32" tgt="7" wght="0.514676220833482" />
    <Con id="151" src="4" tgt="32" wght="-0.64693150872071592" />
    <Con id="153" src="1" tgt="152" wght="1" />
    <Con id="154" src="152" tgt="8" wght="0.09834716817652768" />
    <Con id="221" src="0" tgt="220" wght="-0.98236293604102676" />
    <Con id="222" src="220" tgt="8" wght="0.03475538145031111" />
    <Con id="263" src="32" tgt="152" wght="-0.80160583647671413" />
    <Con id="282" src="10" tgt="220" wght="-0.28171285152513853" />
    <Con id="284" src="5" tgt="283" wght="0.67127660976341785" />
    <Con id="285" src="283" tgt="11" wght="1" />
    <Con id="287" src="152" tgt="10" wght="0.053221984997804138" />
    <Con id="291" src="10" tgt="283" wght="-0.81173142932424391" />
    <Con id="320" src="32" tgt="220" wght="-0.95437293350465779" />
    <Con id="326" src="1" tgt="325" wght="-0.14948895112734786" />
    <Con id="327" src="325" tgt="11" wght="-0.67988777946989354" />
    <Con id="329" src="152" tgt="220" wght="-0.46450812532916236" />
    <Con id="342" src="220" tgt="325" wght="-0.60158030523028483" />
    <Con id="361" src="220" tgt="11" wght="0.53553373841943908" />
    <Con id="367" src="2" tgt="366" wght="0.90689817935086559" />
    <Con id="368" src="366" tgt="8" wght="-0.694320509884972" />
    <Con id="384" src="366" tgt="283" wght="0.83165927869892875" />
    <Con id="396" src="366" tgt="9" wght="0.13533906975100185" />
    <Con id="405" src="366" tgt="152" wght="0.93821271693160391" />
    <Con id="412" src="1" tgt="411" wght="0.68438634902409368" />
    <Con id="413" src="411" tgt="152" wght="-0.19053587798096422" />
    <Con id="415" src="6" tgt="283" wght="0.99952635364603182" />
    <Con id="433" src="3" tgt="283" wght="0.86666687299219136" />
    <Con id="455" src="1" tgt="283" wght="0.13910745525668677" />
    <Con id="530" src="0" tgt="283" wght="0.17381605044392451" />
    <Con id="559" src="6" tgt="558" wght="0.11113465670496225" />
    <Con id="560" src="558" tgt="8" wght="-0.28985936232110254" />
    <Con id="574" src="32" tgt="573" wght="-0.49076446715375743" />
    <Con id="575" src="573" tgt="8" wght="0.96371761585005944" />
    <Con id="613" src="325" tgt="8" wght="-0.5598186154293685" />
    <Con id="624" src="152" tgt="558" wght="1" />
    <Con id="646" src="366" tgt="645" wght="-0.7365619180496501" />
    <Con id="647" src="645" tgt="9" wght="-0.31114693824201822" />
    <Con id="663" src="10" tgt="325" wght="0.39403098893753885" />
    <Con id="666" src="0" tgt="665" wght="-1" />
    <Con id="667" src="665" tgt="9" wght="-0.12036649271494682" />
    <Con id="675" src="558" tgt="573" wght="0.07462651400960528" />
    <Con id="726" src="411" tgt="645" wght="-0.035385393533574609" />
    <Con id="800" src="283" tgt="645" wght="-0.88466539912438891" />
    <Con id="900" src="283" tgt="325" wght="0.99010546453575032" />
    <Con id="999" src="5" tgt="645" wght="-0.98953550430441806" />
    <Con id="1131" src="32" tgt="1130" wght="0.38879099541620493" />
    <Con id="1132" src="1130" tgt="7" wght="0.20883451468550132" />
    <Con id="1172" src="2" tgt="1171" wght="0.47121091838926077" />
    <Con id="1173" src="1171" tgt="8" wght="0.97996852741452678" />
    <Con id="1177" src="665" tgt="573" wght="-0.65570378905497706" />
    <Con id="1225" src="665" tgt="11" wght="0.97139554614298851" />
    <Con id="1482" src="1130" tgt="9" wght="0.060870606212409473" />
    <Con id="1564" src="32" tgt="1563" wght="0.44285307213879294" />
    <Con id="1565" src="1563" tgt="8" wght="0.668753578676691" />
    <Con id="1779" src="366" tgt="1778" wght="-0.76800160948187113" />
    <Con id="1780" src="1778" tgt="558" wght="1" />
    <Con id="1901" src="1778" tgt="411" wght="0.065959003288298845" />
    <Con id="1922" src="4" tgt="665" wght="0.030963930767029524" />
    <Con id="2072" src="665" tgt="2071" wght="1" />
    <Con id="2073" src="2071" tgt="32" wght="1" />
  </Connections>
</Network>