<Network id="20410" birthGen="38" fitness="0.99997746324302572">
  <Nodes>
    <Node type="bias" id="0" fnId="0" />
    <Node type="in" id="1" fnId="0" />
    <Node type="in" id="2" fnId="0" />
    <Node type="in" id="3" fnId="0" />
    <Node type="in" id="4" fnId="0" />
    <Node type="in" id="5" fnId="0" />
    <Node type="in" id="6" fnId="0" />
    <Node type="out" id="7" fnId="0" />
    <Node type="out" id="8" fnId="0" />
    <Node type="out" id="9" fnId="0" />
    <Node type="hid" id="10" fnId="2" />
    <Node type="hid" id="11" fnId="2" />
    <Node type="hid" id="32" fnId="2" />
    <Node type="hid" id="152" fnId="3" />
    <Node type="hid" id="220" fnId="1" />
    <Node type="hid" id="283" fnId="1" />
    <Node type="hid" id="325" fnId="0" />
    <Node type="hid" id="366" fnId="0" />
    <Node type="hid" id="411" fnId="2" />
    <Node type="hid" id="558" fnId="1" />
    <Node type="hid" id="573" fnId="0" />
    <Node type="hid" id="645" fnId="1" />
    <Node type="hid" id="665" fnId="2" />
    <Node type="hid" id="1130" fnId="3" />
    <Node type="hid" id="1171" fnId="0" />
    <Node type="hid" id="1563" fnId="1" />
    <Node type="hid" id="1778" fnId="3" />
    <Node type="hid" id="1846" fnId="0" />
  </Nodes>
  <Connections>
    <Con id="1" src="0" tgt="9" wght="0.07761167384703388" />
    <Con id="2" src="1" tgt="10" wght="0.94830231872623449" />
    <Con id="3" src="2" tgt="11" wght="0.31827910208043469" />
    <Con id="4" src="4" tgt="10" wght="-0.95494429970452732" />
    <Con id="5" src="5" tgt="11" wght="-0.98273804302934276" />
    <Con id="6" src="10" tgt="9" wght="0.85419838768049028" />
    <Con id="7" src="11" tgt="9" wght="0.2059355330837539" />
    <Con id="8" src="1" tgt="7" wght="-0.089697642079546488" />
    <Con id="10" src="2" tgt="7" wght="0.044433423482268891" />
    <Con id="12" src="3" tgt="7" wght="0.37004302881100049" />
    <Con id="13" src="3" tgt="8" wght="1" />
    <Con id="14" src="4" tgt="7" wght="0.05061704619382737" />
    <Con id="15" src="4" tgt="8" wght="0.026041432591501573" />
    <Con id="16" src="5" tgt="7" wght="1" />
    <Con id="17" src="5" tgt="8" wght="-0.14043864294521863" />
    <Con id="18" src="6" tgt="7" wght="0.42220907677796821" />
    <Con id="19" src="6" tgt="8" wght="-0.29571586464577715" />
    <Con id="20" src="0" tgt="7" wght="-1" />
    <Con id="21" src="0" tgt="8" wght="-0.16899231807303586" />
    <Con id="22" src="0" tgt="10" wght="-0.0056200988367950261" />
    <Con id="24" src="5" tgt="9" wght="0.99252450446863161" />
    <Con id="26" src="10" tgt="11" wght="0.99344623317386649" />
    <Con id="28" src="2" tgt="9" wght="-0.52996846770156425" />
    <Con id="31" src="11" tgt="7" wght="1" />
    <Con id="33" src="0" tgt="32" wght="1" />
    <Con id="34" src="32" tgt="11" wght="-0.67312172553982152" />
    <Con id="50" src="4" tgt="11" wght="0.99603219289257372" />
    <Con id="57" src="1" tgt="11" wght="0.97082885144136832" />
    <Con id="107" src="32" tgt="7" wght="-0.32964903025640158" />
    <Con id="151" src="4" tgt="32" wght="-0.67154014752741564" />
    <Con id="153" src="1" tgt="152" wght="-1" />
    <Con id="154" src="152" tgt="8" wght="0.085335367378128829" />
    <Con id="221" src="0" tgt="220" wght="-0.98016234591202622" />
    <Con id="222" src="220" tgt="8" wght="0.075943202085778955" />
    <Con id="263" src="32" tgt="152" wght="-0.6011022855527699" />
    <Con id="282" src="10" tgt="220" wght="-0.2815128722518484" />
    <Con id="284" src="5" tgt="283" wght="0.63195877700454739" />
    <Con id="285" src="283" tgt="11" wght="1" />
    <Con id="287" src="152" tgt="10" wght="0.010972377277551342" />
    <Con id="291" src="10" tgt="283" wght="-0.80206370759448331" />
    <Con id="320" src="32" tgt="220" wght="0.99991917901130234" />
    <Con id="326" src="1" tgt="325" wght="-0.19736184169961984" />
    <Con id="327" src="325" tgt="11" wght="-0.7011371080656601" />
    <Con id="329" src="152" tgt="220" wght="-0.21011740942291124" />
    <Con id="342" src="220" tgt="325" wght="-0.61381277807010293" />
    <Con id="361" src="220" tgt="11" wght="0.53553373841943908" />
    <Con id="367" src="2" tgt="366" wght="0.9063025158187924" />
    <Con id="368" src="366" tgt="8" wght="-1" />
    <Con id="384" src="366" tgt="283" wght="0.75431645150691373" />
    <Con id="396" src="366" tgt="9" wght="0.13533906975100185" />
    <Con id="405" src="366" tgt="152" wght="0.27885266150519283" />
    <Con id="412" src="1" tgt="411" wght="0.72129401052370667" />
    <Con id="413" src="411" tgt="152" wght="1" />
    <Con id="415" src="6" tgt="283" wght="0.99952635364603182" />
    <Con id="433" src="3" tgt="283" wght="1" />
    <Con id="455" src="1" tgt="283" wght="0.158061009922008" />
    <Con id="530" src="0" tgt="283" wght="0.17422348656023123" />
    <Con id="559" src="6" tgt="558" wght="0.14194881269864454" />
    <Con id="560" src="558" tgt="8" wght="-0.29578711370080157" />
    <Con id="574" src="32" tgt="573" wght="-0.51538834110840448" />
    <Con id="613" src="325" tgt="8" wght="-0.6029982157932382" />
    <Con id="624" src="152" tgt="558" wght="0.39337527803037614" />
    <Con id="646" src="366" tgt="645" wght="-0.507265582948568" />
    <Con id="647" src="645" tgt="9" wght="-0.33529984961618881" />
    <Con id="663" src="10" tgt="325" wght="0.40975733779884" />
    <Con id="666" src="0" tgt="665" wght="-0.99541028166180745" />
    <Con id="667" src="665" tgt="9" wght="-0.12036649271494682" />
    <Con id="675" src="558" tgt="573" wght="0.0533054755490126" />
    <Con id="726" src="411" tgt="645" wght="-0.10812545117885411" />
    <Con id="800" src="283" tgt="645" wght="-1" />
    <Con id="900" src="283" tgt="325" wght="1" />
    <Con id="999" src="5" tgt="645" wght="-0.69430795147300928" />
    <Con id="1131" src="32" tgt="1130" wght="0.42987819976652369" />
    <Con id="1132" src="1130" tgt="7" wght="0.98898330528309308" />
    <Con id="1172" src="2" tgt="1171" wght="0.45354028066116414" />
    <Con id="1173" src="1171" tgt="8" wght="1" />
    <Con id="1177" src="665" tgt="573" wght="0.26299228705465794" />
    <Con id="1225" src="665" tgt="11" wght="0.94610576329822826" />
    <Con id="1482" src="1130" tgt="9" wght="0.085810055580441247" />
    <Con id="1564" src="32" tgt="1563" wght="0.4371555611981659" />
    <Con id="1565" src="1563" tgt="8" wght="1" />
    <Con id="1779" src="366" tgt="1778" wght="-1" />
    <Con id="1780" src="1778" tgt="558" wght="0.982934163051454" />
    <Con id="1809" src="665" tgt="645" wght="-0.93022970808669925" />
    <Con id="1847" src="573" tgt="1846" wght="0.97977791342913068" />
    <Con id="1848" src="1846" tgt="8" wght="0.97441218921033745" />
  </Connections>
</Network>