<Network id="4224974" birthGen="8595" fitness="0.9990045354970658">
  <Nodes>
    <Node type="bias" id="0" fnId="0" />
    <Node type="in" id="1" fnId="0" />
    <Node type="in" id="2" fnId="0" />
    <Node type="out" id="3" fnId="0" />
    <Node type="out" id="4" fnId="0" />
    <Node type="out" id="5" fnId="0" />
    <Node type="out" id="6" fnId="0" />
    <Node type="out" id="7" fnId="0" />
    <Node type="out" id="8" fnId="0" />
    <Node type="out" id="9" fnId="0" />
    <Node type="out" id="10" fnId="0" />
    <Node type="out" id="11" fnId="0" />
    <Node type="out" id="12" fnId="0" />
    <Node type="out" id="13" fnId="0" />
    <Node type="out" id="14" fnId="0" />
    <Node type="out" id="15" fnId="0" />
    <Node type="out" id="16" fnId="0" />
    <Node type="out" id="17" fnId="0" />
    <Node type="out" id="18" fnId="0" />
    <Node type="out" id="19" fnId="0" />
    <Node type="out" id="20" fnId="0" />
    <Node type="out" id="21" fnId="0" />
    <Node type="out" id="22" fnId="0" />
    <Node type="out" id="23" fnId="0" />
    <Node type="out" id="24" fnId="0" />
    <Node type="out" id="25" fnId="0" />
    <Node type="out" id="26" fnId="0" />
    <Node type="out" id="27" fnId="0" />
    <Node type="out" id="28" fnId="0" />
    <Node type="out" id="29" fnId="0" />
    <Node type="out" id="30" fnId="0" />
    <Node type="hid" id="31" fnId="2" />
    <Node type="hid" id="104" fnId="1" />
    <Node type="hid" id="135" fnId="1" />
    <Node type="hid" id="1517" fnId="0" />
    <Node type="hid" id="1520" fnId="3" />
    <Node type="hid" id="1560" fnId="3" />
    <Node type="hid" id="1563" fnId="0" />
    <Node type="hid" id="1733" fnId="1" />
    <Node type="hid" id="1841" fnId="1" />
    <Node type="hid" id="1937" fnId="3" />
    <Node type="hid" id="1988" fnId="1" />
    <Node type="hid" id="2263" fnId="0" />
    <Node type="hid" id="2399" fnId="3" />
    <Node type="hid" id="2846" fnId="0" />
    <Node type="hid" id="3148" fnId="2" />
    <Node type="hid" id="3383" fnId="0" />
    <Node type="hid" id="3425" fnId="2" />
    <Node type="hid" id="3610" fnId="0" />
    <Node type="hid" id="3851" fnId="2" />
    <Node type="hid" id="3883" fnId="1" />
    <Node type="hid" id="3913" fnId="3" />
    <Node type="hid" id="3943" fnId="2" />
    <Node type="hid" id="4105" fnId="3" />
    <Node type="hid" id="4194" fnId="0" />
    <Node type="hid" id="5360" fnId="2" />
    <Node type="hid" id="6151" fnId="1" />
    <Node type="hid" id="6260" fnId="0" />
    <Node type="hid" id="6319" fnId="3" />
    <Node type="hid" id="6520" fnId="2" />
    <Node type="hid" id="6606" fnId="2" />
    <Node type="hid" id="6886" fnId="3" />
    <Node type="hid" id="6926" fnId="1" />
    <Node type="hid" id="7187" fnId="1" />
    <Node type="hid" id="7349" fnId="1" />
    <Node type="hid" id="7391" fnId="3" />
    <Node type="hid" id="7907" fnId="1" />
    <Node type="hid" id="9228" fnId="1" />
    <Node type="hid" id="9483" fnId="1" />
    <Node type="hid" id="9637" fnId="2" />
    <Node type="hid" id="10392" fnId="3" />
    <Node type="hid" id="11628" fnId="2" />
    <Node type="hid" id="11698" fnId="1" />
    <Node type="hid" id="11749" fnId="1" />
    <Node type="hid" id="12778" fnId="0" />
    <Node type="hid" id="13285" fnId="3" />
    <Node type="hid" id="14059" fnId="1" />
    <Node type="hid" id="14629" fnId="1" />
    <Node type="hid" id="14691" fnId="1" />
    <Node type="hid" id="14700" fnId="2" />
    <Node type="hid" id="14725" fnId="1" />
    <Node type="hid" id="14770" fnId="2" />
    <Node type="hid" id="14806" fnId="3" />
    <Node type="hid" id="14835" fnId="1" />
    <Node type="hid" id="15339" fnId="0" />
    <Node type="hid" id="15862" fnId="0" />
    <Node type="hid" id="16074" fnId="0" />
    <Node type="hid" id="16221" fnId="2" />
    <Node type="hid" id="16378" fnId="1" />
    <Node type="hid" id="16936" fnId="1" />
    <Node type="hid" id="20633" fnId="3" />
    <Node type="hid" id="21266" fnId="2" />
    <Node type="hid" id="21275" fnId="2" />
    <Node type="hid" id="21545" fnId="3" />
    <Node type="hid" id="21641" fnId="1" />
    <Node type="hid" id="21785" fnId="3" />
    <Node type="hid" id="21944" fnId="3" />
    <Node type="hid" id="22057" fnId="0" />
    <Node type="hid" id="22780" fnId="1" />
    <Node type="hid" id="24173" fnId="1" />
    <Node type="hid" id="25557" fnId="2" />
    <Node type="hid" id="25667" fnId="3" />
    <Node type="hid" id="25810" fnId="1" />
    <Node type="hid" id="26164" fnId="3" />
    <Node type="hid" id="26270" fnId="2" />
    <Node type="hid" id="26462" fnId="3" />
    <Node type="hid" id="27172" fnId="2" />
    <Node type="hid" id="28513" fnId="2" />
    <Node type="hid" id="28734" fnId="1" />
    <Node type="hid" id="29391" fnId="1" />
    <Node type="hid" id="29533" fnId="0" />
    <Node type="hid" id="30008" fnId="2" />
    <Node type="hid" id="30622" fnId="1" />
    <Node type="hid" id="30714" fnId="0" />
    <Node type="hid" id="30977" fnId="1" />
    <Node type="hid" id="31268" fnId="0" />
    <Node type="hid" id="31932" fnId="2" />
    <Node type="hid" id="32039" fnId="2" />
    <Node type="hid" id="32233" fnId="0" />
    <Node type="hid" id="32964" fnId="1" />
    <Node type="hid" id="33100" fnId="1" />
  </Nodes>
  <Connections>
    <Con id="1" src="0" tgt="21" wght="0.9044662071534828" />
    <Con id="2" src="0" tgt="24" wght="-1.4743826372480111" />
    <Con id="3" src="0" tgt="27" wght="-1.9272560084290404" />
    <Con id="4" src="1" tgt="31" wght="1.2467986204782442" />
    <Con id="5" src="2" tgt="31" wght="-1.2844922008798327" />
    <Con id="6" src="31" tgt="21" wght="2.1605400546991587" />
    <Con id="7" src="31" tgt="24" wght="1.786071046241418" />
    <Con id="8" src="31" tgt="27" wght="2.1647163288418652" />
    <Con id="9" src="1" tgt="3" wght="1.1712287099877892" />
    <Con id="10" src="1" tgt="4" wght="-1.1395238089170978" />
    <Con id="11" src="1" tgt="5" wght="0.95623983085372177" />
    <Con id="13" src="1" tgt="7" wght="-2.1230620636545141" />
    <Con id="14" src="1" tgt="8" wght="0.1021813724279021" />
    <Con id="15" src="1" tgt="9" wght="-3" />
    <Con id="16" src="1" tgt="10" wght="-0.39008556934268562" />
    <Con id="17" src="1" tgt="11" wght="-3" />
    <Con id="18" src="1" tgt="12" wght="2.4440579537473361" />
    <Con id="19" src="1" tgt="13" wght="2.755595536287557" />
    <Con id="20" src="1" tgt="14" wght="0.705167862880918" />
    <Con id="21" src="1" tgt="15" wght="-2.3517531318476226" />
    <Con id="22" src="1" tgt="16" wght="-3" />
    <Con id="23" src="1" tgt="17" wght="-2.533731389271773" />
    <Con id="24" src="1" tgt="18" wght="3" />
    <Con id="25" src="1" tgt="19" wght="0.99180899992062832" />
    <Con id="26" src="1" tgt="20" wght="1.1375231039710343" />
    <Con id="27" src="1" tgt="21" wght="2.9652116609563581" />
    <Con id="28" src="1" tgt="22" wght="0.30383607691456449" />
    <Con id="29" src="1" tgt="23" wght="-2.8995288105295147" />
    <Con id="30" src="1" tgt="24" wght="-0.52527636542972811" />
    <Con id="31" src="1" tgt="25" wght="-1.7040156014049965" />
    <Con id="32" src="1" tgt="26" wght="0.025076515049629822" />
    <Con id="33" src="1" tgt="27" wght="-0.933453532510177" />
    <Con id="36" src="1" tgt="30" wght="-0.23458741528694577" />
    <Con id="37" src="2" tgt="3" wght="-0.505866398855785" />
    <Con id="38" src="2" tgt="4" wght="1.3241211750382413" />
    <Con id="39" src="2" tgt="5" wght="0.952904957095278" />
    <Con id="40" src="2" tgt="6" wght="-1.1458609057581748" />
    <Con id="41" src="2" tgt="7" wght="1.2115614422569356" />
    <Con id="42" src="2" tgt="8" wght="-1.5328747357209249" />
    <Con id="43" src="2" tgt="9" wght="1.843204473568091" />
    <Con id="44" src="2" tgt="10" wght="-0.061905197878658974" />
    <Con id="45" src="2" tgt="11" wght="-1.7814745484373449" />
    <Con id="46" src="2" tgt="12" wght="0.360812997768218" />
    <Con id="47" src="2" tgt="13" wght="-1.0382753386866941" />
    <Con id="49" src="2" tgt="15" wght="0.25791129736737139" />
    <Con id="51" src="2" tgt="17" wght="1.3354260090129972" />
    <Con id="52" src="2" tgt="18" wght="0.57184177444684336" />
    <Con id="54" src="2" tgt="20" wght="-1.304654179612142" />
    <Con id="55" src="2" tgt="21" wght="-3" />
    <Con id="56" src="2" tgt="22" wght="1.2078364663578614" />
    <Con id="57" src="2" tgt="23" wght="-2.9923136923811606" />
    <Con id="58" src="2" tgt="24" wght="0.1285943689331111" />
    <Con id="59" src="2" tgt="25" wght="-2.031449452641005" />
    <Con id="60" src="2" tgt="26" wght="-2.4731201545462436" />
    <Con id="61" src="2" tgt="27" wght="1.2089586019385861" />
    <Con id="62" src="2" tgt="28" wght="2.1961071968267438" />
    <Con id="63" src="2" tgt="29" wght="2.96193471980876" />
    <Con id="64" src="2" tgt="30" wght="-0.88791798201556349" />
    <Con id="65" src="0" tgt="3" wght="1.8625625353402342" />
    <Con id="66" src="0" tgt="4" wght="2.2996758219229476" />
    <Con id="67" src="0" tgt="5" wght="2.4788477647713214" />
    <Con id="68" src="0" tgt="6" wght="-3" />
    <Con id="69" src="0" tgt="7" wght="-2.4768377171514566" />
    <Con id="70" src="0" tgt="8" wght="-1.4312810584412536" />
    <Con id="71" src="0" tgt="9" wght="-0.37142845392986384" />
    <Con id="72" src="0" tgt="10" wght="0.10272284644007446" />
    <Con id="73" src="0" tgt="11" wght="-0.352138386094694" />
    <Con id="74" src="0" tgt="12" wght="0.721728329659816" />
    <Con id="75" src="0" tgt="13" wght="-0.2891382259740421" />
    <Con id="76" src="0" tgt="14" wght="2.1565107828515848" />
    <Con id="77" src="0" tgt="15" wght="-0.44658102703186092" />
    <Con id="78" src="0" tgt="16" wght="-0.0623454150275745" />
    <Con id="79" src="0" tgt="17" wght="2.51543361071178" />
    <Con id="80" src="0" tgt="18" wght="-2.8285498760531924" />
    <Con id="81" src="0" tgt="19" wght="-2.0474752300376866" />
    <Con id="82" src="0" tgt="20" wght="2.7630090218093746" />
    <Con id="83" src="0" tgt="22" wght="2.980167445748958" />
    <Con id="84" src="0" tgt="23" wght="-0.32856244926540562" />
    <Con id="85" src="0" tgt="25" wght="-2.2908274686608281" />
    <Con id="86" src="0" tgt="26" wght="2.3414424133711536" />
    <Con id="87" src="0" tgt="28" wght="-0.80778201576322317" />
    <Con id="88" src="0" tgt="29" wght="-1.5858761103189702" />
    <Con id="90" src="31" tgt="12" wght="1.2566477463095107" />
    <Con id="93" src="31" tgt="13" wght="-2.9679392443419466" />
    <Con id="105" src="2" tgt="104" wght="0.049240392225072434" />
    <Con id="106" src="104" tgt="27" wght="2.6937559044042474" />
    <Con id="107" src="104" tgt="22" wght="-0.87722265692315315" />
    <Con id="108" src="31" tgt="20" wght="-1.0828891213148986" />
    <Con id="109" src="104" tgt="7" wght="-2.5107552961445476" />
    <Con id="113" src="31" tgt="8" wght="-2.5915781081240574" />
    <Con id="119" src="31" tgt="11" wght="1.2269773075007202" />
    <Con id="124" src="104" tgt="19" wght="1.8562533693782906" />
    <Con id="125" src="31" tgt="15" wght="0.24668039013674953" />
    <Con id="127" src="31" tgt="23" wght="3" />
    <Con id="131" src="104" tgt="8" wght="-1.610640877392143" />
    <Con id="136" src="1" tgt="135" wght="-3" />
    <Con id="137" src="135" tgt="28" wght="3" />
    <Con id="140" src="104" tgt="21" wght="-0.9403265978742078" />
    <Con id="144" src="135" tgt="15" wght="-0.33701152953102476" />
    <Con id="145" src="31" tgt="30" wght="1.9911537981649052" />
    <Con id="146" src="104" tgt="24" wght="2.3160256400467136" />
    <Con id="155" src="31" tgt="22" wght="1.0497022344258526" />
    <Con id="162" src="31" tgt="17" wght="-3" />
    <Con id="164" src="104" tgt="10" wght="-1.9275721909950816" />
    <Con id="171" src="31" tgt="14" wght="-1.0994229058791076" />
    <Con id="180" src="135" tgt="22" wght="-2.8541625589757644" />
    <Con id="184" src="135" tgt="3" wght="-3" />
    <Con id="185" src="135" tgt="20" wght="-1.9796865015968459" />
    <Con id="197" src="135" tgt="12" wght="2.9696880978657743" />
    <Con id="200" src="135" tgt="23" wght="-2.7536076098121076" />
    <Con id="205" src="135" tgt="25" wght="-1.1467739259601772" />
    <Con id="211" src="104" tgt="9" wght="-2.1323209796567473" />
    <Con id="212" src="135" tgt="17" wght="2.2432955155878056" />
    <Con id="237" src="135" tgt="30" wght="2.3423912520022272" />
    <Con id="245" src="104" tgt="3" wght="1.3923781603027408" />
    <Con id="246" src="135" tgt="21" wght="-1.4768703035118997" />
    <Con id="247" src="104" tgt="30" wght="1.9328567224841844" />
    <Con id="257" src="104" tgt="16" wght="1.503211674766531" />
    <Con id="263" src="135" tgt="8" wght="3" />
    <Con id="267" src="2" tgt="135" wght="0.1055244282744362" />
    <Con id="269" src="104" tgt="15" wght="-2.0260580521087452" />
    <Con id="289" src="135" tgt="26" wght="0.061480631036462841" />
    <Con id="535" src="1" tgt="28" wght="2.3629360209590953" />
    <Con id="1518" src="0" tgt="1517" wght="-0.1220656258712266" />
    <Con id="1519" src="1517" tgt="3" wght="-1.8061435934179215" />
    <Con id="1521" src="104" tgt="1520" wght="2.5467767129240708" />
    <Con id="1522" src="1520" tgt="24" wght="2.2143330182600343" />
    <Con id="1536" src="1517" tgt="13" wght="-0.90081779941539974" />
    <Con id="1561" src="2" tgt="1560" wght="-1.6568467306616512" />
    <Con id="1562" src="1560" tgt="17" wght="-3" />
    <Con id="1564" src="0" tgt="1563" wght="-2.9549657754783278" />
    <Con id="1565" src="1563" tgt="9" wght="-2.0955396358513161" />
    <Con id="1577" src="1520" tgt="26" wght="-2.9757005355719777" />
    <Con id="1578" src="1563" tgt="18" wght="-3" />
    <Con id="1582" src="1560" tgt="16" wght="-0.75670874906711971" />
    <Con id="1607" src="1520" tgt="9" wght="2.9921126404069951" />
    <Con id="1639" src="1520" tgt="18" wght="-1.3876836989074945" />
    <Con id="1692" src="1520" tgt="29" wght="-3" />
    <Con id="1693" src="1560" tgt="12" wght="-0.99236836882001067" />
    <Con id="1719" src="1560" tgt="7" wght="-2.2111847409662042" />
    <Con id="1721" src="1" tgt="1560" wght="3" />
    <Con id="1734" src="1" tgt="1733" wght="1.6484488766566658" />
    <Con id="1735" src="1733" tgt="15" wght="1.3762610681543936" />
    <Con id="1748" src="1563" tgt="3" wght="-2.9896768947232872" />
    <Con id="1765" src="1733" tgt="10" wght="-2.9438827605368565" />
    <Con id="1766" src="2" tgt="1517" wght="0.866480030522053" />
    <Con id="1773" src="31" tgt="1563" wght="2.9975130329095685" />
    <Con id="1788" src="1560" tgt="9" wght="3" />
    <Con id="1793" src="1520" tgt="3" wght="1.069412888463843" />
    <Con id="1799" src="1563" tgt="10" wght="-2.4482634563645718" />
    <Con id="1813" src="1" tgt="1517" wght="-2.9436301657020212" />
    <Con id="1817" src="1" tgt="1563" wght="-0.18488782921672581" />
    <Con id="1820" src="1563" tgt="30" wght="2.9799691280413989" />
    <Con id="1829" src="1520" tgt="7" wght="2.2663924105494009" />
    <Con id="1842" src="1" tgt="1841" wght="-0.10483315555741257" />
    <Con id="1843" src="1841" tgt="14" wght="2.3412150811478765" />
    <Con id="1848" src="1520" tgt="8" wght="-1.2929030020929859" />
    <Con id="1852" src="1560" tgt="14" wght="1.1311209879412445" />
    <Con id="1859" src="1563" tgt="4" wght="-2.4098998248043033" />
    <Con id="1923" src="1841" tgt="4" wght="2.3811487116612593" />
    <Con id="1929" src="1563" tgt="25" wght="1.008902978617698" />
    <Con id="1938" src="2" tgt="1937" wght="-0.020154961744179058" />
    <Con id="1940" src="1520" tgt="1517" wght="-1.1427700954645272" />
    <Con id="1941" src="104" tgt="1563" wght="-3" />
    <Con id="1951" src="1841" tgt="7" wght="1.9508121437485897" />
    <Con id="1952" src="2" tgt="1563" wght="0.66790663502242487" />
    <Con id="1987" src="1937" tgt="104" wght="0.2293293551237546" />
    <Con id="1989" src="1" tgt="1988" wght="2.1811695641995144" />
    <Con id="1990" src="1988" tgt="16" wght="1.1789921836373047" />
    <Con id="2010" src="1517" tgt="1563" wght="-2.3204338147674348" />
    <Con id="2031" src="1520" tgt="28" wght="0.14256935047702377" />
    <Con id="2052" src="1937" tgt="10" wght="1.0521493227078975" />
    <Con id="2054" src="1520" tgt="27" wght="0.0074162950827355682" />
    <Con id="2080" src="1841" tgt="27" wght="2.5038356703266" />
    <Con id="2106" src="1733" tgt="11" wght="0.84990557679343759" />
    <Con id="2180" src="1520" tgt="14" wght="1.568436394459638" />
    <Con id="2215" src="1937" tgt="18" wght="1.7632724993603584" />
    <Con id="2256" src="1560" tgt="26" wght="2.9634625435457522" />
    <Con id="2264" src="2" tgt="2263" wght="1.4427743590477058" />
    <Con id="2265" src="2263" tgt="7" wght="-1.9870144376240939" />
    <Con id="2288" src="1841" tgt="31" wght="0.11173392615735113" />
    <Con id="2367" src="1520" tgt="10" wght="-1.5027416941540563" />
    <Con id="2400" src="104" tgt="2399" wght="2.8047670607594832" />
    <Con id="2401" src="2399" tgt="10" wght="-2.9750122433659794" />
    <Con id="2464" src="2263" tgt="1563" wght="2.3072243492568152" />
    <Con id="2586" src="2263" tgt="9" wght="2.0227706293553949" />
    <Con id="2847" src="1" tgt="2846" wght="-0.048755576124609949" />
    <Con id="2848" src="2846" tgt="10" wght="-1.8428989261073163" />
    <Con id="2912" src="2846" tgt="23" wght="-0.11787749030479608" />
    <Con id="2976" src="2846" tgt="12" wght="-2.6716362142730667" />
    <Con id="2991" src="2399" tgt="6" wght="2.1560935501760659" />
    <Con id="3053" src="31" tgt="2263" wght="-2.5235735294324937" />
    <Con id="3095" src="1733" tgt="19" wght="-0.56526343463779916" />
    <Con id="3097" src="2846" tgt="1563" wght="-0.0773230320542437" />
    <Con id="3149" src="0" tgt="3148" wght="-3" />
    <Con id="3150" src="3148" tgt="3" wght="2.0361443042855907" />
    <Con id="3166" src="2846" tgt="1517" wght="-2.0549253699848311" />
    <Con id="3209" src="135" tgt="2846" wght="2.0204732992153742" />
    <Con id="3235" src="3148" tgt="13" wght="-2.997576855588274" />
    <Con id="3375" src="3148" tgt="8" wght="1.2272201892672887" />
    <Con id="3384" src="0" tgt="3383" wght="-1.2626466026717271" />
    <Con id="3385" src="3383" tgt="5" wght="2.482934860543164" />
    <Con id="3426" src="2" tgt="3425" wght="-1.7490705492085539" />
    <Con id="3427" src="3425" tgt="3" wght="-0.54788285173594953" />
    <Con id="3465" src="3383" tgt="29" wght="2.2178171976310272" />
    <Con id="3473" src="31" tgt="2399" wght="2.95717847282156" />
    <Con id="3485" src="3383" tgt="8" wght="-2.5405913528201434" />
    <Con id="3502" src="3383" tgt="21" wght="2.7087766843349512" />
    <Con id="3510" src="3425" tgt="3383" wght="-3" />
    <Con id="3611" src="1" tgt="3610" wght="1.202022937968642" />
    <Con id="3612" src="3610" tgt="25" wght="-3" />
    <Con id="3663" src="2846" tgt="3383" wght="-0.080737525189786191" />
    <Con id="3839" src="3610" tgt="2399" wght="2.0970146557586062" />
    <Con id="3852" src="2" tgt="3851" wght="-2.0650353645743671" />
    <Con id="3853" src="3851" tgt="22" wght="-0.14785580901829626" />
    <Con id="3884" src="104" tgt="3883" wght="0.86408316646339411" />
    <Con id="3885" src="3883" tgt="16" wght="1.8182317648007975" />
    <Con id="3900" src="3148" tgt="24" wght="2.9859426090711514" />
    <Con id="3904" src="3883" tgt="27" wght="-0.11997292095046647" />
    <Con id="3914" src="0" tgt="3913" wght="1.9345968612469733" />
    <Con id="3915" src="3913" tgt="23" wght="0.9887961214500004" />
    <Con id="3944" src="2" tgt="3943" wght="3" />
    <Con id="3945" src="3943" tgt="30" wght="-0.52048025410215248" />
    <Con id="3951" src="2263" tgt="2846" wght="1.3206284406911384" />
    <Con id="3957" src="3913" tgt="2846" wght="2.9289389017006262" />
    <Con id="3994" src="3851" tgt="6" wght="2.6907219883714681" />
    <Con id="4014" src="31" tgt="3943" wght="-3" />
    <Con id="4076" src="3383" tgt="18" wght="-1.703557099038387" />
    <Con id="4107" src="4105" tgt="25" wght="-1.1436792890615615" />
    <Con id="4167" src="1520" tgt="3943" wght="2.9897709748399768" />
    <Con id="4195" src="1563" tgt="4194" wght="-1.9744741331147722" />
    <Con id="4196" src="4194" tgt="4" wght="0.7049958142797087" />
    <Con id="4443" src="4194" tgt="29" wght="2.207232853423299" />
    <Con id="4446" src="1517" tgt="10" wght="0.77519038993378564" />
    <Con id="4467" src="4105" tgt="3383" wght="-2.2644282945431202" />
    <Con id="4545" src="2" tgt="3610" wght="-1.6218405748099221" />
    <Con id="4565" src="3383" tgt="2399" wght="3" />
    <Con id="4640" src="3883" tgt="3" wght="1.8349956929777669" />
    <Con id="4643" src="1937" tgt="3610" wght="-0.52272055404273032" />
    <Con id="4770" src="2263" tgt="4194" wght="2.3035340110618496" />
    <Con id="4774" src="4194" tgt="23" wght="2.4858848714874133" />
    <Con id="4812" src="1988" tgt="18" wght="1.812946771622769" />
    <Con id="4874" src="4105" tgt="2846" wght="2.8421349567797725" />
    <Con id="4925" src="3883" tgt="6" wght="-0.39132452433097981" />
    <Con id="4926" src="4194" tgt="9" wght="-3" />
    <Con id="4996" src="3943" tgt="11" wght="-2.2110466532097712" />
    <Con id="5019" src="2846" tgt="20" wght="-2.7108521142322246" />
    <Con id="5027" src="3913" tgt="12" wght="-2.4142371898774635" />
    <Con id="5042" src="3913" tgt="13" wght="0.28244421942664588" />
    <Con id="5076" src="3425" tgt="4105" wght="-0.86254185361614411" />
    <Con id="5116" src="4194" tgt="10" wght="-0.15356033194165525" />
    <Con id="5178" src="3851" tgt="19" wght="2.2071979329727056" />
    <Con id="5259" src="4194" tgt="3148" wght="0.46939541586152578" />
    <Con id="5327" src="3943" tgt="20" wght="-0.74925493742064042" />
    <Con id="5361" src="0" tgt="5360" wght="1.1636450402779419" />
    <Con id="5362" src="5360" tgt="3" wght="2.9920970206148922" />
    <Con id="5389" src="5360" tgt="13" wght="-2.2701387310368051" />
    <Con id="5394" src="4105" tgt="20" wght="1.3716002675123351" />
    <Con id="5691" src="1520" tgt="3851" wght="-0.83840939883502408" />
    <Con id="5791" src="5360" tgt="26" wght="2.4979761789078574" />
    <Con id="5880" src="4105" tgt="7" wght="1.4194365827645359" />
    <Con id="5881" src="3851" tgt="10" wght="-2.0709068971714384" />
    <Con id="6002" src="2" tgt="4194" wght="-2.8155131815851133" />
    <Con id="6138" src="1517" tgt="3851" wght="-2.1566862880066746" />
    <Con id="6152" src="1" tgt="6151" wght="-2.2110002547359531" />
    <Con id="6153" src="6151" tgt="20" wght="2.9316931099529" />
    <Con id="6261" src="3425" tgt="6260" wght="-2.9993329748801738" />
    <Con id="6262" src="6260" tgt="1517" wght="0.67230120445629826" />
    <Con id="6320" src="1560" tgt="6319" wght="0.80951666443258663" />
    <Con id="6327" src="1560" tgt="4194" wght="-0.34158139955252409" />
    <Con id="6466" src="6319" tgt="3425" wght="-2.2809466432467151" />
    <Con id="6521" src="3943" tgt="6520" wght="0.74180195800348747" />
    <Con id="6522" src="6520" tgt="30" wght="3" />
    <Con id="6602" src="6260" tgt="21" wght="-2.9813713316279586" />
    <Con id="6607" src="2846" tgt="6606" wght="-2.4966669850200094" />
    <Con id="6608" src="6606" tgt="10" wght="2.1297242676077959" />
    <Con id="6615" src="3610" tgt="3383" wght="-2.9872758535932071" />
    <Con id="6617" src="3851" tgt="3383" wght="-2.0232154135763407" />
    <Con id="6676" src="6606" tgt="30" wght="-0.3836640257898396" />
    <Con id="6773" src="6606" tgt="8" wght="2.9775668003969082" />
    <Con id="6778" src="2846" tgt="3148" wght="0.072838331399664641" />
    <Con id="6887" src="6260" tgt="6886" wght="-1.2718170470299923" />
    <Con id="6888" src="6886" tgt="1517" wght="1.7894037657283359" />
    <Con id="6927" src="0" tgt="6926" wght="2.9983653822004497" />
    <Con id="6928" src="6926" tgt="9" wght="-3" />
    <Con id="7040" src="3913" tgt="6926" wght="-1.3691997100596793" />
    <Con id="7188" src="2" tgt="7187" wght="-1.8951369246050973" />
    <Con id="7189" src="7187" tgt="3425" wght="2.1273335851100192" />
    <Con id="7251" src="7187" tgt="19" wght="1.9826522811895857" />
    <Con id="7300" src="3425" tgt="6151" wght="-2.731435939856135" />
    <Con id="7350" src="1" tgt="7349" wght="2.6884575660252441" />
    <Con id="7351" src="7349" tgt="21" wght="0.053222620099134074" />
    <Con id="7392" src="1520" tgt="7391" wght="0.054905718682286" />
    <Con id="7393" src="7391" tgt="27" wght="3" />
    <Con id="7485" src="7349" tgt="30" wght="-0.75182571239628682" />
    <Con id="7577" src="7187" tgt="4105" wght="-0.042417865660104893" />
    <Con id="7839" src="3943" tgt="5360" wght="2.3467330830479161" />
    <Con id="7908" src="1560" tgt="7907" wght="0.0898634306752876" />
    <Con id="7909" src="7907" tgt="14" wght="2.6219145823270082" />
    <Con id="7912" src="135" tgt="7349" wght="-2.9941425612613735" />
    <Con id="8080" src="7391" tgt="25" wght="-0.3762490306217513" />
    <Con id="8092" src="3383" tgt="6151" wght="1.0632036958901399" />
    <Con id="8096" src="6606" tgt="3148" wght="2.5478739776180128" />
    <Con id="8295" src="7349" tgt="3383" wght="-1.8197664321844576" />
    <Con id="8416" src="135" tgt="7187" wght="-2.8678325228107444" />
    <Con id="8874" src="3943" tgt="7349" wght="-2.1436262594001758" />
    <Con id="8975" src="2399" tgt="7907" wght="-2.2074839373098425" />
    <Con id="9475" src="1517" tgt="6520" wght="1.4443142458309153" />
    <Con id="9484" src="1841" tgt="9483" wght="-2.8201556434137856" />
    <Con id="9639" src="9637" tgt="21" wght="-2.2938396598697244" />
    <Con id="9772" src="7349" tgt="14" wght="1.9767579958252963" />
    <Con id="10393" src="1" tgt="10392" wght="-0.41529557268719797" />
    <Con id="10394" src="10392" tgt="14" wght="3" />
    <Con id="11361" src="6151" tgt="9228" wght="-3" />
    <Con id="11629" src="1520" tgt="11628" wght="2.6666728709574419" />
    <Con id="11630" src="11628" tgt="28" wght="2.3514778710259887" />
    <Con id="11699" src="0" tgt="11698" wght="2.9515409955216407" />
    <Con id="11700" src="11698" tgt="30" wght="2.81987521029804" />
    <Con id="11750" src="2" tgt="11749" wght="-0.048558477742167538" />
    <Con id="11751" src="11749" tgt="16" wght="2.9940367241844412" />
    <Con id="11770" src="9637" tgt="3383" wght="1.240121910100769" />
    <Con id="11953" src="1563" tgt="10392" wght="2.5407025183000513" />
    <Con id="11998" src="1517" tgt="9228" wght="2.7194495943791011" />
    <Con id="12193" src="3913" tgt="10392" wght="-2.4301444879036689" />
    <Con id="12725" src="10392" tgt="12" wght="2.9805611029771022" />
    <Con id="12779" src="1937" tgt="12778" wght="-2.2990134901980013" />
    <Con id="12780" src="12778" tgt="13" wght="1.9195248336705806" />
    <Con id="13286" src="1" tgt="13285" wght="-1.5097811023515122" />
    <Con id="13287" src="13285" tgt="6" wght="-0.61060117173166106" />
    <Con id="13454" src="12778" tgt="21" wght="0.10675850417464972" />
    <Con id="14060" src="3425" tgt="14059" wght="-2.1908614672961289" />
    <Con id="14061" src="14059" tgt="1517" wght="2.1836055466329896" />
    <Con id="14591" src="13285" tgt="12" wght="-0.15705119821804026" />
    <Con id="14597" src="9228" tgt="12" wght="-1.1101803273491258" />
    <Con id="14608" src="5360" tgt="14059" wght="1.8381781638599932" />
    <Con id="14618" src="3610" tgt="24" wght="0.56895211351554864" />
    <Con id="14622" src="6926" tgt="23" wght="0.73344290140745561" />
    <Con id="14630" src="1733" tgt="14629" wght="-2.92010989931648" />
    <Con id="14631" src="14629" tgt="11" wght="2.9745904703207451" />
    <Con id="14645" src="13285" tgt="9228" wght="1.8756570072006888" />
    <Con id="14650" src="1988" tgt="6926" wght="2.9756462813651172" />
    <Con id="14654" src="2846" tgt="14059" wght="0.018265666809790176" />
    <Con id="14659" src="0" tgt="3425" wght="0.92892933477951223" />
    <Con id="14692" src="3383" tgt="14691" wght="0.050242746497507429" />
    <Con id="14693" src="14691" tgt="29" wght="-0.74049625663324892" />
    <Con id="14699" src="2846" tgt="11628" wght="-3" />
    <Con id="14701" src="6260" tgt="14700" wght="2.2407430563148227" />
    <Con id="14702" src="14700" tgt="1517" wght="2.7599414427395597" />
    <Con id="14720" src="3148" tgt="18" wght="0.43792447460169159" />
    <Con id="14726" src="1841" tgt="14725" wght="1.3234558670995813" />
    <Con id="14727" src="14725" tgt="27" wght="2.9725213642213211" />
    <Con id="14744" src="12778" tgt="3425" wght="-0.3971081044910742" />
    <Con id="14771" src="13285" tgt="14770" wght="2.9908225364265251" />
    <Con id="14772" src="14770" tgt="6" wght="-2.8509124883168471" />
    <Con id="14773" src="3943" tgt="28" wght="1.3381769983825089" />
    <Con id="14807" src="2399" tgt="14806" wght="2.8700318043274433" />
    <Con id="14808" src="14806" tgt="10" wght="0.39199915897994164" />
    <Con id="14836" src="3943" tgt="14835" wght="-0.38574886804995751" />
    <Con id="14837" src="14835" tgt="30" wght="2.5861945816892864" />
    <Con id="14850" src="6926" tgt="11628" wght="-1.2416535156996225" />
    <Con id="14854" src="104" tgt="5360" wght="-0.24555313456047367" />
    <Con id="14860" src="3943" tgt="1563" wght="-2.313602873416102" />
    <Con id="14913" src="1841" tgt="18" wght="0.567092857800681" />
    <Con id="14919" src="6926" tgt="2399" wght="0.50938201043754816" />
    <Con id="14924" src="1" tgt="6319" wght="0.80994914711585364" />
    <Con id="14930" src="9637" tgt="14" wght="2.9885185289260772" />
    <Con id="14932" src="13285" tgt="19" wght="2.524358443915844" />
    <Con id="14941" src="7187" tgt="25" wght="0.58704980369657278" />
    <Con id="14963" src="3851" tgt="2399" wght="-0.92251738820957008" />
    <Con id="14984" src="3383" tgt="6926" wght="-2.298802752740158" />
    <Con id="14989" src="104" tgt="14" wght="-2.827307158496545" />
    <Con id="15031" src="1517" tgt="4" wght="3" />
    <Con id="15041" src="7391" tgt="14700" wght="2.9503009890134972" />
    <Con id="15049" src="31" tgt="1733" wght="0.20960784044954883" />
    <Con id="15121" src="2263" tgt="14700" wght="-2.5843487604614186" />
    <Con id="15126" src="1988" tgt="7907" wght="1.9950661925759607" />
    <Con id="15131" src="3425" tgt="6926" wght="-2.8599267403982189" />
    <Con id="15173" src="6886" tgt="2399" wght="0.837170321076635" />
    <Con id="15195" src="11749" tgt="23" wght="1.4898169268382584" />
    <Con id="15242" src="1560" tgt="3943" wght="2.6518979332072314" />
    <Con id="15275" src="7349" tgt="18" wght="-3" />
    <Con id="15301" src="6260" tgt="6606" wght="-0.65735538940352856" />
    <Con id="15324" src="6260" tgt="11628" wght="0.37762590797884793" />
    <Con id="15330" src="1841" tgt="9228" wght="0.89324403730468593" />
    <Con id="15340" src="2" tgt="15339" wght="-2.5846861933873173" />
    <Con id="15341" src="15339" tgt="3425" wght="-0.43229990977191823" />
    <Con id="15412" src="6520" tgt="6" wght="-2.9689823494749672" />
    <Con id="15420" src="135" tgt="9637" wght="2.9936721730635294" />
    <Con id="15429" src="3148" tgt="29" wght="-1.0011299203625599" />
    <Con id="15500" src="1733" tgt="6319" wght="1.1969984310716355" />
    <Con id="15513" src="7907" tgt="1563" wght="-0.66075188107788563" />
    <Con id="15519" src="3610" tgt="10" wght="0.040920031760121711" />
    <Con id="15577" src="13285" tgt="9483" wght="2.6496012132564331" />
    <Con id="15718" src="15339" tgt="2399" wght="1.5366521145880503" />
    <Con id="15757" src="5360" tgt="9637" wght="-3" />
    <Con id="15785" src="14770" tgt="5" wght="0.0057939975022479181" />
    <Con id="15786" src="1560" tgt="3383" wght="2.3298751995255698" />
    <Con id="15857" src="6319" tgt="9483" wght="2.706534098281268" />
    <Con id="15863" src="1841" tgt="15862" wght="0.32319829701419939" />
    <Con id="15864" src="15862" tgt="4" wght="-1.3722823296120117" />
    <Con id="15933" src="6520" tgt="11698" wght="1.8458932796310361" />
    <Con id="15985" src="31" tgt="6926" wght="1.5212772572253546" />
    <Con id="16017" src="11628" tgt="20" wght="-0.060946898632398994" />
    <Con id="16037" src="1" tgt="3943" wght="0.36505141269632008" />
    <Con id="16075" src="3610" tgt="16074" wght="0.16140487563032746" />
    <Con id="16076" src="16074" tgt="4105" wght="3" />
    <Con id="16094" src="6520" tgt="25" wght="1.0247248337406003" />
    <Con id="16121" src="6319" tgt="7187" wght="-1.749119503830491" />
    <Con id="16129" src="7907" tgt="13" wght="0.52773183272960034" />
    <Con id="16190" src="104" tgt="6520" wght="-2.2452927903912796" />
    <Con id="16222" src="5360" tgt="16221" wght="-2.9779797256852039" />
    <Con id="16223" src="16221" tgt="13" wght="2.3683706447346262" />
    <Con id="16304" src="3148" tgt="11749" wght="0.981062259173693" />
    <Con id="16351" src="13285" tgt="6606" wght="2.3396374086876786" />
    <Con id="16379" src="9483" tgt="16378" wght="-2.2477732548663218" />
    <Con id="16380" src="16378" tgt="7" wght="3" />
    <Con id="16492" src="6926" tgt="7907" wght="2.5825807235620548" />
    <Con id="16533" src="14629" tgt="6926" wght="-0.6511277991743285" />
    <Con id="16641" src="6151" tgt="1563" wght="0.38858409831286844" />
    <Con id="16710" src="1563" tgt="12" wght="0.63493461109786364" />
    <Con id="16805" src="1988" tgt="9" wght="0.83038158464951517" />
    <Con id="16856" src="1937" tgt="9483" wght="3" />
    <Con id="16885" src="6151" tgt="28" wght="1.7941035358345683" />
    <Con id="16937" src="1" tgt="16936" wght="-3" />
    <Con id="16938" src="16936" tgt="28" wght="0.6944207204556363" />
    <Con id="17028" src="2" tgt="6606" wght="1.0303314631360827" />
    <Con id="17138" src="3883" tgt="11" wght="-2.4392811143992623" />
    <Con id="17279" src="4105" tgt="16936" wght="3" />
    <Con id="17314" src="7391" tgt="6886" wght="0.89111711857114928" />
    <Con id="17489" src="1520" tgt="11698" wght="-0.6732066389529312" />
    <Con id="17572" src="31" tgt="6886" wght="-0.19484226760877946" />
    <Con id="17590" src="5360" tgt="7187" wght="0.16433528946957476" />
    <Con id="17680" src="15862" tgt="23" wght="2.538374381278198" />
    <Con id="17754" src="11628" tgt="10392" wght="2.8407300622593943" />
    <Con id="17939" src="1937" tgt="12" wght="-2.9677193342623762" />
    <Con id="17952" src="9637" tgt="3" wght="0.17190675856545568" />
    <Con id="18039" src="14700" tgt="6151" wght="-1.930129148091309" />
    <Con id="18045" src="15862" tgt="4105" wght="0.9401969141623352" />
    <Con id="18062" src="6319" tgt="6886" wght="-2.6687645552251462" />
    <Con id="18118" src="9483" tgt="14770" wght="-0.70342191300527945" />
    <Con id="18241" src="3913" tgt="14835" wght="0.78286669015792887" />
    <Con id="18245" src="12778" tgt="3148" wght="2.2003207897913408" />
    <Con id="18284" src="10392" tgt="3" wght="-1.1689987009920246" />
    <Con id="18407" src="14629" tgt="9637" wght="0.43214355183214681" />
    <Con id="18626" src="3883" tgt="15339" wght="-1.1795531852777559" />
    <Con id="18667" src="14835" tgt="9228" wght="0.71967910962226755" />
    <Con id="19182" src="31" tgt="14806" wght="1.674542051245747" />
    <Con id="19301" src="6926" tgt="16221" wght="-2.4697785903699696" />
    <Con id="19354" src="15339" tgt="6520" wght="-1.1664076001993478" />
    <Con id="19505" src="6319" tgt="16378" wght="-1.3251834296760843" />
    <Con id="19688" src="1733" tgt="7349" wght="-1.3638006867840886" />
    <Con id="19691" src="135" tgt="19" wght="-1.4333789047530159" />
    <Con id="19796" src="14770" tgt="21" wght="-1.6192543709355141" />
    <Con id="20103" src="9483" tgt="26" wght="-1.1635171900230668" />
    <Con id="20111" src="14691" tgt="22" wght="2.7393523182055937" />
    <Con id="20239" src="3851" tgt="9637" wght="1.0116218601842755" />
    <Con id="20269" src="14770" tgt="11628" wght="-0.85698179333665225" />
    <Con id="20354" src="135" tgt="16936" wght="-1.6021146702007063" />
    <Con id="20414" src="16221" tgt="11698" wght="-3" />
    <Con id="20473" src="14770" tgt="15" wght="1.4761400356062311" />
    <Con id="20489" src="3425" tgt="3851" wght="-2.10665959230614" />
    <Con id="20503" src="1841" tgt="14806" wght="-2.2597883062167519" />
    <Con id="20566" src="2399" tgt="14835" wght="2.7137763740581233" />
    <Con id="20572" src="4105" tgt="16221" wght="-0.44637359898076795" />
    <Con id="20623" src="13285" tgt="16221" wght="-1.4354969107673337" />
    <Con id="20634" src="14700" tgt="20633" wght="3" />
    <Con id="20635" src="20633" tgt="1517" wght="2.961549414696182" />
    <Con id="20639" src="7391" tgt="8" wght="0.48838073642440261" />
    <Con id="20869" src="1841" tgt="3883" wght="2.0271152698281845" />
    <Con id="21005" src="4105" tgt="6886" wght="-3" />
    <Con id="21027" src="11698" tgt="14" wght="-0.50698232743889093" />
    <Con id="21071" src="16074" tgt="22" wght="-0.72309380359685627" />
    <Con id="21267" src="16074" tgt="21266" wght="0.39471255999232086" />
    <Con id="21276" src="1" tgt="21275" wght="0.54568720143288374" />
    <Con id="21277" src="21275" tgt="25" wght="-1.0663059786893427" />
    <Con id="21465" src="6926" tgt="11698" wght="-1.9696363259673213" />
    <Con id="21477" src="21266" tgt="21" wght="-2.939371922769046" />
    <Con id="21480" src="20633" tgt="15862" wght="0.47215580974639582" />
    <Con id="21490" src="6151" tgt="13285" wght="-1.0885782027970226" />
    <Con id="21518" src="13285" tgt="21275" wght="-3" />
    <Con id="21540" src="11628" tgt="21266" wght="-3" />
    <Con id="21546" src="31" tgt="21545" wght="1.5867887597053305" />
    <Con id="21547" src="21545" tgt="6926" wght="-2.9160220611927365" />
    <Con id="21627" src="14691" tgt="6926" wght="-0.85562099571993289" />
    <Con id="21642" src="135" tgt="21641" wght="-0.91662982570527607" />
    <Con id="21643" src="21641" tgt="23" wght="-1.109371651840432" />
    <Con id="21710" src="5360" tgt="4105" wght="1.8314262806715349" />
    <Con id="21786" src="15339" tgt="21785" wght="1.2786192596790942" />
    <Con id="21787" src="21785" tgt="3425" wght="2.9967784207874972" />
    <Con id="21832" src="15862" tgt="6926" wght="-0.17838849442340202" />
    <Con id="21836" src="6926" tgt="14835" wght="-2.7692560245487665" />
    <Con id="21945" src="1937" tgt="21944" wght="-2.3889068130800681" />
    <Con id="21946" src="21944" tgt="12778" wght="2.9327419239713559" />
    <Con id="22005" src="13285" tgt="16936" wght="0.85904895421117544" />
    <Con id="22058" src="1563" tgt="22057" wght="-1.3102829399715357" />
    <Con id="22059" src="22057" tgt="10392" wght="1.4850706248004071" />
    <Con id="22195" src="10392" tgt="16936" wght="0.98395013669505715" />
    <Con id="22385" src="21944" tgt="19" wght="-2.11499653217366" />
    <Con id="22690" src="16074" tgt="11628" wght="2.1570706519012335" />
    <Con id="22781" src="2" tgt="22780" wght="-2.9968807479868618" />
    <Con id="22782" src="22780" tgt="19" wght="2.5592255433269582" />
    <Con id="22791" src="31" tgt="6606" wght="1.0773920714645366" />
    <Con id="22816" src="15862" tgt="16" wght="-1.1891888564060378" />
    <Con id="23233" src="21944" tgt="4105" wght="0.42648445458250867" />
    <Con id="23362" src="21785" tgt="20" wght="2.700148197352906" />
    <Con id="23729" src="15339" tgt="14629" wght="1.7835223662781103" />
    <Con id="23730" src="6319" tgt="22780" wght="2.1402607707392574" />
    <Con id="23750" src="21944" tgt="5" wght="0.6533917326505051" />
    <Con id="23763" src="6886" tgt="21641" wght="-0.098318241225470213" />
    <Con id="23780" src="6319" tgt="16221" wght="-3" />
    <Con id="23929" src="21785" tgt="14835" wght="2.281045579173997" />
    <Con id="24001" src="6151" tgt="21641" wght="-2.2845713108003913" />
    <Con id="24009" src="14691" tgt="28" wght="0.07328249715000322" />
    <Con id="24174" src="21266" tgt="24173" wght="0.558199833612889" />
    <Con id="24175" src="24173" tgt="22" wght="2.2838697005063295" />
    <Con id="24377" src="16378" tgt="10392" wght="0.29320237453726966" />
    <Con id="24423" src="14835" tgt="7907" wght="-1.7241636398473808" />
    <Con id="24810" src="24173" tgt="23" wght="0.84491046242685142" />
    <Con id="24816" src="20633" tgt="21275" wght="-2.2250133189372718" />
    <Con id="24836" src="6260" tgt="22780" wght="-1.5980287988374062" />
    <Con id="24908" src="21266" tgt="25" wght="0.75399539046922481" />
    <Con id="25258" src="16074" tgt="3943" wght="2.2309707677835036" />
    <Con id="25314" src="3148" tgt="22780" wght="1.5267925862517966" />
    <Con id="25488" src="21545" tgt="14835" wght="0.70962873892028866" />
    <Con id="25558" src="31" tgt="25557" wght="-3" />
    <Con id="25559" src="25557" tgt="6886" wght="2.8308512249630269" />
    <Con id="25668" src="1" tgt="25667" wght="-2.2572649452851117" />
    <Con id="25669" src="25667" tgt="1988" wght="2.4362922017847843" />
    <Con id="25811" src="4105" tgt="25810" wght="2.8218890574380335" />
    <Con id="25909" src="1988" tgt="22780" wght="-0.7082448668883764" />
    <Con id="25974" src="22780" tgt="6" wght="3" />
    <Con id="26136" src="21275" tgt="6520" wght="-0.30863435342448181" />
    <Con id="26144" src="11698" tgt="7907" wght="1.4112219633534551" />
    <Con id="26165" src="2" tgt="26164" wght="-0.21273584887134922" />
    <Con id="26166" src="26164" tgt="26" wght="1.0144081211198834" />
    <Con id="26189" src="3883" tgt="18" wght="-0.38379603209235785" />
    <Con id="26212" src="21944" tgt="21641" wght="2.3439370918000186" />
    <Con id="26258" src="16074" tgt="25810" wght="3" />
    <Con id="26263" src="2399" tgt="16378" wght="-1.7329576447248773" />
    <Con id="26271" src="13285" tgt="26270" wght="-0.97166531582320748" />
    <Con id="26272" src="26270" tgt="12" wght="2.3075753837374555" />
    <Con id="26340" src="21785" tgt="22780" wght="1.4296063730782633" />
    <Con id="26463" src="1" tgt="26462" wght="-2.5595777959621988" />
    <Con id="26464" src="26462" tgt="29" wght="2.9848902469309229" />
    <Con id="26544" src="22057" tgt="21266" wght="2.5673093008808792" />
    <Con id="27013" src="13285" tgt="21641" wght="-2.6891398434403904" />
    <Con id="27173" src="3425" tgt="27172" wght="-2.0773096194372096" />
    <Con id="27174" src="27172" tgt="9" wght="2.76702364375025" />
    <Con id="27348" src="11698" tgt="27172" wght="-0.734490502222516" />
    <Con id="27457" src="6606" tgt="12" wght="1.1331361783654077" />
    <Con id="27666" src="1520" tgt="16221" wght="-1.3306869577359026" />
    <Con id="27727" src="21641" tgt="17" wght="0.95115659153088927" />
    <Con id="27813" src="22780" tgt="14806" wght="1.4973936174928904" />
    <Con id="28514" src="3883" tgt="28513" wght="-1.7871157888005893" />
    <Con id="28515" src="28513" tgt="3" wght="2.8230224332803693" />
    <Con id="28568" src="31" tgt="26462" wght="2.327428621731523" />
    <Con id="28735" src="14059" tgt="28734" wght="-0.47928210648420494" />
    <Con id="28736" src="28734" tgt="3383" wght="2.9250772416948583" />
    <Con id="29184" src="21275" tgt="19" wght="-0.015964904456092027" />
    <Con id="29392" src="14691" tgt="29391" wght="0.80084002601270132" />
    <Con id="29393" src="29391" tgt="29" wght="0.18684650595055657" />
    <Con id="29408" src="5360" tgt="21944" wght="-0.62568502686917782" />
    <Con id="29452" src="25557" tgt="5360" wght="1.9639408697001555" />
    <Con id="29534" src="1563" tgt="29533" wght="-2.9863332600348964" />
    <Con id="29535" src="29533" tgt="10" wght="0.52353139744677646" />
    <Con id="30009" src="2" tgt="30008" wght="0.0040765872750768983" />
    <Con id="30010" src="30008" tgt="1517" wght="1.8953184586515641" />
    <Con id="30195" src="3851" tgt="26462" wght="2.19165701691797" />
    <Con id="30373" src="1841" tgt="24173" wght="3" />
    <Con id="30611" src="15862" tgt="22057" wght="-2.4315618117921645" />
    <Con id="30623" src="2" tgt="30622" wght="1.6436342153474179" />
    <Con id="30624" src="30622" tgt="5" wght="2.9971075320016549" />
    <Con id="30715" src="1517" tgt="30714" wght="-0.24029588135614421" />
    <Con id="30716" src="30714" tgt="6520" wght="0.55582274263724685" />
    <Con id="30978" src="28734" tgt="30977" wght="2.9842346535475834" />
    <Con id="30979" src="30977" tgt="14806" wght="2.9717382465357418" />
    <Con id="31269" src="31" tgt="31268" wght="2.96476795556299" />
    <Con id="31270" src="31268" tgt="18" wght="2.999598832985598" />
    <Con id="31933" src="25810" tgt="31932" wght="2.6463724604907632" />
    <Con id="31934" src="31932" tgt="16936" wght="2.9486642254201993" />
    <Con id="32040" src="6319" tgt="32039" wght="-1.0512160233265466" />
    <Con id="32041" src="32039" tgt="17" wght="2.9846465305251018" />
    <Con id="32234" src="3148" tgt="32233" wght="1.3095137279644178" />
    <Con id="32235" src="32233" tgt="10" wght="2.9624658177256129" />
    <Con id="32435" src="20633" tgt="26462" wght="-0.55221042595803738" />
    <Con id="32574" src="20633" tgt="32039" wght="2.046337213832885" />
    <Con id="32965" src="2" tgt="32964" wght="-1.7304282880725836" />
    <Con id="32966" src="32964" tgt="14" wght="3" />
    <Con id="33101" src="1" tgt="33100" wght="-2.656335468403995" />
    <Con id="33102" src="33100" tgt="9637" wght="2.9766486265585854" />
  </Connections>
</Network>