<Network id="38333" birthGen="74" fitness="0.99991033658814832">
  <Nodes>
    <Node type="bias" id="0" fnId="0" />
    <Node type="in" id="1" fnId="0" />
    <Node type="in" id="2" fnId="0" />
    <Node type="out" id="3" fnId="0" />
    <Node type="out" id="4" fnId="0" />
    <Node type="out" id="5" fnId="0" />
    <Node type="out" id="6" fnId="0" />
    <Node type="out" id="7" fnId="0" />
    <Node type="out" id="8" fnId="0" />
    <Node type="out" id="9" fnId="0" />
    <Node type="out" id="10" fnId="0" />
    <Node type="out" id="11" fnId="0" />
    <Node type="out" id="12" fnId="0" />
    <Node type="out" id="13" fnId="0" />
    <Node type="out" id="14" fnId="0" />
    <Node type="out" id="15" fnId="0" />
    <Node type="out" id="16" fnId="0" />
    <Node type="out" id="17" fnId="0" />
    <Node type="out" id="18" fnId="0" />
    <Node type="out" id="19" fnId="0" />
    <Node type="out" id="20" fnId="0" />
    <Node type="out" id="21" fnId="0" />
    <Node type="out" id="22" fnId="0" />
    <Node type="out" id="23" fnId="0" />
    <Node type="out" id="24" fnId="0" />
    <Node type="out" id="25" fnId="0" />
    <Node type="out" id="26" fnId="0" />
    <Node type="out" id="27" fnId="0" />
    <Node type="out" id="28" fnId="0" />
    <Node type="out" id="29" fnId="0" />
    <Node type="out" id="30" fnId="0" />
    <Node type="hid" id="31" fnId="2" />
    <Node type="hid" id="113" fnId="1" />
    <Node type="hid" id="170" fnId="0" />
    <Node type="hid" id="785" fnId="3" />
    <Node type="hid" id="1748" fnId="1" />
    <Node type="hid" id="1870" fnId="0" />
    <Node type="hid" id="1887" fnId="1" />
    <Node type="hid" id="2218" fnId="1" />
    <Node type="hid" id="2247" fnId="3" />
    <Node type="hid" id="2340" fnId="0" />
  </Nodes>
  <Connections>
    <Con id="1" src="0" tgt="21" wght="1.703555935525243" />
    <Con id="2" src="0" tgt="24" wght="-2.6762630326765908" />
    <Con id="4" src="1" tgt="31" wght="1.8502494586861276" />
    <Con id="5" src="2" tgt="31" wght="1.7977701833838482" />
    <Con id="6" src="31" tgt="21" wght="3" />
    <Con id="7" src="31" tgt="24" wght="3" />
    <Con id="8" src="31" tgt="27" wght="2.9937994054048724" />
    <Con id="9" src="1" tgt="3" wght="-1.9313859331952223" />
    <Con id="11" src="1" tgt="5" wght="2.9917297598086714" />
    <Con id="12" src="1" tgt="6" wght="-3" />
    <Con id="13" src="1" tgt="7" wght="2.5816076193004847" />
    <Con id="14" src="1" tgt="8" wght="0.76249883626728854" />
    <Con id="15" src="1" tgt="9" wght="0.51337869667313818" />
    <Con id="16" src="1" tgt="10" wght="0.23893042373802045" />
    <Con id="17" src="1" tgt="11" wght="1.76244491836656" />
    <Con id="18" src="1" tgt="12" wght="2.478631550911814" />
    <Con id="19" src="1" tgt="13" wght="2.0119257996801179" />
    <Con id="20" src="1" tgt="14" wght="1.9512264632864433" />
    <Con id="21" src="1" tgt="15" wght="-3" />
    <Con id="22" src="1" tgt="16" wght="1.3259055032394826" />
    <Con id="23" src="1" tgt="17" wght="0.82160996696223576" />
    <Con id="24" src="1" tgt="18" wght="3" />
    <Con id="25" src="1" tgt="19" wght="3" />
    <Con id="26" src="1" tgt="20" wght="1.258011772213198" />
    <Con id="27" src="1" tgt="21" wght="2.666235761924955" />
    <Con id="28" src="1" tgt="22" wght="2.8124691067408243" />
    <Con id="29" src="1" tgt="23" wght="1.0326387372245409" />
    <Con id="30" src="1" tgt="24" wght="-0.27954551895690632" />
    <Con id="31" src="1" tgt="25" wght="-0.58277188565053883" />
    <Con id="33" src="1" tgt="27" wght="-0.28011080036271663" />
    <Con id="34" src="1" tgt="28" wght="1.446480475875668" />
    <Con id="35" src="1" tgt="29" wght="0.048202111228413717" />
    <Con id="36" src="1" tgt="30" wght="0.53841720245836455" />
    <Con id="37" src="2" tgt="3" wght="0.36177089252550926" />
    <Con id="38" src="2" tgt="4" wght="1.624359152562683" />
    <Con id="39" src="2" tgt="5" wght="-2.57018457520118" />
    <Con id="40" src="2" tgt="6" wght="-1.1022871992796293" />
    <Con id="42" src="2" tgt="8" wght="2.9701968160291439" />
    <Con id="43" src="2" tgt="9" wght="-0.3506492453182794" />
    <Con id="44" src="2" tgt="10" wght="1.8969851889560596" />
    <Con id="45" src="2" tgt="11" wght="-0.2097977251274048" />
    <Con id="46" src="2" tgt="12" wght="-2.4928442413373455" />
    <Con id="47" src="2" tgt="13" wght="0.079482652949132426" />
    <Con id="48" src="2" tgt="14" wght="-0.2523787762163528" />
    <Con id="49" src="2" tgt="15" wght="0.012943925128073248" />
    <Con id="50" src="2" tgt="16" wght="-1.1988794915378094" />
    <Con id="51" src="2" tgt="17" wght="-1.1754077184623832" />
    <Con id="52" src="2" tgt="18" wght="0.024579925285266133" />
    <Con id="53" src="2" tgt="19" wght="-1.059081950224936" />
    <Con id="54" src="2" tgt="20" wght="1.036277186410796" />
    <Con id="55" src="2" tgt="21" wght="-2.0340262984037061" />
    <Con id="56" src="2" tgt="22" wght="-0.0024687585187459478" />
    <Con id="57" src="2" tgt="23" wght="-1.9566029106303975" />
    <Con id="58" src="2" tgt="24" wght="-0.18120338302105665" />
    <Con id="60" src="2" tgt="26" wght="1.8620907878503203" />
    <Con id="61" src="2" tgt="27" wght="0.14785224812600858" />
    <Con id="62" src="2" tgt="28" wght="0.12585742336476047" />
    <Con id="63" src="2" tgt="29" wght="-0.64367067915493292" />
    <Con id="64" src="2" tgt="30" wght="0.054042714078545294" />
    <Con id="65" src="0" tgt="3" wght="-2.3299823787919651" />
    <Con id="66" src="0" tgt="4" wght="2.9087336137187325" />
    <Con id="67" src="0" tgt="5" wght="2.6226033934074238" />
    <Con id="69" src="0" tgt="7" wght="1.8826098181307316" />
    <Con id="70" src="0" tgt="8" wght="-2.6425632719803316" />
    <Con id="71" src="0" tgt="9" wght="-2.1312541523613704" />
    <Con id="72" src="0" tgt="10" wght="-1.9410810386762023" />
    <Con id="73" src="0" tgt="11" wght="-3" />
    <Con id="75" src="0" tgt="13" wght="-2.9528622388677541" />
    <Con id="76" src="0" tgt="14" wght="0.23068106118806597" />
    <Con id="77" src="0" tgt="15" wght="0.38815125820604807" />
    <Con id="78" src="0" tgt="16" wght="0.86185716162893644" />
    <Con id="79" src="0" tgt="17" wght="0.67133131611952834" />
    <Con id="80" src="0" tgt="18" wght="-1.1814409891469175" />
    <Con id="81" src="0" tgt="19" wght="-1.4483485939078524" />
    <Con id="82" src="0" tgt="20" wght="2.4776375485733388" />
    <Con id="83" src="0" tgt="22" wght="-2.9592722720978242" />
    <Con id="84" src="0" tgt="23" wght="-3" />
    <Con id="85" src="0" tgt="25" wght="0.0096498948151665584" />
    <Con id="86" src="0" tgt="26" wght="-2.3665632738413778" />
    <Con id="87" src="0" tgt="28" wght="2.6582252146839727" />
    <Con id="88" src="0" tgt="29" wght="1.1640896273308148" />
    <Con id="89" src="0" tgt="30" wght="-0.92765683922804354" />
    <Con id="94" src="31" tgt="28" wght="-0.25419617814100248" />
    <Con id="114" src="0" tgt="113" wght="-1.5793747181900397" />
    <Con id="115" src="113" tgt="6" wght="2.3712439519110924" />
    <Con id="131" src="113" tgt="19" wght="-0.3109925769525772" />
    <Con id="171" src="1" tgt="170" wght="0.019710494980739755" />
    <Con id="172" src="170" tgt="4" wght="1.5418159691825242" />
    <Con id="194" src="1" tgt="26" wght="-0.81243485910817981" />
    <Con id="237" src="31" tgt="12" wght="1.1251988047733903" />
    <Con id="277" src="170" tgt="25" wght="-0.58331267839175882" />
    <Con id="284" src="170" tgt="3" wght="2.4497974875106476" />
    <Con id="356" src="113" tgt="4" wght="-2.920107690434397" />
    <Con id="447" src="170" tgt="24" wght="-2.6826029545715091" />
    <Con id="711" src="170" tgt="30" wght="1.1056294756912082" />
    <Con id="714" src="170" tgt="21" wght="0.66326625369219649" />
    <Con id="786" src="0" tgt="785" wght="-1.0535656192706824" />
    <Con id="787" src="785" tgt="27" wght="2.9678555450633812" />
    <Con id="1118" src="785" tgt="9" wght="1.4243735805462265" />
    <Con id="1144" src="785" tgt="3" wght="2.16445486061275" />
    <Con id="1406" src="170" tgt="14" wght="0.78018653985536934" />
    <Con id="1749" src="2" tgt="1748" wght="-3" />
    <Con id="1750" src="1748" tgt="7" wght="3" />
    <Con id="1852" src="1748" tgt="23" wght="-1.9029614479810069" />
    <Con id="1854" src="1748" tgt="785" wght="-0.072285786811742456" />
    <Con id="1871" src="1" tgt="1870" wght="-3" />
    <Con id="1872" src="1870" tgt="13" wght="3" />
    <Con id="1888" src="0" tgt="1887" wght="0.17529838523400962" />
    <Con id="1889" src="1887" tgt="16" wght="2.987831056021494" />
    <Con id="1904" src="2" tgt="785" wght="-0.14437766855266926" />
    <Con id="1920" src="1887" tgt="9" wght="1.0151639976771949" />
    <Con id="1927" src="1870" tgt="3" wght="-0.86135203015119965" />
    <Con id="1964" src="1887" tgt="1748" wght="-0.91118835378438234" />
    <Con id="2018" src="1870" tgt="10" wght="2.3346614926122129" />
    <Con id="2029" src="1870" tgt="16" wght="0.025246099682246691" />
    <Con id="2172" src="113" tgt="1870" wght="-1.4797947657921142" />
    <Con id="2212" src="1870" tgt="20" wght="-0.22542185948524546" />
    <Con id="2219" src="2" tgt="2218" wght="1.3327888526836378" />
    <Con id="2220" src="2218" tgt="25" wght="3" />
    <Con id="2236" src="1870" tgt="1748" wght="-2.130794460304152" />
    <Con id="2248" src="0" tgt="2247" wght="0.23318799161899506" />
    <Con id="2249" src="2247" tgt="12" wght="3" />
    <Con id="2265" src="2247" tgt="18" wght="2.8593206922523677" />
    <Con id="2341" src="170" tgt="2340" wght="-0.85608562845564573" />
    <Con id="2342" src="2340" tgt="785" wght="3" />
  </Connections>
</Network>