<Network id="123704" birthGen="248" fitness="0.99967418483878734">
  <Nodes>
    <Node type="bias" id="0" fnId="0" />
    <Node type="in" id="1" fnId="0" />
    <Node type="in" id="2" fnId="0" />
    <Node type="out" id="3" fnId="0" />
    <Node type="out" id="4" fnId="0" />
    <Node type="out" id="5" fnId="0" />
    <Node type="out" id="6" fnId="0" />
    <Node type="out" id="7" fnId="0" />
    <Node type="out" id="8" fnId="0" />
    <Node type="out" id="9" fnId="0" />
    <Node type="out" id="10" fnId="0" />
    <Node type="out" id="11" fnId="0" />
    <Node type="out" id="12" fnId="0" />
    <Node type="out" id="13" fnId="0" />
    <Node type="out" id="14" fnId="0" />
    <Node type="out" id="15" fnId="0" />
    <Node type="out" id="16" fnId="0" />
    <Node type="out" id="17" fnId="0" />
    <Node type="out" id="18" fnId="0" />
    <Node type="out" id="19" fnId="0" />
    <Node type="out" id="20" fnId="0" />
    <Node type="out" id="21" fnId="0" />
    <Node type="out" id="22" fnId="0" />
    <Node type="out" id="23" fnId="0" />
    <Node type="out" id="24" fnId="0" />
    <Node type="out" id="25" fnId="0" />
    <Node type="out" id="26" fnId="0" />
    <Node type="out" id="27" fnId="0" />
    <Node type="out" id="28" fnId="0" />
    <Node type="out" id="29" fnId="0" />
    <Node type="out" id="30" fnId="0" />
    <Node type="hid" id="31" fnId="2" />
    <Node type="hid" id="113" fnId="1" />
    <Node type="hid" id="170" fnId="0" />
    <Node type="hid" id="785" fnId="3" />
    <Node type="hid" id="1748" fnId="1" />
    <Node type="hid" id="1870" fnId="0" />
    <Node type="hid" id="1887" fnId="1" />
    <Node type="hid" id="2593" fnId="3" />
  </Nodes>
  <Connections>
    <Con id="1" src="0" tgt="21" wght="2.1112733595188735" />
    <Con id="2" src="0" tgt="24" wght="-2.6762630326765908" />
    <Con id="4" src="1" tgt="31" wght="1.8638510537885218" />
    <Con id="5" src="2" tgt="31" wght="1.7977701833838482" />
    <Con id="6" src="31" tgt="21" wght="3" />
    <Con id="7" src="31" tgt="24" wght="3" />
    <Con id="8" src="31" tgt="27" wght="2.6718732669667102" />
    <Con id="9" src="1" tgt="3" wght="1.9397161932123157" />
    <Con id="11" src="1" tgt="5" wght="2.5070114686903016" />
    <Con id="12" src="1" tgt="6" wght="-2.8657078549906831" />
    <Con id="13" src="1" tgt="7" wght="-2.5521515403350525" />
    <Con id="14" src="1" tgt="8" wght="1.736616604707919" />
    <Con id="15" src="1" tgt="9" wght="0.51337869667313818" />
    <Con id="16" src="1" tgt="10" wght="0.23893042373802045" />
    <Con id="17" src="1" tgt="11" wght="2.7878872534081451" />
    <Con id="18" src="1" tgt="12" wght="2.478631550911814" />
    <Con id="19" src="1" tgt="13" wght="2.0135967195646" />
    <Con id="20" src="1" tgt="14" wght="1.7328533395591326" />
    <Con id="21" src="1" tgt="15" wght="-2.9635827319090136" />
    <Con id="22" src="1" tgt="16" wght="1.7829426154495995" />
    <Con id="23" src="1" tgt="17" wght="0.83406439572546365" />
    <Con id="24" src="1" tgt="18" wght="-1.0051187030039728" />
    <Con id="25" src="1" tgt="19" wght="2.251945677746642" />
    <Con id="26" src="1" tgt="20" wght="1.0200680843554437" />
    <Con id="27" src="1" tgt="21" wght="3" />
    <Con id="28" src="1" tgt="22" wght="1.7789107432045876" />
    <Con id="29" src="1" tgt="23" wght="0.68102885529546175" />
    <Con id="30" src="1" tgt="24" wght="-0.27954551895690632" />
    <Con id="31" src="1" tgt="25" wght="-0.25597095698582806" />
    <Con id="33" src="1" tgt="27" wght="-0.28011080036271663" />
    <Con id="34" src="1" tgt="28" wght="1.431300356358149" />
    <Con id="35" src="1" tgt="29" wght="0.048202111228413717" />
    <Con id="36" src="1" tgt="30" wght="0.53841720245836455" />
    <Con id="37" src="2" tgt="3" wght="0.36812638760419125" />
    <Con id="38" src="2" tgt="4" wght="0.53101397484503721" />
    <Con id="39" src="2" tgt="5" wght="1.7333383890800178" />
    <Con id="40" src="2" tgt="6" wght="-1.1022871992796293" />
    <Con id="42" src="2" tgt="8" wght="3" />
    <Con id="43" src="2" tgt="9" wght="-0.31642136490398165" />
    <Con id="44" src="2" tgt="10" wght="1.8969851889560596" />
    <Con id="45" src="2" tgt="11" wght="-1.7482702594513313" />
    <Con id="46" src="2" tgt="12" wght="-2.9879842939973877" />
    <Con id="47" src="2" tgt="13" wght="-2.2350986635895258" />
    <Con id="48" src="2" tgt="14" wght="-1.0173553797887645" />
    <Con id="49" src="2" tgt="15" wght="0.012943925128073248" />
    <Con id="50" src="2" tgt="16" wght="-2.03944665254152" />
    <Con id="51" src="2" tgt="17" wght="-2.6865000846783786" />
    <Con id="52" src="2" tgt="18" wght="0.050083243307121245" />
    <Con id="53" src="2" tgt="19" wght="3" />
    <Con id="54" src="2" tgt="20" wght="-0.6268724394030869" />
    <Con id="55" src="2" tgt="21" wght="-2.0340262984037061" />
    <Con id="56" src="2" tgt="22" wght="1.8428746271607013" />
    <Con id="57" src="2" tgt="23" wght="-0.96479881708956472" />
    <Con id="58" src="2" tgt="24" wght="-0.19052471067483465" />
    <Con id="59" src="2" tgt="25" wght="1.3463242927465238" />
    <Con id="60" src="2" tgt="26" wght="-0.22697724119971902" />
    <Con id="61" src="2" tgt="27" wght="1.7688822657801211" />
    <Con id="62" src="2" tgt="28" wght="0.12585742336476047" />
    <Con id="63" src="2" tgt="29" wght="1.4030400101428449" />
    <Con id="64" src="2" tgt="30" wght="0.054042714078545294" />
    <Con id="65" src="0" tgt="3" wght="-1.0485097733326256" />
    <Con id="66" src="0" tgt="4" wght="2.9087336137187325" />
    <Con id="67" src="0" tgt="5" wght="-0.0599160329438746" />
    <Con id="69" src="0" tgt="7" wght="-2.9334646235662785" />
    <Con id="70" src="0" tgt="8" wght="-2.2519409948020557" />
    <Con id="71" src="0" tgt="9" wght="-2.1592292763701044" />
    <Con id="72" src="0" tgt="10" wght="2.9746450540148079" />
    <Con id="73" src="0" tgt="11" wght="-2.7242764241459234" />
    <Con id="74" src="0" tgt="12" wght="1.8654471993784425" />
    <Con id="75" src="0" tgt="13" wght="-2.961520090162808" />
    <Con id="76" src="0" tgt="14" wght="0.23068106118806597" />
    <Con id="77" src="0" tgt="15" wght="0.38527898617447176" />
    <Con id="78" src="0" tgt="16" wght="0.86185716162893644" />
    <Con id="79" src="0" tgt="17" wght="0.89203365638392684" />
    <Con id="80" src="0" tgt="18" wght="-1.1600717279591393" />
    <Con id="81" src="0" tgt="19" wght="-1.422860095713018" />
    <Con id="82" src="0" tgt="20" wght="2.4776375485733388" />
    <Con id="83" src="0" tgt="22" wght="-2.9409749380997008" />
    <Con id="84" src="0" tgt="23" wght="-1.5742969115087462" />
    <Con id="85" src="0" tgt="25" wght="0.0096498948151665584" />
    <Con id="86" src="0" tgt="26" wght="-2.4117113853482959" />
    <Con id="87" src="0" tgt="28" wght="2.670839280467793" />
    <Con id="88" src="0" tgt="29" wght="2.2795051108105344" />
    <Con id="89" src="0" tgt="30" wght="-0.92765683922804354" />
    <Con id="94" src="31" tgt="28" wght="-0.13930469435585419" />
    <Con id="114" src="0" tgt="113" wght="-1.5543015447842121" />
    <Con id="115" src="113" tgt="6" wght="3" />
    <Con id="131" src="113" tgt="19" wght="-0.027676345710508365" />
    <Con id="171" src="1" tgt="170" wght="0.019710494980739755" />
    <Con id="172" src="170" tgt="4" wght="1.3931127464315536" />
    <Con id="194" src="1" tgt="26" wght="-0.81243485910817981" />
    <Con id="237" src="31" tgt="12" wght="1.1185324026176908" />
    <Con id="277" src="170" tgt="25" wght="-0.7845638532307766" />
    <Con id="284" src="170" tgt="3" wght="2.4497974875106476" />
    <Con id="356" src="113" tgt="4" wght="-2.9002360097988045" />
    <Con id="447" src="170" tgt="24" wght="-0.85677601649725132" />
    <Con id="711" src="170" tgt="30" wght="1.0818037607493429" />
    <Con id="714" src="170" tgt="21" wght="2.0177169143505274" />
    <Con id="786" src="0" tgt="785" wght="-1.2020186613281136" />
    <Con id="787" src="785" tgt="27" wght="3" />
    <Con id="1118" src="785" tgt="9" wght="2.3628773583407652" />
    <Con id="1144" src="785" tgt="3" wght="1.6067823087796569" />
    <Con id="1195" src="170" tgt="785" wght="-0.85608562845564573" />
    <Con id="1406" src="170" tgt="14" wght="1.2035238523967564" />
    <Con id="1749" src="2" tgt="1748" wght="-1.3392011412227496" />
    <Con id="1750" src="1748" tgt="7" wght="2.9665056361699342" />
    <Con id="1852" src="1748" tgt="23" wght="-1.9029614479810069" />
    <Con id="1854" src="1748" tgt="785" wght="0.53779558923698634" />
    <Con id="1871" src="1" tgt="1870" wght="-2.63914628910944" />
    <Con id="1872" src="1870" tgt="13" wght="2.7503701220709047" />
    <Con id="1888" src="0" tgt="1887" wght="0.060398781836985119" />
    <Con id="1904" src="2" tgt="785" wght="0.93235236486936168" />
    <Con id="1920" src="1887" tgt="9" wght="1.0329823954962194" />
    <Con id="1927" src="1870" tgt="3" wght="-2.1484007779508829" />
    <Con id="1964" src="1887" tgt="1748" wght="-0.91118835378438234" />
    <Con id="2018" src="1870" tgt="10" wght="2.4333514629885564" />
    <Con id="2029" src="1870" tgt="16" wght="1.2825122073853943" />
    <Con id="2172" src="113" tgt="1870" wght="-2.354829290502245" />
    <Con id="2197" src="1887" tgt="29" wght="1.2599113150499761" />
    <Con id="2223" src="113" tgt="25" wght="-0.85935957386159645" />
    <Con id="2230" src="113" tgt="11" wght="2.4205350112169981" />
    <Con id="2231" src="170" tgt="11" wght="-1.4734329390339553" />
    <Con id="2244" src="785" tgt="23" wght="2.3698236839845777" />
    <Con id="2250" src="1887" tgt="24" wght="2.8536206921562552" />
    <Con id="2261" src="785" tgt="25" wght="0.3638585158623755" />
    <Con id="2283" src="785" tgt="4" wght="-1.2136115860193968" />
    <Con id="2308" src="170" tgt="22" wght="1.5386134783930807" />
    <Con id="2340" src="785" tgt="11" wght="0.14134518429636955" />
    <Con id="2353" src="170" tgt="1870" wght="-1.3046549716911822" />
    <Con id="2359" src="1870" tgt="9" wght="1.1840851153247058" />
    <Con id="2594" src="1887" tgt="2593" wght="2.9620939228765089" />
    <Con id="2595" src="2593" tgt="16" wght="1.5614249311288313" />
    <Con id="2609" src="2" tgt="7" wght="-1.7899095970205963" />
  </Connections>
</Network>