<Network id="1305019" birthGen="2657" fitness="0.99917161086918">
  <Nodes>
    <Node type="bias" id="0" fnId="0" />
    <Node type="in" id="1" fnId="0" />
    <Node type="in" id="2" fnId="0" />
    <Node type="out" id="3" fnId="0" />
    <Node type="out" id="4" fnId="0" />
    <Node type="out" id="5" fnId="0" />
    <Node type="out" id="6" fnId="0" />
    <Node type="out" id="7" fnId="0" />
    <Node type="out" id="8" fnId="0" />
    <Node type="out" id="9" fnId="0" />
    <Node type="out" id="10" fnId="0" />
    <Node type="out" id="11" fnId="0" />
    <Node type="out" id="12" fnId="0" />
    <Node type="out" id="13" fnId="0" />
    <Node type="out" id="14" fnId="0" />
    <Node type="out" id="15" fnId="0" />
    <Node type="out" id="16" fnId="0" />
    <Node type="out" id="17" fnId="0" />
    <Node type="out" id="18" fnId="0" />
    <Node type="out" id="19" fnId="0" />
    <Node type="out" id="20" fnId="0" />
    <Node type="out" id="21" fnId="0" />
    <Node type="out" id="22" fnId="0" />
    <Node type="out" id="23" fnId="0" />
    <Node type="out" id="24" fnId="0" />
    <Node type="out" id="25" fnId="0" />
    <Node type="out" id="26" fnId="0" />
    <Node type="out" id="27" fnId="0" />
    <Node type="out" id="28" fnId="0" />
    <Node type="out" id="29" fnId="0" />
    <Node type="out" id="30" fnId="0" />
    <Node type="hid" id="31" fnId="2" />
    <Node type="hid" id="113" fnId="1" />
    <Node type="hid" id="170" fnId="0" />
    <Node type="hid" id="785" fnId="3" />
    <Node type="hid" id="1748" fnId="1" />
    <Node type="hid" id="1870" fnId="0" />
    <Node type="hid" id="1887" fnId="1" />
    <Node type="hid" id="2397" fnId="0" />
    <Node type="hid" id="2492" fnId="2" />
    <Node type="hid" id="2558" fnId="3" />
    <Node type="hid" id="2750" fnId="1" />
    <Node type="hid" id="2799" fnId="2" />
    <Node type="hid" id="2885" fnId="2" />
    <Node type="hid" id="3053" fnId="3" />
    <Node type="hid" id="3064" fnId="0" />
    <Node type="hid" id="3241" fnId="2" />
    <Node type="hid" id="3391" fnId="3" />
    <Node type="hid" id="4301" fnId="1" />
    <Node type="hid" id="4341" fnId="0" />
    <Node type="hid" id="4359" fnId="0" />
    <Node type="hid" id="4850" fnId="3" />
    <Node type="hid" id="5256" fnId="3" />
    <Node type="hid" id="5525" fnId="3" />
    <Node type="hid" id="6217" fnId="3" />
    <Node type="hid" id="6287" fnId="1" />
    <Node type="hid" id="6331" fnId="1" />
    <Node type="hid" id="7755" fnId="3" />
  </Nodes>
  <Connections>
    <Con id="1" src="0" tgt="21" wght="2.9699450495448003" />
    <Con id="2" src="0" tgt="24" wght="-2.2386735892152609" />
    <Con id="4" src="1" tgt="31" wght="1.82583987895885" />
    <Con id="5" src="2" tgt="31" wght="1.8890552540392542" />
    <Con id="6" src="31" tgt="21" wght="2.6954318741242664" />
    <Con id="7" src="31" tgt="24" wght="2.7835911249685257" />
    <Con id="8" src="31" tgt="27" wght="2.6930623779089777" />
    <Con id="9" src="1" tgt="3" wght="-0.87619706579627132" />
    <Con id="11" src="1" tgt="5" wght="2.3889924539253116" />
    <Con id="12" src="1" tgt="6" wght="2.1830306984825918" />
    <Con id="13" src="1" tgt="7" wght="-2.3997861911552683" />
    <Con id="14" src="1" tgt="8" wght="-1.0711733683901241" />
    <Con id="15" src="1" tgt="9" wght="1.2090502367615772" />
    <Con id="16" src="1" tgt="10" wght="-0.15975752013416539" />
    <Con id="17" src="1" tgt="11" wght="0.77706619272420763" />
    <Con id="18" src="1" tgt="12" wght="2.9038543360277465" />
    <Con id="19" src="1" tgt="13" wght="-2.9083393316681003" />
    <Con id="20" src="1" tgt="14" wght="2.9902277551046086" />
    <Con id="21" src="1" tgt="15" wght="-0.17178286827379283" />
    <Con id="22" src="1" tgt="16" wght="2.1698411009274423" />
    <Con id="23" src="1" tgt="17" wght="1.4376403031044598" />
    <Con id="24" src="1" tgt="18" wght="1.9214577545694935" />
    <Con id="25" src="1" tgt="19" wght="-2.9837029601313443" />
    <Con id="26" src="1" tgt="20" wght="-0.46870801784098148" />
    <Con id="27" src="1" tgt="21" wght="2.2199911006866389" />
    <Con id="28" src="1" tgt="22" wght="-0.69915346679089574" />
    <Con id="29" src="1" tgt="23" wght="2.9986595265905831" />
    <Con id="30" src="1" tgt="24" wght="-0.19023757760240764" />
    <Con id="31" src="1" tgt="25" wght="-0.028376708839812026" />
    <Con id="33" src="1" tgt="27" wght="-1.1493493920163775" />
    <Con id="34" src="1" tgt="28" wght="-0.24383816602721037" />
    <Con id="35" src="1" tgt="29" wght="-2.1638016816221515" />
    <Con id="36" src="1" tgt="30" wght="-1.8251384120524512" />
    <Con id="37" src="2" tgt="3" wght="-0.18108694441616535" />
    <Con id="38" src="2" tgt="4" wght="-2.0338822597068544" />
    <Con id="39" src="2" tgt="5" wght="-2.7348578038683962" />
    <Con id="40" src="2" tgt="6" wght="0.80855190938612542" />
    <Con id="42" src="2" tgt="8" wght="2.0579201158677143" />
    <Con id="43" src="2" tgt="9" wght="0.85940781290257051" />
    <Con id="44" src="2" tgt="10" wght="3" />
    <Con id="45" src="2" tgt="11" wght="-2.055842105672733" />
    <Con id="46" src="2" tgt="12" wght="-1.4938460128389068" />
    <Con id="47" src="2" tgt="13" wght="-2.1082677151154128" />
    <Con id="48" src="2" tgt="14" wght="-0.0751365737256423" />
    <Con id="49" src="2" tgt="15" wght="0.11750732548387539" />
    <Con id="50" src="2" tgt="16" wght="-1.2610304343845531" />
    <Con id="51" src="2" tgt="17" wght="-1.8949881917797029" />
    <Con id="52" src="2" tgt="18" wght="1.7932318632497792" />
    <Con id="53" src="2" tgt="19" wght="2.6020098546623278" />
    <Con id="54" src="2" tgt="20" wght="1.4127510337724623" />
    <Con id="55" src="2" tgt="21" wght="3" />
    <Con id="56" src="2" tgt="22" wght="1.4657228028107721" />
    <Con id="57" src="2" tgt="23" wght="-2.9662786535918713" />
    <Con id="58" src="2" tgt="24" wght="-0.42136660243282931" />
    <Con id="59" src="2" tgt="25" wght="1.8973178269246462" />
    <Con id="60" src="2" tgt="26" wght="0.910937103476218" />
    <Con id="61" src="2" tgt="27" wght="0.1562871976200958" />
    <Con id="62" src="2" tgt="28" wght="-1.3091221629202137" />
    <Con id="65" src="0" tgt="3" wght="-1.0644858169923896" />
    <Con id="66" src="0" tgt="4" wght="-0.081047392351855777" />
    <Con id="67" src="0" tgt="5" wght="2.1020609385908795" />
    <Con id="69" src="0" tgt="7" wght="-2.5533252391663845" />
    <Con id="70" src="0" tgt="8" wght="-1.986685071935214" />
    <Con id="71" src="0" tgt="9" wght="-2.7153398331882839" />
    <Con id="72" src="0" tgt="10" wght="-2.0257523405698254" />
    <Con id="73" src="0" tgt="11" wght="-1.731123506497954" />
    <Con id="74" src="0" tgt="12" wght="-0.93197029513031193" />
    <Con id="75" src="0" tgt="13" wght="-1.4651948285178533" />
    <Con id="76" src="0" tgt="14" wght="0.32436642939085158" />
    <Con id="77" src="0" tgt="15" wght="0.30748674468257103" />
    <Con id="78" src="0" tgt="16" wght="0.88684628319033032" />
    <Con id="79" src="0" tgt="17" wght="2.6685270683993347" />
    <Con id="80" src="0" tgt="18" wght="-1.0922366826472674" />
    <Con id="81" src="0" tgt="19" wght="2.053731647072492" />
    <Con id="83" src="0" tgt="22" wght="0.12737269781927607" />
    <Con id="84" src="0" tgt="23" wght="-0.080551111130711173" />
    <Con id="85" src="0" tgt="25" wght="-2.0311226349498117" />
    <Con id="86" src="0" tgt="26" wght="-1.8904707089529371" />
    <Con id="87" src="0" tgt="28" wght="0.37654345634799924" />
    <Con id="88" src="0" tgt="29" wght="0.62344307973368052" />
    <Con id="89" src="0" tgt="30" wght="-1.8217535225279855" />
    <Con id="94" src="31" tgt="28" wght="0.073731812657593182" />
    <Con id="114" src="0" tgt="113" wght="2.0900547804963416" />
    <Con id="115" src="113" tgt="6" wght="2.1325545008862745" />
    <Con id="131" src="113" tgt="19" wght="0.31257425574377456" />
    <Con id="171" src="1" tgt="170" wght="-0.0020655396164450772" />
    <Con id="172" src="170" tgt="4" wght="2.0610176419150097" />
    <Con id="194" src="1" tgt="26" wght="-0.90370443677905665" />
    <Con id="237" src="31" tgt="12" wght="2.5745221932331526" />
    <Con id="277" src="170" tgt="25" wght="-2.9989591958056354" />
    <Con id="284" src="170" tgt="3" wght="-2.41866041038029" />
    <Con id="356" src="113" tgt="4" wght="-0.21928512746821097" />
    <Con id="447" src="170" tgt="24" wght="1.0893123451447708" />
    <Con id="711" src="170" tgt="30" wght="0.26886484873390326" />
    <Con id="714" src="170" tgt="21" wght="0.45808385506805149" />
    <Con id="786" src="0" tgt="785" wght="-1.0372995272617138" />
    <Con id="787" src="785" tgt="27" wght="2.4277618717776996" />
    <Con id="1118" src="785" tgt="9" wght="-3" />
    <Con id="1144" src="785" tgt="3" wght="2.5861645421549593" />
    <Con id="1195" src="170" tgt="785" wght="-1.7890134808068363" />
    <Con id="1406" src="170" tgt="14" wght="-1.7886205894956335" />
    <Con id="1749" src="2" tgt="1748" wght="-2.3482256183310537" />
    <Con id="1750" src="1748" tgt="7" wght="1.0096550275539551" />
    <Con id="1852" src="1748" tgt="23" wght="-1.3065735763021056" />
    <Con id="1854" src="1748" tgt="785" wght="0.37846268167547237" />
    <Con id="1871" src="1" tgt="1870" wght="-2.3833902106048535" />
    <Con id="1872" src="1870" tgt="13" wght="1.4489861807040612" />
    <Con id="1888" src="0" tgt="1887" wght="0.021227977595318734" />
    <Con id="1889" src="1887" tgt="16" wght="3" />
    <Con id="1904" src="2" tgt="785" wght="0.91847103517714968" />
    <Con id="1920" src="1887" tgt="9" wght="0.6840519698819163" />
    <Con id="1927" src="1870" tgt="3" wght="-0.63417122693825567" />
    <Con id="1964" src="1887" tgt="1748" wght="0.55209441908960222" />
    <Con id="2018" src="1870" tgt="10" wght="0.63053047608131929" />
    <Con id="2029" src="1870" tgt="16" wght="0.15568712119474315" />
    <Con id="2172" src="113" tgt="1870" wght="-1.8764355105687671" />
    <Con id="2235" src="113" tgt="12" wght="0.10904168429889749" />
    <Con id="2244" src="113" tgt="7" wght="2.9879199503932834" />
    <Con id="2320" src="1887" tgt="14" wght="1.1069200440396403" />
    <Con id="2350" src="1748" tgt="24" wght="0.050088839832833895" />
    <Con id="2378" src="1887" tgt="5" wght="-1.2170091551035998" />
    <Con id="2398" src="1" tgt="2397" wght="-1.9993765501667395" />
    <Con id="2471" src="31" tgt="20" wght="-0.42047048869409148" />
    <Con id="2474" src="785" tgt="23" wght="-0.13422875504998594" />
    <Con id="2493" src="113" tgt="2492" wght="-2.8062041774181519" />
    <Con id="2494" src="2492" tgt="6" wght="0.71993431174884781" />
    <Con id="2517" src="1887" tgt="29" wght="-2.6538982585155804" />
    <Con id="2518" src="1748" tgt="4" wght="1.5173818139186959" />
    <Con id="2520" src="1748" tgt="6" wght="0.62009267340920382" />
    <Con id="2536" src="170" tgt="5" wght="-2.9586211933043947" />
    <Con id="2543" src="170" tgt="20" wght="1.260876872644304" />
    <Con id="2559" src="1" tgt="2558" wght="-0.8374600858796728" />
    <Con id="2560" src="2558" tgt="28" wght="-2.8234890036077691" />
    <Con id="2751" src="1" tgt="2750" wght="1.1838753051911128" />
    <Con id="2752" src="2750" tgt="13" wght="-0.0070824256040682709" />
    <Con id="2800" src="1" tgt="2799" wght="0.623003565981471" />
    <Con id="2857" src="2750" tgt="28" wght="2.0490115726039071" />
    <Con id="2861" src="1748" tgt="1870" wght="-0.024493270399050582" />
    <Con id="2874" src="2558" tgt="21" wght="-2.2980695603764167" />
    <Con id="2876" src="113" tgt="17" wght="-1.2716459889255969" />
    <Con id="2886" src="0" tgt="2885" wght="-3" />
    <Con id="2887" src="2885" tgt="23" wght="-1.4930971532874868" />
    <Con id="2898" src="2558" tgt="20" wght="0.93438810316023013" />
    <Con id="2902" src="2558" tgt="14" wght="-2.5023306075642551" />
    <Con id="2926" src="2799" tgt="7" wght="-1.007024179212749" />
    <Con id="2953" src="785" tgt="19" wght="-3" />
    <Con id="2959" src="2492" tgt="19" wght="-3" />
    <Con id="2979" src="2799" tgt="2750" wght="1.9015079909004271" />
    <Con id="3035" src="2" tgt="2750" wght="0.14421632558680589" />
    <Con id="3045" src="113" tgt="2750" wght="3" />
    <Con id="3050" src="113" tgt="3" wght="-1.4572751257727583" />
    <Con id="3054" src="2" tgt="3053" wght="-1.8957108014008666" />
    <Con id="3055" src="3053" tgt="5" wght="1.7426946506226602" />
    <Con id="3058" src="2558" tgt="12" wght="-1.85833331529389" />
    <Con id="3065" src="2" tgt="3064" wght="-0.020959447154497407" />
    <Con id="3066" src="3064" tgt="12" wght="0.61239401043130126" />
    <Con id="3079" src="0" tgt="6" wght="-1.251034720689306" />
    <Con id="3093" src="113" tgt="5" wght="2.9686481300162688" />
    <Con id="3111" src="2397" tgt="9" wght="0.58103720880011211" />
    <Con id="3112" src="2492" tgt="11" wght="-1.4300716778604092" />
    <Con id="3120" src="1887" tgt="8" wght="3" />
    <Con id="3127" src="170" tgt="22" wght="2.9147971677631705" />
    <Con id="3157" src="2558" tgt="6" wght="-0.52549418844048623" />
    <Con id="3205" src="31" tgt="17" wght="-1.0709207781430306" />
    <Con id="3242" src="1" tgt="3241" wght="-1.5085641111456403" />
    <Con id="3243" src="3241" tgt="17" wght="0.78176155382680346" />
    <Con id="3283" src="31" tgt="25" wght="-2.7430971865218332" />
    <Con id="3393" src="3391" tgt="20" wght="2.4670323202208886" />
    <Con id="3407" src="2750" tgt="5" wght="-0.39523559901863337" />
    <Con id="3528" src="3064" tgt="18" wght="-1.9092846851702978" />
    <Con id="3602" src="1887" tgt="7" wght="1.7376472843288249" />
    <Con id="3618" src="3241" tgt="7" wght="-0.32488595019544764" />
    <Con id="3678" src="2885" tgt="3391" wght="1.0252992860897945" />
    <Con id="3693" src="2885" tgt="11" wght="2.1214196551960476" />
    <Con id="3785" src="1" tgt="2885" wght="3" />
    <Con id="3789" src="170" tgt="2885" wght="2.0662721281347558" />
    <Con id="3805" src="3053" tgt="28" wght="2.4496195685861073" />
    <Con id="3860" src="3053" tgt="19" wght="-1.771549568977207" />
    <Con id="3986" src="1887" tgt="25" wght="1.8971834140637711" />
    <Con id="4196" src="0" tgt="3241" wght="-0.97768077379536034" />
    <Con id="4302" src="0" tgt="4301" wght="-2.9110759701579809" />
    <Con id="4304" src="3053" tgt="3064" wght="-2.5995030270216009" />
    <Con id="4325" src="1887" tgt="3391" wght="0.893114063934398" />
    <Con id="4342" src="2799" tgt="4341" wght="1.981828427422228" />
    <Con id="4360" src="2" tgt="4359" wght="-0.67099158191140718" />
    <Con id="4361" src="4359" tgt="30" wght="1.2431232492517459" />
    <Con id="4776" src="2885" tgt="10" wght="-2.6351974135641045" />
    <Con id="4851" src="2492" tgt="4850" wght="-0.28532229779899648" />
    <Con id="4852" src="4850" tgt="14" wght="1.8111981840429163" />
    <Con id="5051" src="4850" tgt="4359" wght="-1.5250971667080342" />
    <Con id="5257" src="2397" tgt="5256" wght="1.3419881993780143" />
    <Con id="5258" src="5256" tgt="15" wght="2.1926076628320095" />
    <Con id="5502" src="4850" tgt="16" wght="1.9610509078983982" />
    <Con id="5526" src="4341" tgt="5525" wght="2.3888482809998095" />
    <Con id="5527" src="5525" tgt="6" wght="1.928897906895215" />
    <Con id="5534" src="2492" tgt="4359" wght="0.71248396525598345" />
    <Con id="6102" src="5525" tgt="7" wght="-2.5610460060829343" />
    <Con id="6218" src="2" tgt="6217" wght="1.7975074014649568" />
    <Con id="6219" src="6217" tgt="29" wght="3" />
    <Con id="6288" src="113" tgt="6287" wght="1.3434399422801411" />
    <Con id="6289" src="6287" tgt="22" wght="2.3531902164404888" />
    <Con id="6332" src="2558" tgt="6331" wght="-0.28258368078781976" />
    <Con id="6333" src="6331" tgt="7" wght="3" />
    <Con id="6365" src="6217" tgt="4359" wght="0.98601514007896185" />
    <Con id="6588" src="4850" tgt="6" wght="1.1815650894999008" />
    <Con id="6678" src="4850" tgt="17" wght="3" />
    <Con id="6816" src="6331" tgt="6287" wght="0.94185306701979121" />
    <Con id="7756" src="4301" tgt="7755" wght="1.8590093748153327" />
    <Con id="7757" src="7755" tgt="20" wght="3" />
  </Connections>
</Network>