<Network id="3856627" birthGen="7848" fitness="0.99927147915612524">
  <Nodes>
    <Node type="bias" id="0" fnId="0" />
    <Node type="in" id="1" fnId="0" />
    <Node type="in" id="2" fnId="0" />
    <Node type="out" id="3" fnId="0" />
    <Node type="out" id="4" fnId="0" />
    <Node type="out" id="5" fnId="0" />
    <Node type="out" id="6" fnId="0" />
    <Node type="out" id="7" fnId="0" />
    <Node type="out" id="8" fnId="0" />
    <Node type="out" id="9" fnId="0" />
    <Node type="out" id="10" fnId="0" />
    <Node type="out" id="11" fnId="0" />
    <Node type="out" id="12" fnId="0" />
    <Node type="out" id="13" fnId="0" />
    <Node type="out" id="14" fnId="0" />
    <Node type="out" id="15" fnId="0" />
    <Node type="out" id="16" fnId="0" />
    <Node type="out" id="17" fnId="0" />
    <Node type="out" id="18" fnId="0" />
    <Node type="out" id="19" fnId="0" />
    <Node type="out" id="20" fnId="0" />
    <Node type="out" id="21" fnId="0" />
    <Node type="out" id="22" fnId="0" />
    <Node type="out" id="23" fnId="0" />
    <Node type="out" id="24" fnId="0" />
    <Node type="out" id="25" fnId="0" />
    <Node type="out" id="26" fnId="0" />
    <Node type="out" id="27" fnId="0" />
    <Node type="out" id="28" fnId="0" />
    <Node type="out" id="29" fnId="0" />
    <Node type="out" id="30" fnId="0" />
    <Node type="hid" id="31" fnId="2" />
    <Node type="hid" id="108" fnId="1" />
    <Node type="hid" id="1073" fnId="1" />
    <Node type="hid" id="1140" fnId="2" />
    <Node type="hid" id="1166" fnId="2" />
    <Node type="hid" id="1313" fnId="3" />
    <Node type="hid" id="1339" fnId="2" />
    <Node type="hid" id="2382" fnId="0" />
    <Node type="hid" id="2749" fnId="1" />
    <Node type="hid" id="3564" fnId="1" />
    <Node type="hid" id="4824" fnId="1" />
    <Node type="hid" id="5497" fnId="1" />
    <Node type="hid" id="8443" fnId="3" />
    <Node type="hid" id="8782" fnId="0" />
    <Node type="hid" id="9680" fnId="1" />
    <Node type="hid" id="10051" fnId="1" />
    <Node type="hid" id="10230" fnId="2" />
    <Node type="hid" id="10366" fnId="2" />
    <Node type="hid" id="10693" fnId="1" />
    <Node type="hid" id="11413" fnId="3" />
    <Node type="hid" id="11424" fnId="2" />
    <Node type="hid" id="11428" fnId="3" />
    <Node type="hid" id="11509" fnId="3" />
    <Node type="hid" id="11613" fnId="0" />
    <Node type="hid" id="11779" fnId="2" />
    <Node type="hid" id="11836" fnId="1" />
    <Node type="hid" id="11974" fnId="2" />
    <Node type="hid" id="12085" fnId="2" />
    <Node type="hid" id="12102" fnId="1" />
    <Node type="hid" id="15310" fnId="1" />
    <Node type="hid" id="15919" fnId="3" />
    <Node type="hid" id="17753" fnId="0" />
    <Node type="hid" id="17808" fnId="2" />
    <Node type="hid" id="17944" fnId="1" />
    <Node type="hid" id="18019" fnId="0" />
    <Node type="hid" id="18086" fnId="0" />
    <Node type="hid" id="21826" fnId="1" />
    <Node type="hid" id="22090" fnId="2" />
    <Node type="hid" id="22256" fnId="2" />
    <Node type="hid" id="22948" fnId="1" />
    <Node type="hid" id="24686" fnId="1" />
  </Nodes>
  <Connections>
    <Con id="1" src="0" tgt="21" wght="-3" />
    <Con id="2" src="0" tgt="24" wght="-1.7739305867606303" />
    <Con id="3" src="0" tgt="27" wght="-2.5659236559670648" />
    <Con id="4" src="1" tgt="31" wght="1.1172975334209192" />
    <Con id="5" src="2" tgt="31" wght="-1.2183509888245834" />
    <Con id="6" src="31" tgt="21" wght="-2.4039492176088335" />
    <Con id="7" src="31" tgt="24" wght="2.0429623258532903" />
    <Con id="8" src="31" tgt="27" wght="3" />
    <Con id="10" src="1" tgt="4" wght="-0.89254458465558029" />
    <Con id="11" src="1" tgt="5" wght="-2.9079675088418036" />
    <Con id="12" src="1" tgt="6" wght="2.2176469737962243" />
    <Con id="14" src="1" tgt="8" wght="-1.2363383345383596" />
    <Con id="16" src="1" tgt="10" wght="2.4847091318437391" />
    <Con id="17" src="1" tgt="11" wght="2.86337484446379" />
    <Con id="18" src="1" tgt="12" wght="2.2078470334324152" />
    <Con id="19" src="1" tgt="13" wght="-2.4168303324069589" />
    <Con id="20" src="1" tgt="14" wght="0.92021851937686949" />
    <Con id="22" src="1" tgt="16" wght="-2.6804110643333283" />
    <Con id="23" src="1" tgt="17" wght="1.4657242267028376" />
    <Con id="24" src="1" tgt="18" wght="-1.7175806106169378" />
    <Con id="26" src="1" tgt="20" wght="2.4707360410826591" />
    <Con id="27" src="1" tgt="21" wght="-2.2337272592888833" />
    <Con id="28" src="1" tgt="22" wght="-2.0893416523814885" />
    <Con id="29" src="1" tgt="23" wght="1.6101979510858655" />
    <Con id="30" src="1" tgt="24" wght="-0.11850983585007398" />
    <Con id="31" src="1" tgt="25" wght="1.3777643656428733" />
    <Con id="32" src="1" tgt="26" wght="-2.0744548279907682" />
    <Con id="33" src="1" tgt="27" wght="1.324137906310592" />
    <Con id="35" src="1" tgt="29" wght="-1.2095617954160292" />
    <Con id="36" src="1" tgt="30" wght="1.7246844380868391" />
    <Con id="37" src="2" tgt="3" wght="1.2575554391535255" />
    <Con id="38" src="2" tgt="4" wght="2.0308076126333621" />
    <Con id="39" src="2" tgt="5" wght="2.4154799604979322" />
    <Con id="40" src="2" tgt="6" wght="-1.0187376108207551" />
    <Con id="44" src="2" tgt="10" wght="2.2832294093813608" />
    <Con id="46" src="2" tgt="12" wght="1.5505691278183984" />
    <Con id="47" src="2" tgt="13" wght="-2.1184110987301623" />
    <Con id="48" src="2" tgt="14" wght="-1.1985417229779365" />
    <Con id="49" src="2" tgt="15" wght="-0.53673296100432855" />
    <Con id="50" src="2" tgt="16" wght="-0.69108442817799021" />
    <Con id="52" src="2" tgt="18" wght="-1.3268071732111131" />
    <Con id="54" src="2" tgt="20" wght="2.9776229381240746" />
    <Con id="57" src="2" tgt="23" wght="-1.3722064239597098" />
    <Con id="58" src="2" tgt="24" wght="0.13013240819068245" />
    <Con id="59" src="2" tgt="25" wght="0.54250229615718126" />
    <Con id="60" src="2" tgt="26" wght="0.43336754429470065" />
    <Con id="61" src="2" tgt="27" wght="-1.4321357628750193" />
    <Con id="62" src="2" tgt="28" wght="0.53270982172099612" />
    <Con id="63" src="2" tgt="29" wght="1.0523884519040032" />
    <Con id="64" src="2" tgt="30" wght="-2.6962476751495763" />
    <Con id="66" src="0" tgt="4" wght="2.1280251044795984" />
    <Con id="67" src="0" tgt="5" wght="-1.911849250682119" />
    <Con id="69" src="0" tgt="7" wght="-2.8805377757663773" />
    <Con id="70" src="0" tgt="8" wght="1.0753308717535166" />
    <Con id="71" src="0" tgt="9" wght="2.9223163725318879" />
    <Con id="72" src="0" tgt="10" wght="-1.061596498152356" />
    <Con id="73" src="0" tgt="11" wght="-1.608563541451788" />
    <Con id="74" src="0" tgt="12" wght="-1.7798903858782074" />
    <Con id="76" src="0" tgt="14" wght="0.78668951124697206" />
    <Con id="77" src="0" tgt="15" wght="0.0016747068557693458" />
    <Con id="78" src="0" tgt="16" wght="-0.012567224148257155" />
    <Con id="79" src="0" tgt="17" wght="2.2389644807956794" />
    <Con id="80" src="0" tgt="18" wght="-2.8659849757111848" />
    <Con id="81" src="0" tgt="19" wght="2.3202722354371832" />
    <Con id="82" src="0" tgt="20" wght="0.78894707467406988" />
    <Con id="83" src="0" tgt="22" wght="1.9290748829953373" />
    <Con id="84" src="0" tgt="23" wght="1.5389168784171954" />
    <Con id="85" src="0" tgt="25" wght="-2.9832474644030711" />
    <Con id="86" src="0" tgt="26" wght="-0.74791811965405941" />
    <Con id="87" src="0" tgt="28" wght="-1.1763906717557726" />
    <Con id="88" src="0" tgt="29" wght="0.52650927690197646" />
    <Con id="89" src="0" tgt="30" wght="-2.9460682854987681" />
    <Con id="106" src="31" tgt="29" wght="3" />
    <Con id="109" src="0" tgt="108" wght="3" />
    <Con id="110" src="108" tgt="13" wght="-0.79000867486517712" />
    <Con id="120" src="108" tgt="8" wght="0.29874800200201751" />
    <Con id="123" src="108" tgt="3" wght="1.4983367945550572" />
    <Con id="125" src="108" tgt="12" wght="3" />
    <Con id="146" src="31" tgt="26" wght="1.1577880184992089" />
    <Con id="150" src="108" tgt="9" wght="1.4389279744289167" />
    <Con id="161" src="31" tgt="5" wght="0.58018729957398785" />
    <Con id="175" src="31" tgt="19" wght="0.22801298982126886" />
    <Con id="228" src="108" tgt="7" wght="-1.6242371035867689" />
    <Con id="291" src="108" tgt="6" wght="-2.4317979345506209" />
    <Con id="1074" src="2" tgt="1073" wght="-1.7350762291315465" />
    <Con id="1075" src="1073" tgt="19" wght="-1.1119653085245873" />
    <Con id="1094" src="1073" tgt="29" wght="0.81022103283140146" />
    <Con id="1141" src="2" tgt="1140" wght="2.3940069928646404" />
    <Con id="1142" src="1140" tgt="22" wght="-2.1046434108559167" />
    <Con id="1167" src="2" tgt="1166" wght="-0.20226332230982957" />
    <Con id="1168" src="1166" tgt="29" wght="-2.1439879178709109" />
    <Con id="1171" src="1073" tgt="5" wght="-0.9917652017944032" />
    <Con id="1177" src="1073" tgt="6" wght="-2.1161841191418151" />
    <Con id="1201" src="1073" tgt="1140" wght="2.4929309351196527" />
    <Con id="1206" src="1166" tgt="5" wght="-2.6329780475510476" />
    <Con id="1208" src="1073" tgt="13" wght="-2.6764367609021127" />
    <Con id="1221" src="1140" tgt="108" wght="0.646710019626275" />
    <Con id="1314" src="1" tgt="1313" wght="3" />
    <Con id="1315" src="1313" tgt="13" wght="-1.0025538956814488" />
    <Con id="1328" src="1166" tgt="14" wght="-1.1680132693264522" />
    <Con id="1343" src="1313" tgt="17" wght="-0.21445396449139084" />
    <Con id="1346" src="1313" tgt="108" wght="-2.9951654268563632" />
    <Con id="1352" src="1140" tgt="17" wght="2.9966111925651715" />
    <Con id="1353" src="1313" tgt="7" wght="-0.86273226141871551" />
    <Con id="1416" src="1313" tgt="15" wght="2.4471481269854491" />
    <Con id="1427" src="1339" tgt="13" wght="-1.4917465715105678" />
    <Con id="1438" src="1313" tgt="23" wght="-3" />
    <Con id="1439" src="1166" tgt="26" wght="-0.062563874769618055" />
    <Con id="1728" src="1073" tgt="1339" wght="2.3947327493028472" />
    <Con id="2147" src="1339" tgt="30" wght="-0.44516746901685944" />
    <Con id="2383" src="0" tgt="2382" wght="1.0983847022725342" />
    <Con id="2384" src="2382" tgt="6" wght="2.9890316065227318" />
    <Con id="2656" src="2382" tgt="4" wght="0.61416780593818554" />
    <Con id="2750" src="1" tgt="2749" wght="1.1393314503257164" />
    <Con id="2751" src="2749" tgt="7" wght="-1.3254896222068304" />
    <Con id="3565" src="2" tgt="3564" wght="-3" />
    <Con id="3566" src="3564" tgt="8" wght="-2.8195378258116879" />
    <Con id="4150" src="3564" tgt="14" wght="-0.77134274713667139" />
    <Con id="4180" src="3564" tgt="30" wght="-0.16724508352078124" />
    <Con id="4436" src="3564" tgt="21" wght="2.82857770469869" />
    <Con id="4825" src="0" tgt="4824" wght="-3" />
    <Con id="4826" src="4824" tgt="3" wght="0.7703121372719729" />
    <Con id="4899" src="4824" tgt="8" wght="1.4687833811591675" />
    <Con id="5498" src="108" tgt="5497" wght="-2.9014789908575711" />
    <Con id="5499" src="5497" tgt="30" wght="0.092818731151154" />
    <Con id="6283" src="5497" tgt="25" wght="1.3357093487042482" />
    <Con id="6329" src="1166" tgt="5497" wght="-2.8008007671443904" />
    <Con id="8444" src="0" tgt="8443" wght="1.1319422349985819" />
    <Con id="8445" src="8443" tgt="13" wght="2.3969460452571596" />
    <Con id="8783" src="1" tgt="8782" wght="-1.4774828933426973" />
    <Con id="9300" src="8443" tgt="7" wght="0.40730423692072493" />
    <Con id="9681" src="2" tgt="9680" wght="-1.1815066176590743" />
    <Con id="9682" src="9680" tgt="21" wght="2.4431083891834189" />
    <Con id="10052" src="8782" tgt="10051" wght="2.4328774334036152" />
    <Con id="10053" src="10051" tgt="15" wght="2.1947534572312462" />
    <Con id="10232" src="10230" tgt="9" wght="-2.9672107923712132" />
    <Con id="10233" src="10051" tgt="23" wght="-3" />
    <Con id="10367" src="1339" tgt="10366" wght="1.6325479109600503" />
    <Con id="10368" src="10366" tgt="108" wght="-3" />
    <Con id="10694" src="1" tgt="10693" wght="-1.8895134840401973" />
    <Con id="11415" src="11413" tgt="22" wght="3" />
    <Con id="11426" src="11424" tgt="5497" wght="-1.8618750585164783" />
    <Con id="11430" src="11428" tgt="10" wght="-2.2662855844637262" />
    <Con id="11433" src="2749" tgt="108" wght="3" />
    <Con id="11446" src="10051" tgt="1166" wght="1.0713427495077748" />
    <Con id="11510" src="8782" tgt="11509" wght="3" />
    <Con id="11511" src="11509" tgt="10051" wght="0.19760801859225624" />
    <Con id="11535" src="10230" tgt="9680" wght="2.3969398249976139" />
    <Con id="11543" src="10230" tgt="23" wght="-1.6198104721794007" />
    <Con id="11547" src="11413" tgt="9680" wght="-0.47251332500764776" />
    <Con id="11554" src="1140" tgt="5" wght="1.3242003139120835" />
    <Con id="11566" src="8782" tgt="8" wght="-2.6781529593705726" />
    <Con id="11605" src="10051" tgt="8443" wght="1.7989746736075463" />
    <Con id="11614" src="2" tgt="11613" wght="-1.3333304704034947" />
    <Con id="11615" src="11613" tgt="30" wght="2.9788855542074608" />
    <Con id="11652" src="2382" tgt="108" wght="1.2527292225137863" />
    <Con id="11705" src="8443" tgt="2749" wght="-0.023685796051915415" />
    <Con id="11720" src="10051" tgt="4" wght="1.1845275540249103" />
    <Con id="11756" src="1313" tgt="8782" wght="-0.530110916491497" />
    <Con id="11780" src="1" tgt="11779" wght="-2.8118384689506764" />
    <Con id="11781" src="11779" tgt="3" wght="2.0522653170120262" />
    <Con id="11823" src="11413" tgt="4824" wght="-0.97940901900699029" />
    <Con id="11837" src="108" tgt="11836" wght="2.0034728082391875" />
    <Con id="11838" src="11836" tgt="6" wght="-2.933189332286287" />
    <Con id="11852" src="11428" tgt="108" wght="-0.65068766423306457" />
    <Con id="11869" src="1166" tgt="3564" wght="3" />
    <Con id="11888" src="1" tgt="11424" wght="2.4784674737602472" />
    <Con id="11921" src="4824" tgt="13" wght="-1.8655825966435322" />
    <Con id="11975" src="1073" tgt="11974" wght="-2.9694566045224868" />
    <Con id="11976" src="11974" tgt="13" wght="3" />
    <Con id="12021" src="1073" tgt="23" wght="2.295383144524958" />
    <Con id="12077" src="1313" tgt="10230" wght="-2.2963450556878549" />
    <Con id="12086" src="2" tgt="12085" wght="2.9033820501426097" />
    <Con id="12087" src="12085" tgt="4" wght="-0.62416566909296212" />
    <Con id="12103" src="11836" tgt="12102" wght="-2.9937388230863315" />
    <Con id="12104" src="12102" tgt="6" wght="-0.74124726097197358" />
    <Con id="12169" src="1140" tgt="4" wght="2.2343733508866976" />
    <Con id="12210" src="11509" tgt="13" wght="-1.2611975206982766" />
    <Con id="12241" src="9680" tgt="1339" wght="-1.129061970859766" />
    <Con id="12286" src="2749" tgt="5497" wght="2.2348395755740285" />
    <Con id="12385" src="3564" tgt="108" wght="0.025504897969089391" />
    <Con id="12392" src="5497" tgt="26" wght="0.25403204932808876" />
    <Con id="12504" src="11428" tgt="11974" wght="1.4285314631408719" />
    <Con id="12519" src="11428" tgt="1073" wght="2.8892265486618607" />
    <Con id="12531" src="10051" tgt="11413" wght="-2.3674540751265685" />
    <Con id="12701" src="1073" tgt="4" wght="3" />
    <Con id="12705" src="11613" tgt="21" wght="3" />
    <Con id="12757" src="8782" tgt="3" wght="-2.4355329139147472" />
    <Con id="12821" src="10693" tgt="23" wght="3" />
    <Con id="13023" src="12085" tgt="7" wght="-2.287128290936876" />
    <Con id="13163" src="12085" tgt="11836" wght="-2.1720187878236175" />
    <Con id="13332" src="8443" tgt="10230" wght="-2.9814496069733005" />
    <Con id="13398" src="12085" tgt="6" wght="0.40644873745984911" />
    <Con id="13440" src="12085" tgt="11509" wght="0.16535715339705348" />
    <Con id="13503" src="1313" tgt="10693" wght="-2.4981680316749477" />
    <Con id="13698" src="11613" tgt="19" wght="2.2138219070674174" />
    <Con id="13707" src="1339" tgt="11" wght="-1.8367862898472307" />
    <Con id="13740" src="11613" tgt="3" wght="2.1640111611720565" />
    <Con id="13761" src="10051" tgt="108" wght="2.2320064896803449" />
    <Con id="14642" src="1166" tgt="6" wght="1.2710068144153517" />
    <Con id="14953" src="12085" tgt="10366" wght="-0.73952916721113415" />
    <Con id="15311" src="3564" tgt="15310" wght="0.06602830566040585" />
    <Con id="15312" src="15310" tgt="11413" wght="0.022752852442190476" />
    <Con id="15567" src="11779" tgt="2382" wght="2.2471307403183687" />
    <Con id="15920" src="2" tgt="15919" wght="1.2880444776331783" />
    <Con id="15921" src="15919" tgt="11" wght="2.8063706060882434" />
    <Con id="16403" src="15919" tgt="6" wght="-1.0863405838608742" />
    <Con id="17754" src="8443" tgt="17753" wght="-2.9895829171857993" />
    <Con id="17755" src="17753" tgt="10693" wght="1.9179903106909195" />
    <Con id="17809" src="11428" tgt="17808" wght="-2.141621804696026" />
    <Con id="17810" src="17808" tgt="19" wght="-1.4487261446498703" />
    <Con id="17945" src="1073" tgt="17944" wght="0.19797693636308578" />
    <Con id="17946" src="17944" tgt="20" wght="-0.021271923572538265" />
    <Con id="18020" src="108" tgt="18019" wght="-1.8449911107842303" />
    <Con id="18021" src="18019" tgt="11424" wght="-0.51574830914131986" />
    <Con id="18087" src="0" tgt="18086" wght="-2.3070652752223291" />
    <Con id="18088" src="18086" tgt="11428" wght="2.3719641612685933" />
    <Con id="18320" src="17944" tgt="17753" wght="-2.3715903824195266" />
    <Con id="19164" src="1" tgt="17808" wght="-0.82891197362914681" />
    <Con id="21681" src="11779" tgt="18086" wght="-0.15211744860389526" />
    <Con id="21803" src="18086" tgt="5" wght="-0.99525155033916235" />
    <Con id="21827" src="2" tgt="21826" wght="0.8957373752119705" />
    <Con id="21828" src="21826" tgt="17" wght="2.9910409519021086" />
    <Con id="22091" src="2" tgt="22090" wght="0.19690078473247274" />
    <Con id="22092" src="22090" tgt="11413" wght="0.57709733257433438" />
    <Con id="22153" src="108" tgt="21826" wght="-0.96460467722322774" />
    <Con id="22257" src="31" tgt="22256" wght="1.2925432082265616" />
    <Con id="22258" src="22256" tgt="3" wght="1.4184100921655753" />
    <Con id="22821" src="1166" tgt="22256" wght="-0.13915567007129481" />
    <Con id="22922" src="22090" tgt="10693" wght="3" />
    <Con id="22949" src="2" tgt="22948" wght="1.1747977489154347" />
    <Con id="22950" src="22948" tgt="10230" wght="1.1958661776949875" />
    <Con id="23235" src="21826" tgt="9" wght="-0.40593768682955583" />
    <Con id="23680" src="22256" tgt="4824" wght="1.3437785203568637" />
    <Con id="24350" src="2749" tgt="22948" wght="-0.31875313771905844" />
    <Con id="24687" src="10693" tgt="24686" wght="1.3563555688572051" />
    <Con id="24688" src="24686" tgt="9" wght="3" />
    <Con id="24936" src="22256" tgt="24686" wght="0.55342460706619345" />
  </Connections>
</Network>