<Network id="503" birthGen="87" fitness="0.99988680067002922">
  <Nodes>
    <Node type="bias" id="0" fnId="0" />
    <Node type="in" id="1" fnId="0" />
    <Node type="in" id="2" fnId="0" />
    <Node type="out" id="3" fnId="0" />
    <Node type="out" id="4" fnId="0" />
    <Node type="out" id="5" fnId="0" />
    <Node type="out" id="6" fnId="0" />
    <Node type="out" id="7" fnId="0" />
    <Node type="out" id="8" fnId="0" />
    <Node type="out" id="9" fnId="0" />
    <Node type="out" id="10" fnId="0" />
    <Node type="out" id="11" fnId="0" />
    <Node type="out" id="12" fnId="0" />
    <Node type="out" id="13" fnId="0" />
    <Node type="out" id="14" fnId="0" />
    <Node type="out" id="15" fnId="0" />
    <Node type="out" id="16" fnId="0" />
    <Node type="out" id="17" fnId="0" />
    <Node type="out" id="18" fnId="0" />
    <Node type="out" id="19" fnId="0" />
    <Node type="out" id="20" fnId="0" />
    <Node type="out" id="21" fnId="0" />
    <Node type="out" id="22" fnId="0" />
    <Node type="out" id="23" fnId="0" />
    <Node type="out" id="24" fnId="0" />
    <Node type="out" id="25" fnId="0" />
    <Node type="out" id="26" fnId="0" />
    <Node type="out" id="27" fnId="0" />
    <Node type="out" id="28" fnId="0" />
    <Node type="out" id="29" fnId="0" />
    <Node type="out" id="30" fnId="0" />
    <Node type="hid" id="31" fnId="2" />
  </Nodes>
  <Connections>
    <Con id="1" src="0" tgt="21" wght="-0.16689813915063556" />
    <Con id="2" src="0" tgt="24" wght="-1" />
    <Con id="3" src="0" tgt="27" wght="-0.99634775227498107" />
    <Con id="4" src="1" tgt="31" wght="1" />
    <Con id="5" src="2" tgt="31" wght="-1" />
    <Con id="6" src="31" tgt="21" wght="1.0331152399546613" />
    <Con id="7" src="31" tgt="24" wght="1" />
    <Con id="8" src="31" tgt="27" wght="1.0010028742264843" />
    <Con id="9" src="1" tgt="3" wght="0.82047666839703526" />
    <Con id="10" src="1" tgt="4" wght="-0.44177100023088356" />
    <Con id="11" src="1" tgt="5" wght="0" />
    <Con id="12" src="1" tgt="6" wght="1.8366596258549854" />
    <Con id="13" src="1" tgt="7" wght="0" />
    <Con id="14" src="1" tgt="8" wght="0.72057304436149117" />
    <Con id="15" src="1" tgt="9" wght="0" />
    <Con id="16" src="1" tgt="10" wght="0" />
    <Con id="17" src="1" tgt="11" wght="0.61377026525610134" />
    <Con id="18" src="1" tgt="12" wght="0" />
    <Con id="19" src="1" tgt="13" wght="0.53247696482804763" />
    <Con id="20" src="1" tgt="14" wght="-1.4262009023260316" />
    <Con id="21" src="1" tgt="15" wght="1.0673501818131304" />
    <Con id="22" src="1" tgt="16" wght="-1.9152475686436787" />
    <Con id="23" src="1" tgt="17" wght="0.78611825775735134" />
    <Con id="24" src="1" tgt="18" wght="-0.02272692269101367" />
    <Con id="25" src="1" tgt="19" wght="1.8393446142228798" />
    <Con id="26" src="1" tgt="20" wght="0" />
    <Con id="27" src="1" tgt="21" wght="0.014598077752419988" />
    <Con id="28" src="1" tgt="22" wght="0.064926200566587253" />
    <Con id="29" src="1" tgt="23" wght="0.81486618879046091" />
    <Con id="30" src="1" tgt="24" wght="0" />
    <Con id="31" src="1" tgt="25" wght="0" />
    <Con id="32" src="1" tgt="26" wght="-0.12477785974091255" />
    <Con id="33" src="1" tgt="27" wght="0" />
    <Con id="34" src="1" tgt="28" wght="1.8764387412388084" />
    <Con id="35" src="1" tgt="29" wght="0" />
    <Con id="36" src="1" tgt="30" wght="1.9688384666843559" />
    <Con id="37" src="2" tgt="3" wght="2.7679815217852592" />
    <Con id="38" src="2" tgt="4" wght="-0.004759224763653919" />
    <Con id="39" src="2" tgt="5" wght="0" />
    <Con id="40" src="2" tgt="6" wght="-0.45118108883261532" />
    <Con id="41" src="2" tgt="7" wght="-0.057177106738932108" />
    <Con id="42" src="2" tgt="8" wght="0" />
    <Con id="43" src="2" tgt="9" wght="-0.34036721871502451" />
    <Con id="44" src="2" tgt="10" wght="-0.04780237001644605" />
    <Con id="45" src="2" tgt="11" wght="-1.3157973409735528" />
    <Con id="46" src="2" tgt="12" wght="0.2454712170237382" />
    <Con id="47" src="2" tgt="13" wght="-2.0455609296497128" />
    <Con id="48" src="2" tgt="14" wght="-1.6457866477786209" />
    <Con id="49" src="2" tgt="15" wght="0" />
    <Con id="50" src="2" tgt="16" wght="0" />
    <Con id="51" src="2" tgt="17" wght="-0.459994942712044" />
    <Con id="52" src="2" tgt="18" wght="1.1198525578500727" />
    <Con id="53" src="2" tgt="19" wght="0" />
    <Con id="54" src="2" tgt="20" wght="0" />
    <Con id="55" src="2" tgt="21" wght="0" />
    <Con id="56" src="2" tgt="22" wght="0" />
    <Con id="57" src="2" tgt="23" wght="0" />
    <Con id="58" src="2" tgt="24" wght="0" />
    <Con id="59" src="2" tgt="25" wght="0" />
    <Con id="60" src="2" tgt="26" wght="0.014948921042929402" />
    <Con id="61" src="2" tgt="27" wght="0" />
    <Con id="62" src="2" tgt="28" wght="-1.5636565296008946" />
    <Con id="63" src="2" tgt="29" wght="0" />
    <Con id="64" src="2" tgt="30" wght="0" />
    <Con id="65" src="0" tgt="3" wght="-0.74560507332244041" />
    <Con id="66" src="0" tgt="4" wght="1.8360627148406314" />
    <Con id="67" src="0" tgt="5" wght="0.8525955402835117" />
    <Con id="68" src="0" tgt="6" wght="0" />
    <Con id="69" src="0" tgt="7" wght="1.7401208879467722" />
    <Con id="70" src="0" tgt="8" wght="-3" />
    <Con id="71" src="0" tgt="9" wght="0" />
    <Con id="72" src="0" tgt="10" wght="-0.0095040387445358854" />
    <Con id="73" src="0" tgt="11" wght="-2.0937159931186353" />
    <Con id="74" src="0" tgt="12" wght="0.028102150582827879" />
    <Con id="75" src="0" tgt="13" wght="0" />
    <Con id="76" src="0" tgt="14" wght="1.1449120854947654" />
    <Con id="77" src="0" tgt="15" wght="0.1537136945019025" />
    <Con id="78" src="0" tgt="16" wght="0" />
    <Con id="79" src="0" tgt="17" wght="0" />
    <Con id="80" src="0" tgt="18" wght="0" />
    <Con id="81" src="0" tgt="19" wght="-1.3014151440002024" />
    <Con id="82" src="0" tgt="20" wght="0.7973577053339086" />
    <Con id="83" src="0" tgt="22" wght="-1" />
    <Con id="84" src="0" tgt="23" wght="-1.0133507513789257" />
    <Con id="85" src="0" tgt="25" wght="0.98311980728703541" />
    <Con id="86" src="0" tgt="26" wght="-1" />
    <Con id="87" src="0" tgt="28" wght="-1" />
    <Con id="88" src="0" tgt="29" wght="0.15539448843037346" />
    <Con id="89" src="0" tgt="30" wght="-2.0777791167109827" />
    <Con id="100" src="31" tgt="14" wght="-0.94003152754157782" />
  </Connections>
</Network>