<Network id="1398451" birthGen="2830" fitness="0.99937059321667332">
  <Nodes>
    <Node type="bias" id="0" fnId="0" />
    <Node type="in" id="1" fnId="0" />
    <Node type="in" id="2" fnId="0" />
    <Node type="out" id="3" fnId="0" />
    <Node type="out" id="4" fnId="0" />
    <Node type="out" id="5" fnId="0" />
    <Node type="out" id="6" fnId="0" />
    <Node type="out" id="7" fnId="0" />
    <Node type="out" id="8" fnId="0" />
    <Node type="out" id="9" fnId="0" />
    <Node type="out" id="10" fnId="0" />
    <Node type="out" id="11" fnId="0" />
    <Node type="out" id="12" fnId="0" />
    <Node type="out" id="13" fnId="0" />
    <Node type="out" id="14" fnId="0" />
    <Node type="out" id="15" fnId="0" />
    <Node type="out" id="16" fnId="0" />
    <Node type="out" id="17" fnId="0" />
    <Node type="out" id="18" fnId="0" />
    <Node type="out" id="19" fnId="0" />
    <Node type="out" id="20" fnId="0" />
    <Node type="out" id="21" fnId="0" />
    <Node type="out" id="22" fnId="0" />
    <Node type="out" id="23" fnId="0" />
    <Node type="out" id="24" fnId="0" />
    <Node type="out" id="25" fnId="0" />
    <Node type="out" id="26" fnId="0" />
    <Node type="out" id="27" fnId="0" />
    <Node type="out" id="28" fnId="0" />
    <Node type="out" id="29" fnId="0" />
    <Node type="out" id="30" fnId="0" />
    <Node type="hid" id="31" fnId="2" />
    <Node type="hid" id="108" fnId="1" />
    <Node type="hid" id="1073" fnId="1" />
    <Node type="hid" id="1140" fnId="2" />
    <Node type="hid" id="1166" fnId="2" />
    <Node type="hid" id="1313" fnId="3" />
    <Node type="hid" id="1339" fnId="2" />
    <Node type="hid" id="2382" fnId="0" />
    <Node type="hid" id="2749" fnId="1" />
    <Node type="hid" id="3564" fnId="1" />
    <Node type="hid" id="4824" fnId="1" />
    <Node type="hid" id="5497" fnId="1" />
    <Node type="hid" id="8443" fnId="3" />
    <Node type="hid" id="8782" fnId="0" />
    <Node type="hid" id="9680" fnId="1" />
    <Node type="hid" id="10051" fnId="1" />
    <Node type="hid" id="10230" fnId="2" />
    <Node type="hid" id="10366" fnId="2" />
    <Node type="hid" id="10693" fnId="1" />
    <Node type="hid" id="11413" fnId="3" />
    <Node type="hid" id="11437" fnId="0" />
    <Node type="hid" id="11488" fnId="1" />
    <Node type="hid" id="11535" fnId="1" />
    <Node type="hid" id="11581" fnId="3" />
    <Node type="hid" id="11762" fnId="2" />
    <Node type="hid" id="12048" fnId="3" />
    <Node type="hid" id="12438" fnId="2" />
    <Node type="hid" id="12468" fnId="0" />
    <Node type="hid" id="12485" fnId="2" />
    <Node type="hid" id="12520" fnId="1" />
    <Node type="hid" id="12576" fnId="2" />
    <Node type="hid" id="12790" fnId="1" />
    <Node type="hid" id="12962" fnId="1" />
    <Node type="hid" id="13985" fnId="3" />
    <Node type="hid" id="14559" fnId="2" />
    <Node type="hid" id="14750" fnId="1" />
    <Node type="hid" id="14866" fnId="1" />
    <Node type="hid" id="15096" fnId="3" />
  </Nodes>
  <Connections>
    <Con id="1" src="0" tgt="21" wght="0.4137847787268753" />
    <Con id="2" src="0" tgt="24" wght="-1.3288921754101744" />
    <Con id="3" src="0" tgt="27" wght="-2.7134958997458978" />
    <Con id="4" src="1" tgt="31" wght="1.1819698968613464" />
    <Con id="5" src="2" tgt="31" wght="-1.1967974274450322" />
    <Con id="6" src="31" tgt="21" wght="-2.282256651758515" />
    <Con id="7" src="31" tgt="24" wght="1.6486711403185672" />
    <Con id="8" src="31" tgt="27" wght="3" />
    <Con id="9" src="1" tgt="3" wght="1.0634982213362825" />
    <Con id="10" src="1" tgt="4" wght="-1.9497578338435557" />
    <Con id="11" src="1" tgt="5" wght="-3" />
    <Con id="12" src="1" tgt="6" wght="2.9285273175651967" />
    <Con id="14" src="1" tgt="8" wght="1.2111976337855097" />
    <Con id="16" src="1" tgt="10" wght="-1.51416366431313" />
    <Con id="17" src="1" tgt="11" wght="1.5759093349419733" />
    <Con id="18" src="1" tgt="12" wght="-2.3936571706528254" />
    <Con id="19" src="1" tgt="13" wght="2.3760208235950797" />
    <Con id="20" src="1" tgt="14" wght="2.1584838573417722" />
    <Con id="22" src="1" tgt="16" wght="1.5452546393214575" />
    <Con id="23" src="1" tgt="17" wght="-1.6267559172894839" />
    <Con id="24" src="1" tgt="18" wght="-1.7352924384176731" />
    <Con id="25" src="1" tgt="19" wght="0.462415498133576" />
    <Con id="26" src="1" tgt="20" wght="-0.85553029884498411" />
    <Con id="27" src="1" tgt="21" wght="1.783401416311726" />
    <Con id="28" src="1" tgt="22" wght="0.57966657971873592" />
    <Con id="29" src="1" tgt="23" wght="2.4911192183697408" />
    <Con id="30" src="1" tgt="24" wght="-0.36802062592047524" />
    <Con id="31" src="1" tgt="25" wght="1.8034547305938609" />
    <Con id="32" src="1" tgt="26" wght="3" />
    <Con id="33" src="1" tgt="27" wght="1.6022818325105415" />
    <Con id="35" src="1" tgt="29" wght="1.1525525917754274" />
    <Con id="36" src="1" tgt="30" wght="2.8219011864301273" />
    <Con id="37" src="2" tgt="3" wght="-0.9094981701725996" />
    <Con id="38" src="2" tgt="4" wght="2.6997142349276619" />
    <Con id="39" src="2" tgt="5" wght="0.28475532772119821" />
    <Con id="40" src="2" tgt="6" wght="-1.8408191410333239" />
    <Con id="44" src="2" tgt="10" wght="1.2962008995628402" />
    <Con id="45" src="2" tgt="11" wght="2.4097648945614916" />
    <Con id="46" src="2" tgt="12" wght="2.1196000399780308" />
    <Con id="47" src="2" tgt="13" wght="0.56741945300545615" />
    <Con id="48" src="2" tgt="14" wght="1.3149619797027028" />
    <Con id="49" src="2" tgt="15" wght="-0.5242063373235738" />
    <Con id="50" src="2" tgt="16" wght="-0.71521145479318571" />
    <Con id="51" src="2" tgt="17" wght="-0.14696112499019332" />
    <Con id="52" src="2" tgt="18" wght="-2.73002496437419" />
    <Con id="54" src="2" tgt="20" wght="3" />
    <Con id="57" src="2" tgt="23" wght="-0.98802766804420572" />
    <Con id="58" src="2" tgt="24" wght="0.26431006494954173" />
    <Con id="59" src="2" tgt="25" wght="2.7055889305486192" />
    <Con id="60" src="2" tgt="26" wght="-1.4181393768912267" />
    <Con id="61" src="2" tgt="27" wght="-1.4232674010007516" />
    <Con id="62" src="2" tgt="28" wght="0.88313570189216828" />
    <Con id="63" src="2" tgt="29" wght="2.619720126728462" />
    <Con id="64" src="2" tgt="30" wght="-0.92862601350666729" />
    <Con id="66" src="0" tgt="4" wght="3" />
    <Con id="67" src="0" tgt="5" wght="-2.9991618230040311" />
    <Con id="69" src="0" tgt="7" wght="1.0101649176755583" />
    <Con id="70" src="0" tgt="8" wght="0.45797608292443176" />
    <Con id="71" src="0" tgt="9" wght="0.1674853745587" />
    <Con id="72" src="0" tgt="10" wght="2.972705128774348" />
    <Con id="73" src="0" tgt="11" wght="0.62042943751729551" />
    <Con id="74" src="0" tgt="12" wght="1.4879260490394213" />
    <Con id="76" src="0" tgt="14" wght="2.9932757922712936" />
    <Con id="77" src="0" tgt="15" wght="0.00090054430007052363" />
    <Con id="78" src="0" tgt="16" wght="0.026367427438252274" />
    <Con id="79" src="0" tgt="17" wght="1.0637522026838153" />
    <Con id="80" src="0" tgt="18" wght="2.6357139627212907" />
    <Con id="81" src="0" tgt="19" wght="2.9403100838261831" />
    <Con id="82" src="0" tgt="20" wght="-1.12447737912805" />
    <Con id="83" src="0" tgt="22" wght="-1.1824554749524345" />
    <Con id="84" src="0" tgt="23" wght="-2.563739443674848" />
    <Con id="85" src="0" tgt="25" wght="1.6209924595879675" />
    <Con id="86" src="0" tgt="26" wght="0.22199154505972774" />
    <Con id="87" src="0" tgt="28" wght="1.5010752836478027" />
    <Con id="88" src="0" tgt="29" wght="-1.4569726099440394" />
    <Con id="89" src="0" tgt="30" wght="-2.79404432896027" />
    <Con id="106" src="31" tgt="29" wght="2.0559171560590288" />
    <Con id="109" src="0" tgt="108" wght="2.5889628865272147" />
    <Con id="110" src="108" tgt="13" wght="-1.0797683510099123" />
    <Con id="120" src="108" tgt="8" wght="0.89896972242159023" />
    <Con id="123" src="108" tgt="3" wght="-2.7248225487490823" />
    <Con id="124" src="31" tgt="3" wght="0.41842185925852826" />
    <Con id="125" src="108" tgt="12" wght="-2.541212224039191" />
    <Con id="146" src="31" tgt="26" wght="-2.9973579156815946" />
    <Con id="150" src="108" tgt="9" wght="1.5595306711532264" />
    <Con id="161" src="31" tgt="5" wght="2.5207984385556674" />
    <Con id="175" src="31" tgt="19" wght="-1.3161504920572043" />
    <Con id="228" src="108" tgt="7" wght="-0.56201593869527944" />
    <Con id="291" src="108" tgt="6" wght="-0.045502860585931448" />
    <Con id="1074" src="2" tgt="1073" wght="2.9860688453146267" />
    <Con id="1075" src="1073" tgt="19" wght="-1.7983719477822686" />
    <Con id="1094" src="1073" tgt="29" wght="-2.6594833759361514" />
    <Con id="1141" src="2" tgt="1140" wght="-2.1677719928712125" />
    <Con id="1142" src="1140" tgt="22" wght="-0.55090815485589739" />
    <Con id="1167" src="2" tgt="1166" wght="2.2076453506015241" />
    <Con id="1168" src="1166" tgt="29" wght="-1.7803743735113244" />
    <Con id="1171" src="1073" tgt="5" wght="-1.3186148286746091" />
    <Con id="1177" src="1073" tgt="6" wght="2.5681158390433829" />
    <Con id="1201" src="1073" tgt="1140" wght="-1.2747312897298815" />
    <Con id="1206" src="1166" tgt="5" wght="1.2213060072880979" />
    <Con id="1208" src="1073" tgt="13" wght="-1.5301474538434403" />
    <Con id="1221" src="1140" tgt="108" wght="0.85316265053374052" />
    <Con id="1314" src="1" tgt="1313" wght="0.26472829524280911" />
    <Con id="1315" src="1313" tgt="13" wght="-2.065457248639825" />
    <Con id="1316" src="1073" tgt="20" wght="3" />
    <Con id="1328" src="1166" tgt="14" wght="0.80346849205633242" />
    <Con id="1343" src="1313" tgt="17" wght="-1.6911428678656524" />
    <Con id="1346" src="1313" tgt="108" wght="1.9597827697705776" />
    <Con id="1352" src="1140" tgt="17" wght="-1.4539525812523151" />
    <Con id="1353" src="1313" tgt="7" wght="3" />
    <Con id="1416" src="1313" tgt="15" wght="1.8950449735857546" />
    <Con id="1427" src="1339" tgt="13" wght="-2.1693928532336106" />
    <Con id="1438" src="1313" tgt="23" wght="-0.38484843298879218" />
    <Con id="1439" src="1166" tgt="26" wght="0.1881738652080267" />
    <Con id="1633" src="1140" tgt="25" wght="2.9601529220933549" />
    <Con id="1728" src="1073" tgt="1339" wght="-0.045822774260589061" />
    <Con id="2147" src="1339" tgt="30" wght="-1.2950758440354693" />
    <Con id="2383" src="0" tgt="2382" wght="1.8676947937825001" />
    <Con id="2384" src="2382" tgt="6" wght="-3" />
    <Con id="2656" src="2382" tgt="4" wght="-0.43351192756274948" />
    <Con id="2750" src="1" tgt="2749" wght="-3" />
    <Con id="2751" src="2749" tgt="7" wght="-0.38853197479357204" />
    <Con id="3565" src="2" tgt="3564" wght="-0.5404758449749969" />
    <Con id="3566" src="3564" tgt="8" wght="-1.1799873870577131" />
    <Con id="4150" src="3564" tgt="14" wght="-1.7335136271241991" />
    <Con id="4180" src="3564" tgt="30" wght="-0.63256272027666549" />
    <Con id="4436" src="3564" tgt="21" wght="1.2884764946065843" />
    <Con id="4825" src="0" tgt="4824" wght="-0.10058548942140988" />
    <Con id="4826" src="4824" tgt="3" wght="1.6108848582197382" />
    <Con id="4899" src="4824" tgt="8" wght="-0.63389389265290708" />
    <Con id="5498" src="108" tgt="5497" wght="-1.9358321040881146" />
    <Con id="5499" src="5497" tgt="30" wght="3" />
    <Con id="6283" src="5497" tgt="25" wght="0.50671512447586564" />
    <Con id="6329" src="1166" tgt="5497" wght="-3" />
    <Con id="8444" src="0" tgt="8443" wght="2.8141874262986413" />
    <Con id="8445" src="8443" tgt="13" wght="1.9838073670279197" />
    <Con id="8783" src="1" tgt="8782" wght="0.59708421270398682" />
    <Con id="9300" src="8443" tgt="7" wght="2.1364741520773034" />
    <Con id="9681" src="2" tgt="9680" wght="-2.9998312348180374" />
    <Con id="9682" src="9680" tgt="21" wght="2.9996736041653485" />
    <Con id="10052" src="8782" tgt="10051" wght="-2.4030553768401512" />
    <Con id="10053" src="10051" tgt="15" wght="2.442181404611369" />
    <Con id="10231" src="2" tgt="10230" wght="1.1075146462264773" />
    <Con id="10232" src="10230" tgt="9" wght="2.9648794438922019" />
    <Con id="10233" src="10051" tgt="23" wght="2.2497129848691109" />
    <Con id="10367" src="1339" tgt="10366" wght="1.7258923361953218" />
    <Con id="10368" src="10366" tgt="108" wght="-2.1998773089784995" />
    <Con id="10694" src="1" tgt="10693" wght="-2.8124165805709431" />
    <Con id="10695" src="10693" tgt="9" wght="-0.81141549440571448" />
    <Con id="11414" src="2" tgt="11413" wght="1.1026203912827191" />
    <Con id="11415" src="11413" tgt="22" wght="-1.2815272448592636" />
    <Con id="11431" src="10366" tgt="10230" wght="0.035188189893659461" />
    <Con id="11438" src="8782" tgt="11437" wght="1.7443056939142769" />
    <Con id="11439" src="11437" tgt="10051" wght="-0.7501558408285276" />
    <Con id="11449" src="0" tgt="3" wght="0.69149363408955167" />
    <Con id="11467" src="3564" tgt="1140" wght="1.5188808579560413" />
    <Con id="11468" src="3564" tgt="4824" wght="-3" />
    <Con id="11489" src="2" tgt="11488" wght="2.9460854845403186" />
    <Con id="11490" src="11488" tgt="1073" wght="1.2845481866475064" />
    <Con id="11496" src="8782" tgt="4824" wght="-2.4556392003294616" />
    <Con id="11507" src="0" tgt="5497" wght="-1.2077083277088994" />
    <Con id="11510" src="2" tgt="2749" wght="-2.944809505506508" />
    <Con id="11524" src="31" tgt="2382" wght="0.742467875555539" />
    <Con id="11536" src="1140" tgt="11535" wght="0.24320644492749563" />
    <Con id="11537" src="11535" tgt="17" wght="2.9812648730191031" />
    <Con id="11539" src="10693" tgt="19" wght="1.9618559250709891" />
    <Con id="11542" src="1073" tgt="10693" wght="-0.82156396009048649" />
    <Con id="11547" src="108" tgt="10693" wght="0.73333869034442178" />
    <Con id="11557" src="10230" tgt="2382" wght="-0.67951421724806438" />
    <Con id="11582" src="1" tgt="11581" wght="1.9679278058343497" />
    <Con id="11583" src="11581" tgt="26" wght="-1.5829866542480886" />
    <Con id="11585" src="8443" tgt="20" wght="2.08986823996059" />
    <Con id="11599" src="1166" tgt="4" wght="1.989379702973586" />
    <Con id="11625" src="1073" tgt="26" wght="-2.8398626928551947" />
    <Con id="11637" src="11437" tgt="25" wght="2.2320538892658361" />
    <Con id="11705" src="2" tgt="9" wght="-0.631777400224928" />
    <Con id="11716" src="11437" tgt="9" wght="-1.9351655916020407" />
    <Con id="11718" src="9680" tgt="10366" wght="-2.0230420029860241" />
    <Con id="11763" src="0" tgt="11762" wght="0.233567072983315" />
    <Con id="11764" src="11762" tgt="25" wght="-1.3273064166656472" />
    <Con id="11789" src="2749" tgt="12" wght="3" />
    <Con id="11792" src="11535" tgt="10366" wght="-2.0440646133430889" />
    <Con id="11796" src="9680" tgt="1339" wght="-0.23926369333639741" />
    <Con id="11815" src="8443" tgt="4" wght="1.9390274172934496" />
    <Con id="11872" src="3564" tgt="12" wght="-0.067904742074138991" />
    <Con id="12038" src="9680" tgt="7" wght="2.2611486291613603" />
    <Con id="12050" src="12048" tgt="2749" wght="-0.56462709354307361" />
    <Con id="12091" src="1313" tgt="6" wght="-2.0182136810033318" />
    <Con id="12162" src="108" tgt="4" wght="-1.8069645606201072" />
    <Con id="12284" src="10051" tgt="14" wght="3" />
    <Con id="12301" src="108" tgt="2382" wght="2.7565453730848537" />
    <Con id="12302" src="31" tgt="10230" wght="-2.8470682706613113" />
    <Con id="12392" src="11762" tgt="5497" wght="-0.61546871195625386" />
    <Con id="12412" src="11437" tgt="10693" wght="0.092559474935637986" />
    <Con id="12422" src="2382" tgt="9" wght="3" />
    <Con id="12427" src="4824" tgt="8443" wght="-2.8316407028087811" />
    <Con id="12439" src="2" tgt="12438" wght="0.61709359215169679" />
    <Con id="12440" src="12438" tgt="10230" wght="1.5716625787838421" />
    <Con id="12469" src="1" tgt="12468" wght="-0.35558542091413453" />
    <Con id="12470" src="12468" tgt="3" wght="1.0184178622376312" />
    <Con id="12486" src="0" tgt="12485" wght="-0.030381234073447786" />
    <Con id="12487" src="12485" tgt="29" wght="3" />
    <Con id="12501" src="1339" tgt="108" wght="-0.67458497301211506" />
    <Con id="12513" src="12468" tgt="5497" wght="-0.7554871765896678" />
    <Con id="12521" src="0" tgt="12520" wght="1.2043321659380606" />
    <Con id="12522" src="12520" tgt="4" wght="3" />
    <Con id="12536" src="10051" tgt="7" wght="-1.3786527593076983" />
    <Con id="12545" src="10693" tgt="8443" wght="2.419634170446058" />
    <Con id="12577" src="1140" tgt="12576" wght="1.8200169095839143" />
    <Con id="12578" src="12576" tgt="108" wght="3" />
    <Con id="12692" src="12576" tgt="12" wght="0.91636176268253622" />
    <Con id="12772" src="10366" tgt="11581" wght="0.8687723047028415" />
    <Con id="12791" src="11413" tgt="12790" wght="-1.67639675659139" />
    <Con id="12792" src="12790" tgt="22" wght="2.9836424258668943" />
    <Con id="12888" src="5497" tgt="4" wght="-0.21793209614679523" />
    <Con id="12898" src="5497" tgt="11413" wght="-1.7133226339635148" />
    <Con id="12959" src="11413" tgt="20" wght="-1.8664734965869689" />
    <Con id="12963" src="0" tgt="12962" wght="0.012495111137181861" />
    <Con id="12964" src="12962" tgt="16" wght="1.0535692731529263" />
    <Con id="13015" src="12048" tgt="4824" wght="-0.40456672620150519" />
    <Con id="13176" src="2749" tgt="11762" wght="-0.99618318191646826" />
    <Con id="13567" src="1140" tgt="11581" wght="3" />
    <Con id="13771" src="12962" tgt="18" wght="-2.379490623510041" />
    <Con id="13968" src="12048" tgt="11762" wght="-1.2458814396522939" />
    <Con id="13986" src="4824" tgt="13985" wght="-0.76866501733407167" />
    <Con id="13987" src="13985" tgt="8" wght="3" />
    <Con id="14560" src="108" tgt="14559" wght="-2.8358399621580683" />
    <Con id="14561" src="14559" tgt="25" wght="2.9722886057030622" />
    <Con id="14751" src="31" tgt="14750" wght="-0.183025220579733" />
    <Con id="14752" src="14750" tgt="19" wght="3" />
    <Con id="14867" src="2" tgt="14866" wght="-1.4465659495261249" />
    <Con id="14868" src="14866" tgt="10" wght="2.2615631497900863" />
    <Con id="15097" src="1140" tgt="15096" wght="-3" />
    <Con id="15098" src="15096" tgt="21" wght="3" />
    <Con id="15361" src="10366" tgt="12576" wght="1.9762531290762126" />
    <Con id="15515" src="15096" tgt="1313" wght="-0.35899812960997224" />
  </Connections>
</Network>