<Network id="104452" birthGen="208" fitness="0.99912022054634519">
  <Nodes>
    <Node type="bias" id="0" fnId="0" />
    <Node type="in" id="1" fnId="0" />
    <Node type="in" id="2" fnId="0" />
    <Node type="out" id="3" fnId="0" />
    <Node type="out" id="4" fnId="0" />
    <Node type="out" id="5" fnId="0" />
    <Node type="out" id="6" fnId="0" />
    <Node type="out" id="7" fnId="0" />
    <Node type="out" id="8" fnId="0" />
    <Node type="out" id="9" fnId="0" />
    <Node type="out" id="10" fnId="0" />
    <Node type="out" id="11" fnId="0" />
    <Node type="out" id="12" fnId="0" />
    <Node type="out" id="13" fnId="0" />
    <Node type="out" id="14" fnId="0" />
    <Node type="out" id="15" fnId="0" />
    <Node type="out" id="16" fnId="0" />
    <Node type="out" id="17" fnId="0" />
    <Node type="out" id="18" fnId="0" />
    <Node type="out" id="19" fnId="0" />
    <Node type="out" id="20" fnId="0" />
    <Node type="out" id="21" fnId="0" />
    <Node type="out" id="22" fnId="0" />
    <Node type="out" id="23" fnId="0" />
    <Node type="out" id="24" fnId="0" />
    <Node type="out" id="25" fnId="0" />
    <Node type="out" id="26" fnId="0" />
    <Node type="out" id="27" fnId="0" />
    <Node type="out" id="28" fnId="0" />
    <Node type="out" id="29" fnId="0" />
    <Node type="out" id="30" fnId="0" />
    <Node type="hid" id="31" fnId="2" />
    <Node type="hid" id="113" fnId="1" />
    <Node type="hid" id="170" fnId="0" />
    <Node type="hid" id="785" fnId="3" />
    <Node type="hid" id="1748" fnId="1" />
    <Node type="hid" id="1870" fnId="0" />
    <Node type="hid" id="1887" fnId="1" />
    <Node type="hid" id="2265" fnId="1" />
    <Node type="hid" id="2322" fnId="2" />
    <Node type="hid" id="2493" fnId="1" />
    <Node type="hid" id="2512" fnId="2" />
    <Node type="hid" id="2550" fnId="0" />
  </Nodes>
  <Connections>
    <Con id="2" src="0" tgt="24" wght="-0.44510862660549461" />
    <Con id="4" src="1" tgt="31" wght="1.8990731347962511" />
    <Con id="5" src="2" tgt="31" wght="1.8107457479605573" />
    <Con id="6" src="31" tgt="21" wght="2.2560524756755265" />
    <Con id="7" src="31" tgt="24" wght="0.71991932944897463" />
    <Con id="9" src="1" tgt="3" wght="-1.4134092775900387" />
    <Con id="11" src="1" tgt="5" wght="3" />
    <Con id="12" src="1" tgt="6" wght="-1.3769402015022934" />
    <Con id="13" src="1" tgt="7" wght="-3" />
    <Con id="14" src="1" tgt="8" wght="2.3470128934295462" />
    <Con id="15" src="1" tgt="9" wght="0.55109664990786222" />
    <Con id="16" src="1" tgt="10" wght="0.21194111435199736" />
    <Con id="17" src="1" tgt="11" wght="-0.53381757122534845" />
    <Con id="18" src="1" tgt="12" wght="1.3725065295033794" />
    <Con id="19" src="1" tgt="13" wght="2.0445882388796095" />
    <Con id="20" src="1" tgt="14" wght="1.7328533395591326" />
    <Con id="21" src="1" tgt="15" wght="-0.45085247511262727" />
    <Con id="22" src="1" tgt="16" wght="0.91677965035696363" />
    <Con id="23" src="1" tgt="17" wght="1.6773272291439512" />
    <Con id="24" src="1" tgt="18" wght="0.57557746135458565" />
    <Con id="25" src="1" tgt="19" wght="2.8005312800767337" />
    <Con id="26" src="1" tgt="20" wght="3" />
    <Con id="27" src="1" tgt="21" wght="3" />
    <Con id="28" src="1" tgt="22" wght="2.0124604940827178" />
    <Con id="29" src="1" tgt="23" wght="2.753190076770013" />
    <Con id="30" src="1" tgt="24" wght="0.21382053122072911" />
    <Con id="31" src="1" tgt="25" wght="0.51045309534711492" />
    <Con id="33" src="1" tgt="27" wght="-0.44442575840680693" />
    <Con id="34" src="1" tgt="28" wght="0.86885448556742184" />
    <Con id="35" src="1" tgt="29" wght="0.010133013649762823" />
    <Con id="36" src="1" tgt="30" wght="-0.25008615525439382" />
    <Con id="37" src="2" tgt="3" wght="1.1201001509866602" />
    <Con id="38" src="2" tgt="4" wght="0.51824901372036147" />
    <Con id="39" src="2" tgt="5" wght="-2.9436983318206504" />
    <Con id="40" src="2" tgt="6" wght="1.7318682130426168" />
    <Con id="42" src="2" tgt="8" wght="2.972193184127351" />
    <Con id="43" src="2" tgt="9" wght="-0.98027980169988727" />
    <Con id="44" src="2" tgt="10" wght="2.7388755491254195" />
    <Con id="45" src="2" tgt="11" wght="-2.3243091765683963" />
    <Con id="47" src="2" tgt="13" wght="-0.50751629789637209" />
    <Con id="48" src="2" tgt="14" wght="0.013037892426410144" />
    <Con id="50" src="2" tgt="16" wght="-1.1786727736340708" />
    <Con id="51" src="2" tgt="17" wght="-2.9023834624713025" />
    <Con id="52" src="2" tgt="18" wght="1.3587453950156718" />
    <Con id="53" src="2" tgt="19" wght="3" />
    <Con id="54" src="2" tgt="20" wght="1.0528646568890916" />
    <Con id="55" src="2" tgt="21" wght="-2.0407453578871912" />
    <Con id="56" src="2" tgt="22" wght="0.0041274228602117546" />
    <Con id="57" src="2" tgt="23" wght="-0.16841912070034054" />
    <Con id="58" src="2" tgt="24" wght="0.0748394403398918" />
    <Con id="59" src="2" tgt="25" wght="1.3729951150746866" />
    <Con id="60" src="2" tgt="26" wght="1.771258957780339" />
    <Con id="61" src="2" tgt="27" wght="-0.75216053103892411" />
    <Con id="62" src="2" tgt="28" wght="2.5535099403932691" />
    <Con id="63" src="2" tgt="29" wght="0.18318756881603815" />
    <Con id="64" src="2" tgt="30" wght="0.587094338145107" />
    <Con id="65" src="0" tgt="3" wght="0.99295034022354634" />
    <Con id="66" src="0" tgt="4" wght="1.6864618482883107" />
    <Con id="67" src="0" tgt="5" wght="3" />
    <Con id="69" src="0" tgt="7" wght="-2.9245291462157037" />
    <Con id="70" src="0" tgt="8" wght="-1.3327353667307651" />
    <Con id="71" src="0" tgt="9" wght="-3" />
    <Con id="72" src="0" tgt="10" wght="3" />
    <Con id="73" src="0" tgt="11" wght="-2.0296829504287937" />
    <Con id="74" src="0" tgt="12" wght="0.78788207963394685" />
    <Con id="75" src="0" tgt="13" wght="-2.3363600598034524" />
    <Con id="76" src="0" tgt="14" wght="0.56586729212327036" />
    <Con id="77" src="0" tgt="15" wght="0.37794247158302186" />
    <Con id="78" src="0" tgt="16" wght="0.86490619296534144" />
    <Con id="79" src="0" tgt="17" wght="2.395915998461974" />
    <Con id="80" src="0" tgt="18" wght="-1.5843878476543856" />
    <Con id="82" src="0" tgt="20" wght="2.5170908577670184" />
    <Con id="83" src="0" tgt="22" wght="-2.9591044033857514" />
    <Con id="84" src="0" tgt="23" wght="2.8941568513400853" />
    <Con id="85" src="0" tgt="25" wght="0.0383517534227992" />
    <Con id="86" src="0" tgt="26" wght="-2.2987315508000457" />
    <Con id="87" src="0" tgt="28" wght="-0.8425550201511518" />
    <Con id="88" src="0" tgt="29" wght="2.3196055142469403" />
    <Con id="89" src="0" tgt="30" wght="-0.91731283535723585" />
    <Con id="94" src="31" tgt="28" wght="-2.0351222200502366" />
    <Con id="114" src="0" tgt="113" wght="-3" />
    <Con id="115" src="113" tgt="6" wght="1.5469841116898249" />
    <Con id="131" src="113" tgt="19" wght="1.6660696185081672" />
    <Con id="171" src="1" tgt="170" wght="0.033887471099554464" />
    <Con id="172" src="170" tgt="4" wght="3" />
    <Con id="194" src="1" tgt="26" wght="3" />
    <Con id="237" src="31" tgt="12" wght="0.65799234874428825" />
    <Con id="277" src="170" tgt="25" wght="-0.77976103253067852" />
    <Con id="284" src="170" tgt="3" wght="2.4574731501782341" />
    <Con id="356" src="113" tgt="4" wght="-1.1316297225954515" />
    <Con id="447" src="170" tgt="24" wght="1.1306604987525957" />
    <Con id="711" src="170" tgt="30" wght="2.1537436542090065" />
    <Con id="714" src="170" tgt="21" wght="-0.20257529235012983" />
    <Con id="786" src="0" tgt="785" wght="-1.0535656192706824" />
    <Con id="787" src="785" tgt="27" wght="1.6475003037782694" />
    <Con id="1118" src="785" tgt="9" wght="-2.2409216568350563" />
    <Con id="1144" src="785" tgt="3" wght="3" />
    <Con id="1195" src="170" tgt="785" wght="-0.85608562845564573" />
    <Con id="1406" src="170" tgt="14" wght="1.2877278442150937" />
    <Con id="1749" src="2" tgt="1748" wght="1.9493736703880131" />
    <Con id="1750" src="1748" tgt="7" wght="1.8107424094341695" />
    <Con id="1852" src="1748" tgt="23" wght="-1.7104585838546531" />
    <Con id="1854" src="1748" tgt="785" wght="0.0082904421840216819" />
    <Con id="1871" src="1" tgt="1870" wght="-2.7718143725762712" />
    <Con id="1872" src="1870" tgt="13" wght="-0.22335295798256993" />
    <Con id="1888" src="0" tgt="1887" wght="0.087696503251294466" />
    <Con id="1889" src="1887" tgt="16" wght="2.9813065887984078" />
    <Con id="1904" src="2" tgt="785" wght="-0.27938452644922707" />
    <Con id="1920" src="1887" tgt="9" wght="-2.6204977739269051" />
    <Con id="1927" src="1870" tgt="3" wght="-1.1206736849232972" />
    <Con id="1964" src="1887" tgt="1748" wght="-3" />
    <Con id="2018" src="1870" tgt="10" wght="2.7994934655681765" />
    <Con id="2029" src="1870" tgt="16" wght="0.18852690285209231" />
    <Con id="2172" src="113" tgt="1870" wght="-2.3167762707409962" />
    <Con id="2195" src="170" tgt="18" wght="-1.6452743603174926" />
    <Con id="2197" src="1" tgt="113" wght="2.3615792775411859" />
    <Con id="2206" src="785" tgt="28" wght="0.98145466358394629" />
    <Con id="2222" src="113" tgt="21" wght="-0.65640174904071635" />
    <Con id="2266" src="31" tgt="2265" wght="1.1265603746697575" />
    <Con id="2267" src="2265" tgt="27" wght="2.7394368076421665" />
    <Con id="2323" src="2" tgt="2322" wght="-0.48411264829337597" />
    <Con id="2324" src="2322" tgt="12" wght="2.3427260024473071" />
    <Con id="2389" src="170" tgt="7" wght="-2.5314267877320291" />
    <Con id="2494" src="0" tgt="2493" wght="-1.65782191497999" />
    <Con id="2495" src="2493" tgt="19" wght="1.660011556010252" />
    <Con id="2513" src="0" tgt="2512" wght="1.6982852118138849" />
    <Con id="2514" src="2512" tgt="21" wght="3" />
    <Con id="2536" src="1870" tgt="2493" wght="0.80338244570942108" />
    <Con id="2551" src="2" tgt="2550" wght="0.031253985186354673" />
    <Con id="2552" src="2550" tgt="15" wght="3" />
    <Con id="2569" src="1748" tgt="19" wght="0.43377883640782233" />
    <Con id="2617" src="170" tgt="22" wght="-1.2199152262082811" />
    <Con id="2964" src="2550" tgt="9" wght="-1.2763241383144637" />
    <Con id="2997" src="2550" tgt="26" wght="-1.7887742430903018" />
  </Connections>
</Network>