<Network id="1722396" birthGen="3506" fitness="0.99998269356366487">
  <Nodes>
    <Node type="bias" id="0" fnId="0" />
    <Node type="in" id="1" fnId="0" />
    <Node type="in" id="2" fnId="0" />
    <Node type="in" id="3" fnId="0" />
    <Node type="in" id="4" fnId="0" />
    <Node type="in" id="5" fnId="0" />
    <Node type="in" id="6" fnId="0" />
    <Node type="out" id="7" fnId="0" />
    <Node type="out" id="8" fnId="0" />
    <Node type="out" id="9" fnId="0" />
    <Node type="hid" id="10" fnId="2" />
    <Node type="hid" id="11" fnId="2" />
    <Node type="hid" id="38" fnId="2" />
    <Node type="hid" id="44" fnId="3" />
    <Node type="hid" id="66" fnId="0" />
    <Node type="hid" id="145" fnId="3" />
    <Node type="hid" id="184" fnId="1" />
    <Node type="hid" id="212" fnId="2" />
    <Node type="hid" id="249" fnId="0" />
    <Node type="hid" id="364" fnId="0" />
    <Node type="hid" id="410" fnId="0" />
    <Node type="hid" id="704" fnId="1" />
    <Node type="hid" id="1190" fnId="1" />
    <Node type="hid" id="1920" fnId="1" />
    <Node type="hid" id="1990" fnId="3" />
    <Node type="hid" id="2554" fnId="1" />
    <Node type="hid" id="2731" fnId="3" />
    <Node type="hid" id="2987" fnId="3" />
    <Node type="hid" id="3002" fnId="0" />
    <Node type="hid" id="3507" fnId="1" />
    <Node type="hid" id="3994" fnId="1" />
    <Node type="hid" id="4116" fnId="1" />
    <Node type="hid" id="4375" fnId="3" />
    <Node type="hid" id="4428" fnId="0" />
    <Node type="hid" id="4508" fnId="0" />
    <Node type="hid" id="4528" fnId="2" />
    <Node type="hid" id="4950" fnId="3" />
    <Node type="hid" id="5250" fnId="3" />
    <Node type="hid" id="5900" fnId="2" />
    <Node type="hid" id="6284" fnId="3" />
    <Node type="hid" id="6345" fnId="0" />
    <Node type="hid" id="6728" fnId="1" />
    <Node type="hid" id="7367" fnId="0" />
    <Node type="hid" id="7735" fnId="3" />
    <Node type="hid" id="7809" fnId="3" />
    <Node type="hid" id="8923" fnId="1" />
    <Node type="hid" id="9160" fnId="0" />
    <Node type="hid" id="9186" fnId="3" />
    <Node type="hid" id="9469" fnId="0" />
    <Node type="hid" id="9526" fnId="3" />
    <Node type="hid" id="9547" fnId="3" />
    <Node type="hid" id="9909" fnId="1" />
    <Node type="hid" id="10168" fnId="1" />
  </Nodes>
  <Connections>
    <Con id="1" src="0" tgt="9" wght="-0.88041316119727164" />
    <Con id="2" src="1" tgt="10" wght="1" />
    <Con id="3" src="2" tgt="11" wght="-0.94114683634501584" />
    <Con id="5" src="5" tgt="11" wght="-0.22855056143469127" />
    <Con id="6" src="10" tgt="9" wght="1" />
    <Con id="8" src="1" tgt="7" wght="-0.010627522278022192" />
    <Con id="9" src="1" tgt="8" wght="0.54923302042822675" />
    <Con id="10" src="2" tgt="7" wght="0.31496548454844858" />
    <Con id="11" src="2" tgt="8" wght="-1" />
    <Con id="12" src="3" tgt="7" wght="-0.09272631382158944" />
    <Con id="13" src="3" tgt="8" wght="0.13924660786640478" />
    <Con id="14" src="4" tgt="7" wght="-0.0049573883321163449" />
    <Con id="15" src="4" tgt="8" wght="0.20620165135719812" />
    <Con id="16" src="5" tgt="7" wght="-0.799156004216636" />
    <Con id="17" src="5" tgt="8" wght="0.006934791842949704" />
    <Con id="19" src="6" tgt="8" wght="-0.71894605020757363" />
    <Con id="20" src="0" tgt="7" wght="1" />
    <Con id="21" src="0" tgt="8" wght="-0.567136266182822" />
    <Con id="22" src="0" tgt="10" wght="-0.21059210419527033" />
    <Con id="23" src="0" tgt="11" wght="0.22937959807195957" />
    <Con id="27" src="1" tgt="9" wght="-0.039318174807041729" />
    <Con id="28" src="10" tgt="8" wght="-1" />
    <Con id="31" src="11" tgt="10" wght="0.69768527432921179" />
    <Con id="35" src="11" tgt="8" wght="-0.24575272158923187" />
    <Con id="40" src="38" tgt="9" wght="0.086109603963002351" />
    <Con id="45" src="3" tgt="44" wght="0.86555057201304364" />
    <Con id="53" src="6" tgt="10" wght="-0.95936811717526349" />
    <Con id="68" src="66" tgt="38" wght="-1" />
    <Con id="80" src="38" tgt="10" wght="0.18268099921626704" />
    <Con id="96" src="2" tgt="44" wght="0.88133593789246267" />
    <Con id="98" src="4" tgt="10" wght="-1" />
    <Con id="146" src="3" tgt="145" wght="0.79366657120930384" />
    <Con id="147" src="145" tgt="8" wght="0.43442906057884756" />
    <Con id="185" src="2" tgt="184" wght="1" />
    <Con id="186" src="184" tgt="11" wght="1" />
    <Con id="213" src="0" tgt="212" wght="1" />
    <Con id="214" src="212" tgt="9" wght="-0.44353750707565021" />
    <Con id="222" src="2" tgt="145" wght="1" />
    <Con id="250" src="145" tgt="249" wght="0.98249551795528378" />
    <Con id="251" src="249" tgt="8" wght="0.62819904359267043" />
    <Con id="281" src="184" tgt="8" wght="0.97374844533753613" />
    <Con id="295" src="212" tgt="7" wght="0.804019295745746" />
    <Con id="296" src="3" tgt="212" wght="0.33344117846113724" />
    <Con id="311" src="212" tgt="145" wght="-0.018543302331439304" />
    <Con id="365" src="2" tgt="364" wght="0.83823570872522035" />
    <Con id="366" src="364" tgt="11" wght="0.95380444163399225" />
    <Con id="411" src="44" tgt="410" wght="0.6139816478780924" />
    <Con id="412" src="410" tgt="8" wght="0.55881990170970286" />
    <Con id="464" src="5" tgt="364" wght="0.46936748237912956" />
    <Con id="518" src="11" tgt="212" wght="0.33586416249176915" />
    <Con id="531" src="44" tgt="249" wght="-0.89981162931119663" />
    <Con id="534" src="2" tgt="66" wght="0.82453530667619057" />
    <Con id="652" src="1" tgt="410" wght="0.64963279491313741" />
    <Con id="687" src="212" tgt="44" wght="-0.73395379838131958" />
    <Con id="705" src="0" tgt="704" wght="-0.5452331646467764" />
    <Con id="706" src="704" tgt="66" wght="0.81516988656710776" />
    <Con id="722" src="212" tgt="410" wght="0.60785988536223756" />
    <Con id="1191" src="11" tgt="1190" wght="0.28622131322750832" />
    <Con id="1552" src="3" tgt="410" wght="0.97385847344996312" />
    <Con id="1887" src="1190" tgt="8" wght="0.23144035314624448" />
    <Con id="1921" src="6" tgt="1920" wght="-0.041921435220357191" />
    <Con id="1922" src="1920" tgt="7" wght="0.78298060048751006" />
    <Con id="1991" src="10" tgt="1990" wght="-0.99437167444234853" />
    <Con id="1992" src="1990" tgt="249" wght="-1" />
    <Con id="2040" src="1920" tgt="10" wght="-0.257253670581321" />
    <Con id="2544" src="1990" tgt="212" wght="-0.19031441328126975" />
    <Con id="2555" src="11" tgt="2554" wght="0.73351060371297538" />
    <Con id="2556" src="2554" tgt="212" wght="0.99743532266428891" />
    <Con id="2579" src="6" tgt="704" wght="0.71124965677786878" />
    <Con id="2590" src="1990" tgt="410" wght="-0.03268601667352649" />
    <Con id="2591" src="44" tgt="8" wght="1" />
    <Con id="2618" src="1920" tgt="212" wght="0.99370144229478641" />
    <Con id="2623" src="1190" tgt="212" wght="-0.42578248966845172" />
    <Con id="2645" src="2" tgt="410" wght="-0.73991364482962285" />
    <Con id="2646" src="1" tgt="704" wght="-0.73788314554305445" />
    <Con id="2647" src="38" tgt="249" wght="1" />
    <Con id="2657" src="4" tgt="704" wght="0.6731004616637416" />
    <Con id="2678" src="184" tgt="410" wght="0.48070550832803344" />
    <Con id="2696" src="0" tgt="249" wght="0.69311840443286266" />
    <Con id="2701" src="1" tgt="249" wght="0.37009584642285503" />
    <Con id="2702" src="4" tgt="38" wght="0.13368534440587981" />
    <Con id="2732" src="1" tgt="2731" wght="0.080804338138635051" />
    <Con id="2733" src="2731" tgt="7" wght="1" />
    <Con id="2734" src="184" tgt="249" wght="0.55135358502943665" />
    <Con id="2763" src="11" tgt="1990" wght="0.38846917000486608" />
    <Con id="2796" src="184" tgt="704" wght="-0.59202088312390366" />
    <Con id="2882" src="184" tgt="212" wght="1" />
    <Con id="2896" src="212" tgt="249" wght="0.99356263815570545" />
    <Con id="2914" src="6" tgt="2554" wght="-0.029863130135341642" />
    <Con id="2915" src="0" tgt="1990" wght="-1" />
    <Con id="2959" src="2554" tgt="38" wght="-0.51741316769917467" />
    <Con id="2988" src="3" tgt="2987" wght="0.64996305078066929" />
    <Con id="2989" src="2987" tgt="44" wght="-1" />
    <Con id="3003" src="3" tgt="3002" wght="1" />
    <Con id="3004" src="3002" tgt="410" wght="0.35124230418541769" />
    <Con id="3068" src="2731" tgt="2554" wght="-0.40499732942361344" />
    <Con id="3508" src="11" tgt="3507" wght="0.1414218017496017" />
    <Con id="3509" src="3507" tgt="2554" wght="0.08301554573699832" />
    <Con id="3608" src="2731" tgt="184" wght="0.022297260708040865" />
    <Con id="3995" src="3" tgt="3994" wght="-0.86825059462871113" />
    <Con id="3996" src="3994" tgt="10" wght="1" />
    <Con id="4020" src="2" tgt="3002" wght="-1" />
    <Con id="4117" src="2554" tgt="4116" wght="0.98917791713923364" />
    <Con id="4118" src="4116" tgt="212" wght="1" />
    <Con id="4265" src="184" tgt="4116" wght="-0.95606865211452063" />
    <Con id="4376" src="184" tgt="4375" wght="-0.79292737106431122" />
    <Con id="4377" src="4375" tgt="249" wght="0.95207207459105769" />
    <Con id="4429" src="11" tgt="4428" wght="0.978511948410251" />
    <Con id="4430" src="4428" tgt="2554" wght="0.95640419788504061" />
    <Con id="4494" src="4375" tgt="145" wght="-0.986678458403625" />
    <Con id="4509" src="5" tgt="4508" wght="0.0069956779085685932" />
    <Con id="4510" src="4508" tgt="8" wght="1" />
    <Con id="4529" src="145" tgt="4528" wght="0.58621468405232735" />
    <Con id="4530" src="4528" tgt="249" wght="1" />
    <Con id="4577" src="2731" tgt="4528" wght="-0.34826974628491025" />
    <Con id="4610" src="2731" tgt="4508" wght="0.66934555806936735" />
    <Con id="4616" src="4508" tgt="4375" wght="0.63694055491404455" />
    <Con id="4708" src="4428" tgt="249" wght="0.30393181812176073" />
    <Con id="4740" src="4508" tgt="1190" wght="0.047699337216357274" />
    <Con id="4847" src="3994" tgt="38" wght="0.020213964840790629" />
    <Con id="4859" src="2554" tgt="410" wght="-0.17395609930573533" />
    <Con id="4893" src="10" tgt="4375" wght="-0.40569998794893863" />
    <Con id="4896" src="3507" tgt="3002" wght="-1" />
    <Con id="4916" src="2731" tgt="704" wght="-0.55321145954474038" />
    <Con id="4928" src="1920" tgt="3507" wght="-0.95041915979061786" />
    <Con id="4939" src="184" tgt="145" wght="0.606538590414659" />
    <Con id="4951" src="2554" tgt="4950" wght="-0.0945204404618189" />
    <Con id="4952" src="4950" tgt="410" wght="0.16867357897022717" />
    <Con id="4968" src="6" tgt="145" wght="0.91893116733483438" />
    <Con id="4973" src="6" tgt="7" wght="-0.25026065374037104" />
    <Con id="4981" src="3002" tgt="8" wght="-0.15841653477400541" />
    <Con id="5013" src="4" tgt="1990" wght="-0.29716958757377504" />
    <Con id="5020" src="3507" tgt="249" wght="0.12757521315528964" />
    <Con id="5057" src="44" tgt="4528" wght="-0.9321620340667166" />
    <Con id="5075" src="1190" tgt="1990" wght="0.62657639794584818" />
    <Con id="5103" src="3994" tgt="4375" wght="0.60399480217026014" />
    <Con id="5132" src="2731" tgt="145" wght="0.25028768515020872" />
    <Con id="5136" src="2" tgt="4116" wght="0.80308104446853568" />
    <Con id="5140" src="3994" tgt="2987" wght="-0.81514516056114839" />
    <Con id="5173" src="1" tgt="2987" wght="1" />
    <Con id="5213" src="3002" tgt="4528" wght="-0.62831524298946784" />
    <Con id="5228" src="212" tgt="4375" wght="-0.84462659067335866" />
    <Con id="5237" src="2" tgt="2987" wght="-0.98990827715847052" />
    <Con id="5251" src="1190" tgt="5250" wght="-0.82975243910389385" />
    <Con id="5252" src="5250" tgt="38" wght="1" />
    <Con id="5253" src="4528" tgt="7" wght="-0.07068080315144637" />
    <Con id="5292" src="5250" tgt="145" wght="-0.40372157613394405" />
    <Con id="5319" src="212" tgt="2987" wght="-0.32940071521952025" />
    <Con id="5358" src="704" tgt="3002" wght="0.081033918767920377" />
    <Con id="5360" src="4116" tgt="4375" wght="0.066416897023240745" />
    <Con id="5402" src="3994" tgt="4950" wght="0.96279332443398624" />
    <Con id="5412" src="704" tgt="4528" wght="0.45177063868769879" />
    <Con id="5418" src="2731" tgt="4116" wght="0.78818320594763969" />
    <Con id="5638" src="2731" tgt="1990" wght="-0.76324857440601468" />
    <Con id="5828" src="184" tgt="2987" wght="-0.047226233887518655" />
    <Con id="5894" src="10" tgt="4950" wght="0.0083440988047709854" />
    <Con id="5901" src="2" tgt="5900" wght="0.40891740269830407" />
    <Con id="5909" src="2731" tgt="249" wght="-1" />
    <Con id="6146" src="1190" tgt="3002" wght="-0.43878507863620281" />
    <Con id="6285" src="1" tgt="6284" wght="0.61893924379323761" />
    <Con id="6309" src="38" tgt="6284" wght="-0.12039535684118707" />
    <Con id="6346" src="1920" tgt="6345" wght="-0.96036190689664225" />
    <Con id="6347" src="6345" tgt="9" wght="1" />
    <Con id="6689" src="2731" tgt="4950" wght="0.90126055525615811" />
    <Con id="6717" src="2731" tgt="6284" wght="0.27776489661142123" />
    <Con id="6726" src="2731" tgt="5900" wght="-0.37798607639503046" />
    <Con id="6727" src="145" tgt="5900" wght="0.29802993677258871" />
    <Con id="6729" src="38" tgt="6728" wght="-0.34542915652552225" />
    <Con id="6730" src="6728" tgt="1990" wght="0.97436383192050591" />
    <Con id="6999" src="6345" tgt="3994" wght="0.017027622554451227" />
    <Con id="7072" src="1920" tgt="5900" wght="-0.24358826160765854" />
    <Con id="7077" src="6345" tgt="66" wght="0.51220530085349358" />
    <Con id="7127" src="5900" tgt="4528" wght="0.402535949301525" />
    <Con id="7368" src="3" tgt="7367" wght="0.97405788056427134" />
    <Con id="7369" src="7367" tgt="145" wght="1" />
    <Con id="7736" src="1" tgt="7735" wght="0.00666401366586113" />
    <Con id="7737" src="7735" tgt="2731" wght="0.94110066001949133" />
    <Con id="7810" src="184" tgt="7809" wght="-0.43765568524031451" />
    <Con id="7811" src="7809" tgt="249" wght="1" />
    <Con id="7901" src="7809" tgt="2987" wght="0.88034309904762509" />
    <Con id="7992" src="6284" tgt="8" wght="0.69693207181990147" />
    <Con id="8159" src="7735" tgt="2987" wght="0.83848662006841468" />
    <Con id="8924" src="1190" tgt="8923" wght="0.30665992903412442" />
    <Con id="8925" src="8923" tgt="9" wght="0.99673165327248126" />
    <Con id="9161" src="4508" tgt="9160" wght="-0.3808436580876341" />
    <Con id="9162" src="9160" tgt="4375" wght="-1" />
    <Con id="9187" src="3" tgt="9186" wght="1" />
    <Con id="9188" src="9186" tgt="44" wght="0.039450608259903361" />
    <Con id="9217" src="7367" tgt="7809" wght="0.79508007597178221" />
    <Con id="9370" src="7735" tgt="66" wght="-0.9929160982066132" />
    <Con id="9416" src="9160" tgt="7809" wght="-0.27485695690256384" />
    <Con id="9470" src="184" tgt="9469" wght="-0.15894459881808018" />
    <Con id="9471" src="9469" tgt="8" wght="0.25522121575013407" />
    <Con id="9527" src="2731" tgt="9526" wght="1" />
    <Con id="9528" src="9526" tgt="249" wght="0.91394944861531258" />
    <Con id="9548" src="2731" tgt="9547" wght="0.090279703458689" />
    <Con id="9549" src="9547" tgt="184" wght="0.25221766715304195" />
    <Con id="9910" src="6284" tgt="9909" wght="1" />
    <Con id="9911" src="9909" tgt="212" wght="1" />
    <Con id="10169" src="66" tgt="10168" wght="-0.27712940053040386" />
    <Con id="10170" src="10168" tgt="364" wght="0.98771556675000294" />
  </Connections>
</Network>