<Network id="53427" birthGen="100" fitness="0.99972289766742262">
  <Nodes>
    <Node type="bias" id="0" fnId="0" />
    <Node type="in" id="1" fnId="0" />
    <Node type="in" id="2" fnId="0" />
    <Node type="in" id="3" fnId="0" />
    <Node type="in" id="4" fnId="0" />
    <Node type="in" id="5" fnId="0" />
    <Node type="in" id="6" fnId="0" />
    <Node type="out" id="7" fnId="0" />
    <Node type="out" id="8" fnId="0" />
    <Node type="out" id="9" fnId="0" />
    <Node type="hid" id="10" fnId="2" />
    <Node type="hid" id="11" fnId="2" />
    <Node type="hid" id="38" fnId="0" />
    <Node type="hid" id="53" fnId="2" />
    <Node type="hid" id="132" fnId="1" />
    <Node type="hid" id="272" fnId="1" />
    <Node type="hid" id="689" fnId="1" />
    <Node type="hid" id="1022" fnId="1" />
    <Node type="hid" id="1029" fnId="1" />
    <Node type="hid" id="1081" fnId="0" />
    <Node type="hid" id="1117" fnId="3" />
    <Node type="hid" id="1136" fnId="3" />
    <Node type="hid" id="1292" fnId="0" />
    <Node type="hid" id="1546" fnId="3" />
    <Node type="hid" id="1610" fnId="0" />
    <Node type="hid" id="1743" fnId="0" />
    <Node type="hid" id="1988" fnId="1" />
    <Node type="hid" id="2079" fnId="3" />
    <Node type="hid" id="3083" fnId="1" />
    <Node type="hid" id="4184" fnId="3" />
    <Node type="hid" id="4868" fnId="1" />
  </Nodes>
  <Connections>
    <Con id="2" src="1" tgt="10" wght="0.99719711406319356" />
    <Con id="3" src="2" tgt="11" wght="0.76190386286800438" />
    <Con id="4" src="4" tgt="10" wght="-1" />
    <Con id="5" src="5" tgt="11" wght="-0.64984785731141881" />
    <Con id="7" src="11" tgt="9" wght="1" />
    <Con id="8" src="1" tgt="7" wght="-0.012689688040207516" />
    <Con id="10" src="2" tgt="7" wght="0.25133713000172153" />
    <Con id="11" src="2" tgt="8" wght="1" />
    <Con id="12" src="3" tgt="7" wght="-0.90989311409442564" />
    <Con id="13" src="3" tgt="8" wght="0.42645762545324561" />
    <Con id="14" src="4" tgt="7" wght="-0.33704232899281128" />
    <Con id="15" src="4" tgt="8" wght="-0.3986749372816632" />
    <Con id="16" src="5" tgt="7" wght="-0.6496621450009793" />
    <Con id="18" src="6" tgt="7" wght="0.20492788086527317" />
    <Con id="20" src="0" tgt="7" wght="-0.95181776880227187" />
    <Con id="21" src="0" tgt="8" wght="-0.59330918355157236" />
    <Con id="22" src="0" tgt="10" wght="-0.11110181104349383" />
    <Con id="23" src="0" tgt="11" wght="0.066991276402018324" />
    <Con id="26" src="2" tgt="9" wght="0.76411182020013158" />
    <Con id="27" src="11" tgt="8" wght="0.32463065314789208" />
    <Con id="28" src="11" tgt="7" wght="-0.31249553920011863" />
    <Con id="31" src="10" tgt="7" wght="-0.29956681289816856" />
    <Con id="37" src="10" tgt="11" wght="1" />
    <Con id="39" src="4" tgt="38" wght="0.41254950099560456" />
    <Con id="47" src="5" tgt="9" wght="-0.71263323144275226" />
    <Con id="54" src="2" tgt="53" wght="-0.20450390907424787" />
    <Con id="55" src="53" tgt="8" wght="0.43588833918216341" />
    <Con id="108" src="11" tgt="53" wght="0.97797730733745125" />
    <Con id="109" src="53" tgt="38" wght="-0.84207847389910218" />
    <Con id="133" src="6" tgt="132" wght="0.1594226601460963" />
    <Con id="134" src="132" tgt="10" wght="0.97384013975513606" />
    <Con id="233" src="132" tgt="9" wght="-0.55431187416593253" />
    <Con id="273" src="5" tgt="272" wght="0.39020193499009087" />
    <Con id="274" src="272" tgt="8" wght="0.52340685250237584" />
    <Con id="285" src="3" tgt="53" wght="-0.51764011970870916" />
    <Con id="424" src="272" tgt="53" wght="0.31639877363664087" />
    <Con id="690" src="0" tgt="689" wght="-1" />
    <Con id="691" src="689" tgt="9" wght="1" />
    <Con id="700" src="11" tgt="689" wght="-0.56005180236036056" />
    <Con id="767" src="272" tgt="689" wght="1" />
    <Con id="851" src="689" tgt="8" wght="-0.97050984711125954" />
    <Con id="880" src="38" tgt="689" wght="0.83272474168665811" />
    <Con id="1023" src="132" tgt="1022" wght="0.73455562256276608" />
    <Con id="1024" src="1022" tgt="272" wght="0.9992180183999011" />
    <Con id="1030" src="5" tgt="1029" wght="-0.37750931224843226" />
    <Con id="1031" src="1029" tgt="10" wght="0.97282241107411138" />
    <Con id="1073" src="1022" tgt="689" wght="0.14841094322154969" />
    <Con id="1082" src="10" tgt="1081" wght="-0.14872601122472531" />
    <Con id="1083" src="1081" tgt="7" wght="-0.35073254517912267" />
    <Con id="1107" src="2" tgt="689" wght="1" />
    <Con id="1108" src="1022" tgt="38" wght="-0.97394243670453662" />
    <Con id="1118" src="6" tgt="1117" wght="0.12557443953578737" />
    <Con id="1119" src="1117" tgt="132" wght="-0.73821870242944432" />
    <Con id="1122" src="1022" tgt="7" wght="-0.73354302755771361" />
    <Con id="1138" src="1136" tgt="9" wght="0.076442828507929939" />
    <Con id="1142" src="6" tgt="689" wght="0.99315621323728343" />
    <Con id="1147" src="1117" tgt="1029" wght="-1" />
    <Con id="1211" src="1081" tgt="9" wght="-0.959819118379251" />
    <Con id="1212" src="1029" tgt="1022" wght="0.19653552649110004" />
    <Con id="1249" src="1022" tgt="10" wght="0.37386991921812296" />
    <Con id="1278" src="689" tgt="1136" wght="0.93122130587074448" />
    <Con id="1293" src="11" tgt="1292" wght="0.55079027130168579" />
    <Con id="1294" src="1292" tgt="1136" wght="0.95307379476796728" />
    <Con id="1309" src="1022" tgt="8" wght="-1" />
    <Con id="1426" src="2" tgt="1136" wght="0.96270380867645144" />
    <Con id="1440" src="1022" tgt="53" wght="-0.77844626629750069" />
    <Con id="1441" src="272" tgt="1136" wght="-0.58437211962675129" />
    <Con id="1547" src="38" tgt="1546" wght="0.97615482565719591" />
    <Con id="1548" src="1546" tgt="7" wght="0.54597343565884815" />
    <Con id="1611" src="1022" tgt="1610" wght="1" />
    <Con id="1612" src="1610" tgt="689" wght="0.080197827259799612" />
    <Con id="1652" src="10" tgt="1546" wght="-0.15745275236650086" />
    <Con id="1674" src="1081" tgt="1136" wght="-0.75946840131655335" />
    <Con id="1715" src="1" tgt="1136" wght="-0.017485389518711817" />
    <Con id="1736" src="1546" tgt="1292" wght="-0.09151325322084751" />
    <Con id="1744" src="10" tgt="1743" wght="0.1937120138105986" />
    <Con id="1745" src="1743" tgt="9" wght="0.86697977324025" />
    <Con id="1750" src="1081" tgt="38" wght="0.82043678530441333" />
    <Con id="1802" src="1029" tgt="1743" wght="-0.029917331657823468" />
    <Con id="1838" src="1610" tgt="1136" wght="-0.9921460168288152" />
    <Con id="1888" src="1117" tgt="1136" wght="-0.029048142299608476" />
    <Con id="1922" src="0" tgt="1136" wght="-0.0632874954664382" />
    <Con id="1966" src="1743" tgt="38" wght="-0.99427701799307788" />
    <Con id="1987" src="1117" tgt="1546" wght="-1" />
    <Con id="1989" src="6" tgt="1988" wght="0.30215460089290208" />
    <Con id="1990" src="1988" tgt="8" wght="1" />
    <Con id="2080" src="1" tgt="2079" wght="0.10901713741301677" />
    <Con id="2081" src="2079" tgt="8" wght="0.57272225852131675" />
    <Con id="2092" src="1117" tgt="1610" wght="-1" />
    <Con id="2182" src="1743" tgt="7" wght="1" />
    <Con id="2210" src="1546" tgt="1136" wght="-0.82380352613866692" />
    <Con id="2964" src="1081" tgt="2079" wght="-1" />
    <Con id="3063" src="1136" tgt="2079" wght="-0.96550562327633238" />
    <Con id="3080" src="10" tgt="1610" wght="0.48466722945980351" />
    <Con id="3084" src="4" tgt="3083" wght="-0.42157535598943" />
    <Con id="3085" src="3083" tgt="38" wght="0.97608548625929614" />
    <Con id="3626" src="1081" tgt="3083" wght="-0.30009124202913023" />
    <Con id="4185" src="2" tgt="4184" wght="-0.037744850547960541" />
    <Con id="4186" src="4184" tgt="7" wght="0.70242715673521161" />
    <Con id="4533" src="4184" tgt="1610" wght="-0.45887194651754026" />
    <Con id="4772" src="2" tgt="3083" wght="-0.98595702175604838" />
    <Con id="4773" src="4184" tgt="10" wght="0.67871108896785082" />
    <Con id="4786" src="1292" tgt="7" wght="0.2338579329662025" />
    <Con id="4792" src="1022" tgt="3083" wght="-0.98196035949513316" />
    <Con id="4798" src="10" tgt="689" wght="0.90513368916014525" />
    <Con id="4847" src="1292" tgt="1610" wght="0.048379755578935146" />
    <Con id="4869" src="1988" tgt="4868" wght="-0.54691134858876467" />
    <Con id="4870" src="4868" tgt="1610" wght="0.759341150277538" />
    <Con id="4898" src="272" tgt="38" wght="-0.45415937621146441" />
    <Con id="4910" src="132" tgt="689" wght="0.56001544464379549" />
  </Connections>
</Network>