<Network id="5721" birthGen="8" fitness="0.99999997999219459">
  <Nodes>
    <Node type="bias" id="0" fnId="0" />
    <Node type="in" id="1" fnId="0" />
    <Node type="in" id="2" fnId="0" />
    <Node type="in" id="3" fnId="0" />
    <Node type="in" id="4" fnId="0" />
    <Node type="in" id="5" fnId="0" />
    <Node type="in" id="6" fnId="0" />
    <Node type="out" id="7" fnId="0" />
    <Node type="out" id="8" fnId="0" />
    <Node type="out" id="9" fnId="0" />
    <Node type="hid" id="10" fnId="2" />
    <Node type="hid" id="11" fnId="2" />
    <Node type="hid" id="27" fnId="2" />
    <Node type="hid" id="31" fnId="1" />
    <Node type="hid" id="1252" fnId="3" />
    <Node type="hid" id="1276" fnId="1" />
    <Node type="hid" id="1308" fnId="1" />
    <Node type="hid" id="1399" fnId="1" />
    <Node type="hid" id="1627" fnId="3" />
  </Nodes>
  <Connections>
    <Con id="1" src="0" tgt="9" wght="-0.78152563935145736" />
    <Con id="2" src="1" tgt="10" wght="0.94920466142346949" />
    <Con id="3" src="2" tgt="11" wght="0.22811156674662914" />
    <Con id="4" src="4" tgt="10" wght="-0.93958149964967741" />
    <Con id="5" src="5" tgt="11" wght="-1" />
    <Con id="6" src="10" tgt="9" wght="0.78721568081527948" />
    <Con id="7" src="11" tgt="9" wght="0.10361034881948605" />
    <Con id="8" src="1" tgt="7" wght="-1" />
    <Con id="9" src="1" tgt="8" wght="0.48286605952307582" />
    <Con id="10" src="2" tgt="7" wght="0.97113173548157694" />
    <Con id="11" src="2" tgt="8" wght="-0.75316031277179718" />
    <Con id="12" src="3" tgt="7" wght="-0.51565496330424654" />
    <Con id="13" src="3" tgt="8" wght="1" />
    <Con id="14" src="4" tgt="7" wght="0.992986446177408" />
    <Con id="15" src="4" tgt="8" wght="0.0588211157009951" />
    <Con id="16" src="5" tgt="7" wght="0.050877643456323188" />
    <Con id="18" src="6" tgt="7" wght="-1" />
    <Con id="19" src="6" tgt="8" wght="-0.074236293939509354" />
    <Con id="21" src="0" tgt="8" wght="0.018240662660090411" />
    <Con id="22" src="0" tgt="10" wght="-0.0055887248478805589" />
    <Con id="23" src="0" tgt="11" wght="1" />
    <Con id="28" src="5" tgt="27" wght="-0.43706351950876809" />
    <Con id="29" src="27" tgt="8" wght="0.33038881512266849" />
    <Con id="30" src="4" tgt="11" wght="-0.97037797171593509" />
    <Con id="32" src="0" tgt="31" wght="-0.048138483207882776" />
    <Con id="33" src="31" tgt="7" wght="0.68624682212248445" />
    <Con id="58" src="11" tgt="10" wght="-0.47821409761628314" />
    <Con id="80" src="27" tgt="11" wght="0.44924312869394872" />
    <Con id="115" src="27" tgt="31" wght="0.382724606392667" />
    <Con id="116" src="1" tgt="11" wght="0.31338684108158238" />
    <Con id="178" src="1" tgt="27" wght="0.97015242596662143" />
    <Con id="412" src="5" tgt="31" wght="-0.63941833004355431" />
    <Con id="428" src="10" tgt="31" wght="-0.98563629837829969" />
    <Con id="439" src="11" tgt="31" wght="0.37443754578051508" />
    <Con id="475" src="3" tgt="31" wght="-0.89412978497096252" />
    <Con id="1253" src="2" tgt="1252" wght="0.040520407162976238" />
    <Con id="1254" src="1252" tgt="7" wght="0.95097860012370061" />
    <Con id="1277" src="1" tgt="1276" wght="-0.61001433112100611" />
    <Con id="1278" src="1276" tgt="8" wght="0.9938895174640443" />
    <Con id="1286" src="10" tgt="1252" wght="0.25351855752391256" />
    <Con id="1305" src="1276" tgt="1252" wght="0.99865740187307361" />
    <Con id="1309" src="0" tgt="1308" wght="-0.018030265165120869" />
    <Con id="1310" src="1308" tgt="10" wght="0.52826010228831788" />
    <Con id="1391" src="1308" tgt="27" wght="0.16132431756705046" />
    <Con id="1400" src="2" tgt="1399" wght="0.064702107288906727" />
    <Con id="1401" src="1399" tgt="1252" wght="-0.80597018661345865" />
    <Con id="1403" src="11" tgt="1252" wght="-0.92586415993989246" />
    <Con id="1407" src="1399" tgt="10" wght="-0.2326256447395712" />
    <Con id="1474" src="1276" tgt="1399" wght="-0.0074698119424283504" />
    <Con id="1481" src="1276" tgt="11" wght="0.081689233060523447" />
    <Con id="1491" src="1399" tgt="31" wght="-0.49964986474867262" />
    <Con id="1628" src="0" tgt="1627" wght="0.051314228129889547" />
    <Con id="1629" src="1627" tgt="8" wght="0.76748725188637246" />
    <Con id="1651" src="1627" tgt="27" wght="-0.56175084563437838" />
    <Con id="1652" src="1276" tgt="7" wght="-0.65076883276924491" />
  </Connections>
</Network>