<Network id="45340" birthGen="82" fitness="0.99999998753143449">
  <Nodes>
    <Node type="bias" id="0" fnId="0" />
    <Node type="in" id="1" fnId="0" />
    <Node type="in" id="2" fnId="0" />
    <Node type="in" id="3" fnId="0" />
    <Node type="in" id="4" fnId="0" />
    <Node type="in" id="5" fnId="0" />
    <Node type="in" id="6" fnId="0" />
    <Node type="out" id="7" fnId="0" />
    <Node type="out" id="8" fnId="0" />
    <Node type="out" id="9" fnId="0" />
    <Node type="hid" id="10" fnId="2" />
    <Node type="hid" id="11" fnId="2" />
    <Node type="hid" id="295" fnId="2" />
    <Node type="hid" id="309" fnId="1" />
    <Node type="hid" id="382" fnId="1" />
    <Node type="hid" id="389" fnId="1" />
    <Node type="hid" id="421" fnId="0" />
    <Node type="hid" id="507" fnId="1" />
    <Node type="hid" id="613" fnId="1" />
    <Node type="hid" id="679" fnId="2" />
    <Node type="hid" id="686" fnId="1" />
    <Node type="hid" id="901" fnId="0" />
    <Node type="hid" id="1141" fnId="1" />
    <Node type="hid" id="1322" fnId="3" />
    <Node type="hid" id="1406" fnId="0" />
    <Node type="hid" id="1469" fnId="1" />
    <Node type="hid" id="1703" fnId="1" />
    <Node type="hid" id="1737" fnId="0" />
    <Node type="hid" id="2032" fnId="1" />
    <Node type="hid" id="2058" fnId="1" />
    <Node type="hid" id="2254" fnId="2" />
    <Node type="hid" id="2487" fnId="1" />
    <Node type="hid" id="2567" fnId="3" />
    <Node type="hid" id="2576" fnId="1" />
    <Node type="hid" id="2957" fnId="1" />
    <Node type="hid" id="2963" fnId="0" />
    <Node type="hid" id="3044" fnId="2" />
    <Node type="hid" id="3086" fnId="3" />
    <Node type="hid" id="3156" fnId="0" />
    <Node type="hid" id="3480" fnId="3" />
    <Node type="hid" id="4122" fnId="0" />
    <Node type="hid" id="4226" fnId="1" />
    <Node type="hid" id="4334" fnId="2" />
    <Node type="hid" id="4839" fnId="1" />
    <Node type="hid" id="4955" fnId="1" />
  </Nodes>
  <Connections>
    <Con id="2" src="1" tgt="10" wght="1" />
    <Con id="3" src="2" tgt="11" wght="0.61792227407235623" />
    <Con id="4" src="4" tgt="10" wght="-0.9753231985947054" />
    <Con id="5" src="5" tgt="11" wght="-0.34741629012825015" />
    <Con id="6" src="10" tgt="9" wght="0.97506097227981248" />
    <Con id="7" src="11" tgt="9" wght="0.5418515285461285" />
    <Con id="8" src="1" tgt="7" wght="0.23668580588013705" />
    <Con id="10" src="2" tgt="7" wght="-0.099670052618904367" />
    <Con id="11" src="2" tgt="8" wght="-0.960615001062835" />
    <Con id="12" src="3" tgt="7" wght="0.92243605765450409" />
    <Con id="13" src="3" tgt="8" wght="-0.975888588725166" />
    <Con id="14" src="4" tgt="7" wght="0.10457748635709172" />
    <Con id="15" src="4" tgt="8" wght="0.0881714124915253" />
    <Con id="17" src="5" tgt="8" wght="0.067123397465057411" />
    <Con id="20" src="0" tgt="7" wght="0.39513783501667543" />
    <Con id="21" src="0" tgt="8" wght="-0.13517271105986908" />
    <Con id="22" src="0" tgt="10" wght="-0.0028314602600237153" />
    <Con id="28" src="11" tgt="10" wght="-0.713150924770011" />
    <Con id="55" src="10" tgt="7" wght="-0.31699923230614258" />
    <Con id="94" src="4" tgt="9" wght="0.026566101079833964" />
    <Con id="268" src="1" tgt="8" wght="-0.27046294775698132" />
    <Con id="296" src="3" tgt="295" wght="0.9007411836466872" />
    <Con id="297" src="295" tgt="7" wght="-1" />
    <Con id="310" src="5" tgt="309" wght="-0.0061252882019310895" />
    <Con id="311" src="309" tgt="11" wght="0.86119544051258179" />
    <Con id="347" src="295" tgt="309" wght="-0.20798659697175026" />
    <Con id="383" src="4" tgt="382" wght="-0.014556197961063683" />
    <Con id="384" src="382" tgt="10" wght="0.86608614758957314" />
    <Con id="390" src="2" tgt="389" wght="0.954203663047358" />
    <Con id="391" src="389" tgt="7" wght="0.888782315190206" />
    <Con id="396" src="5" tgt="295" wght="-1" />
    <Con id="412" src="1" tgt="295" wght="-0.85478559074494453" />
    <Con id="422" src="295" tgt="421" wght="0.39645157875802584" />
    <Con id="423" src="421" tgt="7" wght="0.59212698614714976" />
    <Con id="489" src="4" tgt="309" wght="-0.15776682814084239" />
    <Con id="503" src="4" tgt="421" wght="-0.022506737113948006" />
    <Con id="508" src="11" tgt="507" wght="-1" />
    <Con id="509" src="507" tgt="9" wght="1" />
    <Con id="526" src="382" tgt="11" wght="-0.58871839754283428" />
    <Con id="563" src="295" tgt="507" wght="-0.0925682022560097" />
    <Con id="595" src="4" tgt="389" wght="0.066709900056699384" />
    <Con id="601" src="382" tgt="389" wght="0.35426957268351045" />
    <Con id="614" src="6" tgt="613" wght="0.010223503382660449" />
    <Con id="615" src="613" tgt="8" wght="-1" />
    <Con id="658" src="382" tgt="507" wght="-0.97623029435795428" />
    <Con id="680" src="3" tgt="679" wght="0.027405628472118432" />
    <Con id="681" src="679" tgt="295" wght="0.9081178189397825" />
    <Con id="687" src="2" tgt="686" wght="0.24552537906628832" />
    <Con id="688" src="686" tgt="7" wght="0.59844242479190768" />
    <Con id="724" src="613" tgt="7" wght="-0.0076413219093654228" />
    <Con id="726" src="613" tgt="9" wght="-0.017391696694032243" />
    <Con id="751" src="421" tgt="309" wght="-0.78973584016785026" />
    <Con id="770" src="613" tgt="389" wght="-0.0058190614741775171" />
    <Con id="870" src="686" tgt="309" wght="1" />
    <Con id="902" src="3" tgt="901" wght="0.98484911111690743" />
    <Con id="903" src="901" tgt="8" wght="0.78265688537162037" />
    <Con id="1110" src="382" tgt="901" wght="-0.44058629788743142" />
    <Con id="1143" src="1141" tgt="9" wght="0.99482110055566164" />
    <Con id="1175" src="613" tgt="421" wght="1" />
    <Con id="1221" src="901" tgt="309" wght="-0.20906082274629612" />
    <Con id="1291" src="1" tgt="901" wght="0.155115970220071" />
    <Con id="1298" src="2" tgt="613" wght="-0.057975303875376208" />
    <Con id="1323" src="0" tgt="1322" wght="-0.93310664675002708" />
    <Con id="1324" src="1322" tgt="11" wght="0.969178085202949" />
    <Con id="1407" src="1" tgt="1406" wght="1" />
    <Con id="1408" src="1406" tgt="8" wght="-0.55546607493986766" />
    <Con id="1470" src="5" tgt="1469" wght="-0.93126079483384439" />
    <Con id="1509" src="309" tgt="1322" wght="-1" />
    <Con id="1529" src="686" tgt="11" wght="-1" />
    <Con id="1675" src="1141" tgt="1469" wght="0.99021482595700849" />
    <Con id="1704" src="11" tgt="1703" wght="0.27117314097048695" />
    <Con id="1705" src="1703" tgt="7" wght="0.53486742661460851" />
    <Con id="1738" src="382" tgt="1737" wght="0.67282587541138161" />
    <Con id="1739" src="1737" tgt="8" wght="0.99931518417519016" />
    <Con id="1816" src="1737" tgt="295" wght="0.5016510999596957" />
    <Con id="1838" src="1" tgt="1469" wght="-0.85753272840756078" />
    <Con id="1894" src="10" tgt="1469" wght="0.27754107197079914" />
    <Con id="2024" src="295" tgt="1703" wght="0.44962076252023681" />
    <Con id="2033" src="1469" tgt="2032" wght="1" />
    <Con id="2034" src="2032" tgt="7" wght="1" />
    <Con id="2059" src="0" tgt="2058" wght="-0.95996982286615085" />
    <Con id="2060" src="2058" tgt="1141" wght="1" />
    <Con id="2085" src="11" tgt="1469" wght="0.82984995244047222" />
    <Con id="2255" src="1141" tgt="2254" wght="0.77087900756279415" />
    <Con id="2256" src="2254" tgt="1469" wght="-0.85010097987156208" />
    <Con id="2300" src="2254" tgt="1322" wght="0.554152865704608" />
    <Con id="2303" src="1737" tgt="1322" wght="-0.39020923293220616" />
    <Con id="2481" src="686" tgt="2254" wght="-0.58858826703208367" />
    <Con id="2488" src="382" tgt="2487" wght="0.23257296677634004" />
    <Con id="2489" src="2487" tgt="10" wght="0.86622665042625324" />
    <Con id="2532" src="1737" tgt="1141" wght="0.98048858198607736" />
    <Con id="2568" src="901" tgt="2567" wght="-0.52367381772433341" />
    <Con id="2569" src="2567" tgt="8" wght="0.63369472182153763" />
    <Con id="2577" src="613" tgt="2576" wght="0.441931962350773" />
    <Con id="2581" src="613" tgt="2254" wght="-0.34901749476144539" />
    <Con id="2584" src="2487" tgt="8" wght="0.96420669604385956" />
    <Con id="2727" src="2576" tgt="11" wght="-0.8251366081423136" />
    <Con id="2805" src="2576" tgt="2032" wght="0.43168489268809129" />
    <Con id="2815" src="686" tgt="2576" wght="-1" />
    <Con id="2843" src="2254" tgt="901" wght="0.054449006296856561" />
    <Con id="2958" src="1141" tgt="2957" wght="0.94921576125815532" />
    <Con id="2959" src="2957" tgt="2254" wght="0.96004921492860307" />
    <Con id="2962" src="2487" tgt="309" wght="1" />
    <Con id="2964" src="1737" tgt="2963" wght="0.3472674348029724" />
    <Con id="2965" src="2963" tgt="8" wght="-0.99994544526107354" />
    <Con id="3023" src="2487" tgt="295" wght="0.36381628838887287" />
    <Con id="3045" src="10" tgt="3044" wght="-0.5937390695295377" />
    <Con id="3069" src="1406" tgt="2576" wght="-0.15153141236965023" />
    <Con id="3087" src="11" tgt="3086" wght="-0.81459095933661763" />
    <Con id="3088" src="3086" tgt="1703" wght="0.96988958835664241" />
    <Con id="3157" src="901" tgt="3156" wght="0.23181300554434869" />
    <Con id="3158" src="3156" tgt="2567" wght="-0.64267680184797027" />
    <Con id="3235" src="2487" tgt="7" wght="0.35907420562580228" />
    <Con id="3481" src="3044" tgt="3480" wght="-0.18593188710442377" />
    <Con id="3482" src="3480" tgt="1469" wght="-1" />
    <Con id="3647" src="3480" tgt="8" wght="0.43637372571112343" />
    <Con id="3758" src="5" tgt="2254" wght="-0.21017390670082015" />
    <Con id="4115" src="11" tgt="2032" wght="-0.90955611038953066" />
    <Con id="4123" src="1737" tgt="4122" wght="-0.37188825651645818" />
    <Con id="4124" src="4122" tgt="1322" wght="0.43019629766169287" />
    <Con id="4135" src="2963" tgt="679" wght="-0.76412213407456875" />
    <Con id="4227" src="6" tgt="4226" wght="-0.323942360108371" />
    <Con id="4228" src="4226" tgt="7" wght="1" />
    <Con id="4306" src="2963" tgt="507" wght="0.59315185704343187" />
    <Con id="4335" src="2058" tgt="4334" wght="0.75520954886451364" />
    <Con id="4336" src="4334" tgt="2957" wght="1" />
    <Con id="4380" src="4226" tgt="686" wght="-0.569341517808411" />
    <Con id="4840" src="2576" tgt="4839" wght="0.99017409751419272" />
    <Con id="4841" src="4839" tgt="389" wght="1" />
    <Con id="4843" src="1141" tgt="2032" wght="-0.11118520144373179" />
    <Con id="4878" src="1406" tgt="3044" wght="1" />
    <Con id="4880" src="1322" tgt="507" wght="-0.05328103329601936" />
    <Con id="4884" src="10" tgt="3086" wght="-0.11425554705783725" />
    <Con id="4888" src="1737" tgt="4334" wght="-1" />
    <Con id="4890" src="2254" tgt="421" wght="0.22468685685819939" />
    <Con id="4910" src="389" tgt="1141" wght="0.092036888934671879" />
    <Con id="4956" src="2487" tgt="4955" wght="0.81826979670725719" />
    <Con id="4957" src="4955" tgt="10" wght="1" />
    <Con id="5082" src="2487" tgt="3086" wght="0.23383885528892279" />
    <Con id="5090" src="2957" tgt="3086" wght="0.11827425519004464" />
  </Connections>
</Network>