<Network id="173509" birthGen="354" fitness="0.99970361240951422">
  <Nodes>
    <Node type="bias" id="0" fnId="0" />
    <Node type="in" id="1" fnId="0" />
    <Node type="in" id="2" fnId="0" />
    <Node type="out" id="3" fnId="0" />
    <Node type="out" id="4" fnId="0" />
    <Node type="out" id="5" fnId="0" />
    <Node type="out" id="6" fnId="0" />
    <Node type="out" id="7" fnId="0" />
    <Node type="out" id="8" fnId="0" />
    <Node type="out" id="9" fnId="0" />
    <Node type="out" id="10" fnId="0" />
    <Node type="out" id="11" fnId="0" />
    <Node type="out" id="12" fnId="0" />
    <Node type="out" id="13" fnId="0" />
    <Node type="out" id="14" fnId="0" />
    <Node type="out" id="15" fnId="0" />
    <Node type="out" id="16" fnId="0" />
    <Node type="out" id="17" fnId="0" />
    <Node type="out" id="18" fnId="0" />
    <Node type="out" id="19" fnId="0" />
    <Node type="out" id="20" fnId="0" />
    <Node type="out" id="21" fnId="0" />
    <Node type="out" id="22" fnId="0" />
    <Node type="out" id="23" fnId="0" />
    <Node type="out" id="24" fnId="0" />
    <Node type="out" id="25" fnId="0" />
    <Node type="out" id="26" fnId="0" />
    <Node type="out" id="27" fnId="0" />
    <Node type="out" id="28" fnId="0" />
    <Node type="out" id="29" fnId="0" />
    <Node type="out" id="30" fnId="0" />
    <Node type="hid" id="31" fnId="2" />
    <Node type="hid" id="101" fnId="1" />
    <Node type="hid" id="185" fnId="3" />
    <Node type="hid" id="247" fnId="1" />
    <Node type="hid" id="372" fnId="3" />
    <Node type="hid" id="394" fnId="0" />
    <Node type="hid" id="552" fnId="3" />
    <Node type="hid" id="573" fnId="0" />
    <Node type="hid" id="596" fnId="3" />
    <Node type="hid" id="663" fnId="2" />
  </Nodes>
  <Connections>
    <Con id="1" src="0" tgt="21" wght="-1.2224282316301196" />
    <Con id="2" src="0" tgt="24" wght="-0.89466548056117834" />
    <Con id="3" src="0" tgt="27" wght="-1" />
    <Con id="4" src="1" tgt="31" wght="1" />
    <Con id="5" src="2" tgt="31" wght="-1" />
    <Con id="6" src="31" tgt="21" wght="-1.7404147760413513" />
    <Con id="7" src="31" tgt="24" wght="1.0142624829028606" />
    <Con id="8" src="31" tgt="27" wght="1" />
    <Con id="9" src="1" tgt="3" wght="0.027934326882941757" />
    <Con id="10" src="1" tgt="4" wght="0" />
    <Con id="11" src="1" tgt="5" wght="-0.015914868916016851" />
    <Con id="12" src="1" tgt="6" wght="2.2982038920745254" />
    <Con id="13" src="1" tgt="7" wght="-1.7888267233432325" />
    <Con id="14" src="1" tgt="8" wght="-0.48078708758940092" />
    <Con id="15" src="1" tgt="9" wght="0.23823754055010155" />
    <Con id="17" src="1" tgt="11" wght="1.4187795928391958" />
    <Con id="18" src="1" tgt="12" wght="0.012038924346273336" />
    <Con id="19" src="1" tgt="13" wght="-0.47833969096478907" />
    <Con id="20" src="1" tgt="14" wght="0.024331511285685722" />
    <Con id="21" src="1" tgt="15" wght="0.35168822125042737" />
    <Con id="22" src="1" tgt="16" wght="3" />
    <Con id="23" src="1" tgt="17" wght="0.036066558481762233" />
    <Con id="24" src="1" tgt="18" wght="1.7178015266633797" />
    <Con id="25" src="1" tgt="19" wght="0.94146706870089847" />
    <Con id="26" src="1" tgt="20" wght="0" />
    <Con id="27" src="1" tgt="21" wght="-0.66154901526460463" />
    <Con id="28" src="1" tgt="22" wght="0.9999927803258426" />
    <Con id="29" src="1" tgt="23" wght="0.63046470131626375" />
    <Con id="30" src="1" tgt="24" wght="-0.062530750328970541" />
    <Con id="32" src="1" tgt="26" wght="-0.2001703402405135" />
    <Con id="33" src="1" tgt="27" wght="0" />
    <Con id="34" src="1" tgt="28" wght="3" />
    <Con id="36" src="1" tgt="30" wght="1.6651142232721372" />
    <Con id="37" src="2" tgt="3" wght="1.172759193068682" />
    <Con id="38" src="2" tgt="4" wght="-2.5740644499482848" />
    <Con id="39" src="2" tgt="5" wght="0.911183328833431" />
    <Con id="40" src="2" tgt="6" wght="-0.040095088432934106" />
    <Con id="41" src="2" tgt="7" wght="-1.8698921268805862" />
    <Con id="42" src="2" tgt="8" wght="0.015867205332356995" />
    <Con id="43" src="2" tgt="9" wght="-0.2351798353337746" />
    <Con id="44" src="2" tgt="10" wght="-0.4035123195943377" />
    <Con id="45" src="2" tgt="11" wght="-1.1319526955802073" />
    <Con id="46" src="2" tgt="12" wght="-0.53591508560924894" />
    <Con id="47" src="2" tgt="13" wght="1.3438235230707432" />
    <Con id="48" src="2" tgt="14" wght="0" />
    <Con id="49" src="2" tgt="15" wght="-0.17217803961184797" />
    <Con id="50" src="2" tgt="16" wght="-0.305880745057744" />
    <Con id="51" src="2" tgt="17" wght="0" />
    <Con id="52" src="2" tgt="18" wght="0.83655308292075092" />
    <Con id="53" src="2" tgt="19" wght="0.47174636020977151" />
    <Con id="54" src="2" tgt="20" wght="2.0210933173075318" />
    <Con id="55" src="2" tgt="21" wght="0.0067657605029259466" />
    <Con id="56" src="2" tgt="22" wght="-2.0864411360472594" />
    <Con id="57" src="2" tgt="23" wght="1.7370460373349488" />
    <Con id="58" src="2" tgt="24" wght="0" />
    <Con id="59" src="2" tgt="25" wght="3" />
    <Con id="60" src="2" tgt="26" wght="0.21469006182096639" />
    <Con id="61" src="2" tgt="27" wght="0" />
    <Con id="62" src="2" tgt="28" wght="-0.012703416633402132" />
    <Con id="63" src="2" tgt="29" wght="1.9623517250531193" />
    <Con id="64" src="2" tgt="30" wght="-1.1509920626151395" />
    <Con id="65" src="0" tgt="3" wght="-1.3909346053234839" />
    <Con id="67" src="0" tgt="5" wght="0.373291120822353" />
    <Con id="68" src="0" tgt="6" wght="-2.7336955232270368" />
    <Con id="69" src="0" tgt="7" wght="-1.5494661026378374" />
    <Con id="70" src="0" tgt="8" wght="-1.8653251128271222" />
    <Con id="71" src="0" tgt="9" wght="-0.0011873132619490169" />
    <Con id="72" src="0" tgt="10" wght="-0.032326616312846543" />
    <Con id="73" src="0" tgt="11" wght="-1.6785321025019291" />
    <Con id="74" src="0" tgt="12" wght="0.81014204533336509" />
    <Con id="75" src="0" tgt="13" wght="-1.6598832688198657" />
    <Con id="76" src="0" tgt="14" wght="0" />
    <Con id="77" src="0" tgt="15" wght="0.30140136500225839" />
    <Con id="78" src="0" tgt="16" wght="0.48706699407141" />
    <Con id="79" src="0" tgt="17" wght="0" />
    <Con id="80" src="0" tgt="18" wght="0" />
    <Con id="81" src="0" tgt="19" wght="-2.3177323953271762" />
    <Con id="82" src="0" tgt="20" wght="-0.67326790213041621" />
    <Con id="83" src="0" tgt="22" wght="-0.16174347226630592" />
    <Con id="84" src="0" tgt="23" wght="-1.1137995392672782" />
    <Con id="85" src="0" tgt="25" wght="-1.2154716582742908" />
    <Con id="86" src="0" tgt="26" wght="-1.2288323576241869" />
    <Con id="87" src="0" tgt="28" wght="-1.07454649468206" />
    <Con id="88" src="0" tgt="29" wght="3" />
    <Con id="91" src="31" tgt="30" wght="1.6567226108497202" />
    <Con id="97" src="31" tgt="15" wght="0.17908263571060307" />
    <Con id="102" src="2" tgt="101" wght="-0.45044097164645791" />
    <Con id="103" src="101" tgt="13" wght="3" />
    <Con id="186" src="1" tgt="185" wght="0.10510120785399316" />
    <Con id="187" src="185" tgt="29" wght="0.81169631676014709" />
    <Con id="248" src="0" tgt="247" wght="0" />
    <Con id="249" src="247" tgt="4" wght="3" />
    <Con id="331" src="247" tgt="23" wght="-0.23464472628465694" />
    <Con id="373" src="1" tgt="372" wght="0" />
    <Con id="374" src="372" tgt="25" wght="2.11329233332219" />
    <Con id="395" src="1" tgt="394" wght="0" />
    <Con id="396" src="394" tgt="20" wght="2.6270458508887495" />
    <Con id="419" src="247" tgt="17" wght="-3" />
    <Con id="506" src="247" tgt="24" wght="0.22940218233570353" />
    <Con id="553" src="2" tgt="552" wght="-0.18616664529968474" />
    <Con id="554" src="552" tgt="19" wght="3" />
    <Con id="574" src="1" tgt="573" wght="-0.013286556021322751" />
    <Con id="575" src="573" tgt="6" wght="2.9578803420611788" />
    <Con id="597" src="1" tgt="596" wght="-2.5172117748297751" />
    <Con id="598" src="596" tgt="10" wght="2.9798384119055128" />
    <Con id="664" src="1" tgt="663" wght="0" />
    <Con id="665" src="663" tgt="25" wght="-0.59131352556869388" />
    <Con id="710" src="552" tgt="18" wght="-0.76846227731913752" />
  </Connections>
</Network>