<Network id="16451" birthGen="33" fitness="0.99909757716429581">
  <Nodes>
    <Node type="bias" id="0" fnId="0" />
    <Node type="in" id="1" fnId="0" />
    <Node type="in" id="2" fnId="0" />
    <Node type="out" id="3" fnId="0" />
    <Node type="out" id="4" fnId="0" />
    <Node type="out" id="5" fnId="0" />
    <Node type="out" id="6" fnId="0" />
    <Node type="out" id="7" fnId="0" />
    <Node type="out" id="8" fnId="0" />
    <Node type="out" id="9" fnId="0" />
    <Node type="out" id="10" fnId="0" />
    <Node type="out" id="11" fnId="0" />
    <Node type="out" id="12" fnId="0" />
    <Node type="out" id="13" fnId="0" />
    <Node type="out" id="14" fnId="0" />
    <Node type="out" id="15" fnId="0" />
    <Node type="out" id="16" fnId="0" />
    <Node type="out" id="17" fnId="0" />
    <Node type="out" id="18" fnId="0" />
    <Node type="out" id="19" fnId="0" />
    <Node type="out" id="20" fnId="0" />
    <Node type="out" id="21" fnId="0" />
    <Node type="out" id="22" fnId="0" />
    <Node type="out" id="23" fnId="0" />
    <Node type="out" id="24" fnId="0" />
    <Node type="out" id="25" fnId="0" />
    <Node type="out" id="26" fnId="0" />
    <Node type="out" id="27" fnId="0" />
    <Node type="out" id="28" fnId="0" />
    <Node type="out" id="29" fnId="0" />
    <Node type="out" id="30" fnId="0" />
    <Node type="hid" id="31" fnId="2" />
    <Node type="hid" id="106" fnId="2" />
  </Nodes>
  <Connections>
    <Con id="1" src="0" tgt="21" wght="-0.53863264214375228" />
    <Con id="2" src="0" tgt="24" wght="-1" />
    <Con id="3" src="0" tgt="27" wght="-1" />
    <Con id="4" src="1" tgt="31" wght="1" />
    <Con id="5" src="2" tgt="31" wght="-1" />
    <Con id="6" src="31" tgt="21" wght="1" />
    <Con id="7" src="31" tgt="24" wght="1" />
    <Con id="8" src="31" tgt="27" wght="1" />
    <Con id="9" src="1" tgt="3" wght="-1.5546589796686454" />
    <Con id="10" src="1" tgt="4" wght="-1.88302252887744" />
    <Con id="11" src="1" tgt="5" wght="0.003537602910028297" />
    <Con id="12" src="1" tgt="6" wght="0" />
    <Con id="13" src="1" tgt="7" wght="0" />
    <Con id="15" src="1" tgt="9" wght="0" />
    <Con id="16" src="1" tgt="10" wght="0" />
    <Con id="17" src="1" tgt="11" wght="-2.0158301564766115" />
    <Con id="18" src="1" tgt="12" wght="0" />
    <Con id="19" src="1" tgt="13" wght="0" />
    <Con id="20" src="1" tgt="14" wght="-1.5743821877986193" />
    <Con id="21" src="1" tgt="15" wght="0" />
    <Con id="22" src="1" tgt="16" wght="1.1734890829569991" />
    <Con id="23" src="1" tgt="17" wght="0" />
    <Con id="24" src="1" tgt="18" wght="0" />
    <Con id="25" src="1" tgt="19" wght="0" />
    <Con id="26" src="1" tgt="20" wght="0.026803268943432351" />
    <Con id="27" src="1" tgt="21" wght="-0.44474602456519957" />
    <Con id="28" src="1" tgt="22" wght="0.83019706551368211" />
    <Con id="29" src="1" tgt="23" wght="-0.0086095797185823646" />
    <Con id="30" src="1" tgt="24" wght="0" />
    <Con id="31" src="1" tgt="25" wght="-0.023649513547340968" />
    <Con id="32" src="1" tgt="26" wght="0" />
    <Con id="33" src="1" tgt="27" wght="0" />
    <Con id="34" src="1" tgt="28" wght="0" />
    <Con id="35" src="1" tgt="29" wght="0" />
    <Con id="36" src="1" tgt="30" wght="0" />
    <Con id="37" src="2" tgt="3" wght="0" />
    <Con id="38" src="2" tgt="4" wght="-2.6242366014048457" />
    <Con id="39" src="2" tgt="5" wght="0" />
    <Con id="40" src="2" tgt="6" wght="0" />
    <Con id="41" src="2" tgt="7" wght="0" />
    <Con id="42" src="2" tgt="8" wght="0" />
    <Con id="43" src="2" tgt="9" wght="0" />
    <Con id="44" src="2" tgt="10" wght="-0.40692221292206893" />
    <Con id="45" src="2" tgt="11" wght="0" />
    <Con id="46" src="2" tgt="12" wght="0" />
    <Con id="47" src="2" tgt="13" wght="-0.25253422642609924" />
    <Con id="48" src="2" tgt="14" wght="0" />
    <Con id="49" src="2" tgt="15" wght="0" />
    <Con id="50" src="2" tgt="16" wght="0" />
    <Con id="51" src="2" tgt="17" wght="0" />
    <Con id="52" src="2" tgt="18" wght="0" />
    <Con id="53" src="2" tgt="19" wght="0" />
    <Con id="54" src="2" tgt="20" wght="0" />
    <Con id="55" src="2" tgt="21" wght="-1.5990292900241911" />
    <Con id="56" src="2" tgt="22" wght="-0.024305583376901755" />
    <Con id="57" src="2" tgt="23" wght="1.0925911141849358" />
    <Con id="58" src="2" tgt="24" wght="0" />
    <Con id="59" src="2" tgt="25" wght="-2.0106159630639748" />
    <Con id="60" src="2" tgt="26" wght="-2.8264056779444218" />
    <Con id="61" src="2" tgt="27" wght="0" />
    <Con id="62" src="2" tgt="28" wght="0" />
    <Con id="63" src="2" tgt="29" wght="0" />
    <Con id="64" src="2" tgt="30" wght="0" />
    <Con id="65" src="0" tgt="3" wght="0" />
    <Con id="66" src="0" tgt="4" wght="0" />
    <Con id="67" src="0" tgt="5" wght="0" />
    <Con id="68" src="0" tgt="6" wght="0" />
    <Con id="69" src="0" tgt="7" wght="-0.027759429071451028" />
    <Con id="70" src="0" tgt="8" wght="-0.017964228090709966" />
    <Con id="71" src="0" tgt="9" wght="0" />
    <Con id="72" src="0" tgt="10" wght="0" />
    <Con id="73" src="0" tgt="11" wght="2.7320715308650643" />
    <Con id="74" src="0" tgt="12" wght="-0.0367865210803976" />
    <Con id="75" src="0" tgt="13" wght="-0.0077801040408329346" />
    <Con id="76" src="0" tgt="14" wght="-1.3609494733338914" />
    <Con id="77" src="0" tgt="15" wght="-0.55134401326299276" />
    <Con id="78" src="0" tgt="16" wght="-0.0019388777298170279" />
    <Con id="79" src="0" tgt="17" wght="0" />
    <Con id="80" src="0" tgt="18" wght="0" />
    <Con id="81" src="0" tgt="19" wght="-0.99951954686066447" />
    <Con id="82" src="0" tgt="20" wght="0.14660818458606117" />
    <Con id="83" src="0" tgt="22" wght="-1" />
    <Con id="84" src="0" tgt="23" wght="-1" />
    <Con id="85" src="0" tgt="25" wght="0.08501171437179611" />
    <Con id="86" src="0" tgt="26" wght="-0.83471435830187779" />
    <Con id="87" src="0" tgt="28" wght="-0.22558682039380074" />
    <Con id="88" src="0" tgt="29" wght="2.3342295018956065" />
    <Con id="89" src="0" tgt="30" wght="-1.7753721665915561" />
    <Con id="94" src="31" tgt="11" wght="0.82827108772471547" />
    <Con id="107" src="1" tgt="106" wght="0" />
    <Con id="108" src="106" tgt="8" wght="2.5505053762998506" />
  </Connections>
</Network>