<Network id="47529" birthGen="87" fitness="0.99999998493859155">
  <Nodes>
    <Node type="bias" id="0" fnId="0" />
    <Node type="in" id="1" fnId="0" />
    <Node type="in" id="2" fnId="0" />
    <Node type="in" id="3" fnId="0" />
    <Node type="in" id="4" fnId="0" />
    <Node type="in" id="5" fnId="0" />
    <Node type="in" id="6" fnId="0" />
    <Node type="out" id="7" fnId="0" />
    <Node type="out" id="8" fnId="0" />
    <Node type="out" id="9" fnId="0" />
    <Node type="hid" id="10" fnId="2" />
    <Node type="hid" id="11" fnId="2" />
    <Node type="hid" id="295" fnId="2" />
    <Node type="hid" id="309" fnId="1" />
    <Node type="hid" id="382" fnId="1" />
    <Node type="hid" id="389" fnId="1" />
    <Node type="hid" id="421" fnId="0" />
    <Node type="hid" id="507" fnId="1" />
    <Node type="hid" id="613" fnId="1" />
    <Node type="hid" id="679" fnId="2" />
    <Node type="hid" id="686" fnId="1" />
    <Node type="hid" id="901" fnId="0" />
    <Node type="hid" id="1141" fnId="1" />
    <Node type="hid" id="1322" fnId="3" />
    <Node type="hid" id="1406" fnId="0" />
    <Node type="hid" id="1469" fnId="1" />
    <Node type="hid" id="1703" fnId="1" />
    <Node type="hid" id="1737" fnId="0" />
    <Node type="hid" id="2032" fnId="1" />
    <Node type="hid" id="2058" fnId="1" />
    <Node type="hid" id="2254" fnId="2" />
    <Node type="hid" id="2487" fnId="1" />
    <Node type="hid" id="2567" fnId="3" />
    <Node type="hid" id="2576" fnId="1" />
    <Node type="hid" id="2957" fnId="1" />
    <Node type="hid" id="2963" fnId="0" />
    <Node type="hid" id="3044" fnId="2" />
    <Node type="hid" id="3086" fnId="3" />
    <Node type="hid" id="3156" fnId="0" />
    <Node type="hid" id="3480" fnId="3" />
    <Node type="hid" id="4122" fnId="0" />
    <Node type="hid" id="4226" fnId="1" />
    <Node type="hid" id="4334" fnId="2" />
    <Node type="hid" id="4839" fnId="1" />
    <Node type="hid" id="4854" fnId="1" />
    <Node type="hid" id="4874" fnId="1" />
    <Node type="hid" id="4967" fnId="1" />
  </Nodes>
  <Connections>
    <Con id="2" src="1" tgt="10" wght="1" />
    <Con id="3" src="2" tgt="11" wght="0.60438179123628066" />
    <Con id="4" src="4" tgt="10" wght="-0.98262168845665443" />
    <Con id="5" src="5" tgt="11" wght="-0.32079817331055094" />
    <Con id="6" src="10" tgt="9" wght="0.993839254424721" />
    <Con id="7" src="11" tgt="9" wght="-0.5532272508672732" />
    <Con id="8" src="1" tgt="7" wght="0.23066791046091292" />
    <Con id="10" src="2" tgt="7" wght="-0.12114541887514815" />
    <Con id="11" src="2" tgt="8" wght="-1" />
    <Con id="12" src="3" tgt="7" wght="0.92243605765450409" />
    <Con id="13" src="3" tgt="8" wght="1" />
    <Con id="14" src="4" tgt="7" wght="0.11226446920776159" />
    <Con id="15" src="4" tgt="8" wght="0.0881714124915253" />
    <Con id="17" src="5" tgt="8" wght="0.10429795086490282" />
    <Con id="20" src="0" tgt="7" wght="0.39513783501667543" />
    <Con id="21" src="0" tgt="8" wght="-0.13134278316624362" />
    <Con id="28" src="11" tgt="10" wght="1" />
    <Con id="55" src="10" tgt="7" wght="-0.68665344128415462" />
    <Con id="94" src="4" tgt="9" wght="0.033936486562802126" />
    <Con id="268" src="1" tgt="8" wght="-1" />
    <Con id="296" src="3" tgt="295" wght="0.934506406430207" />
    <Con id="297" src="295" tgt="7" wght="-1" />
    <Con id="310" src="5" tgt="309" wght="-0.0061252882019310895" />
    <Con id="311" src="309" tgt="11" wght="0.86119544051258179" />
    <Con id="347" src="295" tgt="309" wght="-1" />
    <Con id="383" src="4" tgt="382" wght="-0.014556197961063683" />
    <Con id="384" src="382" tgt="10" wght="0.84457642375781294" />
    <Con id="390" src="2" tgt="389" wght="0.95616040605375452" />
    <Con id="391" src="389" tgt="7" wght="0.888782315190206" />
    <Con id="396" src="5" tgt="295" wght="-0.97335947869057948" />
    <Con id="412" src="1" tgt="295" wght="0.67389067960903049" />
    <Con id="422" src="295" tgt="421" wght="0.97017666027974292" />
    <Con id="423" src="421" tgt="7" wght="0.59212698614714976" />
    <Con id="489" src="4" tgt="309" wght="-0.12299552665941903" />
    <Con id="503" src="4" tgt="421" wght="-0.022506737113948006" />
    <Con id="508" src="11" tgt="507" wght="-0.1710809158123846" />
    <Con id="509" src="507" tgt="9" wght="1" />
    <Con id="526" src="382" tgt="11" wght="-0.58871839754283428" />
    <Con id="563" src="295" tgt="507" wght="1" />
    <Con id="595" src="4" tgt="389" wght="0.066709900056699384" />
    <Con id="601" src="382" tgt="389" wght="0.35265201888978481" />
    <Con id="614" src="6" tgt="613" wght="0.010223503382660449" />
    <Con id="615" src="613" tgt="8" wght="-0.47642793413251638" />
    <Con id="658" src="382" tgt="507" wght="-0.98124613566578422" />
    <Con id="680" src="3" tgt="679" wght="0.027405628472118432" />
    <Con id="681" src="679" tgt="295" wght="0.8891385217330513" />
    <Con id="688" src="686" tgt="7" wght="1" />
    <Con id="724" src="613" tgt="7" wght="-0.049746817790812137" />
    <Con id="726" src="613" tgt="9" wght="-0.015020204076901772" />
    <Con id="751" src="421" tgt="309" wght="-0.78973584016785026" />
    <Con id="770" src="613" tgt="389" wght="-0.0058190614741775171" />
    <Con id="870" src="686" tgt="309" wght="0.099743585562624359" />
    <Con id="902" src="3" tgt="901" wght="0.98484911111690743" />
    <Con id="903" src="901" tgt="8" wght="0.808820107846665" />
    <Con id="1110" src="382" tgt="901" wght="-0.44058629788743142" />
    <Con id="1143" src="1141" tgt="9" wght="1" />
    <Con id="1175" src="613" tgt="421" wght="1" />
    <Con id="1291" src="1" tgt="901" wght="0.155115970220071" />
    <Con id="1298" src="2" tgt="613" wght="-0.47506351792553664" />
    <Con id="1323" src="0" tgt="1322" wght="-0.93073287136352856" />
    <Con id="1324" src="1322" tgt="11" wght="1" />
    <Con id="1407" src="1" tgt="1406" wght="0.52628257744549711" />
    <Con id="1408" src="1406" tgt="8" wght="-0.52368570127247194" />
    <Con id="1470" src="5" tgt="1469" wght="-0.89302863204822336" />
    <Con id="1509" src="309" tgt="1322" wght="0.17446568752115313" />
    <Con id="1529" src="686" tgt="11" wght="-0.44320356321225662" />
    <Con id="1704" src="11" tgt="1703" wght="0.26018330360263642" />
    <Con id="1705" src="1703" tgt="7" wght="0.784204494702567" />
    <Con id="1738" src="382" tgt="1737" wght="0.68560008802047379" />
    <Con id="1739" src="1737" tgt="8" wght="0.99931518417519016" />
    <Con id="1816" src="1737" tgt="295" wght="0.5201941166234676" />
    <Con id="1838" src="1" tgt="1469" wght="0.013019378563600186" />
    <Con id="1894" src="10" tgt="1469" wght="0.27407108975817396" />
    <Con id="2024" src="295" tgt="1703" wght="0.45958857482212578" />
    <Con id="2033" src="1469" tgt="2032" wght="0.9986223972729863" />
    <Con id="2034" src="2032" tgt="7" wght="0.88021180738016991" />
    <Con id="2059" src="0" tgt="2058" wght="-0.9760647446852585" />
    <Con id="2060" src="2058" tgt="1141" wght="1" />
    <Con id="2085" src="11" tgt="1469" wght="-0.52981191562256225" />
    <Con id="2255" src="1141" tgt="2254" wght="0.77087900756279415" />
    <Con id="2256" src="2254" tgt="1469" wght="-0.43315313920746634" />
    <Con id="2300" src="2254" tgt="1322" wght="0.54986987166265988" />
    <Con id="2303" src="1737" tgt="1322" wght="-0.37361073392210853" />
    <Con id="2481" src="686" tgt="2254" wght="0.0034551898671091874" />
    <Con id="2488" src="382" tgt="2487" wght="-0.45515545475421088" />
    <Con id="2489" src="2487" tgt="10" wght="-1" />
    <Con id="2532" src="1737" tgt="1141" wght="0.99523689187702813" />
    <Con id="2568" src="901" tgt="2567" wght="-0.797079740202016" />
    <Con id="2569" src="2567" tgt="8" wght="0.63369472182153763" />
    <Con id="2577" src="613" tgt="2576" wght="0.43659415126085105" />
    <Con id="2581" src="613" tgt="2254" wght="0.42022183446324823" />
    <Con id="2584" src="2487" tgt="8" wght="1" />
    <Con id="2727" src="2576" tgt="11" wght="-0.84180460602414087" />
    <Con id="2805" src="2576" tgt="2032" wght="0.45366633892464403" />
    <Con id="2815" src="686" tgt="2576" wght="0.54591785109279911" />
    <Con id="2843" src="2254" tgt="901" wght="0.054449006296856561" />
    <Con id="2958" src="1141" tgt="2957" wght="0.15052255730094571" />
    <Con id="2959" src="2957" tgt="2254" wght="0.95382281435411675" />
    <Con id="2962" src="2487" tgt="309" wght="0.34640273597961235" />
    <Con id="2964" src="1737" tgt="2963" wght="0.35193726403214709" />
    <Con id="2965" src="2963" tgt="8" wght="0.28919765124922936" />
    <Con id="3023" src="2487" tgt="295" wght="0.36381628838887287" />
    <Con id="3045" src="10" tgt="3044" wght="-0.5937390695295377" />
    <Con id="3069" src="1406" tgt="2576" wght="-0.15153141236965023" />
    <Con id="3087" src="11" tgt="3086" wght="-0.28426500631311924" />
    <Con id="3088" src="3086" tgt="1703" wght="0.92844595586926" />
    <Con id="3157" src="901" tgt="3156" wght="0.18491571744932336" />
    <Con id="3158" src="3156" tgt="2567" wght="-0.64267680184797027" />
    <Con id="3235" src="2487" tgt="7" wght="0.35907420562580228" />
    <Con id="3481" src="3044" tgt="3480" wght="-0.18593188710442377" />
    <Con id="3482" src="3480" tgt="1469" wght="-1" />
    <Con id="3647" src="3480" tgt="8" wght="0.43637372571112343" />
    <Con id="3758" src="5" tgt="2254" wght="-0.22893870994448662" />
    <Con id="4115" src="11" tgt="2032" wght="-0.90955611038953066" />
    <Con id="4123" src="1737" tgt="4122" wght="-0.37188825651645818" />
    <Con id="4124" src="4122" tgt="1322" wght="0.99098119040997934" />
    <Con id="4135" src="2963" tgt="679" wght="-0.76412213407456875" />
    <Con id="4227" src="6" tgt="4226" wght="-1" />
    <Con id="4228" src="4226" tgt="7" wght="0.99452466976154164" />
    <Con id="4306" src="2963" tgt="507" wght="1" />
    <Con id="4335" src="2058" tgt="4334" wght="0.75520954886451364" />
    <Con id="4336" src="4334" tgt="2957" wght="0.9915128418654775" />
    <Con id="4380" src="4226" tgt="686" wght="-0.48610795568674803" />
    <Con id="4840" src="2576" tgt="4839" wght="0.96798284286571157" />
    <Con id="4841" src="4839" tgt="389" wght="1" />
    <Con id="4855" src="2" tgt="4854" wght="0.19569371523062795" />
    <Con id="4856" src="4854" tgt="686" wght="0.99099822129780624" />
    <Con id="4875" src="901" tgt="4874" wght="-0.20906082274629612" />
    <Con id="4876" src="4874" tgt="309" wght="0.95201360430629167" />
    <Con id="4913" src="1737" tgt="1703" wght="-0.44404985057190061" />
    <Con id="4968" src="1141" tgt="4967" wght="0.97114214881090133" />
    <Con id="4969" src="4967" tgt="1469" wght="1" />
    <Con id="5006" src="3" tgt="3044" wght="0.33241030387580395" />
    <Con id="5113" src="3156" tgt="2032" wght="0.75465267151594162" />
  </Connections>
</Network>