<Network id="790628" birthGen="3280" fitness="0.99977045483963034">
  <Nodes>
    <Node type="bias" id="0" fnId="0" />
    <Node type="in" id="1" fnId="0" />
    <Node type="in" id="2" fnId="0" />
    <Node type="in" id="3" fnId="0" />
    <Node type="in" id="4" fnId="0" />
    <Node type="out" id="5" fnId="0" />
    <Node type="out" id="6" fnId="0" />
    <Node type="out" id="7" fnId="0" />
    <Node type="out" id="8" fnId="0" />
    <Node type="out" id="9" fnId="0" />
    <Node type="out" id="10" fnId="0" />
    <Node type="hid" id="98" fnId="2" />
    <Node type="hid" id="117" fnId="0" />
    <Node type="hid" id="153" fnId="3" />
    <Node type="hid" id="400" fnId="3" />
    <Node type="hid" id="511" fnId="2" />
    <Node type="hid" id="753" fnId="1" />
    <Node type="hid" id="792" fnId="1" />
    <Node type="hid" id="914" fnId="3" />
    <Node type="hid" id="1230" fnId="1" />
    <Node type="hid" id="2096" fnId="3" />
  </Nodes>
  <Connections>
    <Con id="14" src="0" tgt="8" wght="-0.059570641806121608" />
    <Con id="38" src="4" tgt="8" wght="1" />
    <Con id="43" src="0" tgt="5" wght="1" />
    <Con id="44" src="2" tgt="6" wght="0.10857906547701805" />
    <Con id="45" src="3" tgt="6" wght="-0.28256596606528195" />
    <Con id="48" src="4" tgt="5" wght="0.79495256956482174" />
    <Con id="49" src="3" tgt="5" wght="0.96067958936236586" />
    <Con id="58" src="1" tgt="8" wght="0.56387428706511855" />
    <Con id="62" src="2" tgt="5" wght="0.30134886161341679" />
    <Con id="64" src="1" tgt="5" wght="-1" />
    <Con id="75" src="2" tgt="7" wght="-0.49096276741835354" />
    <Con id="80" src="0" tgt="10" wght="0.0818525480529721" />
    <Con id="99" src="1" tgt="98" wght="-0.19864332245039026" />
    <Con id="104" src="98" tgt="7" wght="-0.39842675228880542" />
    <Con id="118" src="0" tgt="117" wght="-0.075594895126948058" />
    <Con id="119" src="117" tgt="8" wght="1" />
    <Con id="120" src="117" tgt="9" wght="-1" />
    <Con id="121" src="2" tgt="98" wght="0.72942010696897186" />
    <Con id="125" src="117" tgt="6" wght="-0.1933232335384433" />
    <Con id="127" src="98" tgt="5" wght="0.11289888270622904" />
    <Con id="128" src="4" tgt="98" wght="-0.99759967279324213" />
    <Con id="132" src="0" tgt="98" wght="-0.66304170596920731" />
    <Con id="140" src="3" tgt="98" wght="0.33623136799218573" />
    <Con id="141" src="117" tgt="10" wght="-1" />
    <Con id="142" src="98" tgt="117" wght="0.98094222032670442" />
    <Con id="154" src="0" tgt="153" wght="0.33278015100447972" />
    <Con id="155" src="153" tgt="6" wght="0.814957029352643" />
    <Con id="161" src="153" tgt="8" wght="-0.72470546337901343" />
    <Con id="174" src="2" tgt="117" wght="0.092496638189481284" />
    <Con id="176" src="153" tgt="98" wght="0.17816909561632116" />
    <Con id="181" src="1" tgt="117" wght="0.84350239877682864" />
    <Con id="227" src="4" tgt="153" wght="-0.95520572609286458" />
    <Con id="401" src="2" tgt="400" wght="0.53265029287510579" />
    <Con id="402" src="400" tgt="9" wght="0.49023806999497554" />
    <Con id="408" src="4" tgt="117" wght="-1" />
    <Con id="412" src="1" tgt="10" wght="-0.75015941184720736" />
    <Con id="420" src="2" tgt="8" wght="0.40150319726331252" />
    <Con id="423" src="2" tgt="9" wght="0.91099874535575509" />
    <Con id="424" src="400" tgt="117" wght="0.49504071917579423" />
    <Con id="436" src="3" tgt="7" wght="-0.73854229322787035" />
    <Con id="438" src="117" tgt="7" wght="-0.47685583760814743" />
    <Con id="439" src="3" tgt="153" wght="0.995138041368273" />
    <Con id="440" src="400" tgt="98" wght="-1" />
    <Con id="441" src="153" tgt="7" wght="0.61128148338063837" />
    <Con id="444" src="400" tgt="153" wght="-0.064889846933096768" />
    <Con id="446" src="153" tgt="10" wght="-0.0566683257351069" />
    <Con id="447" src="98" tgt="6" wght="-0.37485217742612609" />
    <Con id="449" src="153" tgt="5" wght="0.03426458153037637" />
    <Con id="450" src="400" tgt="10" wght="-0.19157452731361135" />
    <Con id="451" src="0" tgt="6" wght="0.069358137280641372" />
    <Con id="452" src="98" tgt="9" wght="-0.37220142176374793" />
    <Con id="454" src="400" tgt="6" wght="-0.42669588147513865" />
    <Con id="457" src="117" tgt="5" wght="0.58692248637137423" />
    <Con id="458" src="2" tgt="153" wght="0.4091035468717964" />
    <Con id="459" src="0" tgt="7" wght="0.075676342441848732" />
    <Con id="462" src="400" tgt="5" wght="0.44816259447207518" />
    <Con id="463" src="98" tgt="10" wght="-0.0951585782709404" />
    <Con id="465" src="400" tgt="8" wght="-0.32641310611813007" />
    <Con id="466" src="1" tgt="153" wght="0.97915498120710254" />
    <Con id="468" src="98" tgt="8" wght="1" />
    <Con id="493" src="3" tgt="400" wght="0.0067171888363559851" />
    <Con id="502" src="1" tgt="400" wght="-0.74527686468059562" />
    <Con id="512" src="4" tgt="511" wght="-0.97920882407593535" />
    <Con id="513" src="511" tgt="6" wght="0.92615890650308674" />
    <Con id="521" src="511" tgt="10" wght="-0.46540011703097439" />
    <Con id="522" src="511" tgt="9" wght="0.39766664896160364" />
    <Con id="523" src="98" tgt="511" wght="0.986920753674582" />
    <Con id="524" src="511" tgt="5" wght="0.9906139602607178" />
    <Con id="525" src="1" tgt="9" wght="0.15279142934836135" />
    <Con id="526" src="1" tgt="7" wght="0.034587258473038673" />
    <Con id="547" src="153" tgt="511" wght="0.35283623660933983" />
    <Con id="557" src="511" tgt="117" wght="-0.55447025133822048" />
    <Con id="565" src="1" tgt="511" wght="0.26599661307409406" />
    <Con id="573" src="511" tgt="7" wght="-1" />
    <Con id="580" src="2" tgt="511" wght="-1" />
    <Con id="582" src="4" tgt="10" wght="-0.23365443889652446" />
    <Con id="754" src="3" tgt="753" wght="0.92670856070756691" />
    <Con id="755" src="753" tgt="8" wght="0.98000765541396129" />
    <Con id="756" src="511" tgt="753" wght="0.60998246717676374" />
    <Con id="761" src="753" tgt="7" wght="0.53695413328434427" />
    <Con id="771" src="153" tgt="753" wght="-0.06077128928154707" />
    <Con id="776" src="753" tgt="5" wght="-0.5993513133454913" />
    <Con id="793" src="1" tgt="792" wght="-0.96215124013524023" />
    <Con id="794" src="792" tgt="6" wght="1" />
    <Con id="795" src="1" tgt="753" wght="-0.44353417837260345" />
    <Con id="798" src="792" tgt="753" wght="0.47012745449319482" />
    <Con id="803" src="400" tgt="753" wght="-0.0846631289459765" />
    <Con id="819" src="792" tgt="98" wght="0.46334812790155411" />
    <Con id="823" src="792" tgt="9" wght="-0.50320286290066774" />
    <Con id="846" src="792" tgt="10" wght="0.31905658645381607" />
    <Con id="915" src="3" tgt="914" wght="0.54878008389711008" />
    <Con id="916" src="914" tgt="117" wght="0.95399501577217394" />
    <Con id="937" src="914" tgt="753" wght="0.086032426569941783" />
    <Con id="953" src="914" tgt="9" wght="-0.021210013423115015" />
    <Con id="1005" src="2" tgt="914" wght="-0.37783244851298281" />
    <Con id="1018" src="914" tgt="5" wght="0.091856686398386955" />
    <Con id="1231" src="0" tgt="1230" wght="0.58071238839893979" />
    <Con id="1232" src="1230" tgt="9" wght="1" />
    <Con id="1262" src="400" tgt="1230" wght="-0.91804183041676879" />
    <Con id="1265" src="1230" tgt="5" wght="-0.62384385149925947" />
    <Con id="1277" src="1230" tgt="511" wght="-0.801366213605976" />
    <Con id="1292" src="792" tgt="1230" wght="-1" />
    <Con id="1487" src="2" tgt="10" wght="1" />
    <Con id="2097" src="4" tgt="2096" wght="-0.23136018967120817" />
    <Con id="2098" src="2096" tgt="9" wght="1" />
  </Connections>
</Network>