<Network id="131797" birthGen="328" fitness="0.99995377079046033">
  <Nodes>
    <Node type="bias" id="0" fnId="0" />
    <Node type="in" id="1" fnId="0" />
    <Node type="in" id="2" fnId="0" />
    <Node type="in" id="3" fnId="0" />
    <Node type="in" id="4" fnId="0" />
    <Node type="in" id="5" fnId="0" />
    <Node type="in" id="6" fnId="0" />
    <Node type="out" id="7" fnId="0" />
    <Node type="out" id="8" fnId="0" />
    <Node type="out" id="9" fnId="0" />
    <Node type="hid" id="10" fnId="2" />
    <Node type="hid" id="11" fnId="2" />
  </Nodes>
  <Connections>
    <Con id="1" src="0" tgt="9" wght="-1" />
    <Con id="2" src="1" tgt="10" wght="1" />
    <Con id="3" src="2" tgt="11" wght="0.29313429712006878" />
    <Con id="4" src="4" tgt="10" wght="-1" />
    <Con id="5" src="5" tgt="11" wght="-1" />
    <Con id="6" src="10" tgt="9" wght="1" />
    <Con id="8" src="1" tgt="7" wght="0.97189768256721565" />
    <Con id="9" src="1" tgt="8" wght="-0.79697784168044117" />
    <Con id="10" src="2" tgt="7" wght="0.43142772363225157" />
    <Con id="11" src="2" tgt="8" wght="0" />
    <Con id="12" src="3" tgt="7" wght="0.65980867910426966" />
    <Con id="13" src="3" tgt="8" wght="-1" />
    <Con id="14" src="4" tgt="7" wght="-0.52313417872197721" />
    <Con id="17" src="5" tgt="8" wght="0.1740271057933569" />
    <Con id="18" src="6" tgt="7" wght="0" />
    <Con id="19" src="6" tgt="8" wght="0.31319900840383" />
    <Con id="21" src="0" tgt="8" wght="0" />
    <Con id="22" src="0" tgt="10" wght="0" />
    <Con id="23" src="0" tgt="11" wght="-0.041483559364329882" />
    <Con id="24" src="10" tgt="11" wght="0.37469217134639621" />
    <Con id="31" src="10" tgt="8" wght="0.074365897422263044" />
    <Con id="46" src="5" tgt="7" wght="-0.84893602935953127" />
  </Connections>
</Network>