<Network id="4398982" birthGen="8978" fitness="0.99900860822981274">
  <Nodes>
    <Node type="bias" id="0" fnId="0" />
    <Node type="in" id="1" fnId="0" />
    <Node type="in" id="2" fnId="0" />
    <Node type="out" id="3" fnId="0" />
    <Node type="out" id="4" fnId="0" />
    <Node type="out" id="5" fnId="0" />
    <Node type="out" id="6" fnId="0" />
    <Node type="out" id="7" fnId="0" />
    <Node type="out" id="8" fnId="0" />
    <Node type="out" id="9" fnId="0" />
    <Node type="out" id="10" fnId="0" />
    <Node type="out" id="11" fnId="0" />
    <Node type="out" id="12" fnId="0" />
    <Node type="out" id="13" fnId="0" />
    <Node type="out" id="14" fnId="0" />
    <Node type="out" id="15" fnId="0" />
    <Node type="out" id="16" fnId="0" />
    <Node type="out" id="17" fnId="0" />
    <Node type="out" id="18" fnId="0" />
    <Node type="out" id="19" fnId="0" />
    <Node type="out" id="20" fnId="0" />
    <Node type="out" id="21" fnId="0" />
    <Node type="out" id="22" fnId="0" />
    <Node type="out" id="23" fnId="0" />
    <Node type="out" id="24" fnId="0" />
    <Node type="out" id="25" fnId="0" />
    <Node type="out" id="26" fnId="0" />
    <Node type="out" id="27" fnId="0" />
    <Node type="out" id="28" fnId="0" />
    <Node type="out" id="29" fnId="0" />
    <Node type="out" id="30" fnId="0" />
    <Node type="hid" id="31" fnId="2" />
    <Node type="hid" id="104" fnId="1" />
    <Node type="hid" id="135" fnId="1" />
    <Node type="hid" id="1517" fnId="0" />
    <Node type="hid" id="1520" fnId="3" />
    <Node type="hid" id="1560" fnId="3" />
    <Node type="hid" id="1563" fnId="0" />
    <Node type="hid" id="1733" fnId="1" />
    <Node type="hid" id="1841" fnId="1" />
    <Node type="hid" id="1937" fnId="3" />
    <Node type="hid" id="1988" fnId="1" />
    <Node type="hid" id="2263" fnId="0" />
    <Node type="hid" id="2399" fnId="3" />
    <Node type="hid" id="2846" fnId="0" />
    <Node type="hid" id="3148" fnId="2" />
    <Node type="hid" id="3383" fnId="0" />
    <Node type="hid" id="3425" fnId="2" />
    <Node type="hid" id="3610" fnId="0" />
    <Node type="hid" id="3851" fnId="2" />
    <Node type="hid" id="3883" fnId="1" />
    <Node type="hid" id="3913" fnId="3" />
    <Node type="hid" id="3943" fnId="2" />
    <Node type="hid" id="4105" fnId="3" />
    <Node type="hid" id="4194" fnId="0" />
    <Node type="hid" id="5360" fnId="2" />
    <Node type="hid" id="6151" fnId="1" />
    <Node type="hid" id="6260" fnId="0" />
    <Node type="hid" id="6319" fnId="3" />
    <Node type="hid" id="6520" fnId="2" />
    <Node type="hid" id="6606" fnId="2" />
    <Node type="hid" id="6886" fnId="3" />
    <Node type="hid" id="6926" fnId="1" />
    <Node type="hid" id="7187" fnId="1" />
    <Node type="hid" id="7349" fnId="1" />
    <Node type="hid" id="7391" fnId="3" />
    <Node type="hid" id="7907" fnId="1" />
    <Node type="hid" id="9228" fnId="1" />
    <Node type="hid" id="9483" fnId="1" />
    <Node type="hid" id="9637" fnId="2" />
    <Node type="hid" id="10392" fnId="3" />
    <Node type="hid" id="11628" fnId="2" />
    <Node type="hid" id="11698" fnId="1" />
    <Node type="hid" id="11749" fnId="1" />
    <Node type="hid" id="12778" fnId="0" />
    <Node type="hid" id="13285" fnId="3" />
    <Node type="hid" id="14059" fnId="1" />
  </Nodes>
  <Connections>
    <Con id="1" src="0" tgt="21" wght="0.46233696944647978" />
    <Con id="2" src="0" tgt="24" wght="-0.94812546519021923" />
    <Con id="3" src="0" tgt="27" wght="-0.98451746693009046" />
    <Con id="4" src="1" tgt="31" wght="1.2412154428753173" />
    <Con id="5" src="2" tgt="31" wght="-1.1563415848103751" />
    <Con id="6" src="31" tgt="21" wght="-2.3117550275116527" />
    <Con id="7" src="31" tgt="24" wght="1.8142226465363847" />
    <Con id="8" src="31" tgt="27" wght="1.8777059334581396" />
    <Con id="9" src="1" tgt="3" wght="1.835097530464628" />
    <Con id="10" src="1" tgt="4" wght="-0.62930049810169886" />
    <Con id="11" src="1" tgt="5" wght="-0.68016315844974318" />
    <Con id="13" src="1" tgt="7" wght="2.9771038667383807" />
    <Con id="14" src="1" tgt="8" wght="-0.020702868429776748" />
    <Con id="15" src="1" tgt="9" wght="-0.087375788778950553" />
    <Con id="16" src="1" tgt="10" wght="0.93187480614096208" />
    <Con id="17" src="1" tgt="11" wght="-2.3825952846206513" />
    <Con id="18" src="1" tgt="12" wght="-1.5854947553484837" />
    <Con id="19" src="1" tgt="13" wght="3" />
    <Con id="20" src="1" tgt="14" wght="-1.0978397959295654" />
    <Con id="21" src="1" tgt="15" wght="2.6077994627155565" />
    <Con id="22" src="1" tgt="16" wght="-2.2603012401922347" />
    <Con id="23" src="1" tgt="17" wght="-1.6244415167772666" />
    <Con id="24" src="1" tgt="18" wght="0.70249380118574911" />
    <Con id="25" src="1" tgt="19" wght="2.3468632400035858" />
    <Con id="26" src="1" tgt="20" wght="0.44923920243241666" />
    <Con id="27" src="1" tgt="21" wght="3" />
    <Con id="28" src="1" tgt="22" wght="-1.3377277812340569" />
    <Con id="29" src="1" tgt="23" wght="-0.49304766942398764" />
    <Con id="30" src="1" tgt="24" wght="-1.1669287820251668" />
    <Con id="31" src="1" tgt="25" wght="-1.1039016414827956" />
    <Con id="32" src="1" tgt="26" wght="1.4779939347925069" />
    <Con id="33" src="1" tgt="27" wght="-0.92659612290368665" />
    <Con id="35" src="1" tgt="29" wght="0.44654040117150834" />
    <Con id="36" src="1" tgt="30" wght="0.14472506241412425" />
    <Con id="37" src="2" tgt="3" wght="-0.26029143354079676" />
    <Con id="38" src="2" tgt="4" wght="1.7715686442638883" />
    <Con id="39" src="2" tgt="5" wght="2.966843822201358" />
    <Con id="40" src="2" tgt="6" wght="-1.3559106682639333" />
    <Con id="41" src="2" tgt="7" wght="-2.2994601354002953" />
    <Con id="42" src="2" tgt="8" wght="-3" />
    <Con id="43" src="2" tgt="9" wght="2.6347403662279696" />
    <Con id="44" src="2" tgt="10" wght="1.4962964195300552" />
    <Con id="45" src="2" tgt="11" wght="-0.67006464636052421" />
    <Con id="46" src="2" tgt="12" wght="3" />
    <Con id="47" src="2" tgt="13" wght="-2.9739642778075628" />
    <Con id="48" src="2" tgt="14" wght="-0.67779508860455562" />
    <Con id="49" src="2" tgt="15" wght="0.21004490698395953" />
    <Con id="51" src="2" tgt="17" wght="2.052724877690475" />
    <Con id="52" src="2" tgt="18" wght="-1.9592108610414176" />
    <Con id="53" src="2" tgt="19" wght="-3" />
    <Con id="54" src="2" tgt="20" wght="0.53202053964350648" />
    <Con id="55" src="2" tgt="21" wght="-1.6665711200911837" />
    <Con id="56" src="2" tgt="22" wght="-2.9732246375642717" />
    <Con id="57" src="2" tgt="23" wght="1.1318750562121827" />
    <Con id="58" src="2" tgt="24" wght="0.10636657599368156" />
    <Con id="59" src="2" tgt="25" wght="2.7392014075466085" />
    <Con id="60" src="2" tgt="26" wght="0.69927467156041156" />
    <Con id="61" src="2" tgt="27" wght="1.0723604762832812" />
    <Con id="62" src="2" tgt="28" wght="2.9583794887257571" />
    <Con id="63" src="2" tgt="29" wght="3" />
    <Con id="64" src="2" tgt="30" wght="1.9456298740442795" />
    <Con id="65" src="0" tgt="3" wght="0.4767674175417842" />
    <Con id="66" src="0" tgt="4" wght="1.1109721660005252" />
    <Con id="67" src="0" tgt="5" wght="-0.057088763281081728" />
    <Con id="68" src="0" tgt="6" wght="-1.694951080578138" />
    <Con id="69" src="0" tgt="7" wght="0.676304282440978" />
    <Con id="70" src="0" tgt="8" wght="-1.3613663521392176" />
    <Con id="71" src="0" tgt="9" wght="-0.49098512729842447" />
    <Con id="72" src="0" tgt="10" wght="1.7765781722887999" />
    <Con id="73" src="0" tgt="11" wght="-0.25358432380466184" />
    <Con id="74" src="0" tgt="12" wght="0.76622535526460844" />
    <Con id="75" src="0" tgt="13" wght="-0.637328046374023" />
    <Con id="76" src="0" tgt="14" wght="2.9374785437109865" />
    <Con id="77" src="0" tgt="15" wght="-0.44757755440596153" />
    <Con id="78" src="0" tgt="16" wght="-0.0623454150275745" />
    <Con id="79" src="0" tgt="17" wght="1.938125189564982" />
    <Con id="80" src="0" tgt="18" wght="-2.9874575320033152" />
    <Con id="81" src="0" tgt="19" wght="0.22450105335243892" />
    <Con id="82" src="0" tgt="20" wght="0.22273628834001419" />
    <Con id="83" src="0" tgt="22" wght="0.325883230910063" />
    <Con id="84" src="0" tgt="23" wght="0.5265916316373509" />
    <Con id="85" src="0" tgt="25" wght="-2.9956724701681567" />
    <Con id="86" src="0" tgt="26" wght="-3" />
    <Con id="87" src="0" tgt="28" wght="-2.601973955219421" />
    <Con id="88" src="0" tgt="29" wght="-0.14312673026891049" />
    <Con id="90" src="31" tgt="12" wght="-2.0911195242622767" />
    <Con id="93" src="31" tgt="13" wght="-1.6028015237247839" />
    <Con id="103" src="31" tgt="18" wght="3" />
    <Con id="105" src="2" tgt="104" wght="0.055770139614633778" />
    <Con id="106" src="104" tgt="27" wght="2.9930214848397556" />
    <Con id="107" src="104" tgt="22" wght="-3" />
    <Con id="108" src="31" tgt="20" wght="-1.4038903982937008" />
    <Con id="109" src="104" tgt="7" wght="-2.1126577998538778" />
    <Con id="113" src="31" tgt="8" wght="-2.0426159371606163" />
    <Con id="119" src="31" tgt="11" wght="-0.98734963099406436" />
    <Con id="124" src="104" tgt="19" wght="-2.9579218129588036" />
    <Con id="125" src="31" tgt="15" wght="0.2904261459284872" />
    <Con id="127" src="31" tgt="23" wght="3" />
    <Con id="131" src="104" tgt="8" wght="-0.20205566828654112" />
    <Con id="136" src="1" tgt="135" wght="-1.7705612135559281" />
    <Con id="137" src="135" tgt="28" wght="-1.1741495838048985" />
    <Con id="140" src="104" tgt="21" wght="-1.0902630250917142" />
    <Con id="144" src="135" tgt="15" wght="-0.88947373704830068" />
    <Con id="145" src="31" tgt="30" wght="0.6504851471174522" />
    <Con id="146" src="104" tgt="24" wght="2.0817199917393907" />
    <Con id="155" src="31" tgt="22" wght="-0.3399754237103419" />
    <Con id="162" src="31" tgt="17" wght="-2.3803459005939418" />
    <Con id="164" src="104" tgt="10" wght="-2.8199500868269669" />
    <Con id="171" src="31" tgt="14" wght="1.0540218921198876" />
    <Con id="180" src="135" tgt="22" wght="-1.3898685250947729" />
    <Con id="184" src="135" tgt="3" wght="-1.7254628971108246" />
    <Con id="185" src="135" tgt="20" wght="-1.6923465373990985" />
    <Con id="197" src="135" tgt="12" wght="1.0602295125629841" />
    <Con id="200" src="135" tgt="23" wght="-2.2541311373690469" />
    <Con id="205" src="135" tgt="25" wght="-1.2458015386023478" />
    <Con id="211" src="104" tgt="9" wght="0.0701178486436973" />
    <Con id="212" src="135" tgt="17" wght="0.2799132135322116" />
    <Con id="237" src="135" tgt="30" wght="2.9541181295194172" />
    <Con id="245" src="104" tgt="3" wght="-0.0099335840918468657" />
    <Con id="246" src="135" tgt="21" wght="0.90080674055229226" />
    <Con id="247" src="104" tgt="30" wght="2.9879044393908551" />
    <Con id="257" src="104" tgt="16" wght="1.2882737623359377" />
    <Con id="263" src="135" tgt="8" wght="3" />
    <Con id="267" src="2" tgt="135" wght="0.16027290176913583" />
    <Con id="269" src="104" tgt="15" wght="1.0947462186787305" />
    <Con id="289" src="135" tgt="26" wght="0.33067010723589652" />
    <Con id="535" src="1" tgt="28" wght="-2.1999236168313772" />
    <Con id="1518" src="0" tgt="1517" wght="0.69418996741939931" />
    <Con id="1519" src="1517" tgt="3" wght="1.1852318237962654" />
    <Con id="1521" src="104" tgt="1520" wght="1.8619833255843" />
    <Con id="1522" src="1520" tgt="24" wght="2.9945181602792994" />
    <Con id="1536" src="1517" tgt="13" wght="-0.22408073198752967" />
    <Con id="1561" src="2" tgt="1560" wght="-0.070221964918174326" />
    <Con id="1562" src="1560" tgt="17" wght="-1.75620386251631" />
    <Con id="1564" src="0" tgt="1563" wght="-0.779952486718683" />
    <Con id="1565" src="1563" tgt="9" wght="3" />
    <Con id="1577" src="1520" tgt="26" wght="-0.77709128201857014" />
    <Con id="1578" src="1563" tgt="18" wght="-1.4502739600092984" />
    <Con id="1582" src="1560" tgt="16" wght="-0.091139370459537752" />
    <Con id="1607" src="1520" tgt="9" wght="2.8017682004840334" />
    <Con id="1639" src="1520" tgt="18" wght="-0.070247438366208" />
    <Con id="1692" src="1520" tgt="29" wght="1.2197600245110241" />
    <Con id="1693" src="1560" tgt="12" wght="2.6895476470346282" />
    <Con id="1719" src="1560" tgt="7" wght="-0.45237372967491418" />
    <Con id="1721" src="1" tgt="1560" wght="0.46543321048963976" />
    <Con id="1734" src="1" tgt="1733" wght="1.9213032158150019" />
    <Con id="1735" src="1733" tgt="15" wght="1.5163023605928803" />
    <Con id="1748" src="1563" tgt="3" wght="0.41365863633758559" />
    <Con id="1765" src="1733" tgt="10" wght="0.49464191061927837" />
    <Con id="1766" src="2" tgt="1517" wght="-1.2526430099377186" />
    <Con id="1773" src="31" tgt="1563" wght="-2.6820966336937575" />
    <Con id="1788" src="1560" tgt="9" wght="-0.045988157256786288" />
    <Con id="1793" src="1520" tgt="3" wght="0.11248997955081232" />
    <Con id="1799" src="1563" tgt="10" wght="-1.6337095365459626" />
    <Con id="1813" src="1" tgt="1517" wght="3" />
    <Con id="1817" src="1" tgt="1563" wght="-1.0148827586972631" />
    <Con id="1820" src="1563" tgt="30" wght="-0.71991694851957688" />
    <Con id="1829" src="1520" tgt="7" wght="-0.19452605883968688" />
    <Con id="1842" src="1" tgt="1841" wght="-0.10981213100890443" />
    <Con id="1843" src="1841" tgt="14" wght="1.7718343819409073" />
    <Con id="1848" src="1520" tgt="8" wght="-1.0304383124747392" />
    <Con id="1852" src="1560" tgt="14" wght="2.8650791714147603" />
    <Con id="1859" src="1563" tgt="4" wght="3" />
    <Con id="1923" src="1841" tgt="4" wght="-1.2172754248677062" />
    <Con id="1929" src="1563" tgt="25" wght="2.4523696317337453" />
    <Con id="1938" src="2" tgt="1937" wght="-0.024248598354206619" />
    <Con id="1940" src="1520" tgt="1517" wght="0.84053024459037484" />
    <Con id="1941" src="104" tgt="1563" wght="0.049630460700833628" />
    <Con id="1951" src="1841" tgt="7" wght="2.94443044104288" />
    <Con id="1952" src="2" tgt="1563" wght="0.87604184926453521" />
    <Con id="1987" src="1937" tgt="104" wght="0.22934884265939232" />
    <Con id="1989" src="1" tgt="1988" wght="-0.95711546147178628" />
    <Con id="1990" src="1988" tgt="16" wght="0.99326582111046779" />
    <Con id="2010" src="1517" tgt="1563" wght="-2.9018682779472309" />
    <Con id="2031" src="1520" tgt="28" wght="1.1291453135440839" />
    <Con id="2052" src="1937" tgt="10" wght="-1.1228883386934068" />
    <Con id="2054" src="1520" tgt="27" wght="-2.1419469202498846" />
    <Con id="2080" src="1841" tgt="27" wght="2.9563481643643259" />
    <Con id="2106" src="1733" tgt="11" wght="-1.963171152722222" />
    <Con id="2180" src="1520" tgt="14" wght="2.98565838929739" />
    <Con id="2215" src="1937" tgt="18" wght="1.2622891023927545" />
    <Con id="2256" src="1560" tgt="26" wght="-0.036295493067214551" />
    <Con id="2264" src="2" tgt="2263" wght="1.4309490772901863" />
    <Con id="2265" src="2263" tgt="7" wght="2.9679360305759763" />
    <Con id="2288" src="1841" tgt="31" wght="0.10686126251857669" />
    <Con id="2367" src="1520" tgt="10" wght="-2.7756392858253394" />
    <Con id="2400" src="104" tgt="2399" wght="-1.3952030383129304" />
    <Con id="2401" src="2399" tgt="10" wght="-1.0826350669416318" />
    <Con id="2464" src="2263" tgt="1563" wght="2.3771861893946125" />
    <Con id="2586" src="2263" tgt="9" wght="0.61934217078546538" />
    <Con id="2847" src="1" tgt="2846" wght="1.6555886689180277" />
    <Con id="2848" src="2846" tgt="10" wght="2.9578202425078137" />
    <Con id="2912" src="2846" tgt="23" wght="-0.19978113043848755" />
    <Con id="2976" src="2846" tgt="12" wght="-2.362361217720415" />
    <Con id="2991" src="2399" tgt="6" wght="-0.41820138172797849" />
    <Con id="3053" src="31" tgt="2263" wght="-1.4953098766801134" />
    <Con id="3095" src="1733" tgt="19" wght="-0.71939517964687316" />
    <Con id="3097" src="2846" tgt="1563" wght="-1.5406749536246929" />
    <Con id="3149" src="0" tgt="3148" wght="-2.9867017871469774" />
    <Con id="3150" src="3148" tgt="3" wght="1.0732454006087169" />
    <Con id="3166" src="2846" tgt="1517" wght="-3" />
    <Con id="3209" src="135" tgt="2846" wght="-0.47167960701907408" />
    <Con id="3235" src="3148" tgt="13" wght="-3" />
    <Con id="3256" src="3148" tgt="10" wght="-0.65010915831761862" />
    <Con id="3375" src="3148" tgt="8" wght="-1.5406602434813976" />
    <Con id="3384" src="0" tgt="3383" wght="-2.9804342221473412" />
    <Con id="3385" src="3383" tgt="5" wght="2.9858504842549825" />
    <Con id="3426" src="2" tgt="3425" wght="-1.7641193735509178" />
    <Con id="3427" src="3425" tgt="3" wght="-0.97241314552308389" />
    <Con id="3465" src="3383" tgt="29" wght="0.932964516599346" />
    <Con id="3473" src="31" tgt="2399" wght="0.40934706076363286" />
    <Con id="3485" src="3383" tgt="8" wght="-1.6975639530404838" />
    <Con id="3502" src="3383" tgt="21" wght="3" />
    <Con id="3510" src="3425" tgt="3383" wght="-3" />
    <Con id="3611" src="1" tgt="3610" wght="0.15127463847102796" />
    <Con id="3612" src="3610" tgt="25" wght="1.2195089233856933" />
    <Con id="3663" src="2846" tgt="3383" wght="1.0028614774283704" />
    <Con id="3839" src="3610" tgt="2399" wght="1.7708295293612644" />
    <Con id="3852" src="2" tgt="3851" wght="0.1397447514794094" />
    <Con id="3853" src="3851" tgt="22" wght="-0.92918887834984676" />
    <Con id="3884" src="104" tgt="3883" wght="0.45421952538381155" />
    <Con id="3885" src="3883" tgt="16" wght="-0.0031334524337419587" />
    <Con id="3900" src="3148" tgt="24" wght="2.7996553570366727" />
    <Con id="3904" src="3883" tgt="27" wght="-1.2943651126137576" />
    <Con id="3914" src="0" tgt="3913" wght="-0.795306301281624" />
    <Con id="3915" src="3913" tgt="23" wght="2.9864016079690829" />
    <Con id="3944" src="2" tgt="3943" wght="-0.676236003356771" />
    <Con id="3945" src="3943" tgt="30" wght="1.136883767054109" />
    <Con id="3951" src="2263" tgt="2846" wght="-0.55509610746745219" />
    <Con id="3952" src="3425" tgt="9" wght="-0.9512243372562923" />
    <Con id="3957" src="3913" tgt="2846" wght="2.949793934290498" />
    <Con id="3994" src="3851" tgt="6" wght="1.3683762058579092" />
    <Con id="4014" src="31" tgt="3943" wght="2.9298796713767845" />
    <Con id="4076" src="3383" tgt="18" wght="-1.1172188334196411" />
    <Con id="4106" src="3610" tgt="4105" wght="-2.0207310295990784" />
    <Con id="4107" src="4105" tgt="25" wght="-0.3293938080376651" />
    <Con id="4167" src="1520" tgt="3943" wght="2.9974152077944445" />
    <Con id="4195" src="1563" tgt="4194" wght="-3" />
    <Con id="4196" src="4194" tgt="4" wght="2.9988515169803915" />
    <Con id="4443" src="4194" tgt="29" wght="2.4945394992962924" />
    <Con id="4446" src="1517" tgt="10" wght="-2.3402197537183125" />
    <Con id="4467" src="4105" tgt="3383" wght="-2.7205097217947536" />
    <Con id="4520" src="3943" tgt="9" wght="-2.9972210117819138" />
    <Con id="4545" src="2" tgt="3610" wght="-0.41592824018164093" />
    <Con id="4565" src="3383" tgt="2399" wght="2.965233699059227" />
    <Con id="4640" src="3883" tgt="3" wght="1.45123944388335" />
    <Con id="4643" src="1937" tgt="3610" wght="2.9875300397013271" />
    <Con id="4770" src="2263" tgt="4194" wght="0.739562591147085" />
    <Con id="4774" src="4194" tgt="23" wght="1.3016240094994718" />
    <Con id="4812" src="1988" tgt="18" wght="-2.3633256529125131" />
    <Con id="4874" src="4105" tgt="2846" wght="2.4835239953155739" />
    <Con id="4925" src="3883" tgt="6" wght="2.7434056262785469" />
    <Con id="4926" src="4194" tgt="9" wght="2.9921155676456519" />
    <Con id="4996" src="3943" tgt="11" wght="-2.3220664731291705" />
    <Con id="5019" src="2846" tgt="20" wght="-2.9025070296049966" />
    <Con id="5027" src="3913" tgt="12" wght="-0.52328695528124836" />
    <Con id="5042" src="3913" tgt="13" wght="-2.2006865643936004" />
    <Con id="5076" src="3425" tgt="4105" wght="-0.59676661674760267" />
    <Con id="5116" src="4194" tgt="10" wght="-0.83816483337432146" />
    <Con id="5178" src="3851" tgt="19" wght="-0.0016835052507611081" />
    <Con id="5259" src="4194" tgt="3148" wght="-0.116854392068831" />
    <Con id="5327" src="3943" tgt="20" wght="-2.862244364156262" />
    <Con id="5361" src="0" tgt="5360" wght="1.3240375005105911" />
    <Con id="5362" src="5360" tgt="3" wght="-0.84358132059490043" />
    <Con id="5389" src="5360" tgt="13" wght="-0.709918579089589" />
    <Con id="5394" src="4105" tgt="20" wght="1.5365409050816759" />
    <Con id="5691" src="1520" tgt="3851" wght="-2.4645171348751305" />
    <Con id="5791" src="5360" tgt="26" wght="1.2989065841793814" />
    <Con id="5880" src="4105" tgt="7" wght="-2.4961177488596427" />
    <Con id="5881" src="3851" tgt="10" wght="-0.62253868021742464" />
    <Con id="6002" src="2" tgt="4194" wght="-3" />
    <Con id="6138" src="1517" tgt="3851" wght="-2.7091315001380969" />
    <Con id="6152" src="1" tgt="6151" wght="0.9099768964692132" />
    <Con id="6153" src="6151" tgt="20" wght="3" />
    <Con id="6261" src="3425" tgt="6260" wght="-0.26033435894825624" />
    <Con id="6262" src="6260" tgt="1517" wght="1.6987224301409512" />
    <Con id="6320" src="1560" tgt="6319" wght="2.2344004321712605" />
    <Con id="6321" src="6319" tgt="17" wght="1.5989367798114644" />
    <Con id="6327" src="1560" tgt="4194" wght="2.97383300298183" />
    <Con id="6466" src="6319" tgt="3425" wght="-0.20133920345379178" />
    <Con id="6521" src="3943" tgt="6520" wght="2.9944292343443411" />
    <Con id="6522" src="6520" tgt="30" wght="2.9467437232688365" />
    <Con id="6602" src="6260" tgt="21" wght="-0.2153363067901731" />
    <Con id="6607" src="2846" tgt="6606" wght="2.3132969419025757" />
    <Con id="6608" src="6606" tgt="10" wght="2.3818381405088" />
    <Con id="6615" src="3610" tgt="3383" wght="-2.2129833586251011" />
    <Con id="6617" src="3851" tgt="3383" wght="1.4837081070193157" />
    <Con id="6676" src="6606" tgt="30" wght="-1.3360097854458168" />
    <Con id="6773" src="6606" tgt="8" wght="-1.8527810091008237" />
    <Con id="6778" src="2846" tgt="3148" wght="1.0715248757419194" />
    <Con id="6887" src="6260" tgt="6886" wght="1.86057479477333" />
    <Con id="6888" src="6886" tgt="1517" wght="2.0302679647132" />
    <Con id="6927" src="0" tgt="6926" wght="1.6814077697516134" />
    <Con id="6928" src="6926" tgt="9" wght="0.46224549028208811" />
    <Con id="7040" src="3913" tgt="6926" wght="-0.029061427959139165" />
    <Con id="7188" src="2" tgt="7187" wght="-0.87532978806920991" />
    <Con id="7189" src="7187" tgt="3425" wght="1.8416083056613517" />
    <Con id="7251" src="7187" tgt="19" wght="0.34129318362101912" />
    <Con id="7300" src="3425" tgt="6151" wght="-0.54163571345885231" />
    <Con id="7350" src="1" tgt="7349" wght="1.3794085072965063" />
    <Con id="7351" src="7349" tgt="21" wght="0.8435773110315975" />
    <Con id="7392" src="1520" tgt="7391" wght="0.11142671554766238" />
    <Con id="7393" src="7391" tgt="27" wght="1.8810109343111583" />
    <Con id="7485" src="7349" tgt="30" wght="-0.22572475702163242" />
    <Con id="7577" src="7187" tgt="4105" wght="-0.99596896129901924" />
    <Con id="7839" src="3943" tgt="5360" wght="-1.4561348240822554" />
    <Con id="7908" src="1560" tgt="7907" wght="1.3501870699003788" />
    <Con id="7909" src="7907" tgt="14" wght="-2.7616049824849886" />
    <Con id="7912" src="135" tgt="7349" wght="-2.3906358207649059" />
    <Con id="8080" src="7391" tgt="25" wght="-2.458937670856606" />
    <Con id="8092" src="3383" tgt="6151" wght="-3" />
    <Con id="8096" src="6606" tgt="3148" wght="-1.3411732740179387" />
    <Con id="8295" src="7349" tgt="3383" wght="0.48990099449659752" />
    <Con id="8416" src="135" tgt="7187" wght="-2.9732634662446782" />
    <Con id="8874" src="3943" tgt="7349" wght="-1.1502201240291854" />
    <Con id="8975" src="2399" tgt="7907" wght="-1.1741971037669432" />
    <Con id="9229" src="3851" tgt="9228" wght="-2.970599196276317" />
    <Con id="9475" src="1517" tgt="6520" wght="1.0651653069929938" />
    <Con id="9484" src="1841" tgt="9483" wght="-1.3379242048705105" />
    <Con id="9485" src="9483" tgt="7" wght="1.5070449832954491" />
    <Con id="9638" src="1" tgt="9637" wght="-3" />
    <Con id="9639" src="9637" tgt="21" wght="-1.1941204145550728" />
    <Con id="9772" src="7349" tgt="14" wght="0.76345142628997564" />
    <Con id="10393" src="1" tgt="10392" wght="-2.2225061466184761" />
    <Con id="10394" src="10392" tgt="14" wght="-0.055242319282418489" />
    <Con id="11361" src="6151" tgt="9228" wght="-2.5267585497275005" />
    <Con id="11629" src="1520" tgt="11628" wght="1.3518702115388797" />
    <Con id="11630" src="11628" tgt="28" wght="-0.39357384937587275" />
    <Con id="11699" src="0" tgt="11698" wght="3" />
    <Con id="11700" src="11698" tgt="30" wght="3" />
    <Con id="11750" src="2" tgt="11749" wght="-0.021909377731088475" />
    <Con id="11751" src="11749" tgt="16" wght="3" />
    <Con id="11770" src="9637" tgt="3383" wght="-0.11180166902551636" />
    <Con id="11953" src="1563" tgt="10392" wght="0.53443995704555369" />
    <Con id="11998" src="1517" tgt="9228" wght="1.5719103527874103" />
    <Con id="12193" src="3913" tgt="10392" wght="-0.49879475220371372" />
    <Con id="12725" src="10392" tgt="12" wght="1.1780299586294274" />
    <Con id="12779" src="1937" tgt="12778" wght="0.42430031236888105" />
    <Con id="12780" src="12778" tgt="13" wght="2.9811161234154939" />
    <Con id="13286" src="1" tgt="13285" wght="-0.4513553088904726" />
    <Con id="13287" src="13285" tgt="6" wght="2.5437056174363208" />
    <Con id="13454" src="12778" tgt="21" wght="1.3806147376273266" />
    <Con id="14060" src="3425" tgt="14059" wght="0.65418071957561885" />
    <Con id="14061" src="14059" tgt="1517" wght="3" />
    <Con id="14591" src="13285" tgt="12" wght="-0.87346296443913163" />
  </Connections>
</Network>