<Network id="83307" birthGen="168" fitness="0.99923419104583888">
  <Nodes>
    <Node type="bias" id="0" fnId="0" />
    <Node type="in" id="1" fnId="0" />
    <Node type="in" id="2" fnId="0" />
    <Node type="in" id="3" fnId="0" />
    <Node type="in" id="4" fnId="0" />
    <Node type="in" id="5" fnId="0" />
    <Node type="in" id="6" fnId="0" />
    <Node type="out" id="7" fnId="0" />
    <Node type="out" id="8" fnId="0" />
    <Node type="out" id="9" fnId="0" />
    <Node type="hid" id="10" fnId="2" />
    <Node type="hid" id="11" fnId="2" />
    <Node type="hid" id="44" fnId="3" />
    <Node type="hid" id="54" fnId="0" />
    <Node type="hid" id="57" fnId="2" />
    <Node type="hid" id="87" fnId="2" />
    <Node type="hid" id="109" fnId="0" />
    <Node type="hid" id="137" fnId="0" />
    <Node type="hid" id="457" fnId="0" />
    <Node type="hid" id="539" fnId="3" />
    <Node type="hid" id="544" fnId="3" />
    <Node type="hid" id="579" fnId="3" />
    <Node type="hid" id="671" fnId="1" />
    <Node type="hid" id="688" fnId="0" />
    <Node type="hid" id="692" fnId="3" />
    <Node type="hid" id="1032" fnId="3" />
    <Node type="hid" id="1132" fnId="3" />
    <Node type="hid" id="1186" fnId="1" />
  </Nodes>
  <Connections>
    <Con id="1" src="0" tgt="9" wght="-0.260656718826268" />
    <Con id="2" src="1" tgt="10" wght="1" />
    <Con id="3" src="2" tgt="11" wght="-1" />
    <Con id="4" src="4" tgt="10" wght="-1" />
    <Con id="5" src="5" tgt="11" wght="-1" />
    <Con id="6" src="10" tgt="9" wght="0.96347634493954415" />
    <Con id="7" src="11" tgt="9" wght="0.97805388476252353" />
    <Con id="8" src="1" tgt="7" wght="-0.7489259078906505" />
    <Con id="9" src="1" tgt="8" wght="0.86886030156165361" />
    <Con id="10" src="2" tgt="7" wght="0.020878486089076078" />
    <Con id="11" src="2" tgt="8" wght="0.43467889688949979" />
    <Con id="12" src="3" tgt="7" wght="-0.014534933908610909" />
    <Con id="13" src="3" tgt="8" wght="-0.53244310397965677" />
    <Con id="14" src="4" tgt="7" wght="0.69126837159078947" />
    <Con id="15" src="4" tgt="8" wght="0.37889858081897593" />
    <Con id="16" src="5" tgt="7" wght="0.029872389286784533" />
    <Con id="17" src="5" tgt="8" wght="-0.079077873218208" />
    <Con id="18" src="6" tgt="7" wght="-0.0061629870239912317" />
    <Con id="19" src="6" tgt="8" wght="-0.0027954594043297781" />
    <Con id="20" src="0" tgt="7" wght="0.4887336094962238" />
    <Con id="21" src="0" tgt="8" wght="-0.697042307702566" />
    <Con id="22" src="0" tgt="10" wght="-1" />
    <Con id="23" src="0" tgt="11" wght="0.513814957254624" />
    <Con id="24" src="5" tgt="9" wght="0.15307739108315857" />
    <Con id="26" src="11" tgt="8" wght="-0.966217651177303" />
    <Con id="27" src="5" tgt="10" wght="0.063734259357452888" />
    <Con id="29" src="2" tgt="9" wght="0.65097588125897277" />
    <Con id="30" src="11" tgt="7" wght="-1" />
    <Con id="32" src="10" tgt="7" wght="0.7386715930233525" />
    <Con id="33" src="6" tgt="9" wght="0.44270943287584114" />
    <Con id="41" src="11" tgt="10" wght="0.67244941885684828" />
    <Con id="45" src="0" tgt="44" wght="-1" />
    <Con id="46" src="44" tgt="9" wght="-0.43275381907692073" />
    <Con id="55" src="3" tgt="54" wght="-1" />
    <Con id="56" src="54" tgt="8" wght="0.36281147217588755" />
    <Con id="58" src="0" tgt="57" wght="-0.59135224309777223" />
    <Con id="59" src="57" tgt="9" wght="-0.46337348958392566" />
    <Con id="76" src="57" tgt="8" wght="-0.42817441964190006" />
    <Con id="78" src="6" tgt="11" wght="0.80379893980321637" />
    <Con id="86" src="1" tgt="11" wght="-0.09836535481736064" />
    <Con id="88" src="0" tgt="87" wght="-0.95233797235855544" />
    <Con id="89" src="87" tgt="7" wght="-0.38369430395922061" />
    <Con id="90" src="4" tgt="11" wght="0.28740533581003547" />
    <Con id="94" src="57" tgt="10" wght="1" />
    <Con id="110" src="1" tgt="109" wght="0.29232287733189238" />
    <Con id="111" src="109" tgt="8" wght="0.47293952030478947" />
    <Con id="138" src="2" tgt="137" wght="-1" />
    <Con id="139" src="137" tgt="10" wght="0.97258406308556722" />
    <Con id="176" src="87" tgt="11" wght="0.999701608249133" />
    <Con id="190" src="137" tgt="87" wght="0.017740515099687215" />
    <Con id="238" src="44" tgt="87" wght="-1" />
    <Con id="242" src="137" tgt="11" wght="0.288595843953863" />
    <Con id="243" src="109" tgt="54" wght="-0.31850720476359129" />
    <Con id="252" src="5" tgt="54" wght="0.0043813741435163" />
    <Con id="254" src="137" tgt="109" wght="-1" />
    <Con id="282" src="137" tgt="54" wght="0.3321326170116663" />
    <Con id="324" src="4" tgt="109" wght="-1" />
    <Con id="345" src="6" tgt="109" wght="-1" />
    <Con id="458" src="0" tgt="457" wght="0.11467264177934924" />
    <Con id="459" src="457" tgt="9" wght="1" />
    <Con id="508" src="457" tgt="10" wght="0.063687224455487024" />
    <Con id="540" src="3" tgt="539" wght="0.030136453563538244" />
    <Con id="541" src="539" tgt="7" wght="0.99529963022063606" />
    <Con id="545" src="0" tgt="544" wght="0.18718360681703505" />
    <Con id="546" src="544" tgt="7" wght="0.76561497749051788" />
    <Con id="580" src="6" tgt="579" wght="0.25945055363302211" />
    <Con id="581" src="579" tgt="7" wght="0.99865461359053187" />
    <Con id="588" src="539" tgt="9" wght="-0.083413142819624822" />
    <Con id="600" src="539" tgt="579" wght="0.83021994151895206" />
    <Con id="603" src="544" tgt="579" wght="0.00030275938635240633" />
    <Con id="605" src="579" tgt="8" wght="-0.28010353632903978" />
    <Con id="672" src="3" tgt="671" wght="0.30465512432591307" />
    <Con id="673" src="671" tgt="7" wght="0.9846532817640451" />
    <Con id="689" src="5" tgt="688" wght="0.038058721065351096" />
    <Con id="690" src="688" tgt="7" wght="1" />
    <Con id="693" src="539" tgt="692" wght="-0.198625058401376" />
    <Con id="703" src="692" tgt="10" wght="0.39105488266795874" />
    <Con id="757" src="10" tgt="671" wght="-0.10492820016036719" />
    <Con id="818" src="6" tgt="87" wght="0.27524030523932619" />
    <Con id="1033" src="692" tgt="1032" wght="-0.470703974172901" />
    <Con id="1034" src="1032" tgt="7" wght="0.98192191876001833" />
    <Con id="1099" src="539" tgt="10" wght="-0.042546178930761971" />
    <Con id="1130" src="57" tgt="671" wght="0.25690779741853476" />
    <Con id="1133" src="6" tgt="1132" wght="0.067759298036140309" />
    <Con id="1134" src="1132" tgt="44" wght="1" />
    <Con id="1187" src="2" tgt="1186" wght="0.13095691986382008" />
    <Con id="1188" src="1186" tgt="688" wght="1" />
    <Con id="1226" src="539" tgt="137" wght="-0.18075267877429724" />
    <Con id="1352" src="1186" tgt="57" wght="0.12572513893246651" />
    <Con id="1364" src="692" tgt="1186" wght="0.76298404205590487" />
  </Connections>
</Network>