<Network id="142" birthGen="382" fitness="0.999613885532692">
  <Nodes>
    <Node type="bias" id="0" fnId="0" />
    <Node type="in" id="1" fnId="0" />
    <Node type="in" id="2" fnId="0" />
    <Node type="in" id="3" fnId="0" />
    <Node type="in" id="4" fnId="0" />
    <Node type="in" id="5" fnId="0" />
    <Node type="in" id="6" fnId="0" />
    <Node type="out" id="7" fnId="0" />
    <Node type="out" id="8" fnId="0" />
    <Node type="out" id="9" fnId="0" />
    <Node type="hid" id="10" fnId="2" />
    <Node type="hid" id="11" fnId="2" />
  </Nodes>
  <Connections>
    <Con id="1" src="0" tgt="9" wght="-2" />
    <Con id="2" src="1" tgt="10" wght="1" />
    <Con id="3" src="2" tgt="11" wght="1" />
    <Con id="4" src="4" tgt="10" wght="-1" />
    <Con id="5" src="5" tgt="11" wght="-1" />
    <Con id="6" src="10" tgt="9" wght="1" />
    <Con id="7" src="11" tgt="9" wght="1" />
    <Con id="8" src="1" tgt="7" wght="-0.86312046479843563" />
    <Con id="9" src="1" tgt="8" wght="-1" />
    <Con id="10" src="2" tgt="7" wght="0.96506928518691271" />
    <Con id="11" src="2" tgt="8" wght="0.12207508317000303" />
    <Con id="12" src="3" tgt="7" wght="0.014012535887768352" />
    <Con id="13" src="3" tgt="8" wght="-0.37182726291688606" />
    <Con id="14" src="4" tgt="7" wght="-0.18178559365721536" />
    <Con id="15" src="4" tgt="8" wght="-0.24505537751980661" />
    <Con id="16" src="5" tgt="7" wght="0.87960574819239767" />
    <Con id="17" src="5" tgt="8" wght="-0.40315610888121634" />
    <Con id="18" src="6" tgt="7" wght="0.66418995270906511" />
    <Con id="19" src="6" tgt="8" wght="0.47579629478910179" />
    <Con id="20" src="0" tgt="7" wght="-0.181177511665354" />
    <Con id="21" src="0" tgt="8" wght="0.46280454827266215" />
    <Con id="22" src="0" tgt="10" wght="0" />
    <Con id="23" src="0" tgt="11" wght="0" />
    <Con id="29" src="10" tgt="8" wght="0.33465386782784234" />
  </Connections>
</Network>