<Network id="181182" birthGen="368" fitness="0.99947632947591392">
  <Nodes>
    <Node type="bias" id="0" fnId="0" />
    <Node type="in" id="1" fnId="0" />
    <Node type="in" id="2" fnId="0" />
    <Node type="in" id="3" fnId="0" />
    <Node type="in" id="4" fnId="0" />
    <Node type="in" id="5" fnId="0" />
    <Node type="in" id="6" fnId="0" />
    <Node type="out" id="7" fnId="0" />
    <Node type="out" id="8" fnId="0" />
    <Node type="out" id="9" fnId="0" />
    <Node type="hid" id="10" fnId="2" />
    <Node type="hid" id="11" fnId="2" />
    <Node type="hid" id="61" fnId="0" />
    <Node type="hid" id="391" fnId="3" />
    <Node type="hid" id="831" fnId="1" />
    <Node type="hid" id="852" fnId="1" />
    <Node type="hid" id="866" fnId="2" />
  </Nodes>
  <Connections>
    <Con id="1" src="0" tgt="9" wght="-1" />
    <Con id="2" src="1" tgt="10" wght="1" />
    <Con id="3" src="2" tgt="11" wght="-0.24274186781428564" />
    <Con id="4" src="4" tgt="10" wght="-1" />
    <Con id="5" src="5" tgt="11" wght="-1" />
    <Con id="6" src="10" tgt="9" wght="1" />
    <Con id="7" src="11" tgt="9" wght="0.34046681825682668" />
    <Con id="8" src="1" tgt="7" wght="0.90111723537555644" />
    <Con id="9" src="1" tgt="8" wght="1" />
    <Con id="10" src="2" tgt="7" wght="-0.10943923386563924" />
    <Con id="11" src="2" tgt="8" wght="0.78075156514206523" />
    <Con id="12" src="3" tgt="7" wght="0.6577735589935515" />
    <Con id="13" src="3" tgt="8" wght="-0.99280992009084623" />
    <Con id="15" src="4" tgt="8" wght="0.05540198046017171" />
    <Con id="16" src="5" tgt="7" wght="0.025354058562056726" />
    <Con id="17" src="5" tgt="8" wght="0.018543677978860022" />
    <Con id="18" src="6" tgt="7" wght="-1" />
    <Con id="19" src="6" tgt="8" wght="0.17493838789475541" />
    <Con id="20" src="0" tgt="7" wght="-0.069634330299690211" />
    <Con id="21" src="0" tgt="8" wght="0" />
    <Con id="22" src="0" tgt="10" wght="0" />
    <Con id="23" src="0" tgt="11" wght="1" />
    <Con id="29" src="11" tgt="10" wght="0.57066486540795813" />
    <Con id="31" src="11" tgt="7" wght="0.80517577777365057" />
    <Con id="62" src="4" tgt="61" wght="1" />
    <Con id="63" src="61" tgt="7" wght="-0.16771221292866578" />
    <Con id="131" src="61" tgt="11" wght="0.999684310550184" />
    <Con id="392" src="4" tgt="391" wght="0.28895240079676171" />
    <Con id="393" src="391" tgt="11" wght="1" />
    <Con id="456" src="5" tgt="391" wght="-1" />
    <Con id="832" src="5" tgt="831" wght="-0.4726376837604136" />
    <Con id="833" src="831" tgt="11" wght="1" />
    <Con id="853" src="2" tgt="852" wght="-0.06224587805972881" />
    <Con id="854" src="852" tgt="7" wght="1" />
    <Con id="867" src="4" tgt="866" wght="0.9929696146122321" />
    <Con id="868" src="866" tgt="61" wght="1" />
  </Connections>
</Network>